%YAML:1.0
---
opencv_ml_svm:
   format: 3
   svmType: C_SVC
   kernel:
      type: LINEAR
   C: 1.
   term_criteria: { epsilon:1.1920928955078125e-07, iterations:1000 }
   var_count: 324
   class_count: 2
   class_labels: !!opencv-matrix
      rows: 2
      cols: 1
      dt: i
      data: [ 0, 1 ]
   sv_total: 1
   support_vectors:
      - [ -7.63359293e-02, 5.33864833e-02, 1.77790448e-02,
          8.48518685e-02, -5.37392497e-02, 1.01750135e-01,
          1.70368645e-02, 4.71340865e-02, -6.13097288e-02,
          -6.35742694e-02, 2.02979684e-01, 8.93590152e-02,
          7.73896277e-02, -9.55786854e-02, 2.53865123e-02,
          4.41046292e-03, 1.18126683e-02, -8.70446339e-02,
          -9.29177180e-03, 2.02660486e-01, 1.09615870e-01,
          2.51099646e-01, -2.30370332e-02, 3.53519758e-03,
          -9.78517607e-02, -4.05522957e-02, -5.76338880e-02,
          1.45635782e-02, 1.86078638e-01, 4.06017117e-02, 2.33447209e-01,
          -6.27142191e-02, -1.35962209e-02, -1.36600155e-02,
          1.30112190e-02, -1.94897484e-02, 7.61552230e-02,
          2.22763851e-01, 1.11469664e-01, 1.22816563e-01,
          -9.99880731e-02, 1.51328684e-03, -6.28325948e-03,
          5.69286873e-04, -3.17162201e-02, 1.90156490e-01,
          1.96614459e-01, 2.85459086e-02, 1.12856403e-01,
          -1.78831935e-01, -2.18778457e-02, -1.62726287e-02,
          -1.58068072e-02, 2.65101511e-02, 4.44635414e-02,
          1.71916589e-01, 6.28168359e-02, 4.68318835e-02,
          -1.21977925e-01, -1.13949021e-02, -2.02466622e-02,
          8.45214818e-03, -5.46039175e-03, 7.05777928e-02,
          -7.60401636e-02, -2.15540200e-01, -4.54849228e-02,
          -1.83832496e-01, -2.03250349e-02, -2.52525862e-02,
          -1.78647377e-02, 5.57976104e-02, 2.10473835e-01,
          5.98292239e-02, -9.16054323e-02, 4.05880548e-02,
          -7.69814476e-02, -2.62210844e-03, -9.98825859e-03,
          -3.18479375e-03, 8.89177173e-02, 7.46908188e-02,
          1.50492033e-02, -5.91337606e-02, 6.78160116e-02,
          3.09596092e-01, 1.41646683e-01, 1.34450942e-01, 5.03965244e-02,
          5.61186969e-02, -4.54613119e-02, -9.12473947e-02,
          -2.16346294e-01, -3.89365479e-02, 1.19846491e-02,
          -1.16888247e-02, -2.51857862e-02, -2.26835925e-02,
          -3.83907296e-02, 6.54617250e-02, 5.11475466e-03,
          -1.16640016e-01, 1.46594152e-01, 3.15950215e-01,
          4.16565798e-02, 5.22505306e-03, -1.37209725e-02,
          -1.95265356e-02, 9.65565722e-03, 1.39413208e-01,
          7.78721347e-02, 2.06045225e-01, 3.46250266e-01,
          -4.52123173e-02, -7.73001090e-02, -3.02905813e-02,
          -5.58942072e-02, -8.50732177e-02, 6.56373948e-02,
          -4.72421572e-03, 1.67672023e-01, 2.56509837e-02,
          -2.90193576e-02, -1.32023776e-02, 2.98143527e-03,
          -1.00737706e-01, -1.68276448e-02, 3.14450003e-02,
          -2.81693712e-02, 1.53641060e-01, 3.79999727e-01,
          -3.38030905e-02, -3.85111608e-02, -1.44857988e-02,
          -4.98444326e-02, -1.75059527e-01, -1.25486642e-01,
          -1.87312827e-01, -2.44227611e-02, 2.17070598e-02,
          -4.32949252e-02, -1.25143202e-02, -1.20668299e-02,
          -1.48129374e-01, 5.16963862e-02, 2.21343264e-01,
          2.15810150e-01, 3.35178316e-01, 2.07953200e-01, 9.59991217e-02,
          8.99132937e-02, 1.42525494e-01, 1.04913168e-01,
          -3.12850699e-02, -4.20336463e-02, -1.39840722e-01,
          2.31521707e-02, -2.87956391e-02, 4.46777195e-02,
          2.68249884e-02, 1.43293422e-02, -5.03980964e-02,
          -1.37428567e-01, -7.39315003e-02, -1.10186532e-01,
          1.57319326e-02, 2.57060267e-02, 2.50347238e-02, 5.19936644e-02,
          5.70330359e-02, -6.88745752e-02, 3.23052369e-02,
          2.23636702e-01, 2.23643586e-01, 3.03535789e-01, 2.68908944e-02,
          8.36542100e-02, 1.09274484e-01, 4.11502495e-02,
          -1.07265547e-01, -1.06690280e-01, -7.36429468e-02,
          -1.60246402e-01, 1.93345908e-03, 4.38170061e-02,
          -2.51439847e-02, -3.45989689e-02, -4.23659645e-02,
          -1.63700938e-01, 1.02397613e-02, 3.89567241e-02,
          -5.16750254e-02, 1.93315834e-01, 3.57430667e-01,
          -3.26363333e-02, -2.75726710e-02, -6.18558861e-02,
          -1.13354802e-01, -2.18014177e-02, 4.86169048e-02,
          4.16238755e-02, 1.53904960e-01, 3.46806012e-02,
          -2.76429877e-02, -3.57212834e-02, -2.71775648e-02,
          -1.55620396e-01, -1.89767964e-02, 7.16984347e-02,
          1.40301595e-02, 1.67491212e-01, 3.23809862e-01,
          -5.36967292e-02, -4.49738018e-02, -5.68052121e-02,
          -1.14222288e-01, -5.10238409e-02, -9.62200090e-02,
          -8.15367401e-02, 1.24317512e-01, 2.78753102e-01,
          4.72254828e-02, 2.01474018e-02, 1.70551371e-02,
          -2.21217107e-02, -2.65122354e-02, -1.19910106e-01,
          -1.99676454e-01, -6.76414743e-02, -1.34051470e-02,
          -2.89549269e-02, -1.72005463e-02, -1.57788899e-02,
          -1.16148917e-02, 1.08036801e-01, 2.18057819e-02,
          -4.84864376e-02, 1.04488842e-01, 3.18758786e-01,
          2.63325632e-01, 2.10472614e-01, 1.49269536e-01, 1.06028646e-01,
          3.23765099e-01, 1.49398863e-01, 2.95166504e-02, 1.04292646e-01,
          -4.80076373e-02, 1.04202147e-04, 9.39107127e-03,
          8.63366295e-03, 1.18293017e-01, 2.60504149e-02,
          -5.86678013e-02, -1.09758914e-01, -4.51548174e-02,
          -1.80676624e-01, -2.81164329e-02, -1.31243160e-02,
          -1.16188759e-02, 1.61086209e-02, 8.76549259e-02,
          2.11703464e-01, 1.65219903e-01, 1.35582209e-01,
          -1.58276424e-01, -1.59590859e-02, -1.14603322e-02,
          -1.39197884e-02, 1.11047681e-02, 1.56636700e-01,
          2.12009951e-01, 9.67563838e-02, 1.39027998e-01,
          -1.24985464e-01, -3.50261480e-02, -4.20282893e-02,
          -3.27154323e-02, -5.04379161e-02, -7.17579015e-03,
          1.58751696e-01, 9.08989981e-02, 1.89619631e-01,
          -1.70068607e-01, -2.27197949e-02, -4.75530103e-02,
          -3.81295532e-02, -1.32122025e-01, 1.59719929e-01,
          2.19149470e-01, 1.63681552e-01, 2.51210868e-01,
          -3.92453559e-03, 1.62185379e-03, -1.47892479e-02,
          -4.78749257e-03, 3.69701907e-03, 1.02187298e-01,
          9.70813707e-02, 1.81087375e-01, 1.87024310e-01,
          -1.10556008e-02, -6.57130964e-03, 6.80082059e-03,
          7.00106658e-03, -2.31479108e-02, 1.71315521e-02,
          1.20557040e-01, 1.26391262e-01, 1.28820151e-01,
          -9.42787975e-02, 5.82135515e-03, -3.54602113e-02,
          -1.14337904e-02, -3.24265584e-02, -9.07337591e-02,
          -1.25629067e-01, 4.40443531e-02, 4.34033871e-02,
          -9.85192731e-02, 3.96517515e-02, 1.17954507e-01,
          1.73600763e-02, -8.79070610e-02 ]
   uncompressed_sv_total: 26
   uncompressed_support_vectors:
      - [ 4.63841343e-03, 8.95689800e-02, 2.57757038e-01, 4.60769087e-02,
          8.47361516e-03, 2.65041972e-03, 8.25561525e-04, 9.99602606e-04,
          2.06150743e-03, 3.63325141e-02, 3.65761966e-01, 3.65761966e-01,
          6.15836605e-02, 6.38031913e-03, 2.21111579e-03, 2.72995397e-03,
          4.26403666e-03, 4.28904267e-03, 1.78792533e-02, 3.15332860e-01,
          3.65761966e-01, 3.16410929e-01, 7.98569396e-02, 9.78396647e-03,
          5.19245164e-04, 6.99644850e-04, 2.79716402e-03, 1.56043489e-02,
          3.65761966e-01, 3.65761966e-01, 1.94364443e-01, 3.36462185e-02,
          3.74382082e-03, 8.87177594e-04, 1.50104135e-03, 4.67420742e-03,
          1.63486436e-01, 3.83191645e-01, 3.83191645e-01, 7.92382061e-02,
          1.05876140e-02, 2.58530607e-03, 5.60936471e-03, 7.38277519e-03,
          2.61133071e-02, 3.63121569e-01, 3.83191645e-01, 3.83191645e-01,
          9.67227742e-02, 1.73447318e-02, 2.07849522e-03, 3.31896567e-03,
          3.14323371e-03, 8.19332004e-02, 3.55046503e-02, 2.66209334e-01,
          3.83191645e-01, 4.49523591e-02, 1.82761867e-02, 2.39301892e-03,
          2.40788725e-03, 3.70168150e-03, 1.01872394e-02, 3.00265253e-02,
          3.79238427e-02, 4.77932058e-02, 3.66740650e-03, 2.01887190e-02,
          2.17303634e-03, 1.68185716e-03, 2.16294406e-03, 1.33746611e-02,
          3.29334706e-01, 2.41426244e-01, 1.93303198e-01, 5.56311607e-02,
          1.27766207e-01, 8.49566143e-03, 7.04962714e-03, 7.41113489e-03,
          1.07123755e-01, 1.53937727e-01, 8.06345940e-02, 3.78418826e-02,
          2.35388856e-02, 5.76461017e-01, 8.85153860e-02, 8.59856829e-02,
          5.47775328e-02, 1.30900323e-01, 7.46596744e-03, 2.42842408e-03,
          3.61060863e-03, 5.28472476e-04, 1.63549289e-01, 7.06144900e-04,
          3.73921997e-04, 3.20298015e-04, 5.68647683e-03, 4.81139286e-04,
          1.41251890e-03, 2.11987761e-03, 3.15762195e-03, 5.76461017e-01,
          4.41635447e-03, 6.61645492e-04, 6.82442740e-04, 1.20169518e-03,
          4.80990000e-02, 3.26424390e-01, 3.26424390e-01, 3.26424390e-01,
          3.26424390e-01, 1.68309473e-02, 1.84758601e-03, 1.37717591e-03,
          5.42260148e-03, 1.36491572e-02, 1.68964282e-01, 2.92975783e-01,
          2.12694690e-01, 8.41899887e-02, 6.86922902e-03, 1.49491162e-03,
          1.61030761e-03, 7.41968676e-03, 2.45208014e-02, 2.69270003e-01,
          3.19852293e-01, 3.26424390e-01, 3.26424390e-01, 2.35604905e-02,
          2.16486980e-03, 5.46399271e-04, 5.12668351e-03, 6.04459131e-03,
          2.80275047e-02, 2.91488897e-02, 6.81806505e-02, 7.35768601e-02,
          4.94942814e-03, 1.49540545e-03, 1.21923187e-03, 4.90500405e-03,
          1.16943024e-01, 3.25416923e-01, 7.81463981e-01, 3.44469637e-01,
          2.77362347e-01, 4.27067429e-02, 3.54436934e-02, 4.46113572e-02,
          1.41409636e-01, 6.33586496e-02, 2.49737147e-02, 4.56464738e-02,
          7.03804335e-03, 1.04796015e-01, 1.46862771e-02, 9.09039378e-03,
          1.79150216e-02, 6.45549223e-02, 4.72631603e-02, 2.17164811e-02,
          3.67499217e-02, 1.84170820e-03, 9.51664150e-02, 2.67082136e-02,
          2.50857733e-02, 1.91046596e-02, 6.24303222e-02, 2.07446027e-03,
          2.25529569e-04, 6.74867886e-04, 0., 4.06037550e-03, 0., 0., 0.,
          2.07446027e-03, 7.92772742e-04, 4.91696876e-04, 7.51078886e-04,
          1.57550865e-04, 1.60136908e-01, 2.06180004e-04, 7.32814588e-05,
          1.32379471e-04, 8.19439010e-04, 3.16761339e-06, 0., 0.,
          9.43719293e-04, 6.84120476e-01, 7.20177370e-04, 5.97572325e-05,
          1.99698679e-05, 3.16761339e-06, 1.88848790e-04, 2.03787040e-05,
          6.09806229e-05, 8.42965164e-05, 1.77423373e-01, 4.90111488e-05,
          3.17065751e-05, 1.05957806e-05, 1.88848790e-04, 1.67660459e-04,
          2.15422078e-05, 6.44622414e-05, 1.20783667e-03, 6.84120476e-01,
          7.58777140e-04, 3.25046363e-04, 4.44218495e-05, 3.37759586e-04,
          1.97751537e-01, 3.68139520e-02, 1.11801341e-01, 2.02284843e-01,
          3.31418335e-01, 2.68420428e-02, 4.59361784e-02, 5.97576203e-04,
          1.97395056e-01, 2.95782745e-01, 4.49851126e-04, 6.94195449e-04,
          3.97086563e-03, 1.72607545e-02, 4.96011460e-04, 6.09208546e-05,
          5.08220692e-05, 2.96117455e-01, 3.31418335e-01, 1.81427766e-02,
          9.91437137e-02, 7.52259865e-02, 3.31418335e-01, 4.44454029e-02,
          9.06798542e-02, 2.09524930e-02, 3.31418335e-01, 3.31418335e-01,
          4.06219624e-04, 1.65634876e-04, 4.69008635e-04, 6.44907262e-03,
          1.46825041e-05, 7.27051975e-06, 0., 3.31418335e-01,
          3.09878647e-01, 2.80764561e-05, 4.11214642e-05, 3.90195453e-07,
          1.96703244e-04, 4.66012862e-05, 2.22765011e-05, 2.62773265e-05,
          3.09998870e-01, 3.42901945e-01, 4.22484081e-05, 1.26148065e-04,
          1.93451953e-04, 2.66926596e-03, 2.75492581e-04, 1.32516479e-05,
          4.42846840e-06, 3.41833323e-01, 3.77369255e-01, 2.42895956e-04,
          1.01730067e-04, 1.52405672e-04, 1.65347999e-03, 0., 0.,
          1.33675887e-04, 3.77369255e-01, 3.77369255e-01, 1.08420034e-03,
          3.88891611e-04, 3.38540907e-04, 5.62372012e-03, 4.82111936e-04,
          1.82193558e-04, 5.28751407e-04, 3.77369255e-01, 2.43623018e-01,
          1.50314381e-03, 6.91123027e-03, 5.11625374e-04, 6.05116971e-02,
          4.42671007e-04, 3.87022179e-03, 7.92718027e-04, 2.42259920e-01,
          1.79400772e-01, 1.21290246e-02, 5.46156578e-02, 7.35195307e-03,
          3.57041270e-01, 6.97735418e-03, 5.93464077e-02, 1.51569434e-02,
          1.78846925e-01, 3.57041270e-01, 4.63631516e-03, 1.42884459e-02,
          8.58407002e-04, 4.66436632e-02, 9.62900231e-04, 1.05529884e-02,
          2.33160192e-03, 3.57041270e-01, 3.57041270e-01, 3.88185903e-02,
          1.18403599e-01, 3.06794643e-02, 3.57041270e-01, 3.80017981e-02,
          1.30697012e-01, 3.35199609e-02, 3.57041270e-01 ]
      - [ 3.89505997e-02, 6.86534047e-02, 1.13440774e-01, 8.07288140e-02,
          1.87676698e-02, 9.08874162e-03, 4.46315389e-03, 3.61154019e-03,
          2.83420626e-02, 3.73463146e-02, 3.36172909e-01, 3.36172909e-01,
          1.92249045e-01, 5.14796637e-02, 1.98517833e-02, 8.60609487e-03,
          1.23490375e-02, 2.44144741e-02, 1.46025762e-01, 3.04229587e-01,
          2.85193741e-01, 3.36172909e-01, 1.36518270e-01, 2.67083552e-02,
          3.69433453e-03, 6.68202993e-03, 5.15370183e-02, 1.15951292e-01,
          3.36172909e-01, 3.36172909e-01, 3.36172909e-01, 1.33273989e-01,
          2.28187740e-02, 5.90395089e-03, 5.66640729e-03, 1.96234640e-02,
          6.29545078e-02, 3.94830912e-01, 3.94830912e-01, 1.42148763e-01,
          5.22795245e-02, 2.66443137e-02, 6.88163610e-03, 1.76686645e-02,
          2.99703218e-02, 1.74703673e-01, 3.94830912e-01, 3.94830912e-01,
          6.98714033e-02, 3.43859270e-02, 1.63147599e-02, 1.12404898e-02,
          1.33964261e-02, 6.61584958e-02, 4.38153930e-02, 2.85669357e-01,
          3.94830912e-01, 2.28251874e-01, 5.92093430e-02, 1.67806651e-02,
          6.38271077e-03, 7.32495729e-03, 1.95472315e-02, 1.75630227e-02,
          3.20355818e-02, 5.65043949e-02, 1.67862587e-02, 3.30314264e-02,
          1.20179420e-02, 7.52504729e-03, 6.42916840e-03, 1.26873795e-02,
          1.48958564e-01, 1.18150540e-01, 1.27181664e-01, 4.88732979e-02,
          1.64689332e-01, 1.23503869e-02, 1.98592246e-02, 1.28804389e-02,
          6.70738071e-02, 8.31051394e-02, 2.85116639e-02, 2.15335023e-02,
          4.42754664e-02, 6.49143696e-01, 5.09443618e-02, 8.53175148e-02,
          1.36577338e-02, 5.76443449e-02, 5.75871533e-03, 4.00907081e-03,
          3.63066536e-03, 3.54298786e-03, 1.91016078e-01, 5.40541857e-03,
          7.05714943e-03, 4.64562280e-03, 5.33664925e-03, 1.36388410e-02,
          4.07415070e-03, 1.17140040e-02, 2.66957376e-02, 6.49143696e-01,
          4.27201800e-02, 1.29292216e-02, 3.44484556e-03, 2.05635447e-02,
          1.00195490e-01, 2.97823727e-01, 2.97823727e-01, 2.97823727e-01,
          2.97823727e-01, 4.19221520e-02, 4.99396678e-03, 7.81491678e-03,
          3.22666988e-02, 7.34927654e-02, 2.81360447e-01, 2.35851482e-01,
          2.97823727e-01, 1.99890509e-01, 3.50687690e-02, 3.13371001e-03,
          5.00438968e-03, 8.91920272e-03, 4.09713238e-02, 1.03372231e-01,
          2.83673316e-01, 2.97823727e-01, 2.97823727e-01, 5.08115552e-02,
          7.36408774e-03, 7.75200175e-03, 1.49379373e-02, 2.20748167e-02,
          4.67583165e-02, 1.07762128e-01, 1.94304213e-01, 1.81957319e-01,
          2.58870479e-02, 4.12089378e-03, 4.59657283e-03, 1.02318041e-02,
          2.09713668e-01, 4.55929071e-01, 3.94220233e-01, 5.16021430e-01,
          4.28699523e-01, 1.10980868e-01, 2.80595198e-02, 2.81937420e-02,
          1.25658944e-01, 7.30736926e-02, 3.52151170e-02, 2.65718736e-02,
          3.01944073e-02, 9.66221020e-02, 2.34971792e-02, 2.25871447e-02,
          9.45667829e-03, 5.49874343e-02, 8.66128877e-02, 3.22433040e-02,
          4.39983010e-02, 8.64680484e-02, 2.35273451e-01, 5.77197522e-02,
          2.08718963e-02, 2.15055104e-02, 6.85283914e-02, 3.51282991e-02,
          3.80527182e-03, 6.38448354e-03, 5.91479708e-03, 3.69133689e-02,
          2.73130182e-03, 3.90784396e-03, 1.30593346e-03, 3.43748331e-02,
          1.06742070e-03, 8.57754610e-04, 1.23327982e-03, 6.74484938e-04,
          1.72879606e-01, 3.92247550e-03, 2.52043665e-03, 7.47109123e-04,
          6.90266141e-04, 7.48125231e-03, 1.94035051e-03, 3.69797717e-03,
          2.82173660e-02, 6.79547846e-01, 3.61830816e-02, 8.25187564e-03,
          7.16882292e-04, 1.07386401e-02, 2.37392448e-03, 1.14816567e-03,
          1.55414094e-03, 3.58762103e-03, 1.88894823e-01, 1.54526602e-03,
          8.45313130e-04, 1.12726807e-03, 1.48413575e-03, 3.85284401e-03,
          1.56263087e-03, 8.10696743e-03, 3.42380591e-02, 6.79547846e-01,
          1.93230994e-02, 3.26128514e-03, 2.94956123e-03, 3.28040658e-03,
          1.14797808e-01, 8.70592222e-02, 1.38995185e-01, 3.08286995e-01,
          3.08286995e-01, 5.60802557e-02, 5.46397269e-02, 3.01384274e-02,
          9.28090811e-02, 1.76516891e-01, 1.07604088e-02, 2.27499679e-02,
          4.60689627e-02, 9.20453742e-02, 1.05429888e-02, 1.23678613e-02,
          6.33763243e-03, 1.76770523e-01, 3.08286995e-01, 1.80763766e-01,
          2.38113314e-01, 1.68863684e-01, 3.08286995e-01, 1.23306520e-01,
          1.79803804e-01, 1.77197322e-01, 3.08286995e-01, 3.08286995e-01,
          1.65089630e-02, 2.58660521e-02, 7.70991948e-03, 5.34730107e-02,
          1.11189513e-02, 2.79899649e-02, 1.94019638e-02, 3.08286995e-01,
          2.28180736e-01, 1.31094351e-03, 1.86386309e-03, 2.00086948e-03,
          6.05442841e-03, 1.20932050e-03, 8.49451346e-04, 2.21429300e-03,
          2.27558345e-01, 2.53419250e-01, 9.73861606e-04, 3.80537211e-04,
          1.52406353e-03, 2.17313832e-03, 4.23533114e-04, 4.49591926e-06,
          1.50246103e-06, 2.49347672e-01, 4.37404364e-01, 1.22860831e-03,
          1.93766365e-03, 0., 2.71671382e-03, 2.42942129e-04,
          1.16761308e-03, 1.46350684e-03, 4.37404364e-01, 4.37404364e-01,
          1.22741191e-03, 9.70563444e-04, 1.08158065e-03, 3.70679074e-03,
          5.33783401e-04, 7.88324629e-04, 2.25683369e-04, 4.37404364e-01,
          1.45570233e-01, 2.82504852e-03, 3.85595881e-03, 1.17177125e-02,
          7.65785202e-02, 6.02829084e-03, 1.81758543e-03, 2.56306003e-03,
          1.31969780e-01, 1.18967317e-01, 3.86051624e-03, 3.00112478e-02,
          9.85337868e-02, 3.48293066e-01, 9.95884165e-02, 1.32856732e-02,
          2.12418623e-02, 1.09369636e-01, 3.48293066e-01, 3.78401321e-03,
          1.02025978e-02, 1.99750178e-02, 4.50538881e-02, 2.00680103e-02,
          4.02605115e-03, 2.78330455e-03, 3.48293066e-01, 3.48293066e-01,
          2.69685015e-02, 1.01247728e-01, 2.66659349e-01, 3.48293066e-01,
          2.88927704e-01, 6.81417063e-02, 5.93911484e-02, 3.48293066e-01 ]
      - [ 1.21402033e-02, 8.41786191e-02, 1.41135752e-01, 6.05431907e-02,
          3.25336158e-02, 1.45529555e-02, 5.68647962e-03, 1.42339999e-02,
          1.03906114e-02, 5.27546741e-02, 3.33607018e-01, 3.33607018e-01,
          1.17660850e-01, 9.39945728e-02, 3.34374234e-02, 1.50163230e-02,
          3.39893065e-02, 2.06233319e-02, 7.66008049e-02, 3.33607018e-01,
          3.33607018e-01, 3.26157808e-01, 1.19954631e-01, 2.24445052e-02,
          4.55991738e-03, 1.36482157e-02, 1.60508361e-02, 8.42613056e-02,
          3.33607018e-01, 3.33607018e-01, 3.33607018e-01, 1.31410956e-01,
          2.96786539e-02, 2.24734508e-02, 4.20415215e-02, 4.08343114e-02,
          1.38427943e-01, 3.49512368e-01, 3.49512368e-01, 1.72930747e-01,
          9.13418084e-02, 3.52341123e-02, 1.44911157e-02, 2.47480273e-02,
          3.22980024e-02, 2.81842172e-01, 3.49512368e-01, 3.49512368e-01,
          2.38129646e-01, 5.45035973e-02, 3.04728430e-02, 1.16535164e-02,
          1.16197718e-02, 1.54049039e-01, 6.63394630e-02, 3.39614689e-01,
          3.49512368e-01, 1.28727034e-01, 8.06899741e-02, 2.44468283e-02,
          2.13684943e-02, 3.30285430e-02, 4.41526696e-02, 3.87306027e-02,
          7.58928508e-02, 7.02316090e-02, 2.24903319e-02, 3.01141534e-02,
          9.34819877e-03, 6.56471821e-03, 4.88635246e-03, 2.18949914e-02,
          3.09518069e-01, 1.76554650e-01, 1.56245008e-01, 1.23934358e-01,
          1.66944668e-01, 2.70875096e-02, 1.41121056e-02, 1.03121940e-02,
          1.94007590e-01, 1.79143265e-01, 7.68474191e-02, 4.35336791e-02,
          5.79486080e-02, 5.69169581e-01, 8.50053355e-02, 6.35231808e-02,
          6.20781593e-02, 1.18701622e-01, 1.95697490e-02, 1.40033374e-02,
          1.37656620e-02, 1.09130396e-02, 1.85748473e-01, 6.15685154e-03,
          4.80051385e-03, 2.58448604e-03, 1.62453670e-02, 5.47597418e-03,
          1.96259748e-03, 2.62708403e-03, 6.40678331e-02, 5.69169581e-01,
          2.61846129e-02, 5.18547744e-03, 5.99053083e-03, 6.57157600e-03,
          1.64730430e-01, 2.86587596e-01, 2.86587596e-01, 2.86587596e-01,
          2.86587596e-01, 5.26406132e-02, 4.22867062e-03, 4.41179797e-03,
          4.89766374e-02, 9.21777338e-02, 2.51022041e-01, 2.66031414e-01,
          2.86587596e-01, 1.67904764e-01, 2.94843297e-02, 2.13138033e-02,
          2.66146865e-02, 4.27757949e-02, 1.71770945e-01, 2.86587596e-01,
          1.87416598e-01, 2.86587596e-01, 2.86587596e-01, 7.22588226e-02,
          3.13738408e-03, 2.78865010e-03, 7.40582868e-02, 4.53875773e-02,
          7.81574622e-02, 5.52653782e-02, 1.17736004e-01, 1.77308500e-01,
          2.11877301e-02, 9.67933703e-03, 1.17341224e-02, 2.90017053e-02,
          2.42944241e-01, 3.57794613e-01, 4.25637484e-01, 4.25637484e-01,
          3.35668087e-01, 1.14939131e-01, 1.43582478e-01, 2.11111233e-01,
          3.19444984e-01, 8.57341737e-02, 3.57623436e-02, 2.67805438e-02,
          4.93893698e-02, 1.68781430e-01, 1.86481047e-02, 1.61927212e-02,
          1.41200330e-02, 8.85207057e-02, 8.59838575e-02, 5.86003885e-02,
          6.22848459e-02, 1.27849653e-01, 1.62374333e-01, 5.21054901e-02,
          6.31331503e-02, 8.29484239e-02, 1.37409553e-01, 2.75493003e-02,
          9.36524756e-03, 1.25824772e-02, 2.70506628e-02, 1.09791800e-01,
          1.26718928e-03, 5.30629931e-03, 3.21560097e-03, 2.51446441e-02,
          6.93216315e-03, 1.83979154e-03, 8.67513707e-04, 3.00941872e-03,
          1.79080620e-01, 2.03642505e-03, 1.12078153e-03, 7.60206836e-04,
          7.27073243e-03, 3.93231306e-03, 1.80500117e-03, 1.16336672e-03,
          3.31589207e-02, 6.77766025e-01, 1.36364708e-02, 9.19385464e-04,
          1.34827336e-03, 6.76058140e-03, 6.25528814e-03, 4.73140506e-04,
          1.12531590e-03, 2.32003001e-03, 1.96061641e-01, 6.30423659e-04,
          0., 4.16258379e-04, 4.67314338e-03, 6.82392810e-03,
          7.64019368e-03, 5.89174591e-03, 3.32174338e-02, 6.77766025e-01,
          3.36662419e-02, 1.33083633e-03, 1.30675908e-03, 8.23808648e-03,
          1.79416239e-01, 1.00028589e-01, 1.21240921e-01, 1.88910857e-01,
          3.31088871e-01, 5.52636459e-02, 4.41946946e-02, 3.90577540e-02,
          1.70456856e-01, 2.12579742e-01, 1.13242082e-02, 6.81422045e-03,
          2.57591065e-02, 7.61465952e-02, 7.75744766e-03, 6.20496133e-03,
          6.94658840e-03, 2.10856676e-01, 3.31088871e-01, 1.76089808e-01,
          1.18453324e-01, 9.80707034e-02, 3.31088871e-01, 1.28086284e-01,
          1.42028645e-01, 1.41682133e-01, 3.31088871e-01, 3.31088871e-01,
          1.41140055e-02, 1.76920777e-03, 8.27124156e-03, 4.67700101e-02,
          8.40375386e-03, 1.32794417e-02, 1.88172683e-02, 3.31088871e-01,
          2.48177022e-01, 1.28340151e-03, 1.07387640e-03, 1.43436331e-03,
          4.49105771e-03, 7.16092298e-04, 1.51194877e-03, 1.50164694e-03,
          2.47943342e-01, 2.79033422e-01, 4.53126209e-04, 1.68036250e-03,
          1.32050598e-03, 7.29974499e-03, 4.41410171e-04, 4.89699480e-04,
          3.55779717e-04, 2.74852067e-01, 4.23968703e-01, 1.02653482e-03,
          1.34702961e-04, 1.60095777e-04, 4.01527295e-03, 2.12773899e-04,
          4.89564438e-04, 1.27156998e-03, 4.23968703e-01, 4.23968703e-01,
          1.32304314e-03, 2.37897458e-03, 1.31087308e-03, 1.27612464e-02,
          2.70149787e-03, 6.08216738e-04, 2.90619535e-03, 4.23968703e-01,
          1.72421917e-01, 1.06369331e-03, 9.57080722e-03, 3.90341831e-03,
          8.10382962e-02, 2.07900512e-03, 1.97760388e-03, 7.24076468e-04,
          1.70302421e-01, 1.57272741e-01, 2.97322646e-02, 4.10456471e-02,
          5.55552505e-02, 3.57911229e-01, 5.11362702e-02, 5.93190826e-02,
          1.90301333e-02, 1.24202035e-01, 3.57911229e-01, 3.38460016e-03,
          1.94421131e-02, 8.48962925e-03, 7.21058100e-02, 1.01952981e-02,
          9.37989261e-03, 6.15239423e-03, 3.57911229e-01, 3.57911229e-01,
          9.34583098e-02, 1.37135103e-01, 1.26601920e-01, 3.57911229e-01,
          1.07579082e-01, 2.12557212e-01, 6.22930937e-02, 3.57911229e-01 ]
      - [ 2.18523853e-02, 8.36106539e-02, 1.83629945e-01, 5.81329949e-02,
          2.45658793e-02, 9.03262198e-03, 4.57139313e-03, 7.17485836e-03,
          1.75924934e-02, 3.60189155e-02, 3.72234076e-01, 3.72234076e-01,
          8.36888999e-02, 4.81570140e-02, 1.97550561e-02, 1.90593861e-02,
          1.36819212e-02, 1.97306592e-02, 4.38723713e-02, 2.48854741e-01,
          3.72234076e-01, 3.09840649e-01, 5.73670566e-02, 2.62196437e-02,
          8.60026386e-03, 8.64489190e-03, 9.89403017e-03, 3.82262617e-02,
          3.72234076e-01, 3.72234076e-01, 2.79402673e-01, 4.24198881e-02,
          1.46886725e-02, 1.19791366e-02, 5.04712109e-03, 1.06844893e-02,
          1.24647908e-01, 3.88210118e-01, 3.88210118e-01, 7.71012828e-02,
          3.82470451e-02, 1.23802880e-02, 2.00948510e-02, 1.68141723e-02,
          3.21224034e-02, 2.90007591e-01, 3.88210118e-01, 3.88210118e-01,
          8.05309862e-02, 2.72110924e-02, 4.10742359e-03, 8.05803575e-03,
          1.50071876e-02, 6.36833459e-02, 3.83045636e-02, 3.15855384e-01,
          3.88210118e-01, 7.67990202e-02, 3.39755826e-02, 8.93940683e-03,
          1.36626204e-02, 5.81898168e-03, 1.59249455e-02, 3.93078104e-02,
          6.26381785e-02, 8.07566941e-02, 7.63840415e-03, 3.05605233e-02,
          3.24877677e-03, 2.76539801e-03, 3.75729031e-03, 1.49711054e-02,
          3.15635204e-01, 3.13926578e-01, 2.74039030e-01, 4.98516038e-02,
          2.37531625e-02, 4.24436387e-03, 4.09036176e-03, 7.40528712e-03,
          9.34658274e-02, 1.99966967e-01, 8.75665173e-02, 5.88438213e-02,
          6.89570680e-02, 5.52555442e-01, 1.24570824e-01, 1.12034578e-03,
          9.16481912e-02, 1.33011550e-01, 1.65507197e-02, 1.03595555e-02,
          8.69694352e-03, 2.43900693e-03, 2.34038159e-02, 1.23602292e-03,
          7.93011859e-04, 1.44496397e-03, 8.68557487e-03, 1.95313338e-03,
          7.19261763e-04, 1.52611325e-03, 5.00881812e-03, 5.52555442e-01,
          9.47421603e-03, 7.17419782e-04, 7.06343504e-04, 1.92044151e-03,
          7.66466931e-02, 3.11013192e-01, 3.11013192e-01, 3.11013192e-01,
          2.59511024e-01, 6.60991296e-02, 6.62900833e-03, 5.07529220e-03,
          2.03825701e-02, 3.81782018e-02, 1.92358464e-01, 3.11013192e-01,
          2.93377727e-01, 9.71763581e-02, 1.87736712e-02, 3.74951703e-03,
          1.81348040e-03, 1.23891523e-02, 4.33071218e-02, 2.40812168e-01,
          3.11013192e-01, 3.11013192e-01, 3.11013192e-01, 6.24372512e-02,
          3.30018322e-03, 9.89124645e-04, 2.61981301e-02, 1.66335087e-02,
          5.87089919e-02, 7.70801529e-02, 1.17915019e-01, 1.37645617e-01,
          1.22372815e-02, 6.90990593e-04, 4.77744121e-04, 9.40713007e-03,
          1.81495011e-01, 4.38551128e-01, 5.46360850e-01, 5.46360850e-01,
          2.62712777e-01, 8.64301920e-02, 5.06876074e-02, 3.23281921e-02,
          1.54388264e-01, 6.94199130e-02, 2.74628568e-02, 3.15193459e-02,
          2.42439788e-02, 1.47083506e-01, 1.12369973e-02, 1.33405654e-02,
          1.00452900e-02, 6.16143532e-02, 8.36271495e-02, 4.13341112e-02,
          2.71097664e-02, 5.15471883e-02, 1.06006250e-01, 3.57532091e-02,
          9.68095474e-03, 1.12121375e-02, 8.04056525e-02, 3.00324056e-02,
          8.82272888e-03, 5.66145452e-03, 8.52237549e-03, 4.44650799e-02,
          4.55794483e-03, 2.91492720e-03, 3.25324037e-03, 3.05387415e-02,
          1.97207881e-03, 1.72857792e-04, 7.84991280e-05, 0.,
          1.12270517e-02, 9.16260396e-05, 6.55704716e-05, 7.41351778e-06,
          1.69420324e-03, 3.47372959e-04, 2.07719222e-05, 5.45876101e-05,
          5.97909151e-04, 7.04289377e-01, 1.67572394e-03, 3.96663963e-04,
          1.46119943e-04, 3.47372959e-04, 1.45004957e-03, 4.63453616e-04,
          2.74071528e-04, 5.09276637e-04, 9.82012041e-03, 2.55141262e-04,
          0., 4.10157256e-04, 1.86897418e-03, 6.34415634e-03,
          9.48911824e-04, 5.24701201e-04, 1.61999408e-02, 7.04289377e-01,
          1.68123525e-02, 0., 8.20314395e-04, 9.78904869e-03,
          1.76923588e-01, 3.67012359e-02, 1.47036731e-01, 2.23621801e-01,
          3.26853812e-01, 3.54690440e-02, 4.37146537e-02, 3.97037528e-03,
          1.88982844e-01, 2.70225912e-01, 7.50598777e-03, 1.07328603e-02,
          2.52215546e-02, 6.99869469e-02, 6.06002472e-03, 3.78016685e-03,
          3.59523947e-05, 2.78800488e-01, 3.26853812e-01, 1.02204503e-02,
          1.10437095e-01, 1.42444953e-01, 3.26853812e-01, 8.94337147e-02,
          9.09706429e-02, 5.43219782e-02, 3.26853812e-01, 3.26853812e-01,
          7.75079522e-03, 1.04652429e-02, 1.20600192e-02, 6.00965433e-02,
          9.75114852e-03, 7.90457334e-03, 1.22371744e-02, 3.26853812e-01,
          3.05657446e-01, 2.10014347e-04, 2.46009295e-04, 7.40474265e-04,
          3.98194557e-03, 1.08075756e-05, 0., 0., 3.06563169e-01,
          3.36738467e-01, 2.99847976e-04, 1.98355083e-05, 0.,
          2.63411365e-03, 1.17579510e-03, 4.07258267e-06, 0.,
          3.38107973e-01, 3.81076425e-01, 4.64575225e-03, 4.42958204e-04,
          1.36167894e-03, 6.89964462e-03, 9.37274250e-04, 2.05301520e-04,
          7.52137927e-03, 3.81076425e-01, 3.81076425e-01, 6.64053485e-04,
          8.92598109e-05, 7.28718951e-05, 4.24796296e-03, 2.17899308e-03,
          1.10169000e-04, 4.66095330e-03, 3.81076425e-01, 2.51600683e-01,
          1.00308249e-03, 4.21121425e-04, 2.44165119e-03, 1.24757234e-02,
          3.18084494e-03, 4.73943801e-04, 7.37659750e-04, 2.52762616e-01,
          1.97015792e-01, 7.46724103e-03, 7.81489238e-02, 5.25072962e-02,
          3.44795555e-01, 5.43386415e-02, 4.22987677e-02, 6.55172812e-03,
          2.11508393e-01, 3.44795555e-01, 2.96185189e-03, 2.51973048e-03,
          2.91078887e-03, 1.84199195e-02, 6.41538389e-03, 3.12393554e-03,
          3.16679664e-03, 3.44795555e-01, 3.44795555e-01, 3.75455096e-02,
          1.40715644e-01, 8.25887322e-02, 3.44795555e-01, 1.07963033e-01,
          1.32221907e-01, 3.21865603e-02, 3.44795555e-01 ]
      - [ 2.61610359e-01, 7.99556673e-02, 8.28693137e-02, 3.08184117e-01,
          3.08184117e-01, 3.08184117e-01, 8.86183307e-02, 7.00016171e-02,
          2.97911078e-01, 3.08184117e-01, 4.38135602e-02, 2.32541077e-02,
          9.23308730e-02, 7.67651126e-02, 5.91799989e-02, 2.32787747e-02,
          3.27602737e-02, 3.08184117e-01, 8.56885463e-02, 3.23049389e-02,
          4.14065458e-02, 2.39938602e-01, 3.08184117e-01, 1.99513137e-01,
          3.17736119e-02, 4.11571711e-02, 9.04361159e-02, 1.84954822e-01,
          3.60934138e-02, 2.29227170e-02, 9.08041447e-02, 2.10433722e-01,
          1.73255894e-02, 1.38093773e-02, 2.16451958e-02, 1.18207894e-01,
          3.95688385e-01, 3.70595902e-02, 9.45571903e-03, 9.00612865e-03,
          1.26915621e-02, 2.93235062e-03, 6.24592556e-03, 1.32147055e-02,
          3.95688385e-01, 3.95688385e-01, 3.35473083e-02, 1.13889398e-02,
          9.82449111e-03, 1.57529227e-02, 4.67463955e-03, 3.93535383e-03,
          1.42938942e-02, 3.95688385e-01, 3.32785070e-01, 4.21923175e-02,
          1.89753138e-02, 1.69587042e-02, 1.85026955e-02, 4.91511030e-03,
          9.01059620e-03, 1.55506255e-02, 2.22893968e-01, 3.10414404e-01,
          2.50058565e-02, 2.06765737e-02, 3.27143297e-02, 4.83560078e-02,
          2.11794656e-02, 1.29614472e-02, 1.77904218e-02, 3.17340225e-01,
          2.93645203e-01, 3.87908295e-02, 2.85014696e-02, 5.27736880e-02,
          7.35989511e-02, 9.21331197e-02, 2.69180965e-02, 2.68172584e-02,
          2.93645203e-01, 2.70845443e-01, 9.11564007e-02, 1.33926511e-01,
          2.93645203e-01, 2.93645203e-01, 2.93645203e-01, 1.24162890e-01,
          8.68514553e-02, 2.93645203e-01, 1.11580402e-01, 2.54825056e-02,
          2.51322798e-02, 5.37785962e-02, 1.94133937e-01, 8.96181390e-02,
          2.29827259e-02, 1.44689297e-02, 1.61737800e-01, 8.62647742e-02,
          5.71285114e-02, 1.01728089e-01, 2.38877162e-01, 2.93645203e-01,
          2.59882897e-01, 5.21404706e-02, 3.05632651e-02, 1.09141804e-01,
          7.28883874e-03, 3.59911914e-03, 1.04085002e-02, 5.12664802e-02,
          5.51614463e-01, 2.34538112e-02, 1.66088983e-03, 3.06591275e-03,
          4.72117914e-03, 2.56131440e-02, 9.59928986e-03, 1.07938740e-02,
          2.37828363e-02, 3.95124584e-01, 4.33433522e-03, 1.48989668e-03,
          3.88230965e-03, 1.26564177e-02, 0., 3.74940792e-05,
          7.20231546e-05, 6.18240563e-04, 5.51614463e-01, 1.78910021e-04,
          0., 0., 0., 1.51611137e-04, 4.00603865e-04, 2.64852046e-04,
          2.30277030e-04, 4.74126965e-01, 2.23637526e-05, 2.50135723e-04,
          8.35911778e-05, 5.55298975e-05, 1.33830577e-01, 4.49778810e-02,
          5.43125086e-02, 4.92904261e-02, 1.32637963e-01, 1.61388051e-02,
          2.86015291e-02, 2.59647686e-02, 8.77751410e-02, 1.58401534e-01,
          3.41207534e-02, 1.08948283e-01, 2.21005753e-01, 3.15781087e-01,
          1.66659981e-01, 9.27757993e-02, 6.93099871e-02, 1.67724729e-01,
          7.78253144e-03, 1.08194603e-02, 1.99635047e-02, 3.04492563e-02,
          1.98352680e-01, 8.60725995e-03, 1.77618079e-02, 1.10604325e-02,
          1.04411431e-02, 1.04621597e-01, 2.29494587e-01, 4.15260613e-01,
          4.15260613e-01, 4.15260613e-01, 1.71292216e-01, 1.53583169e-01,
          6.78679124e-02, 8.68553147e-02, 3.34792882e-02, 4.49862331e-02,
          8.20737332e-02, 1.37146875e-01, 2.54419059e-01, 6.43856227e-02,
          2.38634832e-02, 1.50151942e-02, 3.32905278e-02, 2.70840954e-02,
          1.11539856e-01, 1.72511250e-01, 3.20695668e-01, 3.25824142e-01,
          8.79459083e-02, 2.39921380e-02, 1.43403010e-02, 1.90965738e-02,
          2.77213957e-02, 1.13031745e-01, 2.81747520e-01, 3.25824142e-01,
          2.62130678e-01, 8.20416138e-02, 3.43351513e-02, 1.70596913e-02,
          3.30680721e-02, 2.40631625e-02, 1.73486128e-01, 3.25824142e-01,
          3.25824142e-01, 3.25824142e-01, 9.00245681e-02, 1.86676700e-02,
          1.90610979e-02, 3.71910632e-02, 1.01606047e-03, 9.35836637e-04,
          2.80487933e-03, 1.37798656e-02, 4.55681235e-01, 2.46662311e-02,
          2.45123939e-03, 9.15207260e-04, 1.88748585e-03, 1.60033405e-02,
          1.73057672e-02, 9.64778103e-03, 3.79882101e-03, 3.69519711e-01,
          1.18196411e-02, 4.18295851e-03, 3.11722769e-03, 5.68444096e-03,
          1.40311122e-01, 9.55845509e-03, 9.56944842e-03, 5.02059720e-02,
          4.55681235e-01, 1.67094246e-01, 9.97379050e-02, 4.79329973e-02,
          1.97862223e-01, 3.65053087e-01, 1.70871362e-01, 8.25188681e-02,
          4.02072109e-02, 2.93198645e-01, 5.22818603e-02, 4.78212535e-02,
          3.16509940e-02, 2.78121799e-01, 7.14951530e-02, 7.13547021e-02,
          4.83822785e-02, 2.13968344e-02, 4.83139977e-02, 5.77604817e-03,
          3.39199905e-03, 3.48408311e-03, 1.15178786e-02, 1.67693526e-01,
          2.67436802e-01, 2.80987144e-01, 2.96327472e-01, 2.08608076e-01,
          3.78609970e-02, 2.16147080e-02, 1.05370032e-02, 3.63706611e-02,
          2.96327472e-01, 2.96327472e-01, 2.51555353e-01, 8.10133666e-02,
          6.66082799e-02, 1.27274590e-02, 2.55398024e-02, 1.91530921e-02,
          1.77254021e-01, 2.96327472e-01, 2.96327472e-01, 2.96327472e-01,
          2.76122808e-01, 1.84384868e-01, 4.55689989e-02, 1.98695045e-02,
          2.27959994e-02, 9.53505114e-02, 1.08949073e-01, 2.88762122e-01,
          3.02554280e-01, 3.02554280e-01, 2.35001758e-01, 6.90326020e-02,
          3.85953598e-02, 1.33097293e-02, 4.15432490e-02, 2.33862214e-02,
          1.33092776e-01, 3.02554280e-01, 3.02554280e-01, 2.01454356e-01,
          7.07645416e-02, 3.71312946e-02, 1.77770481e-02, 3.10606826e-02,
          1.76573947e-01, 3.02554280e-01, 3.02554280e-01, 3.02554280e-01,
          1.60025686e-01, 5.61040528e-02, 2.25134250e-02, 2.22872458e-02,
          4.23468314e-02, 4.50789109e-02, 8.02689493e-02, 1.70792684e-01,
          1.57165915e-01, 5.03032058e-02, 3.59559245e-02, 3.16859894e-02,
          2.76156515e-02, 1.96614787e-02 ]
      - [ 3.74517292e-01, 1.16205208e-01, 2.47845184e-02, 7.53640607e-02,
          3.74517292e-01, 5.27504012e-02, 9.82433837e-03, 1.19277619e-01,
          3.74517292e-01, 3.74517292e-01, 8.80252104e-03, 5.74183976e-03,
          6.44439133e-03, 7.76379108e-02, 5.35656605e-03, 4.74097673e-03,
          5.91133302e-03, 3.74517292e-01, 1.39965937e-01, 3.36703770e-02,
          4.91848076e-03, 2.79546957e-02, 3.74517292e-01, 2.54772753e-02,
          1.60361361e-03, 2.68990714e-02, 1.41972035e-01, 1.82604030e-01,
          4.07594349e-03, 3.04464204e-03, 2.69744312e-03, 4.82637659e-02,
          1.58075860e-03, 1.14316959e-03, 3.38449772e-03, 1.80903837e-01,
          4.42435503e-01, 3.43903876e-03, 2.25340202e-03, 1.14601001e-03,
          8.89676344e-03, 2.26289476e-03, 2.77093705e-03, 1.75512885e-03,
          4.42435503e-01, 4.42435503e-01, 2.38519558e-03, 3.81115777e-03,
          1.84267631e-03, 1.28982132e-02, 2.14308244e-03, 4.39888192e-03,
          4.81210556e-03, 4.42435503e-01, 2.15692654e-01, 1.07176148e-03,
          1.56665617e-03, 8.32939113e-04, 6.21053716e-03, 7.31768378e-04,
          6.29479182e-04, 2.92056560e-04, 2.16968253e-01, 2.42213190e-01,
          1.96135463e-03, 4.27879114e-03, 3.16437031e-03, 1.84885617e-02,
          2.54005520e-03, 4.69407905e-03, 3.73567385e-03, 2.43941158e-01,
          3.33743751e-01, 5.75655047e-03, 1.20946243e-02, 1.65650845e-02,
          9.02099460e-02, 8.44104122e-03, 1.52580645e-02, 6.96648704e-03,
          3.33743751e-01, 3.33743751e-01, 4.01471294e-02, 1.43973246e-01,
          1.05716825e-01, 3.33743751e-01, 7.11928904e-02, 1.36745021e-01,
          1.52218640e-02, 3.33743751e-01, 1.31787062e-01, 1.31434845e-02,
          1.36588514e-02, 3.12167387e-02, 1.18012227e-01, 5.25392173e-03,
          9.82844550e-03, 8.53839424e-03, 1.21323563e-01, 3.33711803e-01,
          1.17420778e-01, 1.17921039e-01, 1.92038164e-01, 3.33743751e-01,
          2.62633059e-02, 4.21896055e-02, 1.71774719e-02, 1.88815638e-01,
          7.40794931e-04, 4.65968944e-04, 8.31591780e-04, 1.62491761e-02,
          6.93372428e-01, 1.28675848e-02, 1.50479400e-03, 1.34935009e-03,
          1.36735244e-03, 3.52022937e-03, 2.18382990e-03, 2.45333440e-03,
          1.66886742e-03, 1.10341705e-01, 9.81187099e-04, 2.31572404e-03,
          1.36169652e-03, 3.69313848e-03, 2.46091885e-03, 2.00700620e-03,
          6.46686414e-04, 1.66962687e-02, 6.93372428e-01, 2.75718421e-02,
          2.49465066e-03, 8.79403146e-04, 1.95074501e-03, 7.79745076e-03,
          5.91664715e-03, 4.31327010e-03, 4.16621519e-03, 1.31638184e-01,
          9.82506294e-03, 1.07462890e-02, 7.14786863e-03, 1.01917218e-02,
          3.42208333e-02, 2.42149848e-02, 1.92273874e-02, 1.97380949e-02,
          4.88844737e-02, 1.10865785e-02, 7.28663756e-03, 3.81025462e-03,
          2.06439700e-02, 1.17625169e-01, 9.16860253e-02, 7.54813850e-02,
          1.01828255e-01, 1.53835401e-01, 3.03368699e-02, 3.67804393e-02,
          3.74306403e-02, 5.35563938e-02, 8.49325135e-02, 8.39720145e-02,
          7.16182142e-02, 6.04847260e-02, 8.51460546e-02, 5.62200807e-02,
          4.68314365e-02, 3.53508405e-02, 5.39912730e-02, 4.13868040e-01,
          4.13868040e-01, 4.13868040e-01, 4.13868040e-01, 3.65895003e-01,
          1.24326304e-01, 1.57139704e-01, 6.70369789e-02, 1.35407925e-01,
          1.05837822e-01, 4.06404398e-02, 5.18416949e-02, 7.23920241e-02,
          1.86731189e-01, 8.93581379e-03, 6.88420609e-03, 8.50454625e-03,
          2.56556794e-02, 2.85840452e-01, 1.40381053e-01, 1.75430506e-01,
          2.42655396e-01, 2.85840452e-01, 3.45413461e-02, 1.49468631e-02,
          1.55077484e-02, 1.06410943e-01, 2.75358319e-01, 1.81183085e-01,
          2.21293777e-01, 2.16266856e-01, 2.55528986e-01, 2.24830694e-02,
          1.69219393e-02, 9.64011624e-03, 3.92349064e-02, 2.85840452e-01,
          2.20335618e-01, 2.81252235e-01, 2.85840452e-01, 2.85840452e-01,
          3.99918184e-02, 2.01967582e-02, 2.02733725e-02, 8.71068686e-02,
          1.04734069e-02, 5.01338532e-03, 2.99552199e-03, 3.58196460e-02,
          4.22565132e-01, 4.96959910e-02, 3.02459369e-03, 2.65780557e-03,
          8.42547230e-03, 2.17886642e-02, 1.49953077e-02, 1.11975567e-02,
          5.87899517e-03, 6.45598397e-02, 1.52673395e-02, 9.26866382e-03,
          1.00554079e-02, 1.75855998e-02, 2.54730970e-01, 7.53763169e-02,
          4.27145585e-02, 1.10905662e-01, 4.22565132e-01, 1.93630204e-01,
          9.88944843e-02, 6.24380596e-02, 1.76560670e-01, 4.22565132e-01,
          2.89847881e-01, 3.49779934e-01, 1.80536032e-01, 8.69404972e-02,
          3.21113765e-02, 2.11635511e-02, 2.65080705e-02, 1.86074495e-01,
          2.24522445e-02, 4.74417321e-02, 6.66518584e-02, 2.43140366e-02,
          1.13257505e-02, 1.04279565e-02, 9.12567414e-03, 7.37978099e-03,
          1.16997864e-02, 9.32935029e-02, 3.50275546e-01, 3.61255854e-01,
          1.45852283e-01, 5.02243489e-02, 2.23085918e-02, 2.81836390e-02,
          1.13638006e-02, 1.76336896e-02, 2.81466067e-01, 3.08773965e-01,
          3.61255854e-01, 2.18569115e-01, 2.68124621e-02, 1.10263918e-02,
          7.74840033e-03, 1.48543725e-02, 7.62964413e-02, 1.46432042e-01,
          3.61255854e-01, 3.61255854e-01, 2.35572800e-01, 3.11388578e-02,
          1.59771182e-02, 1.54764419e-02, 1.95893478e-02, 3.28486599e-02,
          2.88543165e-01, 3.14242989e-01, 3.14242989e-01, 3.09018403e-01,
          1.79378703e-01, 3.55430357e-02, 2.65918821e-02, 1.87790766e-02,
          3.78984213e-02, 3.01102549e-01, 2.19162837e-01, 2.93167561e-01,
          2.34830767e-01, 2.05657184e-01, 3.49649303e-02, 1.86734293e-02,
          3.60192731e-02, 7.30906650e-02, 8.58823285e-02, 3.14242989e-01,
          3.14242989e-01, 1.26996964e-01, 5.38681746e-02, 2.83336714e-02,
          1.87013410e-02, 2.38394737e-02, 2.72777956e-02, 6.89796880e-02,
          7.96537921e-02, 9.26452354e-02, 5.54764159e-02, 3.98113281e-02,
          1.94817968e-02, 1.42599624e-02, 2.57875156e-02, 4.91830781e-02 ]
      - [ 3.60520542e-01, 2.38859579e-02, 1.30562037e-01, 7.00065419e-02,
          3.60520542e-01, 5.80656528e-02, 1.38442114e-01, 1.44953672e-02,
          3.60520542e-01, 3.60520542e-01, 2.37138034e-03, 4.52266214e-03,
          6.54539512e-03, 2.61079241e-02, 1.88025250e-03, 2.11190549e-03,
          3.55063961e-03, 3.60520542e-01, 1.65431991e-01, 1.26475003e-02,
          4.19483744e-02, 1.70042813e-02, 3.60520542e-01, 1.56488959e-02,
          3.67445312e-02, 3.06037371e-03, 1.63114429e-01, 2.37509698e-01,
          3.56048986e-04, 4.48218459e-04, 3.12908017e-03, 1.56593788e-02,
          9.23047017e-04, 9.05926980e-04, 1.45149752e-04, 2.36760736e-01,
          4.02894080e-01, 1.57732714e-03, 4.51304251e-04, 1.21715508e-04,
          4.33991477e-03, 3.77402990e-04, 6.20858555e-05, 3.53945722e-03,
          4.02894080e-01, 4.02894080e-01, 4.16365033e-03, 2.37995031e-04,
          2.53265048e-03, 5.24221174e-03, 2.91221775e-04, 0.,
          2.80952454e-03, 4.02894080e-01, 2.79259443e-01, 0., 0., 0.,
          1.90400891e-03, 2.75265746e-04, 7.79546826e-05, 1.43768020e-05,
          2.77923495e-01, 3.09751421e-01, 4.47364262e-04, 1.57031507e-04,
          1.24590925e-03, 4.37512854e-03, 1.34665737e-04, 2.84422975e-04,
          0., 3.08851004e-01, 3.18355978e-01, 2.77700182e-03,
          1.37238707e-02, 1.81173831e-02, 6.20040521e-02, 4.46041347e-03,
          9.42145940e-03, 3.55607481e-03, 3.18355978e-01, 3.18355978e-01,
          8.03081505e-03, 1.73030496e-01, 2.52915025e-01, 3.18355978e-01,
          8.05524588e-02, 8.99687558e-02, 5.10761067e-02, 3.18355978e-01,
          1.80081502e-01, 1.24906218e-02, 1.70986727e-02, 4.09960821e-02,
          9.52013656e-02, 3.83114372e-03, 3.92462127e-03, 0.,
          1.83047414e-01, 1.36898100e-01, 7.48554692e-02, 2.18521595e-01,
          3.18355978e-01, 3.18355978e-01, 2.91620940e-02, 3.26455720e-02,
          1.64550915e-02, 1.42379820e-01, 2.31315335e-03, 2.61604902e-03,
          8.11139354e-04, 2.02678610e-03, 7.04317868e-01, 8.86372116e-04,
          1.37666895e-04, 1.04404489e-05, 2.07780511e-03, 1.89967186e-03,
          8.35073588e-05, 0., 3.28851835e-04, 1.44141987e-02,
          1.77444221e-04, 6.47848574e-05, 1.30505623e-05, 1.86231255e-03,
          9.44236992e-04, 4.67583799e-04, 1.17857021e-03, 1.33329374e-03,
          7.04317868e-01, 4.66209883e-03, 3.45309125e-03, 7.48324237e-05,
          9.44236992e-04, 4.38488927e-03, 1.71107810e-03, 1.48713146e-03,
          1.79939391e-03, 2.27329377e-02, 3.45083565e-04, 1.18959672e-03,
          8.42823763e-04, 4.41476237e-03, 2.00060736e-02, 4.63931850e-04,
          1.98636204e-03, 1.19306718e-03, 3.37046459e-02, 1.64158046e-04,
          5.04267775e-03, 2.37094169e-03, 2.00060736e-02, 6.37449101e-02,
          2.32782010e-02, 3.74158546e-02, 4.82744612e-02, 8.36584345e-02,
          3.99886165e-03, 3.24974917e-02, 1.01560950e-02, 5.55276386e-02,
          6.35833442e-02, 1.89848673e-02, 2.72868425e-02, 2.16772296e-02,
          1.19937807e-01, 2.44556321e-03, 1.95494592e-02, 2.05040742e-02,
          6.40276223e-02, 1.68720469e-01, 5.23187757e-01, 5.23187757e-01,
          5.23187757e-01, 2.64792740e-01, 6.07370399e-03, 6.88176751e-02,
          6.32451847e-02, 1.40596196e-01, 1.62816085e-02, 7.08435476e-02,
          9.31598544e-02, 1.35512143e-01, 1.19613543e-01, 6.33590622e-03,
          1.86417112e-03, 5.40951674e-04, 7.54068885e-03, 3.43396515e-02,
          2.46386081e-01, 3.05403233e-01, 3.05403233e-01, 3.05403233e-01,
          4.08140644e-02, 2.90167471e-03, 2.67781666e-03, 2.39992533e-02,
          4.40905951e-02, 2.53201872e-01, 3.05403233e-01, 3.05403233e-01,
          9.62720364e-02, 8.87876749e-03, 4.24906751e-03, 3.56180430e-03,
          1.24637662e-02, 7.29531199e-02, 3.05403233e-01, 3.05403233e-01,
          3.05403233e-01, 2.36979946e-01, 5.05387299e-02, 6.64949184e-03,
          3.68217728e-03, 1.48449959e-02, 4.18306794e-03, 1.64093019e-03,
          3.54470895e-03, 4.94550448e-03, 3.85799587e-01, 8.70156009e-03,
          4.97878250e-03, 5.60911198e-04, 2.86903814e-03, 3.78460735e-02,
          3.58425230e-02, 2.69034691e-02, 7.49827037e-03, 2.26234663e-02,
          1.88934768e-03, 2.18922086e-03, 2.75699608e-03, 1.23058623e-02,
          3.31433326e-01, 1.69527873e-01, 1.04686774e-01, 1.77063849e-02,
          3.85799587e-01, 8.29207823e-02, 1.11615486e-01, 7.23162740e-02,
          2.05682054e-01, 3.85799587e-01, 3.85799587e-01, 3.85799587e-01,
          6.31556362e-02, 2.30615772e-02, 9.32182278e-03, 5.97055629e-03,
          2.15069838e-02, 1.60505265e-01, 5.15517704e-02, 1.00953713e-01,
          1.31795198e-01, 1.63355768e-02, 1.82055552e-02, 1.44400448e-03,
          3.71633819e-03, 5.57229854e-03, 1.21911829e-02, 4.65265401e-02,
          3.74756485e-01, 3.74756485e-01, 7.98647478e-02, 2.21617538e-02,
          1.92506216e-03, 9.83756501e-03, 1.44526456e-02, 1.41033279e-02,
          2.80418336e-01, 3.74756485e-01, 3.74756485e-01, 8.20921734e-02,
          1.75559539e-02, 7.26143131e-03, 4.87154815e-03, 1.81287341e-02,
          6.56357929e-02, 1.24420963e-01, 3.74756485e-01, 3.74756485e-01,
          7.66319111e-02, 1.22552291e-02, 6.12799032e-03, 1.32550802e-02,
          1.48978904e-02, 2.66927350e-02, 4.32874560e-02, 3.87223840e-01,
          3.87223840e-01, 2.75291145e-01, 3.88256721e-02, 7.82597438e-03,
          9.48663615e-03, 1.23588098e-02, 1.56693049e-02, 4.33872938e-02,
          2.29246736e-01, 3.87223840e-01, 2.70780504e-01, 6.09608442e-02,
          2.64875032e-02, 7.10715773e-03, 6.62510842e-03, 1.92611665e-02,
          3.84955741e-02, 3.87223840e-01, 3.87223840e-01, 7.67446831e-02,
          1.25860432e-02, 7.34103564e-03, 1.53746400e-02, 1.19873369e-02,
          1.69636514e-02, 1.47788525e-02, 6.05596527e-02, 1.36491418e-01,
          4.64845933e-02, 2.36837976e-02, 8.11755378e-03, 5.76485693e-03,
          7.76907662e-03, 2.03320850e-02 ]
      - [ 1.81225799e-02, 7.20180720e-02, 1.82340711e-01, 5.45428954e-02,
          1.51438098e-02, 8.42477847e-03, 4.25964873e-03, 2.53494806e-03,
          1.24480855e-02, 3.44009995e-02, 3.63263220e-01, 3.63263220e-01,
          1.06018133e-01, 2.03863364e-02, 7.35184597e-03, 5.77122997e-03,
          3.19030299e-03, 1.24705872e-02, 2.33830251e-02, 2.80481637e-01,
          3.63263220e-01, 3.28588575e-01, 6.00110851e-02, 2.95247212e-02,
          7.06887990e-03, 2.02588062e-03, 2.01251898e-02, 2.04807445e-02,
          3.63263220e-01, 3.63263220e-01, 2.94353575e-01, 4.19804379e-02,
          1.25634167e-02, 3.65170464e-03, 1.44427177e-03, 1.19005982e-02,
          1.14220366e-01, 3.80255103e-01, 3.80255103e-01, 1.38025895e-01,
          2.13990230e-02, 5.74747426e-03, 7.56626762e-03, 8.21593590e-03,
          1.55887147e-02, 3.13300163e-01, 3.80255103e-01, 3.80255103e-01,
          1.30366296e-01, 2.49030180e-02, 2.62859860e-03, 6.07126672e-03,
          1.55273583e-02, 5.50910160e-02, 2.65647694e-02, 3.20817888e-01,
          3.80255103e-01, 8.45753103e-02, 1.81545671e-02, 2.36516190e-03,
          2.98687117e-03, 2.51624663e-03, 6.92518800e-03, 2.87817679e-02,
          6.05119877e-02, 7.26971254e-02, 1.06418086e-02, 5.96593227e-03,
          3.49573616e-04, 2.15502153e-03, 3.83323757e-03, 7.63426581e-03,
          3.43368739e-01, 3.56010944e-01, 2.28599563e-01, 6.23744689e-02,
          2.94102039e-02, 2.86798109e-03, 5.44062443e-03, 1.53298862e-02,
          9.88988653e-02, 2.29563609e-01, 1.35611862e-01, 7.05729350e-02,
          5.50685003e-02, 5.22949636e-01, 8.61122087e-02, 1.02922060e-01,
          6.66143969e-02, 1.81523979e-01, 1.33570218e-02, 8.28623213e-03,
          7.56251998e-03, 3.32160783e-03, 1.04212593e-02, 5.97178296e-04,
          9.26829001e-04, 1.80028076e-03, 8.45301524e-03, 5.38791763e-03,
          1.05102733e-02, 5.20265521e-03, 1.23247346e-02, 5.22949636e-01,
          1.44721251e-02, 3.22352775e-04, 1.39209731e-02, 1.97519045e-02,
          2.97947675e-02, 3.11997831e-01, 3.11997831e-01, 3.11997831e-01,
          2.65918344e-01, 4.20182571e-02, 6.73646340e-03, 6.66823937e-03,
          1.39262173e-02, 1.24327932e-02, 2.05197126e-01, 3.11997831e-01,
          3.11997831e-01, 9.61313024e-02, 1.67499147e-02, 4.41060681e-03,
          4.51012934e-03, 9.31952242e-03, 5.36014512e-02, 2.06645101e-01,
          3.11997831e-01, 3.11997831e-01, 3.11997831e-01, 3.58596519e-02,
          8.04903079e-03, 1.61987860e-02, 3.01994663e-02, 1.36843752e-02,
          4.00623493e-02, 7.66153783e-02, 1.34767935e-01, 1.34971187e-01,
          1.20759550e-02, 4.92725009e-03, 6.93367794e-03, 1.49156321e-02,
          6.08323291e-02, 3.87070984e-01, 6.44163966e-01, 5.43238997e-01,
          2.30068907e-01, 5.53336106e-02, 4.12772968e-02, 2.71652974e-02,
          6.59969449e-02, 2.17154305e-02, 6.71435473e-03, 2.00918615e-02,
          0., 2.93935370e-02, 0., 1.00561129e-02, 3.36058042e-03,
          2.05334034e-02, 9.36331823e-02, 4.17797733e-03, 2.36723647e-02,
          1.76218357e-02, 1.69588506e-01, 3.11901495e-02, 3.01251169e-02,
          2.85855830e-02, 1.28544822e-01, 5.97335882e-02, 6.12160540e-04,
          1.83181593e-03, 0., 1.00475615e-02, 0., 1.07123796e-03,
          3.57989833e-04, 5.97335882e-02, 8.29290424e-04, 1.50230029e-04,
          4.49544634e-04, 0., 2.78653344e-03, 0., 2.54090584e-04,
          1.14933697e-04, 8.35590647e-04, 2.56661297e-04, 0., 0.,
          3.18616116e-03, 7.02075243e-01, 6.66981563e-04, 7.92141655e-05,
          1.61685096e-03, 6.97275857e-04, 5.20964479e-03, 3.45509499e-04,
          4.44722653e-04, 4.66242695e-04, 5.79940109e-03, 5.24159404e-04,
          1.39137017e-04, 4.64972254e-05, 6.08584285e-03, 3.04067582e-02,
          1.36093423e-03, 1.67959034e-02, 4.49329205e-02, 7.02075243e-01,
          4.18796465e-02, 1.87407415e-02, 1.45412823e-02, 3.88125852e-02,
          2.03143403e-01, 7.31867477e-02, 1.17477715e-01, 2.29287237e-01,
          3.25451523e-01, 2.56200302e-02, 5.50574437e-02, 2.08421424e-02,
          2.19861671e-01, 2.81802714e-01, 4.13583918e-03, 8.34373012e-03,
          2.46928800e-02, 6.75244778e-02, 4.13858844e-03, 8.04489851e-03,
          2.05282727e-03, 2.85659373e-01, 3.25451523e-01, 3.09062935e-02,
          9.03482139e-02, 6.17125928e-02, 3.25451523e-01, 3.05364318e-02,
          1.08988032e-01, 2.90204883e-02, 3.25451523e-01, 3.25451523e-01,
          1.78815681e-03, 8.80047679e-03, 5.36184339e-03, 5.04163094e-02,
          2.07522092e-03, 1.34334723e-02, 2.44276528e-03, 3.25451523e-01,
          3.10065538e-01, 7.45237121e-05, 2.49498873e-04, 2.15581804e-05,
          6.92720106e-03, 4.74233559e-04, 6.78066979e-04, 3.91522888e-04,
          3.10767800e-01, 3.44326377e-01, 0., 0., 0., 4.60957992e-04, 0.,
          0., 0., 3.44337493e-01, 3.76263916e-01, 4.53163339e-05,
          1.36121598e-04, 0., 6.88421540e-03, 1.36583287e-04,
          2.91259843e-04, 9.68733002e-05, 3.76263916e-01, 3.76263916e-01,
          0., 0., 0., 1.02435122e-04, 0., 0., 0., 3.76263916e-01,
          2.60948509e-01, 5.84535010e-04, 8.47410818e-04, 2.46048090e-04,
          4.68157744e-03, 3.95618728e-04, 1.06941574e-04, 3.36162593e-05,
          2.58848846e-01, 2.48567775e-01, 2.77981274e-02, 4.96067293e-02,
          3.03952340e-02, 3.39351386e-01, 4.90828753e-02, 6.45914078e-02,
          2.41674557e-02, 2.39416003e-01, 3.39351386e-01, 4.95048589e-04,
          7.07739149e-04, 4.08436754e-04, 6.16980391e-03, 5.81800821e-04,
          1.68569546e-04, 1.64889552e-05, 3.39351386e-01, 3.39351386e-01,
          4.61119488e-02, 9.95445773e-02, 5.28049022e-02, 3.39351386e-01,
          1.00802124e-01, 1.21452712e-01, 1.81487259e-02, 3.39351386e-01 ]
      - [ 3.37697491e-02, 1.50423795e-01, 2.13921666e-01, 1.27860293e-01,
          2.54255254e-02, 1.31325144e-02, 1.67099293e-02, 1.60804335e-02,
          1.70192067e-02, 7.52280131e-02, 3.15008581e-01, 3.15008581e-01,
          2.26515338e-01, 4.88342829e-02, 3.02685983e-02, 1.23049198e-02,
          1.97612438e-02, 2.80793011e-02, 8.04087520e-02, 3.15008581e-01,
          3.15008581e-01, 3.15008581e-01, 1.59114718e-01, 1.26295015e-02,
          3.64806689e-02, 3.53396684e-02, 4.65486534e-02, 6.97429478e-02,
          3.15008581e-01, 3.15008581e-01, 3.15008581e-01, 1.05021089e-01,
          2.32177824e-02, 1.45053770e-02, 1.12056723e-02, 2.06635464e-02,
          2.15774819e-01, 3.56076896e-01, 3.56076896e-01, 3.48086685e-01,
          9.59745571e-02, 4.68474142e-02, 2.01459527e-02, 2.23607216e-02,
          3.96116339e-02, 2.89028645e-01, 3.56076896e-01, 2.82346100e-01,
          2.02688500e-01, 7.85318837e-02, 2.70100348e-02, 1.79543588e-02,
          1.59540493e-02, 5.08576967e-02, 5.72285205e-02, 2.56760180e-01,
          3.56076896e-01, 1.13854125e-01, 6.61773533e-02, 4.17161733e-02,
          2.06374265e-02, 2.10722219e-02, 3.37500200e-02, 2.21970063e-02,
          2.04630084e-02, 1.15088271e-02, 1.01105263e-02, 3.09927464e-02,
          1.68923568e-02, 1.19299842e-02, 1.39298989e-02, 1.59691293e-02,
          1.90833598e-01, 1.13750964e-01, 8.55500251e-02, 8.39322060e-02,
          6.82103038e-02, 1.32852402e-02, 7.24194525e-03, 1.03400024e-02,
          6.98453933e-02, 7.27435648e-02, 2.82139815e-02, 2.27990337e-02,
          2.34305374e-02, 6.70884073e-01, 7.89803341e-02, 1.16276992e-02,
          7.35841272e-03, 6.11755550e-02, 1.21591343e-02, 6.78209774e-03,
          6.30388642e-03, 4.00692923e-03, 3.35952826e-02, 6.24616165e-03,
          3.10994778e-03, 6.64244592e-03, 7.21933320e-03, 9.52051952e-03,
          4.23941575e-03, 5.36888046e-03, 8.95367656e-03, 6.70884073e-01,
          2.10360326e-02, 7.14592927e-04, 1.97613868e-03, 5.53113688e-03,
          1.60405904e-01, 3.16642761e-01, 3.16642761e-01, 3.16642761e-01,
          3.16642761e-01, 2.73189489e-02, 2.51024608e-02, 4.08278443e-02,
          7.96327442e-02, 5.24918474e-02, 1.80078253e-01, 1.91088736e-01,
          1.98141798e-01, 1.91483498e-01, 2.06777826e-02, 8.75383522e-03,
          1.63881611e-02, 2.96772867e-02, 1.35981038e-01, 2.81698495e-01,
          2.94918299e-01, 3.16642761e-01, 3.16642761e-01, 4.70104925e-02,
          1.11698145e-02, 2.45146304e-02, 4.22232561e-02, 1.98513046e-02,
          3.36332060e-02, 3.73917893e-02, 5.28087467e-02, 1.22559398e-01,
          1.30983684e-02, 4.40798793e-03, 1.11415330e-02, 1.67059954e-02,
          2.88819432e-01, 2.27050141e-01, 2.26932570e-01, 2.49154121e-01,
          5.67954183e-01, 2.29328275e-01, 9.84102339e-02, 1.61233619e-01,
          3.26172322e-01, 7.82207474e-02, 2.11107731e-02, 3.53837549e-03,
          3.15287262e-02, 2.52417296e-01, 3.53228524e-02, 1.68527849e-02,
          2.76594851e-02, 9.14083868e-02, 1.40132084e-01, 2.59592310e-02,
          2.02326011e-02, 1.10685788e-02, 1.87380016e-01, 2.29591355e-02,
          2.17245948e-02, 3.87220979e-02, 1.79006219e-01, 9.88385379e-02,
          2.30492204e-02, 2.19646730e-02, 1.62228700e-02, 1.81801707e-01,
          1.86650816e-03, 7.90368207e-03, 1.64810773e-02, 1.07216649e-01,
          4.51139687e-03, 2.56090611e-03, 7.16969371e-04, 3.12232482e-03,
          2.78265290e-02, 7.88655365e-04, 8.22546644e-06, 5.55555685e-04,
          3.58547084e-03, 5.56797115e-03, 2.66284845e-03, 1.55327201e-03,
          3.24538685e-02, 7.01064944e-01, 1.79871172e-02, 6.58037025e-05,
          1.33365614e-03, 6.65397290e-03, 7.08442088e-03, 5.35033131e-03,
          4.09349147e-03, 3.02273268e-03, 2.81678922e-02, 7.79683120e-04,
          1.10663372e-04, 2.81677581e-03, 7.40335183e-03, 1.22718122e-02,
          1.11617716e-02, 8.63597728e-03, 6.16200231e-02, 7.01064944e-01,
          4.95481975e-02, 3.34164943e-03, 3.32227070e-03, 1.19807422e-02,
          1.75889879e-01, 9.87627506e-02, 1.40205801e-01, 2.21225694e-01,
          3.32380891e-01, 8.44707787e-02, 3.73010188e-02, 4.31275703e-02,
          1.46636039e-01, 2.06254557e-01, 1.12818256e-02, 6.72662724e-03,
          7.29310745e-03, 3.94941010e-02, 4.37648222e-03, 2.47255783e-03,
          7.78609188e-03, 2.17930049e-01, 3.32380891e-01, 1.42346486e-01,
          1.10927820e-01, 1.33189961e-01, 3.32380891e-01, 1.48855805e-01,
          1.28076673e-01, 1.05781227e-01, 3.32380891e-01, 3.32380891e-01,
          1.74512230e-02, 5.29436255e-03, 2.37051467e-03, 1.40865473e-02,
          1.76330679e-03, 1.69538509e-03, 1.14511726e-02, 3.32380891e-01,
          2.42836475e-01, 5.17069455e-03, 2.19244161e-03, 0.,
          3.12054786e-03, 3.58639983e-04, 3.10616544e-03, 2.27856473e-03,
          2.56921202e-01, 2.82822877e-01, 3.45024350e-03, 2.64940038e-03,
          1.11824705e-03, 3.93049605e-03, 6.01882988e-04, 2.07887636e-03,
          1.64457737e-03, 2.81822056e-01, 4.21671212e-01, 4.11133282e-03,
          1.48577802e-03, 7.05706552e-05, 3.46619822e-03, 1.93892501e-03,
          2.45583616e-03, 2.00810959e-03, 4.21671212e-01, 4.21671212e-01,
          1.93130854e-03, 1.17536599e-03, 6.54703588e-04, 3.12240236e-03,
          1.62729062e-03, 2.39241426e-03, 1.73808017e-03, 4.21671212e-01,
          1.79628089e-01, 5.92026394e-03, 5.74713573e-03, 3.39801051e-03,
          8.34861491e-03, 8.74793623e-04, 3.78954399e-04, 2.37363297e-03,
          1.69205248e-01, 1.65821388e-01, 2.38841362e-02, 4.08744402e-02,
          9.87996906e-02, 3.58315557e-01, 7.39545375e-02, 3.34328674e-02,
          9.61051509e-03, 1.34407863e-01, 3.58315557e-01, 4.50466387e-03,
          2.91153952e-03, 2.51715048e-03, 2.74763349e-03, 6.76642056e-04,
          1.47691858e-03, 2.99416971e-03, 3.58315557e-01, 3.58315557e-01,
          3.47187966e-02, 1.45837128e-01, 1.85689732e-01, 3.58315557e-01,
          1.84574232e-01, 9.31698605e-02, 3.20301764e-02, 3.58315557e-01 ]
      - [ 3.78678501e-01, 6.38234541e-02, 1.33959219e-01, 8.90027434e-02,
          3.78678501e-01, 4.61374559e-02, 9.13795903e-02, 9.54904780e-02,
          3.78678501e-01, 3.78678501e-01, 7.87404249e-04, 7.42082368e-04,
          2.84972670e-03, 6.43611606e-03, 8.79748550e-05, 4.30059263e-05,
          3.20482533e-04, 3.78678501e-01, 1.19118974e-01, 9.89001244e-03,
          3.89478803e-02, 2.58990824e-02, 3.78678501e-01, 1.33688636e-02,
          2.36201100e-02, 1.39671741e-02, 1.19893625e-01, 1.66021809e-01,
          0., 5.75135928e-05, 9.76869604e-04, 5.11339353e-03, 0., 0.,
          2.32800467e-05, 1.63929895e-01, 4.47047234e-01, 0., 0., 0., 0.,
          0., 0., 0., 4.47047234e-01, 4.47047234e-01, 2.74618063e-03,
          2.03872635e-03, 7.45197386e-03, 1.53911458e-02, 2.60227802e-03,
          2.53192731e-03, 2.48064543e-03, 4.47047234e-01, 2.03790605e-01,
          0., 0., 0., 0., 0., 0., 0., 2.03790605e-01, 2.35126525e-01,
          4.01459169e-03, 2.98896292e-03, 2.85519566e-03, 1.83679443e-02,
          2.46907445e-03, 5.03982324e-03, 3.43688135e-03, 2.38844156e-01,
          3.15834850e-01, 1.60858743e-02, 4.22586221e-03, 1.73849557e-02,
          7.03011379e-02, 1.08437967e-02, 8.25249497e-03, 1.82436369e-02,
          3.15834850e-01, 3.15834850e-01, 1.82722434e-01, 1.54300600e-01,
          1.37320161e-01, 3.15834850e-01, 1.31393149e-01, 5.94191961e-02,
          1.61989793e-01, 3.15834850e-01, 1.47450671e-01, 2.22257376e-02,
          1.64146684e-02, 3.50945257e-02, 1.24251373e-01, 1.04064662e-02,
          5.46340318e-03, 8.93553067e-03, 1.36384040e-01, 2.24317744e-01,
          1.20218180e-01, 1.70626655e-01, 3.14167321e-01, 3.15834850e-01,
          3.88204083e-02, 1.48509359e-02, 4.10388261e-02, 1.23349316e-01,
          2.77360273e-03, 3.99067416e-04, 0., 6.57591503e-03,
          7.04329431e-01, 1.45966734e-03, 0., 7.50360778e-04,
          3.14134196e-03, 4.31847555e-04, 0., 0., 1.35647191e-04,
          8.79005250e-03, 0., 0., 4.88827482e-06, 5.08335535e-04,
          6.66030217e-04, 1.49650266e-04, 0., 1.66254526e-03,
          7.04329431e-01, 0., 0., 2.21968658e-04, 9.28449037e-04,
          4.00990713e-03, 6.29523024e-03, 3.74193740e-04, 1.54370000e-03,
          2.44264696e-02, 1.22554682e-03, 1.51205121e-03, 1.30109442e-03,
          1.82594848e-03, 1.52601034e-03, 0., 0., 0., 0., 0., 0., 0.,
          1.52601034e-03, 9.28663462e-02, 3.41242254e-02, 3.21959220e-02,
          2.78542731e-02, 1.59558713e-01, 4.33889627e-02, 5.26175015e-02,
          8.55886564e-02, 1.34538412e-01, 5.75725213e-02, 5.48442528e-02,
          1.63149890e-02, 2.91738156e-02, 1.24061897e-01, 2.55446434e-02,
          1.34372273e-02, 1.61377192e-02, 6.96746036e-02, 1.64381593e-01,
          4.33439970e-01, 4.33439970e-01, 4.33439970e-01, 4.33439970e-01,
          2.13592932e-01, 8.56883004e-02, 1.50950193e-01, 2.13299274e-01,
          6.23203591e-02, 8.67329538e-02, 6.21470250e-02, 1.14113599e-01,
          1.72181368e-01, 1.72656197e-02, 9.90811735e-03, 1.88399069e-02,
          2.84309685e-02, 2.04334795e-01, 2.36643925e-01, 2.06654474e-01,
          2.86289275e-01, 2.86289275e-01, 3.06943320e-02, 4.87689255e-03,
          1.21357469e-02, 3.94704156e-02, 7.23331198e-02, 2.86289275e-01,
          2.59325266e-01, 2.86289275e-01, 2.10754782e-01, 3.37770171e-02,
          1.49282366e-02, 2.52612792e-02, 2.49325223e-02, 1.34614974e-01,
          2.86289275e-01, 2.86289275e-01, 2.86289275e-01, 2.86289275e-01,
          2.62868609e-02, 8.96711182e-03, 1.31333340e-02, 1.52414702e-02,
          4.49505961e-03, 3.87876877e-04, 0., 1.74715545e-03,
          4.39017862e-01, 5.62514365e-03, 3.58842408e-05, 3.70423222e-04,
          4.23797080e-03, 1.10934516e-02, 1.65605545e-02, 5.59477555e-03,
          6.29729684e-03, 3.09522934e-02, 2.28035823e-03, 3.99196241e-03,
          2.79563502e-03, 5.59041323e-03, 2.57551223e-01, 9.41676795e-02,
          5.31312488e-02, 4.56720740e-02, 4.39017862e-01, 1.12092860e-01,
          3.64158936e-02, 6.26437366e-02, 2.03529879e-01, 4.39017862e-01,
          3.43620956e-01, 1.80750743e-01, 2.60665834e-01, 1.15703307e-01,
          1.30230673e-02, 9.27795470e-03, 7.52300117e-03, 2.10009143e-01,
          2.02654973e-02, 6.54075220e-02, 7.55075142e-02, 2.18187068e-02,
          3.32561471e-02, 6.00207597e-03, 6.56192424e-03, 8.10651574e-03,
          1.37335993e-02, 3.37019823e-02, 3.55818450e-01, 3.55818450e-01,
          1.34075686e-01, 6.06339984e-02, 3.80165018e-02, 8.03191308e-03,
          2.46711038e-02, 2.40421034e-02, 2.75495887e-01, 3.55818450e-01,
          3.55818450e-01, 2.38977462e-01, 7.71552920e-02, 1.19356699e-02,
          1.43088996e-02, 1.28404563e-02, 8.83900821e-02, 9.71915349e-02,
          3.55818450e-01, 3.55818450e-01, 1.92916483e-01, 3.77503075e-02,
          2.81046610e-02, 1.31200599e-02, 3.69493440e-02, 3.62266339e-02,
          6.62368611e-02, 3.48352194e-01, 3.48352194e-01, 3.35897237e-01,
          1.52621180e-01, 4.50346731e-02, 6.17876882e-03, 1.63716897e-02,
          2.36448646e-02, 6.14643246e-02, 3.33397508e-01, 3.09224337e-01,
          2.57600784e-01, 1.81646183e-01, 1.72493588e-02, 4.09708964e-03,
          2.51239724e-03, 1.41149666e-02, 4.58447337e-02, 3.48352194e-01,
          3.48352194e-01, 1.40978515e-01, 5.22415042e-02, 3.31990346e-02,
          5.06746303e-03, 2.17058882e-02, 2.84450781e-02, 3.57281715e-02,
          8.72718468e-02, 1.19595803e-01, 5.88409491e-02, 5.54801002e-02,
          1.20489299e-02, 1.01433194e-03, 3.80259403e-03, 1.69075280e-02 ]
      - [ 2.26878688e-01, 5.79353720e-02, 3.71858291e-02, 6.01281896e-02,
          3.10018867e-01, 6.03716336e-02, 1.12193059e-02, 4.56004068e-02,
          2.46011034e-01, 9.76694897e-02, 4.87463102e-02, 4.58320417e-02,
          6.81087524e-02, 3.10018867e-01, 7.64614567e-02, 3.30866650e-02,
          3.29081900e-02, 1.00091815e-01, 3.10018867e-01, 9.53627676e-02,
          6.15849458e-02, 8.27036798e-02, 3.10018867e-01, 1.48132175e-01,
          3.69250923e-02, 6.25414550e-02, 3.10018867e-01, 3.10018867e-01,
          1.03227206e-01, 7.29115233e-02, 8.34937096e-02, 3.10018867e-01,
          1.19851492e-01, 9.89537090e-02, 4.74891625e-02, 2.54801422e-01,
          8.40334371e-02, 4.92669567e-02, 8.21672603e-02, 1.32331103e-01,
          5.48270404e-01, 1.62851855e-01, 8.45944360e-02, 2.25109886e-02,
          7.53570348e-02, 4.78950515e-03, 1.41549548e-02, 2.16807183e-02,
          3.97178233e-02, 1.15159251e-01, 7.02508539e-02, 3.56616639e-02,
          8.68632924e-03, 4.00655298e-03, 3.14999908e-01, 1.14025511e-01,
          1.04014382e-01, 1.25387385e-01, 5.48270404e-01, 1.90311760e-01,
          2.10966513e-01, 2.71854270e-02, 2.53583908e-01, 1.32917566e-02,
          2.14655418e-02, 2.11642887e-02, 3.87372524e-02, 8.52983817e-02,
          5.03326431e-02, 2.44202353e-02, 1.36162518e-02, 1.28490906e-02,
          1.46340644e-02, 3.87633219e-02, 1.01577371e-01, 1.64439738e-01,
          3.91924709e-01, 2.68027604e-01, 1.01143099e-01, 2.44293083e-02,
          9.63187404e-03, 1.04695074e-02, 1.17104473e-02, 6.93344474e-02,
          2.30134174e-01, 3.91924709e-01, 2.38169685e-01, 4.51929793e-02,
          1.19141210e-02, 9.00757406e-03, 4.85050045e-02, 7.84965679e-02,
          8.64328519e-02, 1.53660893e-01, 3.29044729e-01, 1.71965510e-01,
          4.73640375e-02, 6.74102455e-02, 5.42235859e-02, 2.37609688e-02,
          2.92550195e-02, 8.43089223e-02, 2.23490521e-01, 3.91924709e-01,
          2.15358883e-01, 3.74474749e-02, 4.25120182e-02, 3.46102193e-02,
          7.49598816e-02, 1.54060181e-02, 1.41781885e-02, 2.41437927e-02,
          4.89806712e-01, 5.65443598e-02, 1.37065640e-02, 7.57312775e-03,
          5.86219952e-02, 9.78568122e-02, 2.18634773e-02, 1.48819927e-02,
          2.17370447e-02, 4.89806712e-01, 3.70828435e-02, 3.85149419e-02,
          6.18254533e-03, 6.58018366e-02, 3.58569756e-04, 8.19649358e-06,
          2.52122918e-05, 1.47625590e-02, 4.89806712e-01, 1.32170180e-02,
          1.22111198e-03, 3.91477923e-04, 3.94827133e-04, 3.88783374e-05,
          2.71163572e-06, 8.35450464e-06, 5.66971079e-02, 4.89806712e-01,
          1.89779159e-02, 1.44525419e-03, 3.51110153e-04, 1.13142087e-04,
          9.84934792e-02, 2.50697359e-02, 1.23013165e-02, 1.98531784e-02,
          6.87133491e-01, 6.15333430e-02, 7.74603859e-02, 6.35846937e-03,
          7.47296661e-02, 1.59025993e-02, 9.70741268e-03, 6.04947610e-03,
          8.39988887e-03, 3.48018929e-02, 2.26246081e-02, 1.24557000e-02,
          6.80283178e-03, 1.50840245e-02, 3.84881487e-03, 1.60268345e-03,
          1.40392163e-03, 1.11269325e-01, 6.87133491e-01, 6.89157397e-02,
          1.08565362e-02, 2.95568374e-03, 3.65656405e-03, 1.56130642e-02,
          7.92572554e-03, 5.22168633e-03, 3.45360441e-03, 3.65432277e-02,
          2.51826756e-02, 1.11208512e-02, 4.34472924e-03, 1.39798317e-02,
          1.33481398e-01, 1.20146699e-01, 6.34180754e-02, 8.73278603e-02,
          2.22684324e-01, 1.49650693e-01, 8.60399231e-02, 1.11984886e-01,
          1.52595580e-01, 6.93652034e-02, 8.98886025e-02, 1.13912448e-01,
          1.95873916e-01, 4.69337136e-01, 2.64979839e-01, 1.06892623e-01,
          1.45980731e-01, 1.14920340e-01, 1.45745113e-01, 9.71585363e-02,
          7.02958480e-02, 5.89697845e-02, 1.73186883e-01, 8.48248303e-02,
          8.09602365e-02, 5.31050898e-02, 1.38087228e-01, 1.04372814e-01,
          7.98345357e-02, 1.42344996e-01, 2.36506134e-01, 3.81954134e-01,
          2.39691392e-01, 9.03880671e-02, 9.89664048e-02, 1.26602858e-01,
          9.30074457e-05, 0., 0., 1.71114970e-02, 4.84061629e-01,
          2.00070478e-02, 8.32321937e-04, 1.46985563e-04, 9.30074457e-05,
          1.01518957e-03, 2.97424995e-04, 3.00924381e-04, 7.02227578e-02,
          4.84061629e-01, 7.83261657e-02, 3.65946721e-03, 9.85377934e-04,
          2.06905184e-03, 2.90232990e-03, 0., 0., 1.90454302e-03,
          4.84061629e-01, 2.38442384e-02, 6.70161098e-03, 1.92070671e-03,
          3.59709864e-03, 5.52685186e-02, 1.10282260e-03, 4.01966507e-04,
          1.69026032e-02, 4.84061629e-01, 1.21828519e-01, 7.64519870e-02,
          6.55354336e-02, 1.30984545e-01, 1.12256296e-02, 3.75104463e-03,
          2.53665820e-03, 8.10068175e-02, 3.79653901e-01, 1.08706191e-01,
          1.30562223e-02, 5.80222998e-03, 1.43838692e-02, 3.12937200e-02,
          9.37190931e-03, 6.62774034e-03, 1.03091896e-02, 2.33161319e-02,
          1.96658541e-02, 9.38907824e-03, 5.68443676e-03, 2.61282772e-02,
          2.59438336e-01, 4.50610295e-02, 1.52981905e-02, 8.06353092e-02,
          3.79653901e-01, 2.27677375e-01, 1.66695297e-01, 1.70821071e-01,
          3.79653901e-01, 3.79653901e-01, 1.11461818e-01, 4.54267710e-02,
          6.97647333e-02, 1.96537793e-01, 6.40228018e-02, 4.91368063e-02,
          6.52689636e-02, 3.79653901e-01, 5.91349788e-02, 2.02012360e-02,
          1.71319097e-02, 2.52613630e-02, 2.99697928e-02, 1.43683124e-02,
          1.14679942e-02, 7.68011436e-03, 5.22760376e-02, 4.98682298e-02,
          1.53306099e-02, 1.72469411e-02, 3.73900607e-02, 3.65952216e-02,
          1.94409862e-02, 1.30796134e-02, 9.26575158e-03, 5.25213070e-02,
          4.84450549e-01, 1.29422352e-01, 5.98918684e-02, 4.43091542e-02,
          9.76581722e-02, 2.84691192e-02, 2.20105499e-02, 4.22950275e-02,
          4.84450549e-01, 4.84450549e-01, 2.91648619e-02, 1.53933521e-02,
          2.79879477e-02, 2.51484271e-02, 1.84752345e-02, 1.36551624e-02,
          2.06176024e-02, 4.84450549e-01 ]
      - [ 3.49641114e-01, 3.40105109e-02, 8.68134759e-03, 5.73470863e-03,
          7.61559382e-02, 1.27949566e-02, 1.67129245e-02, 5.20983338e-02,
          3.49641114e-01, 3.49641114e-01, 4.07608040e-03, 3.36596859e-05,
          6.16242178e-05, 7.05734827e-03, 7.34446337e-04, 2.89165229e-03,
          2.98442342e-03, 3.49641114e-01, 3.49641114e-01, 2.14195624e-02,
          8.88771191e-03, 1.02509921e-02, 1.92464590e-01, 2.97470530e-03,
          3.91777046e-03, 1.47028239e-02, 3.04176837e-01, 3.49641114e-01,
          4.11598186e-04, 1.04315426e-04, 1.94244683e-04, 2.67069810e-03,
          2.22968549e-04, 7.06122897e-04, 8.56664265e-04, 3.49641114e-01,
          3.52927804e-01, 1.05955405e-03, 2.79063024e-05, 1.58254319e-04,
          4.69110470e-04, 5.16892578e-05, 0., 4.73151857e-04,
          3.52927804e-01, 3.52927804e-01, 1.36895082e-03, 5.58125903e-05,
          2.62077228e-04, 1.06588809e-03, 1.80912408e-04, 0.,
          2.08716770e-03, 3.52927804e-01, 3.52927804e-01, 1.11530775e-04,
          2.54626539e-05, 7.16131253e-05, 3.81850958e-04, 1.02809594e-04,
          1.98971204e-04, 1.59366420e-04, 3.52927804e-01, 3.52927804e-01,
          1.05496947e-04, 1.27313260e-05, 3.58065554e-05, 2.25202937e-04,
          7.46336955e-05, 1.66635175e-04, 1.10927489e-04, 3.52927804e-01,
          3.40553612e-01, 2.87283910e-04, 1.55014695e-05, 6.51722366e-05,
          4.45977901e-04, 7.20203025e-05, 0., 9.97306546e-04,
          3.40553612e-01, 3.40553612e-01, 0., 0., 0., 5.00451177e-02,
          1.44330775e-02, 1.45144779e-02, 2.57972181e-02, 3.40553612e-01,
          3.40553612e-01, 1.12520553e-04, 8.94185796e-05, 0.,
          3.01854016e-04, 3.87893742e-05, 1.18177566e-04, 6.39912541e-05,
          3.40553612e-01, 3.37622792e-01, 3.38432204e-04, 2.17990309e-04,
          1.39017752e-03, 2.57018119e-01, 1.86464805e-02, 1.45847583e-02,
          2.36605331e-02, 3.40553612e-01, 7.22869486e-02, 1.67535227e-02,
          6.47783419e-03, 2.89510433e-02, 5.65270603e-01, 3.17963809e-02,
          5.54126641e-03, 1.12049151e-02, 6.99167103e-02, 9.49677452e-02,
          1.12931347e-02, 3.58707667e-03, 4.90578450e-03, 3.10560670e-02,
          1.73436273e-02, 1.45263299e-02, 2.31950004e-02, 1.10300131e-01,
          3.43266055e-02, 5.58467163e-03, 2.09421734e-03, 3.29972394e-02,
          5.65270603e-01, 7.68960267e-02, 3.06755234e-03, 1.26151126e-02,
          6.33907020e-02, 6.05856590e-02, 4.08698656e-02, 2.64031030e-02,
          7.84449726e-02, 5.18612266e-01, 1.25064537e-01, 3.11256424e-02,
          4.62810807e-02, 8.47533420e-02, 2.22621053e-01, 2.53925137e-02,
          1.00681828e-02, 1.60541236e-02, 6.54847547e-02, 3.00219003e-02,
          2.98548620e-02, 4.05642241e-02, 2.18639076e-01, 2.42142469e-01,
          3.31939012e-02, 9.84008424e-03, 1.72583815e-02, 8.59060660e-02,
          2.06903629e-02, 2.34860796e-02, 3.15074064e-02, 2.40047902e-01,
          1.65815338e-01, 8.12074021e-02, 5.22104129e-02, 1.51623130e-01,
          5.00107706e-01, 1.91821277e-01, 8.50833729e-02, 9.96349677e-02,
          1.50117248e-01, 1.65598184e-01, 1.11794092e-01, 6.47775456e-02,
          1.39577538e-01, 5.00107706e-01, 1.71624079e-01, 8.41570422e-02,
          6.68210909e-02, 1.43836886e-01, 7.83527344e-02, 9.78550222e-03,
          4.12766449e-03, 4.21424350e-03, 3.18431482e-02, 6.24550134e-03,
          8.59837607e-03, 9.74154938e-03, 8.73421505e-02, 1.24694578e-01,
          1.03260940e-02, 7.03559257e-03, 6.81658536e-02, 5.58358610e-01,
          4.66312766e-02, 1.42105389e-02, 1.62959229e-02, 1.24987721e-01,
          5.20081930e-02, 3.65171172e-02, 2.15665791e-02, 3.98113467e-02,
          4.74834055e-01, 6.23987392e-02, 3.37511040e-02, 2.41401661e-02,
          7.31832385e-02, 1.57986581e-01, 1.13543812e-02, 1.05667952e-02,
          1.01111591e-01, 5.58358610e-01, 8.83937404e-02, 2.40803082e-02,
          2.52566189e-02, 1.73717782e-01, 1.57850590e-02, 2.04907591e-03,
          1.91800552e-03, 3.29845361e-02, 4.91740137e-01, 4.31104489e-02,
          1.72434468e-03, 1.38869614e-03, 1.53049938e-02, 2.06061061e-02,
          1.07084010e-02, 1.02533670e-02, 5.50103150e-02, 4.91740137e-01,
          6.33970350e-02, 7.91555829e-03, 7.49799609e-03, 1.84260085e-02,
          9.07355733e-03, 3.67336557e-03, 1.02489656e-02, 4.75483462e-02,
          4.91740137e-01, 3.42678167e-02, 4.89928620e-03, 1.15049281e-03,
          1.72024891e-02, 1.77039299e-02, 1.41032990e-02, 1.65241268e-02,
          6.24431930e-02, 4.91740137e-01, 8.21029693e-02, 6.06622593e-03,
          8.24352074e-03, 2.78733224e-02, 2.26516239e-02, 1.12376669e-02,
          1.01821516e-02, 5.26078045e-02, 4.85334605e-01, 5.39835617e-02,
          1.23509048e-02, 1.06637524e-02, 1.92055199e-02, 2.22011432e-02,
          1.45168910e-02, 1.34471953e-02, 4.67714183e-02, 4.85334605e-01,
          5.17861694e-02, 1.29138697e-02, 6.15495676e-03, 1.72414687e-02,
          2.71753594e-02, 1.68931298e-02, 1.61923561e-02, 5.72730824e-02,
          4.85334605e-01, 1.03428476e-01, 4.21027560e-03, 2.02576648e-02,
          4.50580008e-02, 2.99597122e-02, 1.09868161e-02, 1.28483800e-02,
          8.87212008e-02, 4.85334605e-01, 9.66690779e-02, 1.81955937e-02,
          2.45426856e-02, 5.08219860e-02, 1.95768457e-02, 1.23659521e-02,
          1.07877152e-02, 3.52461562e-02, 4.90331650e-01, 4.47337404e-02,
          1.27870068e-02, 5.42680873e-03, 2.40582339e-02, 4.04477455e-02,
          3.94572737e-03, 3.94882308e-03, 2.83482205e-02, 4.90331650e-01,
          4.31553461e-02, 1.15388520e-02, 1.09133301e-02, 4.68840525e-02,
          1.89660210e-02, 2.08898969e-02, 1.54328756e-02, 9.03492197e-02,
          4.90331650e-01, 8.43481496e-02, 1.51730673e-02, 1.34449778e-02,
          2.59612277e-02, 1.26754018e-02, 1.47611033e-02, 9.80269257e-03,
          4.20170538e-02, 4.90331650e-01, 4.49719541e-02, 4.35450813e-03,
          3.60258482e-03, 1.61107872e-02 ]
      - [ 9.67885181e-03, 0., 0., 0., 7.01203346e-01, 0., 0., 0.,
          9.67885181e-03, 1.37913907e-02, 5.93522843e-03, 1.12907728e-02,
          1.27721475e-02, 6.08898290e-02, 1.54083613e-02, 4.81878221e-03,
          7.05414126e-03, 9.37815942e-03, 5.48223499e-03, 0., 0., 0.,
          7.01203346e-01, 0., 0., 0., 5.48223499e-03, 9.73606668e-03,
          4.73358948e-03, 4.99811722e-03, 4.82410239e-03, 6.63757324e-02,
          8.96951277e-03, 2.93411524e-03, 3.25267715e-03, 9.36577097e-03,
          1.80265322e-01, 6.66466951e-02, 1.37665153e-01, 9.69959050e-02,
          8.78550708e-02, 6.75493926e-02, 2.25620810e-02, 4.91975620e-02,
          1.91435277e-01, 3.45621228e-01, 1.66122332e-01, 3.45621228e-01,
          2.39107370e-01, 8.92071649e-02, 1.51763365e-01, 8.29604864e-02,
          7.50318542e-02, 3.45621228e-01, 1.19665176e-01, 5.09165376e-02,
          5.12985624e-02, 5.55758737e-02, 8.99572745e-02, 4.93092686e-02,
          1.83162652e-02, 2.59933192e-02, 1.28534287e-01, 3.45621228e-01,
          2.02856034e-01, 1.47062689e-01, 1.57048553e-01, 6.78030178e-02,
          6.51978403e-02, 4.18346375e-02, 7.15613440e-02, 3.45621228e-01,
          3.49027485e-01, 4.50823866e-02, 7.97111019e-02, 5.61242178e-02,
          1.49448281e-02, 4.33415361e-02, 2.85800789e-02, 1.49390064e-02,
          3.49027485e-01, 3.49027485e-01, 3.70130595e-03, 1.91619352e-03,
          3.91029142e-04, 6.03007793e-04, 2.72112724e-04, 4.17177274e-04,
          1.75520347e-03, 3.49027485e-01, 3.49027485e-01, 6.05694018e-02,
          3.66633609e-02, 3.59065197e-02, 8.39722622e-03, 1.18680634e-02,
          1.14213694e-02, 2.15283688e-02, 3.49027485e-01, 3.49027485e-01,
          6.45826990e-03, 8.16100370e-03, 1.55165652e-03, 1.71215064e-03,
          1.78782211e-03, 2.45405408e-03, 4.68003610e-03, 3.49027485e-01,
          5.37318701e-04, 0., 0., 0., 6.99362695e-01, 0., 0., 0.,
          5.37318701e-04, 1.89978797e-02, 2.92273331e-03, 5.62502258e-03,
          2.75475089e-03, 8.56770948e-02, 1.01363845e-02, 2.39381660e-03,
          2.60212668e-03, 1.73718370e-02, 2.07875157e-03, 3.27413756e-04,
          1.91532308e-04, 1.41487643e-02, 6.99362695e-01, 9.07714292e-03,
          3.90632544e-04, 9.59646015e-04, 2.24252744e-03, 1.34521434e-02,
          1.00300810e-03, 2.86750286e-03, 1.12400472e-03, 7.63884485e-02,
          8.62604566e-03, 2.48502078e-03, 3.33782029e-03, 1.49599174e-02,
          2.36722335e-01, 5.24263084e-02, 3.80433463e-02, 5.66218868e-02,
          1.48795471e-01, 5.82411140e-02, 2.17854213e-02, 1.74676888e-02,
          1.79894462e-01, 3.86215836e-01, 2.44305477e-01, 1.53975785e-01,
          2.06480637e-01, 1.03709646e-01, 7.08463714e-02, 7.50502273e-02,
          1.33292407e-01, 3.86215836e-01, 1.88644767e-01, 2.48709545e-02,
          1.49906045e-02, 1.84320956e-02, 1.13004088e-01, 4.30753827e-02,
          1.78685058e-02, 1.66758187e-02, 1.63660377e-01, 3.86215836e-01,
          8.45960230e-02, 4.53306325e-02, 6.33255318e-02, 7.76385292e-02,
          4.89832908e-02, 6.15905188e-02, 8.91977996e-02, 3.86215836e-01,
          3.48723620e-01, 6.74045309e-02, 4.23052981e-02, 4.49518263e-02,
          4.96838102e-03, 8.17763805e-03, 1.95440874e-02, 4.23033647e-02,
          3.48723620e-01, 3.48723620e-01, 8.42357427e-03, 1.25754913e-02,
          2.34434032e-03, 2.39185505e-02, 7.98719656e-03, 8.00088514e-03,
          3.23619843e-02, 3.48723620e-01, 3.48723620e-01, 2.11287960e-02,
          1.36572532e-02, 1.49198873e-02, 4.64580953e-03, 6.08314434e-03,
          1.65776107e-02, 2.64862906e-02, 3.48723620e-01, 3.48723620e-01,
          7.46384356e-03, 1.23751797e-02, 8.62806477e-03, 7.23594502e-02,
          2.61161998e-02, 3.02355252e-02, 4.52307425e-02, 3.48723620e-01,
          6.49266914e-02, 4.32927683e-02, 1.52904186e-02, 1.60052061e-01,
          5.92561781e-01, 8.40643942e-02, 2.06239545e-03, 3.88607150e-03,
          5.55480495e-02, 2.83072190e-03, 1.67255977e-03, 6.60178310e-04,
          1.63947209e-03, 4.32172082e-02, 3.02911806e-03, 1.35934760e-03,
          1.33305113e-03, 4.21554130e-03, 2.91200310e-01, 1.64026335e-01,
          6.64128140e-02, 2.91272402e-01, 5.92561781e-01, 9.10183415e-02,
          1.68778363e-03, 3.68363992e-03, 1.93983883e-01, 4.69913101e-03,
          2.74424255e-03, 9.33219388e-04, 4.70983144e-03, 2.87101101e-02,
          3.05392221e-03, 6.36881741e-04, 5.71716228e-04, 5.48505364e-03,
          2.04866692e-01, 1.59095675e-02, 3.53899524e-02, 8.05016328e-03,
          6.50793165e-02, 2.15644147e-02, 4.19747494e-02, 2.83549540e-02,
          2.35800341e-01, 6.57680035e-01, 2.91717537e-02, 5.35412468e-02,
          1.19262682e-02, 8.14541504e-02, 1.31452633e-02, 5.88031933e-02,
          2.88664158e-02, 6.57680035e-01, 3.60971391e-02, 2.68211961e-03,
          8.02590605e-03, 0., 1.31288264e-02, 0., 1.02179414e-02,
          3.41466046e-03, 3.60971391e-02, 4.22612093e-02, 3.34013952e-03,
          9.99495015e-03, 0., 1.38455117e-02, 0., 1.12117250e-02,
          3.74676473e-03, 4.22612093e-02, 2.88802087e-01, 4.29838989e-03,
          7.46405125e-03, 1.22022657e-02, 3.66938040e-02, 1.16941761e-02,
          1.12389429e-02, 3.45137576e-03, 2.88486153e-01, 3.49175781e-01,
          1.52061302e-02, 1.44831883e-02, 8.05495456e-02, 3.28706533e-01,
          2.30281577e-01, 2.13073969e-01, 9.20299068e-02, 3.49175781e-01,
          9.74052120e-03, 2.16129678e-03, 3.09545919e-03, 8.06483068e-03,
          2.91482098e-02, 3.41771753e-03, 4.09249961e-03, 1.09649613e-03,
          9.61212255e-03, 1.99591741e-01, 1.42721936e-01, 6.73450306e-02,
          2.65636414e-01, 3.49175781e-01, 3.06414738e-02, 2.43464038e-02,
          3.86019386e-02, 3.17672372e-01 ]
      - [ 3.32158297e-01, 4.77722101e-02, 1.25666969e-02, 6.06278144e-02,
          4.51106071e-01, 5.62515482e-02, 1.52293569e-03, 1.32181514e-02,
          3.12482387e-01, 4.30478156e-01, 2.42506457e-03, 9.93817084e-05,
          4.55778791e-05, 2.23847092e-04, 0., 0., 2.34597316e-03,
          4.29529667e-01, 3.01551772e-03, 1.52360139e-04, 6.18293940e-04,
          5.36758220e-03, 4.51106071e-01, 3.46837565e-02, 4.12195106e-04,
          2.65553768e-04, 3.00922594e-03, 0., 0., 0., 0., 1.27509411e-04,
          0., 0., 0., 0., 4.98715550e-01, 5.79879107e-03, 0., 0., 0., 0.,
          0., 5.88992471e-03, 4.98715550e-01, 4.98715550e-01,
          6.50423998e-03, 0., 0., 0., 0., 0., 6.29210984e-03,
          4.98715550e-01, 0., 0., 0., 0., 0., 0., 0., 0., 0., 0., 0., 0.,
          0., 0., 0., 0., 0., 0., 4.98717278e-01, 5.79830632e-03, 0., 0.,
          0., 0., 0., 5.88943204e-03, 4.98717278e-01, 4.98717278e-01,
          5.97230159e-03, 0., 0., 0., 0., 0., 6.29158365e-03,
          4.98717278e-01, 0., 0., 0., 0., 0., 0., 0., 0., 0., 0., 0., 0.,
          0., 0., 0., 0., 0., 0., 9.40955593e-04, 0., 2.56845989e-04,
          1.62835710e-03, 7.04556406e-01, 1.27616748e-02, 8.62352317e-05,
          2.88182982e-05, 9.40955593e-04, 0., 0., 0., 0., 2.89080635e-05,
          0., 0., 0., 0., 0., 0., 0., 0., 7.04556406e-01, 0., 0., 0., 0.,
          0., 0., 0., 0., 0., 0., 0., 0., 0., 0., 0., 0., 0., 0., 0., 0.,
          0., 0., 0., 0., 0., 0., 0., 0., 0., 0., 0., 0., 0., 0., 0., 0.,
          0., 0., 0., 0., 0., 0., 0., 0., 0., 0., 0., 0., 0., 0., 0., 0.,
          0., 0., 0., 0., 0., 0., 0., 0., 0., 0., 0., 0., 0., 0., 0., 0.,
          0., 0., 0., 0., 0., 0., 0., 0., 0., 0., 0., 0., 0., 0., 0., 0.,
          0., 0., 0., 0., 0., 7.04333127e-01, 0., 0., 0., 0., 0., 0., 0.,
          0., 0., 0., 0., 0., 0., 7.28084939e-03, 1.58136128e-03,
          9.76640731e-04, 2.53043324e-02, 7.04333127e-01, 3.35468864e-03,
          1.18234148e-03, 3.89911002e-04, 5.47520258e-03, 5.32588549e-03,
          4.27619321e-04, 1.21715246e-03, 4.60517731e-05, 2.29847228e-05,
          0., 1.09949382e-03, 3.56290519e-04, 5.27901808e-03, 0., 0., 0.,
          0., 0., 0., 0., 0., 0., 0., 0., 0., 0., 0., 0., 0., 0., 0.,
          4.51250613e-01, 3.03627215e-02, 9.38958973e-02, 0., 0., 0.,
          1.05298892e-01, 3.40901241e-02, 4.51250613e-01, 5.05344033e-01,
          3.73033509e-02, 1.15258060e-01, 0., 0., 0., 1.01881571e-01,
          3.29334810e-02, 5.05344033e-01, 0., 0., 0., 0., 0., 0., 0., 0.,
          0., 0., 0., 0., 0., 0., 0., 0., 0., 0., 4.49546427e-01,
          3.02480552e-02, 9.35412869e-02, 0., 0., 0., 1.04901224e-01,
          3.39613818e-02, 4.49546427e-01, 5.08349717e-01, 3.37302424e-02,
          1.04337968e-01, 0., 0., 0., 1.01496808e-01, 3.28091085e-02,
          5.08349717e-01 ]
      - [ 3.63238633e-01, 4.77068173e-03, 7.89873395e-03, 6.00490905e-03,
          7.15688523e-03, 3.35211563e-03, 1.45317307e-02, 3.47845145e-02,
          3.63238633e-01, 3.63238633e-01, 3.77342082e-03, 4.54824185e-03,
          3.88431316e-03, 3.36100557e-03, 1.34804181e-03, 3.37480241e-03,
          8.85113887e-03, 3.63238633e-01, 1.39576748e-01, 1.93999205e-02,
          2.15878747e-02, 1.81928184e-02, 1.03383191e-01, 2.19192743e-01,
          3.63238633e-01, 2.28504419e-01, 2.22531229e-01, 2.80029595e-01,
          2.49748640e-02, 1.89528465e-02, 1.28408270e-02, 3.33160758e-02,
          5.95671237e-02, 4.15835902e-02, 1.68461762e-02, 2.59890765e-01,
          3.95735949e-01, 5.87246614e-03, 2.03480595e-03, 1.74163119e-03,
          4.33559250e-03, 1.26593083e-03, 2.46181502e-03, 9.50884726e-03,
          3.95735949e-01, 3.95735949e-01, 1.13724405e-02, 5.05352160e-03,
          4.01167059e-03, 1.14085581e-02, 1.86662737e-03, 3.25719267e-03,
          1.08687971e-02, 3.95735949e-01, 3.43439579e-01, 1.61501653e-02,
          7.41505157e-03, 5.22004953e-03, 3.09643708e-03, 5.13892388e-03,
          9.65462625e-03, 1.33678764e-02, 3.70230854e-01, 2.16880932e-01,
          2.01772973e-02, 1.50077976e-02, 2.26266161e-02, 4.55377512e-02,
          7.17741624e-03, 2.41777934e-02, 2.28953715e-02, 2.48874575e-01,
          3.98957342e-01, 9.92703997e-03, 8.87038186e-03, 4.67330031e-03,
          1.60535220e-02, 7.25448364e-03, 4.24682954e-03, 1.28558101e-02,
          3.98957342e-01, 3.98957342e-01, 1.41620971e-02, 1.21190129e-02,
          4.29264195e-02, 3.98957342e-01, 8.58451799e-02, 5.91107160e-02,
          9.32465047e-02, 3.98957342e-01, 6.34492189e-02, 9.51757655e-03,
          1.21583398e-02, 1.39481481e-02, 4.66778241e-02, 8.80261697e-03,
          1.68288369e-02, 1.14471223e-02, 7.63631910e-02, 2.89549958e-02,
          6.22731401e-03, 1.09222503e-02, 2.29709484e-02, 3.98957342e-01,
          4.60962579e-02, 1.16076507e-02, 6.20290777e-03, 4.22898941e-02,
          9.71078128e-02, 1.83434319e-02, 2.15115752e-02, 3.90979648e-02,
          2.92171299e-01, 2.92171299e-01, 2.92171299e-01, 1.25710443e-01,
          1.06079437e-01, 2.92171299e-01, 2.49478407e-02, 1.90098174e-02,
          1.57665405e-02, 1.21309444e-01, 1.14283986e-01, 4.53297943e-02,
          1.95127409e-02, 2.92171299e-01, 7.62672201e-02, 4.02680188e-02,
          1.37557089e-01, 2.92171299e-01, 2.92171299e-01, 2.37943590e-01,
          1.08224086e-01, 3.14181261e-02, 6.81049824e-02, 2.92171299e-01,
          2.54201628e-02, 4.35252450e-02, 8.23957548e-02, 2.04660401e-01,
          7.46390224e-02, 2.36519519e-02, 2.97376607e-02, 2.92171299e-01,
          3.47029269e-01, 1.97543930e-02, 8.97620618e-03, 8.87977518e-03,
          6.85406523e-03, 1.07000386e-02, 9.02252831e-03, 1.43512422e-02,
          3.47029269e-01, 3.47029269e-01, 2.26167552e-02, 2.27807537e-02,
          4.11316082e-02, 9.17349532e-02, 1.40279103e-02, 2.54462436e-02,
          2.61933673e-02, 3.47029269e-01, 3.47029269e-01, 2.20870394e-02,
          1.11239059e-02, 9.79984365e-03, 7.93728698e-03, 1.05534056e-02,
          1.11883329e-02, 2.00045314e-02, 3.47029269e-01, 3.47029269e-01,
          3.96506302e-02, 1.79509092e-02, 3.23470123e-02, 1.10080577e-01,
          3.04032657e-02, 3.99852768e-02, 2.10424233e-02, 3.47029269e-01,
          1.59786910e-01, 2.27662548e-02, 2.79655512e-02, 4.84750941e-02,
          1.65643513e-01, 1.95114035e-02, 3.68272625e-02, 3.17142829e-02,
          2.00134590e-01, 5.89068141e-03, 3.27205332e-03, 8.73696711e-03,
          4.21711691e-02, 6.15557849e-01, 1.85900349e-02, 1.24221202e-02,
          6.48345519e-03, 8.12974479e-03, 2.02940419e-01, 4.37481403e-02,
          2.25840546e-02, 3.86841893e-02, 1.90483451e-01, 3.77595089e-02,
          4.65936027e-02, 2.20706351e-02, 2.14148626e-01, 1.08966120e-02,
          4.16363170e-03, 9.64208879e-03, 4.15220112e-02, 6.15557849e-01,
          2.45288163e-02, 1.10313389e-02, 4.40536998e-03, 8.81866831e-03,
          2.01737761e-01, 6.51930049e-02, 1.44502282e-01, 1.67681813e-01,
          1.24161765e-01, 1.78490262e-02, 5.94277773e-03, 1.02184042e-02,
          2.07516298e-01, 3.37958753e-01, 7.57272076e-03, 1.50218988e-02,
          3.56447287e-02, 4.03232314e-02, 1.06623583e-02, 3.35414079e-03,
          1.01450933e-02, 3.38990837e-01, 3.81613970e-01, 7.86390528e-02,
          1.04242168e-01, 7.59272650e-02, 2.57761963e-02, 6.41222158e-03,
          8.73821788e-03, 4.03955244e-02, 3.81613970e-01, 3.81613970e-01,
          3.35660167e-02, 1.59974806e-02, 2.11014245e-02, 1.67663824e-02,
          1.23355156e-02, 6.52712490e-03, 2.67496966e-02, 3.81613970e-01,
          3.19993407e-01, 3.03965644e-03, 9.93246562e-04, 1.28521945e-03,
          3.29681369e-03, 1.66940899e-03, 1.26554514e-03, 4.08896571e-03,
          3.23072642e-01, 2.98518926e-01, 6.72382116e-03, 1.95655762e-03,
          6.65483158e-03, 2.43934691e-02, 3.64671624e-03, 5.03983209e-03,
          3.00054229e-03, 2.97405362e-01, 3.90558928e-01, 1.60358213e-02,
          3.44256568e-03, 4.28864034e-03, 5.62625658e-03, 1.02292215e-02,
          2.03937851e-03, 1.09429751e-02, 3.90558928e-01, 3.90558928e-01,
          7.17278942e-03, 2.03128162e-04, 2.10706657e-03, 1.45918727e-02,
          2.96314107e-03, 3.62905033e-04, 3.53776314e-03, 3.90558928e-01,
          2.51042426e-01, 3.91390407e-03, 1.60242396e-03, 4.40434087e-03,
          2.13041194e-02, 3.21150618e-03, 3.62134841e-03, 1.79179362e-03,
          2.49218941e-01, 2.34700397e-01, 2.03192569e-02, 1.65129434e-02,
          8.55496246e-03, 1.94945335e-01, 6.59491541e-03, 1.93830859e-03,
          3.79824149e-03, 2.26996511e-01, 4.21074837e-01, 4.32920270e-03,
          3.61843879e-04, 1.29908952e-03, 1.25834355e-02, 1.46823027e-03,
          3.99659300e-04, 1.43450254e-03, 4.21074837e-01, 4.21074837e-01,
          6.95402995e-02, 3.37112807e-02, 1.05786510e-02, 8.79344791e-02,
          5.86629938e-03, 6.11291127e-03, 3.76825668e-02, 4.21074837e-01 ]
      - [ 6.93347454e-02, 6.63893344e-03, 6.69776974e-03, 0.,
          2.39473097e-02, 0., 0., 0., 6.84118792e-02, 5.48659191e-02,
          1.08032180e-02, 1.13076298e-02, 0., 7.91224763e-02, 0.,
          1.20754512e-02, 9.35901236e-03, 5.45110963e-02, 1.95293978e-01,
          8.75639841e-02, 9.12358314e-02, 5.67935593e-02, 6.58491924e-02,
          1.15927486e-02, 2.42518224e-02, 1.91858429e-02, 1.59567177e-01,
          4.69842285e-01, 4.69842285e-01, 3.48450661e-01, 1.43430963e-01,
          1.17628880e-01, 5.77872433e-02, 6.60265014e-02, 2.41683796e-01,
          4.69842285e-01, 2.11037863e-02, 4.22814954e-03, 2.99378531e-03,
          1.70294277e-03, 3.95294093e-02, 2.30626133e-03, 7.76934950e-03,
          7.98119325e-03, 2.15481557e-02, 8.18737131e-03, 2.82759499e-03,
          2.04148097e-03, 3.40588484e-03, 3.27125825e-02, 2.88282684e-03,
          4.20727069e-03, 4.55730176e-03, 8.38704687e-03, 3.51623684e-01,
          3.51623684e-01, 1.17881775e-01, 5.71093932e-02, 8.61920938e-02,
          6.36361912e-02, 7.67924488e-02, 2.92819619e-01, 3.51623684e-01,
          3.51623684e-01, 2.32760325e-01, 3.62533629e-02, 3.38969976e-02,
          7.57090524e-02, 1.62271187e-01, 2.04354942e-01, 3.51623684e-01,
          3.51623684e-01, 1.87272560e-02, 5.75343438e-04, 1.75137643e-03,
          3.93795455e-03, 9.43142474e-02, 2.32548336e-03, 1.07083619e-02,
          5.79825370e-03, 1.91847552e-02, 5.53376600e-02, 3.35590099e-03,
          1.00421244e-02, 0., 7.96747655e-02, 0., 8.00341927e-03,
          2.67460803e-03, 5.53376600e-02, 3.54325563e-01, 7.82337934e-02,
          2.79001016e-02, 5.74601777e-02, 1.37658671e-01, 3.54077637e-01,
          4.33065504e-01, 5.47746003e-01, 4.29639041e-01, 4.85434458e-02,
          1.37272207e-02, 2.57401150e-02, 1.67450923e-02, 1.06055886e-01,
          7.09488569e-03, 2.31250077e-02, 2.30726153e-02, 5.46303727e-02,
          5.15765846e-02, 2.51927283e-02, 5.34370318e-02, 4.93159927e-02,
          1.20070234e-01, 5.28882183e-02, 3.31429504e-02, 3.40682082e-02,
          5.52325696e-02, 1.76181972e-01, 2.05821559e-01, 2.66799718e-01,
          1.76004961e-01, 1.68364704e-01, 1.29925102e-01, 7.57097602e-02,
          1.49339512e-01, 1.12136096e-01, 5.80228493e-02, 3.54910754e-02,
          7.59113058e-02, 1.03099100e-01, 2.66799718e-01, 1.53956801e-01,
          9.93895456e-02, 7.02492744e-02, 8.17553177e-02, 2.05828890e-01,
          2.66603947e-01, 2.66799718e-01, 2.66799718e-01, 2.66799718e-01,
          2.66799718e-01, 2.66799718e-01, 2.66799718e-01, 1.63991749e-01,
          1.63792834e-01, 1.65982708e-01, 1.31380543e-01, 9.82258096e-02,
          8.91970843e-02, 1.11689456e-01, 6.38943687e-02, 1.76906422e-01,
          1.19152300e-01, 1.05136499e-01, 9.66880918e-02, 6.24028109e-02,
          5.94464801e-02, 8.34813416e-02, 1.53046265e-01, 1.17091224e-01,
          1.82941467e-01, 9.81643796e-02, 2.06647545e-01, 2.17822105e-01,
          2.17822105e-01, 2.11514100e-01, 1.84715793e-01, 2.17822105e-01,
          2.17822105e-01, 2.17822105e-01, 1.70502648e-01, 1.47644892e-01,
          1.89414248e-01, 2.17822105e-01, 1.96036220e-01, 2.17822105e-01,
          2.17822105e-01, 1.89863339e-01, 2.17822105e-01, 1.47264287e-01,
          9.87235606e-02, 6.17386848e-02, 4.29842360e-02, 8.27072784e-02,
          2.38603294e-01, 2.97578096e-01, 2.60726422e-01, 2.74143964e-01,
          1.40508413e-01, 8.81166104e-03, 4.27920697e-03, 4.62685898e-03,
          7.86790811e-03, 2.98242420e-02, 4.49839141e-03, 3.99465486e-03,
          3.99354799e-03, 1.12650376e-02, 1.77446097e-01, 2.33019426e-01,
          2.97578096e-01, 2.97578096e-01, 2.97578096e-01, 2.97578096e-01,
          2.81865627e-01, 2.97578096e-01, 2.31315166e-01, 1.23258689e-02,
          4.20900621e-03, 4.87099215e-03, 1.22055979e-02, 5.08813784e-02,
          1.29128397e-02, 8.08598660e-03, 1.06091881e-02, 1.98177546e-02,
          8.80218819e-02, 7.00150132e-02, 7.39789084e-02, 1.08855166e-01,
          2.76929945e-01, 8.22927952e-02, 5.79733029e-02, 5.39597720e-02,
          1.45653963e-01, 2.06283584e-01, 1.26275361e-01, 1.05020806e-01,
          1.04127355e-01, 1.11483566e-01, 1.45967230e-01, 2.76929945e-01,
          2.48972550e-01, 1.73721507e-01, 1.51702404e-01, 7.75669813e-02,
          1.05772793e-01, 1.35417417e-01, 2.76929945e-01, 1.03707969e-01,
          7.05881417e-02, 6.42799959e-02, 2.02822879e-01, 2.76929945e-01,
          3.60640958e-02, 2.57283658e-01, 2.45961413e-01, 1.97066888e-01,
          9.58027914e-02, 1.93708688e-01, 1.00924119e-01, 2.76929945e-01,
          2.18517482e-01, 1.59153789e-01, 1.06875651e-01, 9.80711207e-02,
          9.41628292e-02, 1.04254022e-01, 1.98811606e-01, 2.16924474e-01,
          2.11764514e-01, 2.42172644e-01, 1.65628433e-01, 2.23684981e-01,
          2.03276649e-01, 2.29666114e-01, 1.53093576e-01, 1.38840169e-01,
          1.49161622e-01, 2.56054074e-01, 2.56054074e-01, 2.59011835e-02,
          9.61880460e-02, 8.33462626e-02, 1.18017286e-01, 7.17465058e-02,
          1.47493616e-01, 9.38813016e-02, 2.56054074e-01, 2.56054074e-01,
          4.86003347e-02, 6.03752211e-02, 7.25103170e-02, 1.68724597e-01,
          1.00099675e-01, 7.77581334e-02, 8.29532668e-02, 2.56054074e-01,
          2.90433556e-01, 2.11273789e-01, 2.90433556e-01, 2.90433556e-01,
          2.90433556e-01, 2.90433556e-01, 1.51357457e-01, 1.62629992e-01,
          2.90433556e-01, 1.16826938e-02, 3.09813884e-03, 4.95059649e-03,
          1.56534631e-02, 4.82991263e-02, 1.74969826e-02, 9.71239060e-03,
          1.49328895e-02, 1.67589262e-02, 2.90433556e-01, 1.03053801e-01,
          1.30911410e-01, 1.93228185e-01, 2.90433556e-01, 2.08681792e-01,
          1.10160701e-01, 1.29483804e-01, 2.90433556e-01, 7.60946097e-03,
          3.35850031e-03, 6.88641239e-03, 1.38728144e-02, 4.64529693e-02,
          7.63833057e-03, 5.48911700e-03, 9.99386795e-03, 9.27554537e-03 ]
      - [ 3.05472910e-01, 1.08759627e-01, 6.78582117e-02, 8.88180137e-02,
          2.48242423e-01, 1.34778529e-01, 8.35541263e-02, 1.00334615e-01,
          3.05472910e-01, 9.32886079e-02, 7.74455443e-02, 7.06502050e-02,
          8.08270350e-02, 2.40661666e-01, 1.40771925e-01, 1.60140589e-01,
          7.90547654e-02, 8.94971937e-02, 2.64775783e-01, 1.06740952e-01,
          8.46119821e-02, 1.97204411e-01, 3.05472910e-01, 1.44643813e-01,
          7.85562545e-02, 1.07342258e-01, 2.57460535e-01, 9.78043377e-02,
          9.05701369e-02, 1.83163479e-01, 1.67355582e-01, 3.05472910e-01,
          1.72185227e-01, 1.01152420e-01, 4.88576852e-02, 6.80212826e-02,
