%YAML:1.0
---
opencv_ml_svm:
   format: 3
   svmType: C_SVC
   kernel:
      type: LINEAR
   C: 1.
   term_criteria: { epsilon:1.1920928955078125e-07, iterations:1000 }
   var_count: 324
   class_count: 2
   class_labels: !!opencv-matrix
      rows: 2
      cols: 1
      dt: i
      data: [ 0, 1 ]
   sv_total: 1
   support_vectors:
      - [ -2.87549733e-03, 1.90821365e-01, 1.27589315e-01,
          2.25957558e-01, 3.03055882e-01, 1.18617855e-01, 6.89957663e-02,
          1.48377374e-01, 3.03686056e-02, 3.49262170e-02, 3.94355431e-02,
          3.61394137e-02, 6.05879910e-02, 5.36449179e-02, 1.92281216e-01,
          1.32485405e-01, 2.34551966e-01, 3.02370459e-01, 9.32548195e-03,
          3.03602172e-03, 3.88023444e-03, 6.59911856e-02, 2.61513352e-01,
          2.53190607e-01, -4.75495830e-02, -5.32311276e-02,
          -8.23982432e-02, 1.25221489e-03, -5.29528335e-02,
          -2.19775178e-02, -1.02986395e-02, 1.16973348e-01,
          -4.16474380e-02, -1.37335002e-01, -1.16378136e-01,
          1.97621696e-02, 2.10847296e-02, 1.75845828e-02, 2.91664191e-02,
          4.74286042e-02, -1.32768795e-01, 7.19662085e-02,
          1.64761126e-01, 2.42464095e-01, 2.67900050e-01, 2.11137300e-03,
          -5.09154052e-03, -1.19818496e-02, 7.36050261e-03,
          -1.86104447e-01, 6.52608871e-02, 1.22182019e-01,
          3.24862957e-01, 1.05447732e-01, 3.87472585e-02,
          -2.54568513e-02, -9.46476031e-03, 6.01965701e-04,
          -1.79490894e-01, -1.54860035e-01, -3.02733302e-01,
          -1.45083055e-01, 4.79056910e-02, 1.15041949e-01,
          -9.90160368e-03, -1.12074679e-02, 1.14327751e-03,
          -1.52563900e-01, 1.13355683e-03, 3.78566347e-02,
          1.78444564e-01, 1.37273744e-01, 1.71381962e-02,
          -1.05362302e-02, -3.53983305e-02, -7.16608111e-03,
          -2.32857212e-01, -3.95925110e-03, 1.14682458e-01,
          2.79793620e-01, 2.48035844e-02, -2.54723541e-02,
          8.62272680e-02, 1.24591976e-01, 1.03705578e-01,
          -1.86020136e-01, -1.70429498e-02, -3.98823209e-02,
          -8.80136937e-02, -7.56121939e-04, 3.99030969e-02,
          -9.02650040e-03, -2.38754302e-02, -6.53640600e-03,
          8.55367398e-04, 1.35056242e-01, 3.00797238e-03, 2.25404158e-01,
          1.36242136e-01, -3.60271819e-02, 6.82916725e-03,
          -1.64955091e-02, 1.54853016e-02, 3.21553182e-03,
          2.30297491e-01, 2.09184010e-02, 1.30160749e-01, 6.76148981e-02,
          -1.23441383e-01, -6.17240649e-03, 1.62765593e-03,
          4.38012145e-02, 3.62163633e-01, 3.17041427e-01,
          -1.92609355e-02, -1.79772563e-02, -4.53985892e-02,
          -1.43989146e-01, -1.95336342e-02, -1.66767817e-02,
          -3.36830616e-02, 1.61600381e-01, 3.41431536e-02,
          -2.52894044e-01, -1.55234978e-01, -1.05364844e-01,
          -1.63935751e-01, -3.25855352e-02, -6.23252690e-02,
          -7.78292120e-02, 2.53815144e-01, 3.54015827e-02,
          -4.17205356e-02, 7.71548524e-02, 7.56003521e-03,
          -2.16494545e-01, -3.06723379e-02, -4.19412367e-02,
          -5.12894243e-02, 2.03030422e-01, 2.02168748e-01,
          -4.71188985e-02, -9.75491945e-03, -8.68189633e-02,
          -3.55706029e-02, -4.21971362e-03, 9.59936716e-03,
          1.29620871e-02, -1.00909635e-01, -1.22665793e-01,
          -4.70884830e-01, -1.87319085e-01, -3.18049975e-02,
          4.95567918e-02, 5.86978681e-02, 7.04555660e-02, 1.18498884e-01,
          1.56668931e-01, 3.62070143e-01, 1.07948504e-01, 2.67771214e-01,
          1.45364448e-01, -1.00457892e-01, 6.45065904e-02,
          7.61153996e-02, 4.20770980e-02, 1.46796927e-01, 3.31244200e-01,
          1.30242780e-01, 1.52540579e-01, 2.10810769e-02,
          -6.48761839e-02, 5.48595637e-02, 6.00598492e-02,
          4.56955843e-02, -4.48856540e-02, -7.43267611e-02,
          -4.01472509e-01, -2.32692331e-01, -1.60241395e-01,
          -1.30817309e-01, -1.61158126e-02, -1.57317445e-02,
          -5.97540755e-03, 1.04369171e-01, 1.05418533e-01,
          -8.38380232e-02, 1.23119414e-01, -6.21398687e-02,
          -1.53223783e-01, -5.63362949e-02, -5.84279560e-02,
          -1.82016734e-02, 2.89674610e-01, 2.04848081e-01,
          2.18503363e-02, 1.11766137e-01, -2.27470156e-02,
          -2.24580228e-01, -5.46174645e-02, -6.41366616e-02,
          -5.46091944e-02, 4.97391857e-02, -4.08456698e-02,
          -2.19010398e-01, -9.87649783e-02, -2.02382132e-01,
          -2.12989613e-01, -7.01193437e-02, -9.14379358e-02,
          -5.04455976e-02, 2.37410590e-01, 1.90812618e-01,
          2.77744029e-02, 4.25704159e-02, -3.51098664e-02,
          2.68997904e-02, 6.06799945e-02, -1.48760192e-02,
          -2.44223084e-02, -1.16879195e-01, 2.10698143e-01,
          8.57788175e-02, 1.56032324e-01, 6.26611188e-02, 9.07781869e-02,
          -8.83798394e-03, -3.40526029e-02, -1.25320051e-02,
          -5.96981682e-02, 2.57908881e-01, 1.23008527e-01,
          2.10274458e-01, 1.83368161e-01, 7.97703676e-03, 1.09483637e-01,
          1.17445081e-01, 8.56327713e-02, -2.90976405e-01,
          5.14619052e-02, 7.04185069e-02, -1.03043020e-02,
          -4.39932197e-02, -9.50736739e-03, -1.91813614e-02,
          -3.12501900e-02, -4.52396125e-02, -4.00852859e-01,
          1.08909562e-01, 1.31595865e-01, 2.30608523e-01, 4.25093845e-02,
          7.14148059e-02, -1.61965452e-02, -1.25785479e-02,
          -8.89420230e-03, -1.39707237e-01, 2.32058670e-02,
          1.09730229e-01, 1.43986613e-01, 1.04998805e-01, 6.87003732e-02,
          -1.23683512e-02, -1.31830927e-02, -3.98649927e-03,
          -2.02072531e-01, -3.05055510e-02, -1.99513257e-01,
          -9.78782922e-02, 8.11459646e-02, -1.47725910e-01,
          -4.49807830e-02, -5.83698303e-02, -4.27170880e-02,
          -2.25491360e-01, 2.07085416e-01, 7.08624870e-02,
          1.73501059e-01, 1.19165897e-01, -8.97344276e-02,
          -4.49977349e-03, -2.77836770e-02, -6.19020866e-05,
          -2.63994217e-01, 2.16744751e-01, 7.41774142e-02,
          2.74410874e-01, 2.65428931e-01, -5.82196563e-02,
          -4.64383326e-02, -6.95289224e-02, -2.11216770e-02,
          5.47312275e-02, -3.04067936e-02, -8.48467574e-02,
          -3.53116095e-02, -4.71444279e-02, -6.40895590e-02,
          -1.91408431e-03, 2.71420237e-02, 7.62481764e-02,
          2.92395979e-01, 2.12529242e-01, 1.80675462e-02, 2.05842294e-02,
          -1.61672477e-02, -2.46191919e-02, -6.18895777e-02,
          -3.79110910e-02, 9.80802905e-03, -1.27226278e-01,
          6.21864758e-02, 1.73513606e-01, 2.09370196e-01, 3.17226499e-01,
          3.81037109e-02, 1.25810936e-01, 2.94852614e-01, 3.41778606e-01,
          2.92509913e-01, 2.13615850e-01, 1.03316888e-01, 1.77401915e-01,
          7.60101825e-02 ]
   uncompressed_sv_total: 20
   uncompressed_support_vectors:
      - [ 3.08345854e-01, 2.29925625e-02, 7.41525516e-02, 2.75656451e-02,
          3.08345854e-01, 1.63387403e-01, 1.15239866e-01, 2.87543014e-02,
          3.08345854e-01, 3.08345854e-01, 6.00352709e-04, 7.65384815e-04,
          1.21560344e-03, 8.79416894e-03, 5.77789918e-03, 9.79396747e-04,
          3.01334029e-03, 3.08345854e-01, 1.94378570e-01, 1.47499032e-02,
          4.21466567e-02, 1.43725090e-02, 3.08345854e-01, 3.08345854e-01,
          1.35577068e-01, 5.04452027e-02, 1.95347935e-01, 3.02332580e-01,
          7.18701282e-04, 6.23165921e-04, 1.73689739e-03, 2.88089681e-02,
          8.00242648e-03, 1.94800633e-03, 1.29487144e-03, 3.03788394e-01,
          3.57398003e-01, 3.21989181e-04, 4.84843709e-04, 3.41406732e-04,
          2.06854031e-03, 1.32833759e-03, 3.20477498e-04, 2.33069970e-03,
          3.57398003e-01, 3.57398003e-01, 2.50830344e-04, 1.60615353e-04,
          0., 4.51947912e-04, 0., 0., 6.64006278e-04, 3.57398003e-01,
          3.39375377e-01, 1.41934957e-04, 1.49148444e-04, 2.56267871e-04,
          2.85591907e-03, 4.27642401e-04, 1.07509288e-04, 6.87820357e-05,
          3.38869184e-01, 3.57398003e-01, 0., 0., 0., 1.92130647e-05, 0.,
          3.05483481e-05, 1.02087206e-05, 3.57398003e-01, 3.37660879e-01,
          2.51784804e-03, 1.16763655e-02, 3.70396650e-03, 5.45977876e-02,
          4.87462897e-03, 1.48235466e-02, 6.57606637e-03, 3.37660879e-01,
          3.37660879e-01, 4.80054319e-02, 9.98813361e-02, 1.62329584e-01,
          3.37660879e-01, 1.46458730e-01, 1.75183326e-01, 2.43458878e-02,
          3.37660879e-01, 2.51498252e-01, 6.75579882e-04, 3.67921009e-03,
          1.31025119e-03, 7.61163458e-02, 2.00480362e-03, 9.16617922e-03,
          2.10711063e-04, 2.54923373e-01, 1.75030768e-01, 1.27424374e-02,
          3.75371203e-02, 4.02688757e-02, 3.37660879e-01, 6.29064515e-02,
          7.91218430e-02, 1.78884075e-03, 1.98909372e-01, 9.92635265e-03,
          5.19180344e-03, 6.03438262e-03, 1.14957141e-02, 3.21834296e-01,
          3.21834296e-01, 3.21834296e-01, 2.15088591e-01, 4.28787358e-02,
          1.06470929e-02, 3.61344987e-03, 2.92393286e-03, 6.36724336e-03,
          7.72390813e-02, 5.78161180e-02, 3.82054634e-02, 2.04566233e-02,
          9.07840114e-03, 1.19381435e-02, 1.28661618e-02, 2.17244755e-02,
          1.49987051e-02, 3.07405412e-01, 3.21834296e-01, 3.21834296e-01,
          3.21834296e-01, 5.48454560e-02, 1.51153663e-02, 9.98982787e-03,
          8.10677465e-03, 8.98615271e-03, 9.77968723e-02, 2.40982518e-01,
          3.21834296e-01, 2.11921677e-01, 1.92168560e-02, 7.77685940e-02,
          2.15161517e-02, 1.08030289e-02, 2.25791316e-02, 1.56410515e-01,
          0., 6.16005296e-03, 3.67893698e-03, 5.65882586e-02,
          1.32496338e-02, 5.89779229e-04, 1.76484417e-03, 0.,
          3.95274647e-02, 0., 6.21319143e-03, 2.07633968e-03,
          1.32496338e-02, 1.96088701e-01, 9.92066264e-02, 8.98072645e-02,
          8.48601311e-02, 3.18657398e-01, 2.79826820e-01, 6.98298752e-01,
          3.53499681e-01, 1.99803531e-01, 8.46843049e-02, 1.43974945e-02,
          3.59255634e-02, 2.30803154e-02, 1.55681163e-01, 5.61482944e-02,
          1.25705361e-01, 2.14864593e-02, 8.63102749e-02, 5.37984131e-04,
          1.63270277e-04, 4.91061830e-04, 3.16433754e-04, 1.74329162e-01,
          5.14559797e-04, 1.72862754e-04, 3.49057918e-05, 5.37984131e-04,
          2.28715898e-03, 4.35338676e-04, 3.39129032e-03, 5.87583566e-03,
          6.79221332e-01, 9.31888539e-03, 8.55142935e-05, 0.,
          2.28715898e-03, 8.16193409e-04, 1.23627164e-04, 3.71365400e-04,
          4.17671632e-04, 1.98168606e-01, 6.83469290e-04, 1.49277435e-03,
          3.70651163e-04, 8.95191391e-04, 6.98202814e-04, 2.18589441e-04,
          6.59093785e-04, 2.68051531e-02, 6.79221332e-01, 1.88158336e-03,
          1.21428072e-03, 4.02777136e-04, 6.98202814e-04, 7.79700046e-03,
          7.29526393e-03, 6.67299656e-03, 1.19564487e-02, 5.59650064e-02,
          3.25227976e-01, 3.64260584e-01, 3.18976283e-01, 2.01748665e-02,
          8.81836656e-03, 6.94577489e-03, 4.69284924e-03, 8.91549233e-03,
          3.59340236e-02, 1.82739079e-01, 3.64260584e-01, 3.64260584e-01,
          2.20366139e-02, 8.03523138e-03, 4.80665825e-03, 2.80569913e-03,
          1.12130865e-02, 1.71013940e-02, 6.28474057e-02, 2.40740538e-01,
          1.10707678e-01, 1.13343773e-02, 1.41457682e-02, 3.01246298e-03,
          3.32531636e-03, 1.09028555e-02, 1.97876021e-02, 9.08144936e-02,
          3.64260584e-01, 3.64260584e-01, 4.89079840e-02, 1.22767556e-02,
          7.03250244e-03, 8.03543441e-03, 1.06039913e-02, 2.05255095e-02,
          3.93893756e-02, 3.87998939e-01, 2.59509623e-01, 3.33828777e-02,
          1.31041957e-02, 2.30641104e-03, 4.05547442e-03, 8.18287022e-03,
          1.53642828e-02, 9.95755661e-03, 5.36384992e-02, 4.42629345e-02,
          2.64519472e-02, 4.40807417e-02, 5.75928250e-03, 6.04028581e-03,
          1.30200665e-02, 2.28827130e-02, 1.05302125e-01, 3.87998939e-01,
          3.87998939e-01, 1.51906699e-01, 1.07395872e-01, 5.55975549e-03,
          4.86437744e-03, 1.46393664e-02, 2.26548109e-02, 7.17081800e-02,
          3.87998939e-01, 3.87998939e-01, 3.34870905e-01, 5.20926714e-03,
          3.51607741e-04, 4.28573345e-04, 2.62963469e-03, 1.35944039e-01,
          1.87645596e-03, 3.23353871e-03, 2.91712652e-03, 7.41308462e-03,
          2.69604684e-03, 1.29698694e-03, 4.99229692e-03, 2.25045979e-02,
          4.92734522e-01, 1.51893329e-02, 9.27382149e-03, 1.22751342e-03,
          1.84713898e-03, 1.49327695e-01, 8.47674627e-03, 6.69658277e-03,
          1.94740649e-02, 1.34810492e-01, 4.10533883e-02, 2.50734180e-01,
          3.32193166e-01, 3.59781802e-01, 1.74034029e-01, 6.50464445e-02,
          1.51928753e-01, 1.51919678e-01, 4.92734522e-01, 9.75313708e-02,
          8.36533904e-02, 9.23853219e-02, 1.97501108e-01 ]
      - [ 9.45525542e-02, 4.61448804e-02, 6.13933913e-02, 1.39099881e-01,
          4.76474255e-01, 8.71789083e-02, 4.34282534e-02, 6.04931004e-02,
          1.49954796e-01, 2.27579951e-01, 4.75521572e-02, 5.50053343e-02,
          6.18930645e-02, 2.74476707e-01, 7.30213299e-02, 1.75859228e-01,
          1.95960835e-01, 4.29338276e-01, 6.26320438e-03, 4.44958918e-03,
          4.33138339e-03, 8.55757892e-02, 4.76474255e-01, 8.36261511e-02,
          5.44737419e-03, 5.53543400e-03, 7.21479580e-03, 1.98326744e-02,
          7.65798427e-03, 6.32990850e-03, 1.58198867e-02, 2.44273707e-01,
          1.81304272e-02, 5.88839408e-03, 6.50889799e-03, 2.83433981e-02,
          2.20230728e-01, 4.77578118e-02, 5.68395667e-02, 6.72604442e-02,
          1.08274832e-01, 6.77454546e-02, 2.88398236e-01, 1.82492375e-01,
          3.15025598e-01, 3.51232320e-01, 4.13791388e-02, 3.54745947e-02,
          4.94264662e-02, 9.08394232e-02, 7.77805150e-02, 3.51232320e-01,
          3.51232320e-01, 3.51232320e-01, 2.19327118e-02, 7.40515813e-03,
          4.06262372e-03, 1.24055296e-02, 1.54431127e-02, 1.70805324e-02,
          3.73100191e-02, 1.85548551e-02, 3.37945074e-02, 4.00305986e-02,
          1.11138551e-02, 4.60362900e-03, 1.38905235e-02, 4.60384078e-02,
          5.90038262e-02, 3.51232320e-01, 2.37499401e-01, 3.63976173e-02,
          2.93723583e-01, 1.58257913e-02, 1.46141797e-02, 2.48261001e-02,
          6.99426979e-02, 8.03153962e-02, 2.93723583e-01, 2.82816291e-01,
          2.93723583e-01, 2.41456673e-01, 3.49559151e-02, 4.41659503e-02,
          6.47082701e-02, 1.47956476e-01, 8.99873972e-02, 1.62381485e-01,
          7.98429623e-02, 2.52206206e-01, 2.96548456e-02, 8.62369873e-03,
          1.13646397e-02, 1.06215188e-02, 1.01882271e-01, 1.67500570e-01,
          2.93723583e-01, 2.93723583e-01, 4.36858833e-02, 3.15107554e-02,
          8.74863472e-03, 1.85494125e-02, 2.99570374e-02, 1.69771090e-01,
          2.35652119e-01, 2.93723583e-01, 2.50281692e-01, 6.45651817e-02,
          4.67114011e-03, 4.45422484e-03, 6.40498335e-03, 1.46518350e-01,
          6.08658731e-01, 1.37871608e-01, 3.82232806e-03, 6.93070795e-03,
          8.26018304e-03, 3.71932192e-03, 1.00626471e-03, 1.16401468e-03,
          9.09647532e-03, 2.72425652e-01, 9.48745105e-03, 1.12439168e-03,
          5.93388802e-04, 4.67719510e-03, 1.00584701e-02, 6.60035200e-03,
          3.44568025e-03, 1.36463061e-01, 6.08658731e-01, 1.44192547e-01,
          2.35209987e-03, 7.88602326e-03, 1.67189352e-02, 7.50552304e-03,
          5.04376250e-04, 8.98846018e-04, 1.02331322e-02, 3.12457800e-01,
          1.07627455e-02, 1.75724551e-03, 6.53204683e-04, 6.70380378e-03,
          6.67984858e-02, 7.38238916e-03, 6.52619172e-03, 1.00086173e-02,
          7.32245073e-02, 1.27614764e-02, 8.28401558e-03, 5.24589606e-03,
          7.55719841e-02, 2.66183138e-01, 4.95579652e-02, 4.89017703e-02,
          1.30988866e-01, 4.31682199e-01, 2.98581511e-01, 4.64346558e-01,
          3.66274953e-01, 3.07563066e-01, 4.94806841e-02, 1.54703390e-03,
          5.42062474e-03, 6.58563059e-03, 1.14729851e-01, 1.20225288e-02,
          1.13893580e-02, 3.64451390e-03, 4.93678078e-02, 1.68623760e-01,
          4.14742306e-02, 2.83921454e-02, 7.72178248e-02, 2.47073114e-01,
          4.78689708e-02, 8.05230737e-02, 8.86970982e-02, 1.83356434e-01,
          4.18339297e-02, 1.04041118e-02, 9.83784162e-03, 1.46660293e-02,
          2.00763375e-01, 1.65703610e-01, 2.33372495e-01, 1.96199685e-01,
          8.05076584e-02, 6.05477169e-02, 1.27550978e-02, 1.36551093e-02,
          4.76560369e-02, 3.00370902e-01, 3.00370902e-01, 3.00370902e-01,
          3.00370902e-01, 1.97145343e-01, 2.39556786e-02, 6.24354882e-03,
          4.67204535e-03, 1.34738619e-02, 1.55882299e-01, 7.30828866e-02,
          6.31778911e-02, 4.96158041e-02, 4.18227017e-02, 3.07340007e-02,
          7.79666146e-03, 1.33169098e-02, 5.65903485e-02, 3.00370902e-01,
          3.00370902e-01, 3.00370902e-01, 2.71536142e-01, 1.84766740e-01,
          1.43067136e-01, 6.09523207e-02, 3.25408988e-02, 7.91364908e-02,
          3.35036606e-01, 7.82452002e-02, 6.98596165e-02, 4.20750156e-02,
          1.20535441e-01, 2.26046160e-01, 3.35297012e-03, 5.06942440e-03,
          4.18242533e-03, 9.51328129e-02, 1.12470901e-02, 9.89894941e-03,
          7.65627064e-03, 2.26947740e-01, 3.35036606e-01, 1.44241601e-01,
          1.40025616e-01, 1.60174295e-01, 3.35036606e-01, 1.45799756e-01,
          2.10123628e-01, 1.27148792e-01, 3.35036606e-01, 3.35036606e-01,
          1.35494880e-02, 1.84733234e-02, 7.77897192e-03, 5.27128465e-02,
          1.29855676e-02, 2.38557309e-02, 2.47404948e-02, 3.35036606e-01,
          2.69690514e-01, 2.84844515e-04, 2.86097813e-04, 2.59092427e-04,
          4.91671544e-03, 1.29854947e-03, 1.69998757e-03, 1.31444109e-03,
          2.71531463e-01, 3.09011906e-01, 2.63477326e-03, 1.66461978e-03,
          1.73885014e-03, 6.22531818e-03, 6.59657526e-04, 3.08363442e-03,
          2.46917130e-03, 3.00278544e-01, 4.07326132e-01, 1.95304782e-03,
          1.14002579e-03, 0., 2.72959145e-03, 7.23706733e-04,
          1.13519735e-03, 1.84555550e-03, 4.07326132e-01, 4.07326132e-01,
          3.63717997e-03, 7.09519954e-04, 3.64563835e-04, 2.86160153e-03,
          5.58621332e-06, 5.90509328e-04, 4.03205585e-03, 4.07326132e-01,
          1.95898414e-01, 3.10388813e-03, 3.75540461e-03, 1.25430683e-02,
          5.85063174e-02, 1.95580032e-02, 1.01457434e-02, 5.20104636e-03,
          1.84783936e-01, 1.41703844e-01, 1.85855087e-02, 6.46915436e-02,
          9.83717367e-02, 3.11504900e-01, 2.56772816e-01, 1.04682520e-01,
          8.88964310e-02, 1.75787300e-01, 3.11504900e-01, 7.13265594e-03,
          1.41391046e-02, 1.42186880e-02, 3.65350507e-02, 1.28133027e-02,
          6.80281222e-03, 4.98270197e-03, 3.11504900e-01, 3.11504900e-01,
          4.24053520e-02, 2.20220715e-01, 1.69325352e-01, 3.11504900e-01,
          2.87297606e-01, 1.39527604e-01, 7.11228400e-02, 3.11504900e-01 ]
      - [ 3.28467876e-01, 1.41453534e-01, 1.45509735e-01, 1.55448988e-01,
          3.28467876e-01, 8.14581215e-02, 1.42456904e-01, 1.75865591e-01,
          3.28467876e-01, 3.28467876e-01, 3.23007815e-02, 2.43149567e-02,
          1.79181192e-02, 1.00160725e-01, 1.08229928e-02, 2.37602945e-02,
          1.99203994e-02, 3.28467876e-01, 1.44150287e-01, 2.39459071e-02,
          4.07019816e-02, 5.85703589e-02, 3.28467876e-01, 1.41918197e-01,
          1.11764543e-01, 9.82342735e-02, 1.87867090e-01, 1.77249134e-01,
          4.13252227e-03, 1.77639741e-02, 1.70027185e-02, 1.93109110e-01,
          5.62149696e-02, 3.51853594e-02, 2.92812996e-02, 1.85737818e-01,
          4.26491797e-01, 1.37949141e-03, 1.47383066e-03, 1.09091552e-03,
          4.19867970e-03, 1.60044793e-03, 4.43307264e-03, 5.37579833e-03,
          4.26491797e-01, 4.26491797e-01, 1.81403209e-03, 3.54083534e-03,
          1.23853330e-03, 2.56767776e-03, 1.09267409e-03, 2.10900488e-03,
          1.70080457e-03, 4.26491797e-01, 2.49893889e-01, 1.69591827e-03,
          7.07601197e-04, 8.15879670e-04, 8.21920857e-03, 8.42740992e-04,
          1.79673452e-03, 2.82630790e-03, 2.38320440e-01, 2.71578491e-01,
          5.38393680e-04, 0., 0., 4.04915860e-04, 0., 5.29199533e-05,
          5.10397076e-04, 2.73805439e-01, 3.59562635e-01, 1.58583000e-03,
          9.64705739e-03, 1.41228838e-02, 8.65369886e-02, 1.83631200e-02,
          2.98830830e-02, 1.31552585e-03, 3.59562635e-01, 3.59562635e-01,
          3.69749852e-02, 1.91790327e-01, 1.06958620e-01, 3.59562635e-01,
          1.80865556e-01, 1.91972092e-01, 4.85058203e-02, 3.59562635e-01,
          1.17692456e-01, 7.78057380e-04, 3.49258352e-03, 5.27783437e-03,
          1.65066585e-01, 1.00898053e-02, 5.98352356e-03, 7.18858500e-04,
          1.25140563e-01, 1.01792902e-01, 1.06420396e-02, 5.09238020e-02,
          5.20680360e-02, 3.59562635e-01, 6.82875589e-02, 3.01957764e-02,
          1.06641920e-02, 1.08468637e-01, 1.03446953e-02, 2.30537611e-03,
          7.83763360e-03, 2.35914327e-02, 2.72895068e-01, 2.71968544e-01,
          1.30905792e-01, 1.62649646e-01, 2.01054007e-01, 5.78502379e-03,
          2.33819336e-03, 5.26065147e-03, 1.53079955e-02, 2.72895068e-01,
          1.69133648e-01, 8.19680169e-02, 1.05992585e-01, 1.17352523e-01,
          4.03073616e-02, 5.83018875e-03, 4.93561709e-03, 4.04430777e-02,
          2.72895068e-01, 2.72895068e-01, 1.59447759e-01, 2.33406782e-01,
          2.25266442e-01, 5.74345626e-02, 4.03235946e-03, 4.92456136e-03,
          3.43611464e-02, 2.72895068e-01, 2.72895068e-01, 2.37971604e-01,
          2.72895068e-01, 2.48015299e-01, 5.73885022e-03, 4.15984960e-03,
          5.08410810e-03, 1.53305307e-02, 1.88624218e-01, 6.83157146e-02,
          2.09852029e-02, 6.02441840e-02, 3.28943990e-02, 3.38565122e-04,
          0., 0., 0., 5.43801871e-04, 0., 0., 0., 3.38565122e-04,
          1.35794267e-01, 5.07446425e-03, 1.00489119e-02, 4.33042236e-02,
          4.47391123e-01, 4.47391123e-01, 4.47391123e-01, 4.47391123e-01,
          3.57156068e-01, 9.39859916e-03, 6.80599478e-04, 1.70389819e-03,
          4.52343700e-03, 2.12528631e-02, 5.13475109e-03, 1.55722285e-02,
          1.51379565e-02, 1.10404044e-02, 1.15687799e-05, 1.09658038e-04,
          2.47655407e-04, 1.58795432e-04, 2.94715762e-01, 3.72230512e-04,
          5.34596562e-04, 1.58738854e-04, 4.37222916e-05, 3.82494443e-04,
          6.82762067e-04, 9.27156711e-04, 4.33178199e-03, 6.31504953e-01,
          1.65323494e-03, 7.89956015e-04, 2.24161326e-04, 2.75395432e-04,
          1.64244833e-04, 0., 0., 0., 3.30479026e-01, 0., 8.96529091e-05,
          4.65765006e-05, 1.67660924e-04, 3.28336341e-06, 0., 0.,
          1.30338944e-04, 6.31504953e-01, 0., 0., 0., 3.28336341e-06,
          5.87246381e-02, 1.40224807e-02, 8.96307640e-03, 3.88903879e-02,
          1.37028724e-01, 2.12328047e-01, 1.40772104e-01, 1.83262482e-01,
          1.29055992e-01, 1.11191295e-01, 1.40922274e-02, 9.84909106e-03,
          3.82722653e-02, 2.17710346e-01, 3.62084389e-01, 3.62084389e-01,
          3.62084389e-01, 2.53633171e-01, 1.25511074e-02, 8.25183000e-03,
          6.98351534e-03, 5.15859481e-03, 1.21974824e-02, 4.52891178e-02,
          3.85685824e-02, 3.02978978e-02, 1.75557677e-02, 4.08804044e-02,
          1.44609576e-02, 1.59145612e-02, 7.85409380e-03, 2.96847802e-02,
          2.43201867e-01, 3.62084389e-01, 3.62084389e-01, 9.17159095e-02,
          3.94193940e-02, 3.59832053e-03, 4.02521435e-03, 6.71984442e-03,
          7.02849999e-02, 2.25014016e-01, 3.18373054e-01, 3.18373054e-01,
          9.26339552e-02, 1.52709922e-02, 1.55147375e-03, 2.44825240e-03,
          1.47254393e-03, 1.15470076e-02, 4.76711281e-02, 1.16223298e-01,
          9.04912800e-02, 5.73959723e-02, 4.19438891e-02, 7.38048740e-03,
          8.49287678e-03, 3.06033646e-03, 3.33305523e-02, 2.67176509e-01,
          3.18373054e-01, 3.18373054e-01, 1.63683593e-01, 1.00428969e-01,
          7.69297546e-03, 5.05634444e-03, 4.97069303e-03, 5.16294949e-02,
          2.82533824e-01, 3.18373054e-01, 3.18373054e-01, 3.18373054e-01,
          7.53614679e-03, 3.98034317e-04, 6.32504583e-04, 3.12398013e-04,
          2.56648719e-01, 5.75042004e-03, 1.09527400e-02, 9.98869166e-03,
          2.17910446e-02, 1.60275795e-03, 1.65995778e-04, 4.09886925e-05,
          7.65354664e-04, 5.06149232e-01, 2.70410761e-04, 2.58049811e-04,
          6.57497963e-04, 1.93005626e-03, 1.67015567e-01, 1.27899051e-02,
          4.39050049e-02, 1.15191191e-02, 2.47016996e-01, 9.55668092e-02,
          1.68592468e-01, 1.65533498e-01, 3.65494013e-01, 1.79825693e-01,
          5.09367026e-02, 1.63007140e-01, 2.67089009e-02, 5.06149232e-01,
          2.70436686e-02, 1.85397007e-02, 3.79959457e-02, 2.47982293e-01 ]
      - [ 1.53051645e-01, 8.13925043e-02, 3.46464403e-02, 8.01790953e-02,
          3.92288446e-01, 5.56854866e-02, 2.82039847e-02, 4.37112078e-02,
          1.43376365e-01, 2.38310471e-01, 4.51439992e-02, 2.58999839e-02,
          6.85896054e-02, 3.14967573e-01, 2.63644785e-01, 2.00361177e-01,
          2.30309561e-01, 3.92288446e-01, 2.05377536e-03, 5.48314187e-04,
          2.58222775e-04, 1.59744695e-02, 3.92288446e-01, 4.53044195e-03,
          0., 0., 3.02870781e-03, 1.48383910e-02, 2.55806674e-03,
          4.70752222e-03, 5.59206912e-03, 3.74865115e-01, 9.17851273e-03,
          1.55924149e-02, 1.76746994e-02, 5.02913930e-02, 8.83085206e-02,
          5.44397626e-03, 1.22650201e-02, 3.06756273e-02, 8.01852345e-02,
          2.24318042e-01, 3.33008498e-01, 2.90594280e-01, 3.33008498e-01,
          3.85949984e-02, 5.37490612e-03, 6.51679747e-03, 1.72928721e-02,
          5.71925007e-02, 2.14713827e-01, 3.33008498e-01, 3.33008498e-01,
          1.67348236e-01, 1.24395704e-02, 2.76813493e-03, 5.59559977e-03,
          3.34230089e-03, 1.65937692e-02, 3.01477760e-02, 1.09310649e-01,
          7.78161436e-02, 5.83416559e-02, 2.56516505e-02, 5.14234649e-03,
          4.82531032e-03, 1.42688975e-02, 9.08224285e-02, 2.48819888e-01,
          3.33008498e-01, 3.33008498e-01, 8.99179056e-02, 3.35525461e-02,
          8.22243933e-03, 4.47252346e-03, 1.90480445e-02, 6.02216497e-02,
          1.61208764e-01, 3.54695201e-01, 3.54695201e-01, 6.04830943e-02,
          1.24113867e-02, 5.77161182e-03, 3.42464447e-03, 7.53918197e-03,
          3.01525984e-02, 3.20156775e-02, 5.94865344e-02, 3.62900682e-02,
          1.37430718e-02, 4.86930311e-02, 9.26159415e-03, 7.00774230e-03,
          3.36548574e-02, 2.47025132e-01, 3.54695201e-01, 3.54695201e-01,
          3.54695201e-01, 1.84545293e-01, 2.96395347e-02, 9.77488142e-03,
          8.65443982e-03, 2.58940924e-02, 1.88536197e-01, 2.66819745e-01,
          2.01235607e-01, 2.53675163e-01, 1.15355417e-01, 4.25590224e-05,
          0., 0., 2.27544201e-03, 5.17168701e-01, 8.55350227e-04,
          3.28700262e-05, 0., 4.25590224e-05, 6.57737837e-04,
          7.71917912e-05, 9.82874626e-05, 5.24661387e-04, 4.55255151e-01,
          3.93865310e-04, 2.10387821e-04, 1.54956564e-04, 9.98812146e-04,
          4.20988761e-02, 1.64881628e-02, 1.13132549e-02, 3.02827898e-02,
          5.17168701e-01, 2.80922540e-02, 1.78941004e-02, 2.70330533e-02,
          3.76424678e-02, 7.12000281e-02, 1.98394340e-03, 3.96838615e-04,
          4.57071746e-03, 4.85213399e-01, 9.05228127e-03, 6.39113644e-03,
          8.89850594e-03, 7.46196359e-02, 9.05444100e-03, 2.53938278e-03,
          4.47974540e-03, 5.07998047e-03, 2.52352841e-02, 1.12365680e-02,
          1.23234913e-02, 5.54090738e-03, 1.06875319e-02, 5.78204580e-02,
          2.51498688e-02, 2.67420802e-02, 4.60616350e-02, 4.13242340e-01,
          4.13242340e-01, 4.13242340e-01, 4.13242340e-01, 1.58611551e-01,
          2.31754720e-01, 5.09022619e-04, 6.94077113e-04, 0.,
          5.54890325e-03, 8.40959779e-04, 1.27414172e-03, 4.08031367e-04,
          2.32821032e-01, 2.70247549e-01, 1.24997878e-02, 1.71694215e-02,
          1.91748720e-02, 1.50549948e-01, 8.66152942e-02, 2.00051460e-02,
          4.20456082e-02, 2.55915701e-01, 3.24087553e-02, 4.27144859e-03,
          4.87505086e-03, 1.92551222e-02, 2.88561195e-01, 2.88561195e-01,
          1.71888605e-01, 2.88561195e-01, 1.35585219e-01, 4.34290767e-02,
          2.78731575e-03, 5.07309102e-03, 1.89208649e-02, 2.88561195e-01,
          2.88561195e-01, 1.24806143e-01, 2.44062647e-01, 1.58947870e-01,
          6.15543202e-02, 8.80662259e-03, 1.18320817e-02, 1.89790111e-02,
          2.88561195e-01, 2.08880007e-01, 7.31758028e-02, 1.07270658e-01,
          1.10391125e-01, 7.86665380e-02, 2.27581970e-02, 2.73669604e-02,
          3.80514078e-02, 2.88561195e-01, 2.88561195e-01, 1.44645125e-01,
          1.98061362e-01, 1.81106344e-01, 2.33713612e-01, 8.63193125e-02,
          7.31428042e-02, 6.76797852e-02, 3.05678099e-01, 6.76375926e-02,
          6.66501001e-02, 1.26813754e-01, 1.84052825e-01, 2.80055255e-01,
          1.18958270e-02, 1.03368470e-02, 8.05903785e-03, 1.25139743e-01,
          1.01658339e-02, 1.88711416e-02, 2.23034602e-02, 2.79285759e-01,
          3.05678099e-01, 1.20214000e-01, 1.38643339e-01, 1.52025208e-01,
          3.05678099e-01, 1.48180544e-01, 1.44499138e-01, 1.59167945e-01,
          3.05678099e-01, 3.05678099e-01, 2.41163205e-02, 1.61943380e-02,
          1.21501079e-02, 6.38545379e-02, 1.48999728e-02, 3.53944935e-02,
          2.17000805e-02, 3.05678099e-01, 3.52584153e-01, 1.99104543e-04,
          6.13751996e-04, 5.39978064e-05, 2.98458012e-03, 5.49097895e-04,
          6.00849220e-04, 1.83792537e-04, 3.52584153e-01, 3.52584153e-01,
          1.07073819e-03, 1.85222342e-03, 1.43824832e-03, 1.00036720e-02,
          3.18415114e-03, 6.17182930e-04, 1.91178883e-03, 3.52584153e-01,
          3.52584153e-01, 3.54351336e-03, 1.66291499e-03, 1.30180770e-03,
          1.06709590e-02, 7.42364151e-04, 1.51545170e-03, 6.44467771e-03,
          3.52584153e-01, 3.52584153e-01, 1.61630847e-02, 1.79786223e-03,
          6.31411001e-03, 3.06138173e-02, 4.37906617e-03, 7.58183887e-04,
          1.96229815e-02, 3.52584153e-01, 1.75287843e-01, 6.97098719e-03,
          2.01446023e-02, 2.97665261e-02, 1.36917323e-01, 3.97817604e-02,
          2.66956761e-02, 1.44146429e-02, 1.73859462e-01, 2.28158906e-01,
          3.41017693e-02, 1.12791009e-01, 1.15888819e-01, 3.02911550e-01,
          1.70797259e-01, 1.06395409e-01, 9.76583883e-02, 2.35861138e-01,
          3.02911550e-01, 1.06611997e-02, 2.03791428e-02, 4.21282277e-02,
          8.16424415e-02, 1.84045937e-02, 1.76142398e-02, 6.97014062e-03,
          2.87064821e-01, 3.02911550e-01, 3.09183728e-02, 1.40246406e-01,
          2.49907836e-01, 3.02911550e-01, 2.55377620e-01, 1.00529112e-01,
          1.38371676e-01, 3.02911550e-01 ]
      - [ 3.26510221e-01, 8.54542200e-03, 9.39925238e-02, 1.13002509e-01,
          3.26510221e-01, 1.29408851e-01, 9.73176956e-02, 4.06619422e-02,
          3.26510221e-01, 3.26510221e-01, 2.48170545e-04, 2.58471176e-04,
          5.67224633e-04, 1.44986389e-02, 4.55186563e-03, 2.48173397e-04,
          7.47371523e-04, 3.26510221e-01, 1.94260269e-01, 2.55991518e-03,
          4.04739007e-02, 4.95261997e-02, 3.26510221e-01, 3.26510221e-01,
          1.13882810e-01, 4.98347431e-02, 1.74233869e-01, 2.37461329e-01,
          4.43386962e-05, 6.13724333e-05, 9.34106356e-04, 3.63738574e-02,
          2.84440741e-02, 1.27513404e-03, 5.56974497e-04, 2.33511329e-01,
          4.03936476e-01, 2.27250348e-04, 3.04892368e-04, 0.,
          2.66389013e-03, 1.29862735e-03, 3.58497637e-04, 9.12570220e-04,
          4.03936476e-01, 4.03936476e-01, 3.01873405e-03, 8.45308823e-04,
          0., 2.18168250e-03, 4.61343239e-04, 3.43088759e-04,
          2.23443005e-03, 4.03936476e-01, 2.77205795e-01, 1.01013329e-05,
          0., 0., 7.12707042e-05, 0., 5.62590903e-05, 7.63415374e-05,
          2.77062565e-01, 3.07952523e-01, 0., 0., 0., 1.87701007e-05, 0.,
          0., 0., 3.07952523e-01, 3.59871686e-01, 2.39017000e-03,
          1.03804213e-03, 1.65784077e-04, 1.68383424e-03, 0.,
          4.30952321e-04, 2.49645859e-03, 3.59871686e-01, 3.59871686e-01,
          4.20329981e-02, 9.08556581e-02, 2.84677930e-02, 3.59871686e-01,
          3.37674990e-02, 8.35470930e-02, 2.84564048e-02, 3.59871686e-01,
          2.24125355e-01, 0., 0., 3.36109733e-05, 7.30963802e-05, 0., 0.,
          0., 2.24125355e-01, 2.07597956e-01, 2.47758888e-02,
          3.94972861e-02, 8.66748020e-03, 3.59871686e-01, 1.76713038e-02,
          3.53109762e-02, 1.11791026e-02, 2.28223830e-01, 5.67807769e-03,
          4.64798184e-03, 6.41299877e-03, 1.68230776e-02, 3.61820281e-01,
          3.67350668e-01, 3.67350668e-01, 5.53158894e-02, 1.38601856e-02,
          6.05905894e-03, 2.93768453e-03, 7.45566271e-04, 3.82329174e-03,
          5.26193865e-02, 1.55605018e-01, 7.60695338e-02, 1.21080521e-02,
          4.79872525e-03, 5.86832082e-03, 1.80039939e-03, 1.46687333e-03,
          1.59181673e-02, 1.30930066e-01, 3.67350668e-01, 3.67350668e-01,
          1.14254542e-01, 2.24676784e-02, 9.39893257e-03, 6.31759549e-03,
          3.26003321e-03, 7.16638705e-03, 3.89085524e-02, 3.19303632e-01,
          3.67350668e-01, 1.38072819e-01, 1.83592997e-02, 4.63873520e-02,
          2.35123150e-02, 6.72276923e-03, 3.22480127e-02, 1.65399443e-02,
          3.17278355e-02, 2.43264362e-02, 3.24274339e-02, 2.93512940e-02,
          8.62605125e-03, 0., 3.03485489e-04, 1.86355773e-03,
          3.60838720e-03, 8.29426688e-04, 1.29101070e-04, 4.37733906e-05,
          8.62605125e-03, 7.93300197e-02, 5.25044426e-02, 3.38601209e-02,
          7.92558417e-02, 1.04720518e-01, 4.30305958e-01, 6.14625335e-01,
          6.14625335e-01, 9.07246545e-02, 3.37226689e-02, 3.59279453e-03,
          6.00590045e-03, 7.01341452e-03, 7.03882426e-02, 8.61454662e-03,
          3.50074209e-02, 2.20070239e-02, 4.22070958e-02, 1.13190059e-03,
          0., 0., 0., 0., 0., 0., 0., 1.13190059e-03, 2.87533319e-03,
          4.98737767e-03, 7.01064710e-03, 2.07199855e-03, 7.04565287e-01,
          1.91429956e-03, 0., 0., 2.87533319e-03, 2.63854116e-03,
          2.71121389e-04, 4.18280135e-04, 5.41650734e-05, 5.11212787e-03,
          1.45254264e-04, 7.11266592e-04, 5.52076090e-04, 2.66210199e-03,
          2.57679385e-05, 3.36855305e-06, 9.93488902e-06, 0.,
          7.04565287e-01, 0., 0., 0., 2.57679385e-05, 4.87370929e-03,
          1.67487457e-03, 2.43245112e-03, 4.27986169e-03, 3.09979860e-02,
          2.15842530e-01, 4.16086346e-01, 1.16669305e-01, 1.76482927e-02,
          5.98748820e-03, 1.98926451e-03, 2.77730613e-03, 4.82951943e-03,
          1.81231834e-02, 1.77811608e-01, 4.16086346e-01, 4.16086346e-01,
          2.87410244e-02, 4.13084030e-03, 1.45574170e-03, 1.82679587e-03,
          2.38862634e-03, 1.24084558e-02, 1.63999833e-02, 1.69458970e-01,
          4.34946567e-02, 9.31258965e-03, 1.19200675e-02, 2.79030018e-03,
          2.03746767e-03, 2.95838178e-03, 1.19898776e-02, 4.16981429e-02,
          4.16086346e-01, 4.16086346e-01, 5.14571965e-02, 6.85761776e-03,
          1.13524392e-03, 1.08376727e-03, 3.40253441e-03, 8.71745124e-03,
          4.43649143e-02, 3.61284703e-01, 3.61284703e-01, 4.33045626e-02,
          1.15037151e-02, 1.33707479e-03, 1.41956576e-03, 1.71479874e-03,
          1.32287266e-02, 1.48804979e-02, 1.33812457e-01, 1.12083182e-01,
          6.33000359e-02, 1.99600402e-02, 2.36098701e-03, 1.34192710e-03,
          2.35849945e-03, 1.07116755e-02, 6.73540607e-02, 3.61284703e-01,
          3.61284703e-01, 1.54589981e-01, 5.61548732e-02, 2.07516272e-03,
          2.21417588e-03, 6.65207487e-03, 1.64878014e-02, 1.06175080e-01,
          3.61284703e-01, 3.61284703e-01, 3.61284703e-01, 9.16268118e-03,
          8.80483480e-04, 1.40717777e-03, 1.12763175e-03, 9.58172884e-03,
          4.70356038e-03, 2.06321683e-02, 2.58446410e-02, 3.46681476e-02,
          1.52729033e-03, 1.17143727e-05, 3.45492517e-05, 2.87594018e-03,
          3.67328614e-01, 1.25817407e-03, 1.51812716e-03, 1.41841709e-04,
          2.83162133e-03, 1.31242335e-01, 1.30149815e-03, 1.89063116e-03,
          6.65960135e-03, 1.26600619e-02, 7.35381246e-02, 3.67328614e-01,
          3.67328614e-01, 3.67328614e-01, 2.59643674e-01, 1.35815158e-01,
          7.82313123e-02, 8.19536373e-02, 3.67328614e-01, 3.49711441e-02,
          1.34784609e-01, 2.08084300e-01, 3.67328614e-01 ]
      - [ 3.31341237e-01, 1.17971495e-01, 3.06078177e-02, 7.31462985e-02,
          3.31341237e-01, 9.25343484e-02, 5.93245998e-02, 1.04400627e-01,
          3.31341237e-01, 3.31341237e-01, 5.91733819e-03, 5.03471959e-03,
          8.19380395e-03, 2.79471558e-02, 9.18276608e-03, 2.49296194e-03,
          3.44979973e-03, 3.31341237e-01, 2.01749325e-01, 4.39650118e-02,
          2.37206463e-02, 4.49115746e-02, 3.31341237e-01, 2.62679905e-01,
          1.30014539e-01, 9.63325948e-02, 1.84091270e-01, 2.44915053e-01,
          6.05414109e-03, 3.74926860e-03, 6.92955265e-03, 5.14884628e-02,
          1.66911539e-02, 9.75686312e-03, 2.91205198e-03, 2.37413824e-01,
          4.09202546e-01, 4.10989439e-03, 4.74679517e-03, 2.50217901e-03,
          8.20063241e-03, 4.04469809e-03, 2.68802163e-03, 2.44189869e-03,
          4.09202546e-01, 4.09202546e-01, 1.61852804e-03, 2.60556838e-03,
          2.58219102e-03, 7.65467994e-03, 3.09895002e-03, 2.32464494e-03,
          2.79789604e-03, 4.09202546e-01, 2.73205698e-01, 2.32314295e-03,
          2.30433233e-03, 1.52958441e-03, 5.78346103e-03, 2.38153781e-03,
          1.68819143e-03, 1.30026508e-03, 2.74100035e-01, 2.96544075e-01,
          1.93490495e-03, 2.06499966e-03, 3.38192884e-04, 7.10835727e-03,
          9.19978193e-04, 1.47429598e-03, 2.03933846e-03, 2.96735942e-01,
          3.62374932e-01, 6.31085131e-03, 6.82504848e-03, 7.54380831e-03,
          7.53539279e-02, 9.13188141e-03, 7.47585436e-03, 1.27975950e-02,
          3.62374932e-01, 3.62374932e-01, 1.38491184e-01, 8.19040537e-02,
          9.47979167e-02, 3.62374932e-01, 8.39982480e-02, 9.79089290e-02,
          1.43700153e-01, 3.62374932e-01, 1.72565088e-01, 3.10112280e-03,
          3.45674390e-03, 4.54122899e-03, 9.23469588e-02, 5.39074419e-03,
          4.18379717e-03, 6.13396661e-03, 1.77015737e-01, 1.31172448e-01,
          5.18384352e-02, 2.71522440e-02, 6.31470531e-02, 3.62374932e-01,
          5.64671718e-02, 5.46585172e-02, 5.88971488e-02, 1.61753505e-01,
          4.78816628e-02, 9.39469412e-03, 2.29089092e-02, 4.81305681e-02,
          3.00016820e-01, 3.00016820e-01, 3.00016820e-01, 2.14430913e-01,
          1.10538118e-01, 2.85194870e-02, 5.19118458e-03, 5.63794468e-03,
          1.58170480e-02, 9.09097865e-02, 6.65050447e-02, 5.65121025e-02,
          2.65971031e-02, 4.23878618e-02, 6.01747893e-02, 2.94208452e-02,
          1.46120815e-02, 4.54557464e-02, 3.00016820e-01, 3.00016820e-01,
          3.00016820e-01, 3.00016820e-01, 2.29724407e-01, 3.36894467e-02,
          1.73574239e-02, 1.66371632e-02, 1.29429484e-02, 1.63580760e-01,
          2.36031607e-01, 3.00016820e-01, 1.98107660e-01, 1.04190744e-01,
          1.97123379e-01, 4.02146392e-02, 3.61968763e-02, 3.75234596e-02,
          7.33539090e-02, 5.60709760e-02, 5.64353019e-02, 3.66251506e-02,
          1.87787667e-01, 1.46058172e-01, 4.19542082e-02, 3.64740044e-02,
          3.75663559e-03, 7.64255822e-02, 7.33059878e-03, 3.37285474e-02,
          3.08931880e-02, 1.42452747e-01, 1.60672143e-01, 1.55468911e-01,
          1.55824840e-01, 5.36868460e-02, 2.90458411e-01, 3.91050428e-01,
          5.52732885e-01, 3.05880308e-01, 1.94282621e-01, 1.01886868e-01,
          8.13009888e-02, 7.56500512e-02, 3.74381803e-02, 2.43660748e-01,
          3.21127512e-02, 7.63466507e-02, 5.29813506e-02, 7.64437690e-02,
          9.36572999e-03, 5.27231488e-03, 3.89897032e-03, 2.03460664e-03,
          1.63359478e-01, 2.44052918e-03, 2.24590325e-03, 1.95897627e-03,
          9.89366416e-03, 1.08845672e-02, 5.67998784e-03, 4.44581732e-03,
          3.38652022e-02, 6.80582941e-01, 2.75440868e-02, 1.05336383e-02,
          3.50208255e-03, 1.68727841e-02, 4.97429166e-03, 5.03646582e-03,
          3.97699373e-03, 1.94452750e-03, 1.90473452e-01, 8.34848674e-04,
          2.62036617e-03, 1.39646034e-03, 3.99580179e-03, 4.23921598e-03,
          4.98702563e-03, 3.56244831e-03, 2.08332408e-02, 6.80582941e-01,
          2.25012451e-02, 2.94252764e-03, 1.40406331e-03, 4.45378060e-03,
          6.00455366e-02, 4.11857329e-02, 7.86773954e-03, 2.36396939e-02,
          1.39623508e-01, 3.01860750e-01, 3.24283868e-01, 3.01218033e-01,
          1.21336378e-01, 3.31312194e-02, 1.50295096e-02, 7.53975241e-03,
          5.50578628e-03, 8.44679475e-02, 2.67266721e-01, 3.24283868e-01,
          3.24283868e-01, 9.59344804e-02, 3.61689329e-02, 2.43824851e-02,
          7.09141046e-03, 1.67458858e-02, 4.64427434e-02, 1.05304949e-01,
          2.15820968e-01, 1.30907342e-01, 6.27620071e-02, 3.92733440e-02,
          1.02365548e-02, 2.96308496e-03, 7.05225673e-03, 3.79950106e-02,
          2.37447500e-01, 3.24283868e-01, 3.24283868e-01, 1.30853519e-01,
          1.73224248e-02, 8.03494081e-03, 7.35914474e-03, 6.05179789e-03,
          2.70897485e-02, 8.74072164e-02, 3.27608585e-01, 1.93075791e-01,
          4.63027917e-02, 1.60156824e-02, 6.14967663e-03, 6.44251192e-03,
          7.43819727e-03, 2.48795170e-02, 1.18808793e-02, 1.98811200e-02,
          2.61479225e-02, 2.17700526e-02, 3.63474190e-02, 3.99729004e-03,
          3.78601137e-03, 9.42992046e-03, 5.79024479e-02, 3.27608585e-01,
          3.27608585e-01, 3.27608585e-01, 3.18062633e-01, 7.27664828e-02,
          6.36339746e-03, 9.82311927e-03, 1.39652481e-02, 7.35309646e-02,
          2.78367519e-01, 3.27608585e-01, 3.27608585e-01, 3.27608585e-01,
          1.06633939e-02, 6.94198441e-03, 5.44651598e-03, 7.00372783e-03,
          1.60820261e-01, 2.96324492e-03, 5.54150855e-03, 6.49942691e-03,
          9.84314084e-03, 5.30308578e-03, 6.73684431e-03, 2.62161600e-03,
          3.79770212e-02, 5.66988647e-01, 2.79865172e-02, 4.52056015e-03,
          5.13431197e-03, 4.57169395e-03, 1.36565551e-01, 1.27607640e-02,
          1.72922704e-02, 2.36390028e-02, 1.85141519e-01, 1.10522680e-01,
          1.47766754e-01, 1.41088217e-01, 3.66046637e-01, 1.38050035e-01,
          3.88345681e-02, 4.08622138e-02, 1.69872373e-01, 5.66988647e-01,
          7.57080987e-02, 3.17067131e-02, 5.23751043e-02, 1.42348602e-01 ]
      - [ 1.10427298e-01, 3.11526787e-02, 2.25178115e-02, 5.07940054e-02,
          5.70447147e-01, 2.42512412e-02, 3.71470265e-02, 5.63630909e-02,
          1.57830566e-01, 1.47435248e-01, 1.20450091e-02, 1.48183350e-02,
          2.53979284e-02, 5.76641187e-02, 1.87435165e-01, 1.75924614e-01,
          2.13412389e-01, 3.97884786e-01, 5.61051816e-03, 2.87273643e-03,
          2.13636388e-03, 3.57021694e-03, 5.70447147e-01, 2.17080791e-03,
          1.87737320e-03, 1.69629999e-03, 4.44408506e-03, 1.19816735e-02,
          7.19013344e-03, 6.36313902e-03, 1.14882905e-02, 1.90868676e-02,
          7.60103390e-03, 4.01554117e-03, 8.63664597e-03, 1.40616996e-02,
          8.26311558e-02, 1.34557327e-02, 1.19695514e-02, 2.73216423e-02,
          3.46710011e-02, 2.00881064e-01, 3.83243889e-01, 2.85742044e-01,
          2.48585179e-01, 5.54829948e-02, 1.27593474e-02, 4.98483470e-03,
          1.90779660e-02, 3.91222239e-02, 2.21315116e-01, 3.83243889e-01,
          3.83243889e-01, 1.53511226e-01, 1.60528813e-02, 6.66899094e-03,
          2.97241332e-03, 1.28443474e-02, 1.34967342e-02, 1.29820546e-02,
          3.84046175e-02, 3.12664136e-02, 2.51340196e-02, 2.82986313e-02,
          8.73112865e-03, 7.42146838e-03, 3.05498485e-02, 4.95285280e-02,
          1.68544590e-01, 3.83243889e-01, 3.08627367e-01, 7.85905272e-02,
          2.78163813e-02, 6.15951186e-03, 3.33596673e-03, 9.22504533e-03,
          4.96890396e-02, 1.67717218e-01, 3.19109529e-01, 3.19109529e-01,
          7.95325190e-02, 2.04871986e-02, 1.10465465e-02, 7.27900863e-03,
          1.01757683e-02, 5.06143160e-02, 8.73832777e-02, 1.36255383e-01,
          8.98837969e-02, 5.23102582e-02, 2.59220321e-02, 6.65038405e-03,
          1.17874974e-02, 5.14305495e-02, 1.39464349e-01, 3.19109529e-01,
          3.19109529e-01, 3.19109529e-01, 1.51921302e-01, 2.21208036e-02,
          6.92914892e-03, 9.16178059e-03, 4.22177613e-02, 2.15391695e-01,
          3.19109529e-01, 3.02829355e-01, 3.19109529e-01, 1.39116168e-01,
          3.75789794e-04, 3.05237190e-04, 1.67691942e-05, 2.69646902e-04,
          7.03810513e-01, 5.06202232e-05, 0., 0., 8.61132794e-05,
          1.17253698e-03, 2.05252247e-04, 1.34153481e-04, 2.26980512e-04,
          9.81138088e-03, 2.42661641e-04, 5.65764185e-06, 6.47876528e-04,
          1.29537063e-03, 1.84363350e-02, 2.44235084e-03, 7.19462347e-04,
          1.55955218e-02, 7.03810513e-01, 2.44743451e-02, 2.35460792e-03,
          9.32152104e-03, 2.48087756e-02, 7.54870940e-03, 4.20548749e-04,
          1.61472213e-04, 4.25501727e-04, 1.18839815e-02, 5.69493335e-04,
          5.82298730e-04, 1.47325348e-03, 8.82745441e-03, 1.51941748e-02,
          1.50936234e-04, 4.60706186e-04, 1.06534036e-03, 9.71089210e-03,
          3.32950172e-03, 4.47472587e-04, 8.96526407e-03, 2.04260591e-02,
          1.69515908e-01, 7.51411617e-02, 9.31860432e-02, 1.82767615e-01,
          3.84564310e-01, 4.41951334e-01, 4.41951334e-01, 3.33554834e-01,
          2.94925898e-01, 3.63096669e-02, 2.75605649e-04, 8.53835372e-04,
          0., 0., 0., 8.95534176e-04, 2.89065414e-04, 3.63096669e-02,
          2.49763176e-01, 6.45108595e-02, 6.96544573e-02, 3.21626961e-02,
          2.54970342e-01, 8.06056038e-02, 4.02230173e-02, 4.22064252e-02,
          1.77579045e-01, 2.57725995e-02, 1.21000558e-02, 1.47657907e-02,
          4.57753651e-02, 1.98879063e-01, 2.25791365e-01, 2.04247758e-01,
          2.22811401e-01, 1.04579628e-01, 2.14388445e-02, 9.70631558e-03,
          9.47784074e-03, 5.07697091e-02, 2.99357504e-01, 2.99357504e-01,
          2.99357504e-01, 2.99357504e-01, 1.75043657e-01, 4.13549691e-02,
          1.61551721e-02, 1.24300290e-02, 1.85475107e-02, 1.87097192e-01,
          1.00597829e-01, 7.14043006e-02, 5.98278791e-02, 5.85484058e-02,
          5.29628582e-02, 1.81879811e-02, 9.85507388e-03, 4.91921045e-02,
          2.99357504e-01, 2.99357504e-01, 2.98264146e-01, 1.90099627e-01,
          1.97603136e-01, 1.69791430e-01, 9.38814227e-03, 3.69912609e-02,
          3.83766964e-02, 3.51741999e-01, 4.26188111e-02, 4.22134325e-02,
          2.21847966e-02, 2.02770755e-01, 2.42742360e-01, 3.47185589e-04,
          4.37779730e-04, 1.77905639e-03, 5.08202380e-03, 9.78958677e-04,
          1.02882483e-03, 1.52441056e-03, 2.48997644e-01, 3.51741999e-01,
          2.62257196e-02, 1.33863002e-01, 8.48905668e-02, 3.51741999e-01,
          1.12599179e-01, 1.26167282e-01, 4.17582504e-02, 3.51741999e-01,
          3.51741999e-01, 2.76833912e-03, 6.18097780e-04, 3.99319874e-03,
          5.03462367e-03, 2.38943822e-03, 3.47984326e-03, 2.77218409e-03,
          3.51741999e-01, 2.69586354e-01, 9.29222224e-05, 2.87876115e-04,
          0., 0., 0., 3.01935157e-04, 1.14279472e-04, 2.70789713e-01,
          3.03123295e-01, 1.98316458e-03, 2.75146239e-03, 1.68432586e-03,
          7.69778155e-03, 2.49519851e-03, 4.37041931e-03, 3.78300645e-03,
          3.01834166e-01, 4.08241421e-01, 4.40536969e-04, 1.64500641e-04,
          0., 1.71510316e-03, 1.50743101e-04, 8.52505618e-04,
          3.84254759e-04, 4.08241421e-01, 4.08241421e-01, 1.90444861e-03,
          7.52094085e-04, 2.20694393e-03, 8.36207159e-03, 3.83491302e-03,
          7.85434805e-03, 3.63795110e-03, 4.08241421e-01, 2.09256053e-01,
          7.14390399e-03, 1.01975659e-02, 9.43285227e-03, 8.28046352e-02,
          2.42210273e-02, 1.11960359e-02, 1.49566783e-02, 1.98887721e-01,
          1.77488938e-01, 3.95599641e-02, 5.54535873e-02, 4.50066067e-02,
          3.19898129e-01, 1.98143870e-01, 1.75962791e-01, 9.19523537e-02,
          2.05274761e-01, 3.19898129e-01, 1.06341150e-02, 1.57371331e-02,
          1.45834852e-02, 5.70970029e-02, 1.06534418e-02, 1.03163449e-02,
          2.13909745e-02, 3.19898129e-01, 3.19898129e-01, 1.24503218e-01,
          1.50686622e-01, 1.10569894e-01, 3.19898129e-01, 1.14331767e-01,
          1.65534839e-01, 1.92383185e-01, 3.19898129e-01 ]
      - [ 4.84901927e-02, 1.46478303e-02, 2.95051076e-02, 4.81733344e-02,
          6.58358812e-01, 1.81315970e-02, 7.54113216e-03, 3.45866382e-02,
          8.65802169e-02, 4.70984019e-02, 1.06850099e-02, 1.42591614e-02,
          8.78400356e-03, 2.91206967e-02, 5.81743270e-02, 1.24355145e-01,
          2.03375891e-01, 2.18368813e-01, 8.30233272e-04, 9.53691720e-04,
          1.49958930e-03, 0., 6.58358812e-01, 6.61836425e-03,
          7.94024731e-04, 3.03741952e-04, 7.43827666e-04, 3.02804983e-03,
          2.60317931e-03, 3.25473468e-03, 1.87486119e-03, 1.60146914e-02,
          1.58368493e-03, 3.11698741e-03, 2.76585435e-03, 2.85365456e-03,
          2.79205982e-02, 6.97498070e-03, 1.07002594e-02, 1.05967093e-02,
          2.22646762e-02, 1.35440201e-01, 3.93325031e-01, 3.29939544e-01,
          2.20782116e-01, 2.35322118e-02, 9.45525616e-03, 1.15812020e-02,
          1.09814219e-02, 2.63126381e-02, 1.89634919e-01, 4.19390589e-01,
          4.19390589e-01, 1.49135515e-01, 6.04536058e-03, 2.22343369e-03,
          2.72762566e-03, 2.88476446e-03, 1.09962076e-02, 4.20753472e-03,
          2.41495185e-02, 1.53690875e-02, 1.11861462e-02, 1.33782383e-02,
          4.75623459e-03, 1.12935575e-02, 9.09317937e-03, 4.60784920e-02,
          1.34590924e-01, 4.19390589e-01, 2.31884316e-01, 2.42345911e-02,
          9.55857895e-03, 4.89901798e-03, 6.69980561e-03, 1.02551850e-02,
          4.39077914e-02, 1.15183756e-01, 3.00867856e-01, 2.71090090e-01,
          1.99782569e-02, 3.50612961e-02, 3.38569991e-02, 5.87029569e-02,
          1.42820954e-01, 3.00867856e-01, 1.79322287e-01, 1.77894190e-01,
          9.93661582e-02, 2.56434195e-02, 6.63461862e-03, 2.82106083e-03,
          5.15556755e-03, 6.41496759e-03, 8.41951668e-02, 2.59250373e-01,
          3.00867856e-01, 2.81641304e-01, 3.35789807e-02, 4.00951505e-02,
          8.07984918e-03, 5.40999370e-03, 3.65039632e-02, 3.00867856e-01,
          3.00867856e-01, 3.00867856e-01, 3.00867856e-01, 1.24646343e-01,
          0., 0., 0., 2.56361975e-03, 7.04497755e-01, 0., 0., 0., 0.,
          1.94647073e-04, 0., 0., 0., 1.07464343e-02, 0., 7.05768616e-05,
          1.33551759e-04, 2.17539564e-04, 7.09236716e-04, 1.27760111e-04,
          3.82305530e-04, 8.10714718e-03, 7.04497755e-01, 1.42138638e-03,
          6.97636919e-04, 1.44069287e-04, 7.09236716e-04, 1.07213869e-04,
          1.59700121e-05, 4.77881877e-05, 0., 1.18975891e-02, 0.,
          1.09939065e-04, 3.67397006e-05, 1.07213869e-04, 1.12749096e-02,
          0., 2.95701233e-04, 1.56792765e-03, 4.62234132e-02,
          2.14199605e-03, 6.78459555e-03, 7.66501250e-03, 1.23947877e-02,
          9.41336975e-02, 3.06684040e-02, 3.72065865e-02, 2.95726340e-02,
          3.26298892e-01, 5.95099032e-01, 6.40499532e-01, 3.06585997e-01,
          1.02260381e-01, 0., 0., 0., 0., 1.74873266e-02, 0.,
          2.72247416e-04, 6.59663812e-04, 1.18761687e-04, 1.46621596e-02,
          5.37180156e-03, 4.54497850e-03, 0., 3.58197093e-02,
          1.24146156e-02, 3.26293521e-03, 1.00893853e-02, 1.57368332e-02,
          7.27301138e-03, 2.55461084e-03, 2.31269398e-03, 3.91688524e-03,
          1.21661916e-01, 2.40739346e-01, 1.79306522e-01, 1.65585563e-01,
          4.28836681e-02, 6.04175217e-02, 3.63783911e-03, 6.16977410e-03,
          3.05981673e-02, 3.39693397e-01, 3.39693397e-01, 3.39693397e-01,
          3.39693397e-01, 1.72977909e-01, 2.91080610e-03, 1.29669963e-03,
          1.70268957e-03, 3.18675907e-03, 1.00575194e-01, 8.69719759e-02,
          4.08176109e-02, 2.69077159e-02, 1.03186294e-02, 4.01823446e-02,
          6.41771173e-03, 6.45779865e-03, 1.89241748e-02, 3.39693397e-01,
          3.39693397e-01, 2.94975579e-01, 1.35773450e-01, 8.80427286e-02,
          9.27234888e-02, 4.34049545e-03, 1.46783208e-02, 1.92656349e-02,
          3.83918285e-01, 2.92695872e-02, 2.52373274e-02, 7.65208446e-04,
          1.06598213e-01, 1.26233369e-01, 4.99027665e-05, 4.59532530e-05,
          0., 5.57438657e-03, 0., 2.53888633e-04, 4.95928223e-04,
          1.30867109e-01, 3.83918285e-01, 1.48578547e-02, 9.15718228e-02,
          1.27950460e-01, 3.83918285e-01, 1.43011227e-01, 1.05760157e-01,
          4.86552296e-03, 3.83918285e-01, 3.83918285e-01, 4.50017251e-04,
          5.75936429e-05, 5.03718911e-04, 3.39999888e-03, 6.32815005e-04,
          4.47647268e-04, 8.13899387e-04, 3.83918285e-01, 1.79827124e-01,
          0., 0., 0., 7.20581680e-04, 0., 0., 1.01952704e-04,
          1.80095106e-01, 2.00067520e-01, 0., 1.90821360e-04,
          8.86216512e-05, 1.20593805e-03, 3.06945003e-05, 0., 0.,
          2.00202137e-01, 4.61115748e-01, 0., 0., 0., 3.86994041e-04,
          1.02327860e-04, 5.07954210e-05, 1.78417235e-04, 4.61115748e-01,
          4.61115748e-01, 1.77621856e-04, 3.81968624e-04, 2.56940024e-04,
          8.15889391e-04, 0., 0., 0., 4.61115748e-01, 1.13964818e-01,
          2.23448407e-03, 6.06713444e-03, 4.09477716e-03, 6.56537563e-02,
          2.19185427e-02, 6.34400127e-03, 1.31547311e-03, 1.10438839e-01,
          9.52846557e-02, 3.66358869e-02, 4.78129946e-02, 4.22727354e-02,
          3.33244503e-01, 3.17323387e-01, 9.49971750e-02, 3.05975266e-02,
          1.09915838e-01, 3.33244503e-01, 7.15870783e-03, 1.75945591e-02,
          9.83775128e-03, 4.82844934e-02, 8.75698403e-03, 1.10475160e-02,
          2.72960053e-03, 3.33244503e-01, 3.33244503e-01, 1.11739397e-01,
          2.02359051e-01, 1.52705550e-01, 3.33244503e-01, 2.14270622e-01,
          1.86693475e-01, 5.03659770e-02, 3.33244503e-01 ]
      - [ 9.67885181e-03, 0., 0., 0., 7.01203346e-01, 0., 0., 0.,
          9.67885181e-03, 1.37913907e-02, 5.93522843e-03, 1.12907728e-02,
          1.27721475e-02, 6.08898290e-02, 1.54083613e-02, 4.81878221e-03,
          7.05414126e-03, 9.37815942e-03, 5.48223499e-03, 0., 0., 0.,
          7.01203346e-01, 0., 0., 0., 5.48223499e-03, 9.73606668e-03,
          4.73358948e-03, 4.99811722e-03, 4.82410239e-03, 6.63757324e-02,
          8.96951277e-03, 2.93411524e-03, 3.25267715e-03, 9.36577097e-03,
          1.80265322e-01, 6.66466951e-02, 1.37665153e-01, 9.69959050e-02,
          8.78550708e-02, 6.75493926e-02, 2.25620810e-02, 4.91975620e-02,
          1.91435277e-01, 3.45621228e-01, 1.66122332e-01, 3.45621228e-01,
          2.39107370e-01, 8.92071649e-02, 1.51763365e-01, 8.29604864e-02,
          7.50318542e-02, 3.45621228e-01, 1.19665176e-01, 5.09165376e-02,
          5.12985624e-02, 5.55758737e-02, 8.99572745e-02, 4.93092686e-02,
          1.83162652e-02, 2.59933192e-02, 1.28534287e-01, 3.45621228e-01,
          2.02856034e-01, 1.47062689e-01, 1.57048553e-01, 6.78030178e-02,
          6.51978403e-02, 4.18346375e-02, 7.15613440e-02, 3.45621228e-01,
          3.49027485e-01, 4.50823866e-02, 7.97111019e-02, 5.61242178e-02,
          1.49448281e-02, 4.33415361e-02, 2.85800789e-02, 1.49390064e-02,
          3.49027485e-01, 3.49027485e-01, 3.70130595e-03, 1.91619352e-03,
          3.91029142e-04, 6.03007793e-04, 2.72112724e-04, 4.17177274e-04,
          1.75520347e-03, 3.49027485e-01, 3.49027485e-01, 6.05694018e-02,
          3.66633609e-02, 3.59065197e-02, 8.39722529e-03, 1.18680634e-02,
          1.14213694e-02, 2.15283688e-02, 3.49027485e-01, 3.49027485e-01,
          6.45826990e-03, 8.16100370e-03, 1.55165652e-03, 1.71215064e-03,
          1.78782211e-03, 2.45405408e-03, 4.68003610e-03, 3.49027485e-01,
          5.37318701e-04, 0., 0., 0., 6.99362695e-01, 0., 0., 0.,
          5.37318701e-04, 1.89978797e-02, 2.92273331e-03, 5.62502258e-03,
          2.75475089e-03, 8.56770948e-02, 1.01363845e-02, 2.39381660e-03,
          2.60212668e-03, 1.73718370e-02, 2.07875157e-03, 3.27413756e-04,
          1.91532308e-04, 1.41487643e-02, 6.99362695e-01, 9.07714292e-03,
          3.90632544e-04, 9.59646015e-04, 2.24252744e-03, 1.34521434e-02,
          1.00300810e-03, 2.86750286e-03, 1.12400472e-03, 7.63884485e-02,
          8.62604566e-03, 2.48502078e-03, 3.33782029e-03, 1.49599174e-02,
          2.36722335e-01, 5.24263084e-02, 3.80433463e-02, 5.66218868e-02,
          1.48795471e-01, 5.82411140e-02, 2.17854213e-02, 1.74676888e-02,
          1.79894462e-01, 3.86215836e-01, 2.44305477e-01, 1.53975785e-01,
          2.06480637e-01, 1.03709646e-01, 7.08463714e-02, 7.50502273e-02,
          1.33292407e-01, 3.86215836e-01, 1.88644767e-01, 2.48709545e-02,
          1.49906045e-02, 1.84320956e-02, 1.13004088e-01, 4.30753827e-02,
          1.78685058e-02, 1.66758187e-02, 1.63660377e-01, 3.86215836e-01,
          8.45960230e-02, 4.53306325e-02, 6.33255318e-02, 7.76385292e-02,
          4.89832908e-02, 6.15905188e-02, 8.91977996e-02, 3.86215836e-01,
          3.48723620e-01, 6.74045309e-02, 4.23052981e-02, 4.49518263e-02,
          4.96838102e-03, 8.17763805e-03, 1.95440874e-02, 4.23033647e-02,
          3.48723620e-01, 3.48723620e-01, 8.42357427e-03, 1.25754913e-02,
          2.34434032e-03, 2.39185505e-02, 7.98719656e-03, 8.00088514e-03,
          3.23619843e-02, 3.48723620e-01, 3.48723620e-01, 2.11287960e-02,
          1.36572532e-02, 1.49198873e-02, 4.64580953e-03, 6.08314434e-03,
          1.65776107e-02, 2.64862906e-02, 3.48723620e-01, 3.48723620e-01,
          7.46384356e-03, 1.23751797e-02, 8.62806477e-03, 7.23594502e-02,
          2.61161998e-02, 3.02355252e-02, 4.52307425e-02, 3.48723620e-01,
          6.49266914e-02, 4.32927683e-02, 1.52904186e-02, 1.60052061e-01,
          5.92561781e-01, 8.40643942e-02, 2.06239545e-03, 3.88607150e-03,
          5.55480495e-02, 2.83072190e-03, 1.67255977e-03, 6.60178310e-04,
          1.63947209e-03, 4.32172082e-02, 3.02911806e-03, 1.35934760e-03,
          1.33305124e-03, 4.21554130e-03, 2.91200310e-01, 1.64026335e-01,
          6.64128140e-02, 2.91272402e-01, 5.92561781e-01, 9.10183415e-02,
          1.68778363e-03, 3.68363992e-03, 1.93983883e-01, 4.69913101e-03,
          2.74424255e-03, 9.33219388e-04, 4.70983144e-03, 2.87101101e-02,
          3.05392221e-03, 6.36881741e-04, 5.71716228e-04, 5.48505364e-03,
          2.04866692e-01, 1.59095675e-02, 3.53899524e-02, 8.05016328e-03,
          6.50793165e-02, 2.15644147e-02, 4.19747494e-02, 2.83549540e-02,
          2.35800341e-01, 6.57680035e-01, 2.91717537e-02, 5.35412468e-02,
          1.19262682e-02, 8.14541504e-02, 1.31452633e-02, 5.88031970e-02,
          2.88664158e-02, 6.57680035e-01, 3.60971391e-02, 2.68211984e-03,
          8.02590698e-03, 0., 1.31288264e-02, 0., 1.02179414e-02,
          3.41466046e-03, 3.60971391e-02, 4.22612093e-02, 3.34013952e-03,
          9.99495015e-03, 0., 1.38455117e-02, 0., 1.12117250e-02,
          3.74676473e-03, 4.22612093e-02, 2.88802087e-01, 4.29838989e-03,
          7.46405125e-03, 1.22022657e-02, 3.66938040e-02, 1.16941761e-02,
          1.12389438e-02, 3.45137576e-03, 2.88486153e-01, 3.49175781e-01,
          1.52061321e-02, 1.44831883e-02, 8.05495456e-02, 3.28706533e-01,
          2.30281577e-01, 2.13073969e-01, 9.20299068e-02, 3.49175781e-01,
          9.74052120e-03, 2.16129678e-03, 3.09545919e-03, 8.06483068e-03,
          2.91482098e-02, 3.41771753e-03, 4.09249961e-03, 1.09649613e-03,
          9.61212255e-03, 1.99591741e-01, 1.42721936e-01, 6.73450306e-02,
          2.65636414e-01, 3.49175781e-01, 3.06414738e-02, 2.43464038e-02,
          3.86019386e-02, 3.17672372e-01 ]
      - [ 5.21492772e-02, 9.77176707e-03, 2.11111270e-02, 3.87924514e-03,
          8.86383802e-02, 1.14173889e-01, 3.38868290e-01, 2.14259058e-01,
          8.25260654e-02, 9.73471850e-02, 1.57774445e-02, 1.75036285e-02,
          1.01613626e-02, 8.40825066e-02, 8.22571367e-02, 3.65497112e-01,
          2.55092472e-01, 1.21896699e-01, 8.29423368e-02, 5.79642504e-03,
          1.73450857e-02, 0., 1.07516378e-01, 1.17934726e-01,
          3.79439950e-01, 3.08370739e-01, 1.25410810e-01, 7.69225210e-02,
          1.01100793e-02, 2.69772056e-02, 0., 1.06085107e-01,
          6.90917522e-02, 3.78753066e-01, 3.09741616e-01, 1.18400507e-01,
          1.24259874e-01, 3.43611203e-02, 2.50422843e-02, 4.31022793e-03,
          9.38717648e-02, 4.50293906e-02, 3.04025859e-01, 2.26224035e-01,
          1.35913461e-01, 7.82617480e-02, 2.87583694e-02, 2.45258622e-02,
          0., 1.58588573e-01, 8.54744986e-02, 3.82788390e-01,
          2.58972973e-01, 1.02846436e-01, 9.06759053e-02, 7.22164521e-03,
          9.79563873e-03, 0., 1.08680338e-01, 2.56307069e-02,
          3.39428842e-01, 2.42613584e-01, 1.17041014e-01, 8.42259303e-02,
          3.44085600e-03, 8.52221856e-04, 0., 1.46664992e-01,
          1.26125753e-01, 4.21184540e-01, 3.06285620e-01, 1.18473016e-01,
          4.43498185e-03, 2.76644801e-04, 8.32197082e-04, 0.,
          2.04970688e-02, 1.72033943e-02, 3.89399715e-02, 2.35326625e-02,
          7.47347903e-03, 8.67797248e-03, 1.18114003e-05, 3.53440773e-05,
          1.52291553e-02, 6.50456190e-01, 4.32486273e-02, 3.93305607e-02,
          1.86605044e-02, 1.02556143e-02, 6.51396997e-03, 7.23184610e-04,
          1.83957254e-05, 0., 1.73044316e-02, 2.94239782e-02,
          4.49712165e-02, 2.86995396e-02, 9.72213130e-03, 1.39081210e-01,
          3.41160819e-02, 1.52290046e-01, 2.29691595e-01, 6.50456190e-01,
          1.58273026e-01, 5.49039654e-02, 2.80137938e-02, 1.04032733e-01,
          1.01305231e-01, 6.42600097e-03, 1.92289855e-02, 0.,
          9.75352600e-02, 7.15684071e-02, 2.86300719e-01, 2.61769027e-01,
          1.43677607e-01, 6.34510070e-02, 5.24651771e-03, 1.56995393e-02,
          0., 1.36695012e-01, 1.26738697e-01, 3.07589620e-01,
          2.62596160e-01, 1.52730718e-01, 1.31632373e-01, 5.78410970e-03,
          1.58114247e-02, 0., 9.71643552e-02, 8.85959119e-02,
          3.10642451e-01, 2.59093732e-01, 1.79041937e-01, 7.04647899e-02,
          6.05775230e-03, 6.15270995e-03, 0., 1.65069193e-01,
          2.10678831e-01, 3.85699600e-01, 2.88718104e-01, 1.77259549e-01,
          8.06306377e-02, 1.28921948e-03, 3.85782868e-03, 0.,
          1.58793420e-01, 5.76994941e-02, 2.68579781e-01, 2.01785967e-01,
          1.62821874e-01, 8.39178488e-02, 0., 0., 0., 2.47909606e-01,
          7.34060705e-02, 3.24464530e-01, 1.45579994e-01, 1.00054801e-01,
          6.29896447e-02, 3.06930509e-03, 1.06290169e-03, 0.,
          2.63292491e-01, 2.04566285e-01, 3.59062582e-01, 2.40861148e-01,
          1.61905766e-01, 6.21955581e-02, 0., 0., 0., 3.18023592e-01,
          1.38900459e-01, 3.51437330e-01, 1.50875777e-01, 9.34230834e-02,
          8.42841156e-03, 1.53970148e-03, 0., 0., 2.18558237e-02,
          1.69320144e-02, 3.88993174e-02, 1.82856619e-02, 9.40307230e-03,
          1.62367731e-01, 4.76368517e-02, 1.80220544e-01, 2.76762009e-01,
          6.13607109e-01, 2.39890486e-01, 5.88213094e-02, 3.23681906e-02,
          1.13032699e-01, 7.62795983e-03, 3.42155923e-04, 0., 0.,
          1.98471118e-02, 4.06822190e-03, 3.78184654e-02, 1.74695421e-02,
          9.71425790e-03, 2.25446075e-02, 4.95922891e-03, 1.56748910e-02,
          9.36900899e-02, 6.13607109e-01, 1.03521466e-01, 4.58125174e-02,
          2.27421969e-02, 1.85476467e-02, 8.33163932e-02, 6.70181634e-03,
          1.19496994e-02, 0., 1.76479548e-01, 7.71256387e-02,
          2.79588819e-01, 1.62115291e-01, 1.01855837e-01, 5.49590588e-02,
          2.29578726e-02, 3.86152021e-03, 0., 2.75857449e-01,
          1.99245691e-01, 3.62919748e-01, 2.32085317e-01, 1.03429332e-01,
          4.45729569e-02, 3.46969767e-03, 5.75140724e-03, 0.,
          1.90067828e-01, 5.97436391e-02, 3.66194040e-01, 2.08442852e-01,
          6.40143603e-02, 4.71414737e-02, 1.58225968e-02, 1.02973897e-02,
          0., 3.10272187e-01, 1.35344788e-01, 3.76900822e-01,
          1.75492957e-01, 6.59281388e-02, 4.03389670e-02, 1.23058539e-02,
          4.01443057e-03, 0., 2.21378654e-01, 1.88313410e-01,
          3.15497875e-01, 2.08174363e-01, 8.44109654e-02, 6.48028180e-02,
          1.67694452e-04, 5.01803821e-04, 0., 1.70619220e-01,
          1.51369974e-01, 3.46002132e-01, 2.20621705e-01, 1.32261828e-01,
          3.56354900e-02, 9.84279532e-03, 1.07051507e-02, 0.,
          2.61933684e-01, 1.76946878e-01, 3.14637989e-01, 1.48375019e-01,
          5.42709716e-02, 5.05161732e-02, 4.47185274e-04, 1.33814383e-03,
          0., 2.41898134e-01, 1.32586554e-01, 3.98737043e-01,
          2.09743947e-01, 8.82367790e-02, 8.38006567e-03, 0., 0., 0.,
          1.15326131e-02, 6.69064559e-03, 3.97827327e-02, 2.27287039e-02,
          1.44476192e-02, 7.51772011e-03, 0., 7.29886733e-06,
          3.29922847e-02, 7.00262487e-01, 2.64794510e-02, 3.40240672e-02,
          1.60247590e-02, 8.68818071e-03, 6.40885625e-03, 0., 0., 0.,
          2.57415958e-02, 7.73231406e-03, 4.84550074e-02, 2.52822824e-02,
          1.03386454e-02, 8.88239872e-03, 0., 0., 1.23943789e-02,
          7.00262487e-01, 2.87223067e-02, 3.31204943e-02, 1.62746869e-02,
          1.02734501e-02 ]
      - [ 3.32158297e-01, 4.77722101e-02, 1.25666969e-02, 6.06278144e-02,
          4.51106071e-01, 5.62515482e-02, 1.52293569e-03, 1.32181514e-02,
          3.12482387e-01, 4.30478156e-01, 2.42506457e-03, 9.93817084e-05,
          4.55778754e-05, 2.23847092e-04, 0., 0., 2.34597316e-03,
          4.29529667e-01, 3.01551772e-03, 1.52360139e-04, 6.18293940e-04,
          5.36758220e-03, 4.51106071e-01, 3.46837565e-02, 4.12195106e-04,
          2.65553768e-04, 3.00922594e-03, 0., 0., 0., 0., 1.27509411e-04,
          0., 0., 0., 0., 4.98715550e-01, 5.79879107e-03, 0., 0., 0., 0.,
          0., 5.88992471e-03, 4.98715550e-01, 4.98715550e-01,
          6.50423998e-03, 0., 0., 0., 0., 0., 6.29210984e-03,
          4.98715550e-01, 0., 0., 0., 0., 0., 0., 0., 0., 0., 0., 0., 0.,
          0., 0., 0., 0., 0., 0., 4.98717278e-01, 5.79830632e-03, 0., 0.,
          0., 0., 0., 5.88943204e-03, 4.98717278e-01, 4.98717278e-01,
          5.97230159e-03, 0., 0., 0., 0., 0., 6.29158365e-03,
          4.98717278e-01, 0., 0., 0., 0., 0., 0., 0., 0., 0., 0., 0., 0.,
          0., 0., 0., 0., 0., 0., 9.40955593e-04, 0., 2.56845989e-04,
          1.62835710e-03, 7.04556406e-01, 1.27616748e-02, 8.62352317e-05,
          2.88182982e-05, 9.40955593e-04, 0., 0., 0., 0., 2.89080635e-05,
          0., 0., 0., 0., 0., 0., 0., 0., 7.04556406e-01, 0., 0., 0., 0.,
          0., 0., 0., 0., 0., 0., 0., 0., 0., 0., 0., 0., 0., 0., 0., 0.,
          0., 0., 0., 0., 0., 0., 0., 0., 0., 0., 0., 0., 0., 0., 0., 0.,
          0., 0., 0., 0., 0., 0., 0., 0., 0., 0., 0., 0., 0., 0., 0., 0.,
          0., 0., 0., 0., 0., 0., 0., 0., 0., 0., 0., 0., 0., 0., 0., 0.,
          0., 0., 0., 0., 0., 0., 0., 0., 0., 0., 0., 0., 0., 0., 0., 0.,
          0., 0., 0., 0., 0., 7.04333127e-01, 0., 0., 0., 0., 0., 0., 0.,
          0., 0., 0., 0., 0., 0., 7.28084939e-03, 1.58136128e-03,
          9.76640731e-04, 2.53043324e-02, 7.04333127e-01, 3.35468864e-03,
          1.18234148e-03, 3.89911002e-04, 5.47520258e-03, 5.32588549e-03,
          4.27619321e-04, 1.21715246e-03, 4.60517695e-05, 2.29847228e-05,
          0., 1.09949382e-03, 3.56290519e-04, 5.27901808e-03, 0., 0., 0.,
          0., 0., 0., 0., 0., 0., 0., 0., 0., 0., 0., 0., 0., 0., 0.,
          4.51250613e-01, 3.03627215e-02, 9.38958973e-02, 0., 0., 0.,
          1.05298892e-01, 3.40901241e-02, 4.51250613e-01, 5.05344033e-01,
          3.73033509e-02, 1.15258060e-01, 0., 0., 0., 1.01881571e-01,
          3.29334810e-02, 5.05344033e-01, 0., 0., 0., 0., 0., 0., 0., 0.,
          0., 0., 0., 0., 0., 0., 0., 0., 0., 0., 4.49546427e-01,
          3.02480552e-02, 9.35412869e-02, 0., 0., 0., 1.04901224e-01,
          3.39613818e-02, 4.49546427e-01, 5.08349717e-01, 3.37302424e-02,
          1.04337968e-01, 0., 0., 0., 1.01496808e-01, 3.28091085e-02,
          5.08349717e-01 ]
      - [ 3.63238633e-01, 4.77068173e-03, 7.89873395e-03, 6.00490905e-03,
          7.15688523e-03, 3.35211563e-03, 1.45317307e-02, 3.47845145e-02,
          3.63238633e-01, 3.63238633e-01, 3.77342082e-03, 4.54824185e-03,
          3.88431316e-03, 3.36100557e-03, 1.34804181e-03, 3.37480241e-03,
          8.85113887e-03, 3.63238633e-01, 1.39576748e-01, 1.93999205e-02,
          2.15878747e-02, 1.81928184e-02, 1.03383191e-01, 2.19192743e-01,
          3.63238633e-01, 2.28504419e-01, 2.22531229e-01, 2.80029595e-01,
          2.49748640e-02, 1.89528465e-02, 1.28408270e-02, 3.33160758e-02,
          5.95671237e-02, 4.15835902e-02, 1.68461762e-02, 2.59890765e-01,
          3.95735949e-01, 5.87246614e-03, 2.03480595e-03, 1.74163119e-03,
          4.33559250e-03, 1.26593083e-03, 2.46181502e-03, 9.50884726e-03,
          3.95735949e-01, 3.95735949e-01, 1.13724405e-02, 5.05352067e-03,
          4.01167059e-03, 1.14085581e-02, 1.86662737e-03, 3.25719267e-03,
          1.08687971e-02, 3.95735949e-01, 3.43439579e-01, 1.61501653e-02,
          7.41505157e-03, 5.22004953e-03, 3.09643708e-03, 5.13892388e-03,
          9.65462625e-03, 1.33678764e-02, 3.70230854e-01, 2.16880932e-01,
          2.01772973e-02, 1.50077976e-02, 2.26266161e-02, 4.55377512e-02,
          7.17741624e-03, 2.41777934e-02, 2.28953715e-02, 2.48874575e-01,
          3.98957342e-01, 9.92703997e-03, 8.87038186e-03, 4.67330031e-03,
          1.60535220e-02, 7.25448364e-03, 4.24682954e-03, 1.28558101e-02,
          3.98957342e-01, 3.98957342e-01, 1.41620971e-02, 1.21190129e-02,
          4.29264195e-02, 3.98957342e-01, 8.58451799e-02, 5.91107160e-02,
          9.32465047e-02, 3.98957342e-01, 6.34492189e-02, 9.51757655e-03,
          1.21583398e-02, 1.39481481e-02, 4.66778241e-02, 8.80261697e-03,
          1.68288369e-02, 1.14471223e-02, 7.63631910e-02, 2.89549958e-02,
          6.22731401e-03, 1.09222494e-02, 2.29709484e-02, 3.98957342e-01,
          4.60962579e-02, 1.16076507e-02, 6.20290777e-03, 4.22898903e-02,
          9.71078128e-02, 1.83434319e-02, 2.15115752e-02, 3.90979648e-02,
          2.92171299e-01, 2.92171299e-01, 2.92171299e-01, 1.25710443e-01,
          1.06079437e-01, 2.92171299e-01, 2.49478407e-02, 1.90098174e-02,
          1.57665405e-02, 1.21309444e-01, 1.14283986e-01, 4.53297943e-02,
          1.95127409e-02, 2.92171299e-01, 7.62672201e-02, 4.02680188e-02,
          1.37557089e-01, 2.92171299e-01, 2.92171299e-01, 2.37943590e-01,
          1.08224086e-01, 3.14181261e-02, 6.81049824e-02, 2.92171299e-01,
          2.54201628e-02, 4.35252450e-02, 8.23957548e-02, 2.04660401e-01,
          7.46390224e-02, 2.36519519e-02, 2.97376607e-02, 2.92171299e-01,
          3.47029269e-01, 1.97543930e-02, 8.97620618e-03, 8.87977518e-03,
          6.85406523e-03, 1.07000386e-02, 9.02252831e-03, 1.43512422e-02,
          3.47029269e-01, 3.47029269e-01, 2.26167552e-02, 2.27807537e-02,
          4.11316082e-02, 9.17349532e-02, 1.40279103e-02, 2.54462436e-02,
          2.61933673e-02, 3.47029269e-01, 3.47029269e-01, 2.20870394e-02,
          1.11239059e-02, 9.79984365e-03, 7.93728698e-03, 1.05534056e-02,
          1.11883329e-02, 2.00045314e-02, 3.47029269e-01, 3.47029269e-01,
          3.96506302e-02, 1.79509092e-02, 3.23470123e-02, 1.10080577e-01,
          3.04032657e-02, 3.99852768e-02, 2.10424233e-02, 3.47029269e-01,
          1.59786910e-01, 2.27662548e-02, 2.79655512e-02, 4.84750941e-02,
          1.65643513e-01, 1.95114035e-02, 3.68272625e-02, 3.17142829e-02,
          2.00134590e-01, 5.89068141e-03, 3.27205332e-03, 8.73696711e-03,
          4.21711691e-02, 6.15557849e-01, 1.85900349e-02, 1.24221202e-02,
          6.48345519e-03, 8.12974479e-03, 2.02940419e-01, 4.37481403e-02,
          2.25840546e-02, 3.86841893e-02, 1.90483451e-01, 3.77595089e-02,
          4.65936027e-02, 2.20706351e-02, 2.14148626e-01, 1.08966120e-02,
          4.16363170e-03, 9.64208785e-03, 4.15220112e-02, 6.15557849e-01,
          2.45288145e-02, 1.10313389e-02, 4.40536998e-03, 8.81866831e-03,
          2.01737761e-01, 6.51930049e-02, 1.44502282e-01, 1.67681813e-01,
          1.24161765e-01, 1.78490262e-02, 5.94277773e-03, 1.02184042e-02,
          2.07516298e-01, 3.37958753e-01, 7.57272076e-03, 1.50218988e-02,
          3.56447287e-02, 4.03232314e-02, 1.06623583e-02, 3.35414079e-03,
          1.01450933e-02, 3.38990837e-01, 3.81613970e-01, 7.86390528e-02,
          1.04242168e-01, 7.59272650e-02, 2.57761963e-02, 6.41222158e-03,
          8.73821788e-03, 4.03955244e-02, 3.81613970e-01, 3.81613970e-01,
          3.35660167e-02, 1.59974806e-02, 2.11014245e-02, 1.67663824e-02,
          1.23355156e-02, 6.52712490e-03, 2.67496966e-02, 3.81613970e-01,
          3.19993407e-01, 3.03965644e-03, 9.93246562e-04, 1.28521945e-03,
          3.29681369e-03, 1.66940899e-03, 1.26554514e-03, 4.08896571e-03,
          3.23072642e-01, 2.98518926e-01, 6.72382116e-03, 1.95655762e-03,
          6.65483158e-03, 2.43934691e-02, 3.64671624e-03, 5.03983209e-03,
          3.00054229e-03, 2.97405362e-01, 3.90558928e-01, 1.60358213e-02,
          3.44256568e-03, 4.28864034e-03, 5.62625658e-03, 1.02292215e-02,
          2.03937851e-03, 1.09429751e-02, 3.90558928e-01, 3.90558928e-01,
          7.17278942e-03, 2.03128162e-04, 2.10706657e-03, 1.45918727e-02,
          2.96314107e-03, 3.62905033e-04, 3.53776314e-03, 3.90558928e-01,
          2.51042455e-01, 3.91390454e-03, 1.60242408e-03, 4.40434087e-03,
          2.13041212e-02, 3.21150641e-03, 3.62134888e-03, 1.79179374e-03,
          2.49218956e-01, 2.34700412e-01, 2.03192588e-02, 1.65129453e-02,
          8.55496339e-03, 1.94945350e-01, 6.59491541e-03, 1.93830882e-03,
          3.79824173e-03, 2.26996541e-01, 4.21074837e-01, 4.32920316e-03,
          3.61843937e-04, 1.29908964e-03, 1.25834364e-02, 1.46823050e-03,
          3.99659300e-04, 1.43450266e-03, 4.21074837e-01, 4.21074837e-01,
          6.95403069e-02, 3.37112844e-02, 1.05786519e-02, 8.79344866e-02,
          5.86629985e-03, 6.11291174e-03, 3.76825705e-02, 4.21074837e-01 ]
      - [ 3.21278200e-02, 0., 0., 0., 1.69792101e-01, 0., 9.71846934e-03,
          3.24774138e-03, 3.21278200e-02, 7.30758766e-04, 0., 0., 0.,
          5.86194396e-01, 0., 1.21480867e-03, 4.05967672e-04,
          7.30758766e-04, 4.49065156e-02, 0., 0., 0., 3.63314629e-01, 0.,
          1.70073211e-02, 5.68354735e-03, 4.49065156e-02, 8.76910286e-04,
          0., 0., 0., 6.91596150e-01, 0., 2.12591514e-03, 7.10443419e-04,
          8.76910286e-04, 8.65414832e-03, 6.18022261e-03, 5.77461394e-03,
          2.43727043e-02, 5.42784221e-02, 1.53414691e-02, 9.24233440e-03,
          6.10571122e-03, 1.19092818e-02, 2.89381474e-01, 2.89381474e-01,
          1.87728390e-01, 2.31404722e-01, 1.70467988e-01, 1.68507040e-01,
          2.89381474e-01, 2.89381474e-01, 2.89381474e-01, 8.92477017e-03,
          7.47535797e-03, 8.03238526e-03, 1.87348444e-02, 6.34377599e-02,
          2.69148704e-02, 7.58816861e-03, 1.01586124e-02, 1.61023140e-02,
          2.89381474e-01, 1.20561682e-01, 8.07814002e-02, 1.04587205e-01,
          1.79236680e-01, 1.96441621e-01, 2.71942228e-01, 2.79462725e-01,
          2.89381474e-01, 1.98599264e-01, 1.98498413e-01, 1.71215922e-01,
          1.56154573e-01, 1.76737159e-01, 1.25676408e-01, 2.44534761e-01,
          1.56564832e-01, 1.81635395e-01, 1.87897131e-01, 1.20853230e-01,
          1.44898996e-01, 1.42952710e-01, 2.44534761e-01, 1.49814576e-01,
          1.43778518e-01, 8.00347030e-02, 1.68098047e-01, 2.44534761e-01,
          7.96145722e-02, 6.38842806e-02, 6.34029582e-02, 1.36217430e-01,
          9.70408320e-02, 2.11772591e-01, 1.44827917e-01, 2.44534761e-01,
          2.44534761e-01, 1.20228007e-01, 7.90553614e-02, 1.10721722e-01,
          2.44534761e-01, 1.01119347e-01, 1.09476551e-01, 9.67929289e-02,
          2.44534761e-01, 4.51391004e-03, 0., 0., 0., 3.75604093e-01, 0.,
          2.12557544e-03, 7.10329914e-04, 4.51391004e-03, 7.05839921e-05,
          0., 0., 0., 5.75742841e-01, 0., 2.65696930e-04, 8.87912392e-05,
          7.05839921e-05, 3.07419579e-02, 2.41478137e-03, 7.22591951e-03,
          0., 4.01630819e-01, 5.42092882e-03, 2.52218209e-02,
          7.53256353e-03, 3.07419579e-02, 2.83060316e-02, 4.73101670e-03,
          1.40578393e-02, 0., 5.91069698e-01, 1.08418558e-02,
          4.52766120e-02, 1.33557785e-02, 2.83060316e-02, 1.64514277e-02,
          1.20654292e-02, 1.33014312e-02, 2.22814064e-02, 1.40727386e-01,
          6.46851733e-02, 1.41943078e-02, 3.04886196e-02, 3.43346596e-02,
          5.19431055e-01, 1.23195373e-01, 1.35152638e-01, 9.41089541e-02,
          3.64750206e-01, 3.47559988e-01, 1.27049685e-01, 3.28165680e-01,
          5.19431055e-01, 5.28551685e-03, 8.71939468e-04, 2.24015419e-03,
          1.26920611e-04, 3.74581553e-02, 3.43160529e-04, 2.22349726e-03,
          1.58705551e-03, 5.21486765e-03, 5.62743433e-02, 5.08005032e-03,
          1.04085011e-02, 6.15360774e-03, 3.56641151e-02, 5.30596543e-03,
          9.15193185e-03, 1.24314874e-02, 3.85192558e-02, 4.17707920e-01,
          8.67869556e-02, 1.01179026e-01, 5.30655682e-02, 1.36466101e-01,
          9.60303098e-02, 6.09487146e-02, 1.55917108e-01, 4.17707920e-01,
          4.17707920e-01, 2.41931468e-01, 1.18073441e-01, 1.30300179e-01,
          3.05631131e-01, 7.18564689e-02, 4.13052104e-02, 1.48759320e-01,
          4.17707920e-01, 3.87820862e-02, 6.96639717e-03, 8.15695245e-03,
          7.23894872e-03, 2.78126411e-02, 7.46399490e-03, 1.04996627e-02,
          1.18725412e-02, 2.58195288e-02, 4.12606001e-02, 1.44721745e-02,
          1.31248906e-02, 9.71513893e-03, 4.37039845e-02, 1.05661992e-02,
          1.88509952e-02, 1.62241887e-02, 3.68245803e-02, 7.57753551e-02,
          6.34315144e-03, 1.89810675e-02, 0., 3.05193216e-01,
          1.21838413e-02, 1.36417329e-01, 4.35602367e-02, 7.57753551e-02,
          6.47505224e-02, 1.30003504e-02, 3.86791080e-02, 0.,
          5.02435923e-01, 2.43676770e-02, 1.22316502e-01, 3.68381031e-02,
          6.47505224e-02, 7.46678412e-02, 2.91942302e-02, 9.38590765e-02,
          1.33108059e-02, 3.89149874e-01, 3.75966504e-02, 2.14268759e-01,
          7.17759430e-02, 7.55531490e-02, 6.33608475e-02, 3.82051952e-02,
          1.34516329e-01, 4.13980521e-02, 5.59553564e-01, 5.52176461e-02,
          1.11694515e-01, 2.82056425e-02, 6.33608475e-02, 1.47443280e-01,
          1.88174732e-02, 5.58810383e-02, 0., 4.46442664e-01,
          1.10879578e-02, 8.00219700e-02, 2.49267537e-02, 1.47443280e-01,
          2.06844226e-01, 2.31576362e-03, 6.87614456e-03, 0.,
          2.75022835e-01, 2.75131781e-02, 4.12109569e-02, 1.22603644e-02,
          2.06844226e-01, 1.37119740e-01, 3.97764519e-02, 1.51489362e-01,
          6.65282831e-02, 5.32609999e-01, 2.78628934e-02, 1.00282617e-01,
          2.89096087e-02, 1.37119740e-01, 1.08464740e-01, 4.22347477e-03,
          1.50486268e-02, 4.92720213e-03, 4.15414274e-01, 8.91178846e-03,
          8.33150968e-02, 2.75065303e-02, 1.08464740e-01, 8.47459212e-02,
          3.10167316e-02, 5.15942909e-02, 9.61667206e-03, 3.48994046e-01,
          6.64667264e-02, 8.06672573e-02, 2.96457205e-02, 9.05411392e-02,
          2.04556420e-01, 1.19319156e-01, 1.63523614e-01, 3.28016058e-02,
          4.68184203e-01, 9.41153541e-02, 1.37857631e-01, 6.37393594e-02,
          2.03426331e-01, 3.02322768e-02, 1.68195628e-02, 3.56508754e-02,
          8.15347594e-04, 4.30590123e-01, 2.99690403e-02, 4.44009937e-02,
          1.34078451e-02, 3.15437317e-02, 1.72087982e-01, 6.88042790e-02,
          1.08174808e-01, 7.84034096e-03, 4.37790543e-01, 3.54227312e-02,
          4.84656654e-02, 2.48411484e-02, 1.68386236e-01 ]
      - [ 5.03164437e-03, 0., 0., 4.16761311e-03, 7.02269971e-01,
          2.70155855e-02, 9.74928495e-03, 3.25600989e-03, 5.19176759e-03,
          7.12773297e-04, 0., 0., 0., 3.04475091e-02, 2.63858680e-02,
          2.47799158e-02, 7.27785192e-03, 9.74423485e-04, 7.70800747e-03,
          0., 0., 4.73023718e-03, 7.02269971e-01, 2.32712962e-02,
          1.62586570e-02, 9.38586146e-03, 9.24493093e-03, 2.29216181e-03,
          0., 0., 0., 1.75399724e-02, 1.87185984e-02, 3.81637365e-02,
          1.51763037e-02, 3.90412239e-03, 4.69403435e-03, 0., 0., 0.,
          1.75081834e-01, 2.43433386e-01, 3.06883216e-01, 1.02838933e-01,
          1.06014907e-02, 9.05580912e-03, 0., 0., 0., 1.48275822e-01,
          2.16499850e-01, 3.35276991e-01, 1.29495904e-01, 2.08330099e-02,
          1.08139766e-02, 0., 0., 0., 9.13539603e-02, 2.09553227e-01,
          4.29680735e-01, 1.70272842e-01, 2.39958372e-02, 1.09859267e-02,
          0., 0., 0., 8.12383071e-02, 2.82265574e-01, 4.49288487e-01,
          2.13036790e-01, 3.38826291e-02, 2.24938300e-02, 2.59725703e-03,
          7.77198374e-03, 0., 1.63358688e-01, 2.16119349e-01,
          3.22693408e-01, 1.58055812e-01, 3.61911207e-02, 4.53879721e-02,
          7.26439292e-03, 2.17378363e-02, 0., 1.75306126e-01,
          1.46486983e-01, 2.67564416e-01, 2.52179444e-01, 6.43022656e-02,
          2.50142980e-02, 2.54385895e-03, 7.61219580e-03, 0.,
          1.33379534e-01, 3.28649074e-01, 4.23409015e-01, 2.30686322e-01,
          5.59886768e-02, 7.67243803e-02, 7.70059740e-03, 2.30431240e-02,
          0., 1.49568096e-01, 1.69417217e-01, 3.14693719e-01,
          2.51074433e-01, 1.16809756e-01, 1.23842452e-02, 0., 0.,
          1.00686373e-02, 6.19370401e-01, 5.84836602e-02, 1.44286472e-02,
          7.88112637e-03, 1.39135001e-02, 1.42108614e-03, 0., 0., 0.,
          2.07213722e-02, 1.54321278e-02, 2.77773105e-02, 1.03406245e-02,
          2.86067557e-03, 1.08276280e-02, 0., 6.69099099e-05,
          9.17145535e-02, 6.19370401e-01, 4.56542611e-01, 3.78676541e-02,
          4.31694649e-03, 1.13361655e-02, 2.61991750e-03, 0., 0., 0.,
          3.56788784e-02, 1.71766002e-02, 2.59312484e-02, 9.04511008e-03,
          3.34907463e-03, 8.45375750e-03, 2.05894277e-04, 6.16114179e-04,
          0., 2.30432674e-01, 1.67638898e-01, 3.53139609e-01,
          1.15329042e-01, 1.53848212e-02, 9.78395715e-03, 1.13390863e-03,
          3.53095983e-03, 2.83811765e-04, 1.97326347e-01, 2.14001730e-01,
          3.84983778e-01, 1.50224328e-01, 2.06632838e-02, 3.45044956e-02,
          9.26524517e-04, 2.77251471e-03, 0., 2.94660002e-01,
          1.68465897e-01, 3.25747311e-01, 1.43884733e-01, 4.65105101e-02,
          4.72890958e-02, 4.34491271e-03, 1.43803610e-02, 2.83811684e-03,
          3.23271990e-01, 2.11341605e-01, 2.95758963e-01, 1.65776521e-01,
          8.14555511e-02, 3.62790488e-02, 3.63830803e-03, 8.91145132e-03,
          1.15205406e-03, 1.55377805e-01, 2.59473383e-01, 3.65204126e-01,
          2.03482345e-01, 7.46050701e-02, 1.19376503e-01, 8.95162858e-03,
          2.34405268e-02, 1.18964147e-02, 1.55306593e-01, 1.82748243e-01,
          2.85752863e-01, 2.68407285e-01, 2.16055796e-01, 6.97598308e-02,
          2.01340858e-02, 4.04913388e-02, 1.15205366e-02, 2.45946795e-01,
          2.12860584e-01, 2.64522523e-01, 1.68599069e-01, 1.10466056e-01,
          1.13891557e-01, 4.35691364e-02, 8.98907706e-02, 4.32413034e-02,
          2.41423354e-01, 1.71052009e-01, 2.22289771e-01, 1.87327653e-01,
          1.64777592e-01, 1.29392941e-03, 1.56539958e-04, 1.70108781e-03,
          1.11022584e-01, 3.88861626e-01, 2.68105477e-01, 2.14042645e-02,
          2.58600293e-03, 1.50800368e-03, 2.35332851e-03, 5.76666032e-04,
          9.86057566e-04, 2.17475281e-05, 2.53986176e-02, 9.37375519e-03,
          1.47904996e-02, 5.81624126e-03, 3.29730660e-03, 3.23866278e-01,
          3.27803218e-03, 2.25152597e-02, 7.15319961e-02, 3.88861626e-01,
          1.82754397e-01, 6.92326799e-02, 6.69389516e-02, 3.88861626e-01,
          3.88861626e-01, 2.88015464e-03, 3.42416647e-03, 2.17475201e-04,
          2.92748976e-02, 7.85565469e-03, 1.12677235e-02, 1.02042230e-02,
          3.88861626e-01, 4.86980472e-03, 7.22403987e-04, 1.31675787e-03,
          8.65329464e-04, 1.87765025e-02, 1.28192622e-02, 2.78894566e-02,
          1.28482347e-02, 7.50595378e-03, 7.75239058e-03, 6.45562657e-04,
          1.44489063e-03, 1.58860080e-03, 2.61984114e-02, 1.92941986e-02,
          2.23093163e-02, 1.55304130e-02, 1.29975015e-02, 4.97318119e-01,
          3.18663614e-03, 3.71358311e-03, 3.68968374e-03, 2.13216506e-02,
          1.22399945e-02, 1.69386603e-02, 1.38827022e-02, 4.97318119e-01,
          4.97318119e-01, 1.35770463e-03, 1.71654113e-03, 4.57567722e-03,
          2.09109057e-02, 1.67120006e-02, 1.41594354e-02, 9.63568036e-03,
          4.97318119e-01, 7.03740353e-03, 1.18460529e-03, 2.04405910e-03,
          8.49438424e-04, 1.82782542e-02, 1.97622478e-02, 1.88233368e-02,
          1.61170736e-02, 1.15813408e-02, 9.90606379e-03, 1.60791783e-03,
          2.96252291e-03, 1.07857224e-03, 1.07659753e-02, 1.25024943e-02,
          2.38734819e-02, 1.88442487e-02, 1.38717005e-02, 4.97568697e-01,
          1.40807813e-03, 1.14744471e-03, 9.57425218e-04, 1.90294627e-02,
          1.15502775e-02, 1.35779111e-02, 1.15470914e-02, 4.97568697e-01,
          4.97568697e-01, 1.90202481e-04, 1.85900630e-04, 0.,
          1.16133932e-02, 8.32239632e-03, 1.95879340e-02, 1.72503404e-02,
          4.97568697e-01 ]
      - [ 1.22730747e-01, 3.22855599e-02, 5.26800863e-02, 3.85980587e-03,
          4.56767291e-01, 0., 1.14326715e-01, 3.81714739e-02,
          1.19585738e-01, 2.26569802e-01, 9.94123220e-02, 7.24622980e-02,
          0., 2.24977717e-01, 0., 1.34255271e-02, 4.50273464e-03,
          2.11153775e-01, 1.39731824e-01, 3.83794904e-02, 5.96699826e-02,
          0., 5.61852992e-01, 0., 1.04571193e-01, 3.49134356e-02,
          1.35957807e-01, 2.51371950e-01, 1.12358578e-01, 6.59262016e-02,
          0., 2.46346489e-01, 0., 2.06877720e-02, 6.93057058e-03,
          2.32872665e-01, 1.00529894e-01, 4.24738973e-02, 5.08402362e-02,
          0., 5.03636122e-01, 6.57979259e-03, 1.14177261e-02,
          2.75454344e-03, 9.53019932e-02, 1.12518184e-01, 5.06920973e-03,
          1.51690086e-02, 0., 5.47723413e-01, 3.53175215e-02,
          1.29287869e-01, 6.12589382e-02, 1.23246446e-01, 1.06867917e-01,
          3.92501988e-02, 2.58772708e-02, 0., 3.84441227e-01, 0.,
          1.04723033e-02, 3.49966856e-03, 1.00594431e-01, 1.25963032e-01,
          5.49842557e-03, 5.40374685e-03, 0., 3.83220136e-01, 0.,
          6.52033687e-02, 5.31000197e-02, 1.41837060e-01, 1.96738988e-01,
          2.24025305e-02, 8.01880937e-03, 0., 1.53982967e-01,
          4.38034646e-02, 1.85284823e-01, 1.01959243e-01, 2.12989926e-01,
          2.63963819e-01, 1.21623248e-01, 7.74000287e-02, 7.94019923e-03,
          2.93670446e-01, 2.42366821e-01, 3.55312556e-01, 1.96106657e-01,
          2.44170859e-01, 1.52256072e-01, 2.15397365e-02, 4.27278923e-03,
          0., 1.12404145e-01, 0., 8.90908763e-02, 9.48928669e-02,
          1.84907869e-01, 1.32763311e-01, 9.21203271e-02, 7.77558684e-02,
          2.28673369e-02, 3.82304758e-01, 1.17247894e-01, 1.85953110e-01,
          1.93914339e-01, 1.49850756e-01, 3.63081433e-02, 3.04810121e-03,
          4.82004276e-03, 6.58578181e-04, 6.78701699e-02, 3.25924135e-03,
          1.32120680e-02, 1.13527216e-02, 3.74300443e-02, 2.19397079e-02,
          1.48089312e-03, 2.19606329e-03, 2.30502384e-03, 4.94371094e-02,
          6.51848176e-03, 7.69115705e-03, 7.83442520e-03, 2.27929056e-02,
          4.06454861e-01, 2.89556026e-01, 4.99377176e-02, 1.96090396e-02,
          5.48024178e-02, 3.81048881e-02, 3.71445827e-02, 1.93576738e-01,
          4.06454861e-01, 4.06454861e-01, 2.16819420e-01, 4.46721613e-02,
          1.78154334e-02, 1.13907702e-01, 5.36659583e-02, 1.13548584e-01,
          3.68380487e-01, 3.81085485e-01, 2.69232597e-02, 2.22952547e-03,
          2.71820184e-03, 3.06688412e-03, 1.50519311e-01, 6.05093455e-03,
          1.56099573e-02, 9.56749823e-03, 2.74433251e-02, 6.68567270e-02,
          1.43900523e-02, 8.48856196e-03, 0., 1.41215742e-01, 0.,
          2.01701093e-02, 8.89231823e-03, 6.58762231e-02, 5.00066519e-01,
          1.49712384e-01, 4.39337417e-02, 3.77176329e-02, 2.02673554e-01,
          7.17214197e-02, 2.62381643e-01, 5.65737367e-01, 4.35482264e-01,
          8.07814300e-02, 2.06613932e-02, 3.51423956e-02, 1.81326903e-02,
          1.39452532e-01, 5.17096650e-03, 4.38456088e-02, 2.73012929e-02,
          8.11025426e-02, 8.78273323e-02, 4.17086519e-02, 1.74795482e-02,
          0., 2.18531147e-01, 0., 3.49386074e-02, 2.11227816e-02,
          8.63511786e-02, 3.06023657e-02, 4.02924977e-02, 7.32600838e-02,
          2.93276645e-02, 5.35731733e-01, 2.86294445e-02, 6.36234060e-02,
          4.78917696e-02, 3.29445079e-02, 6.70553148e-02, 3.35972756e-02,
          5.26964441e-02, 1.93334986e-02, 3.66994888e-01, 0.,
          4.06879187e-02, 1.36032449e-02, 6.31193295e-02, 1.47052146e-02,
          1.70564987e-02, 4.35918532e-02, 1.81724187e-02, 6.80485189e-01,
          0., 3.88038754e-02, 1.29398834e-02, 1.35806492e-02,
          1.35181114e-01, 1.43705502e-01, 1.02909766e-01, 6.61694184e-02,
          8.29586238e-02, 6.68049902e-02, 3.37655954e-02, 1.32674351e-01,
          8.88510719e-02, 1.24862120e-01, 1.15575083e-01, 4.19982374e-02,
          4.43395339e-02, 7.33253509e-02, 1.14531890e-01, 1.07480079e-01,
          1.73311159e-01, 9.58229527e-02, 1.88480258e-01, 2.24474028e-01,
          2.24474028e-01, 2.05349788e-01, 2.24474028e-01, 2.15329379e-01,
          2.24474028e-01, 2.24474028e-01, 1.58714607e-01, 1.73436806e-01,
          2.24474028e-01, 2.24474028e-01, 2.00844154e-01, 2.24474028e-01,
          2.24474028e-01, 2.24474028e-01, 2.24474028e-01, 1.73186675e-01,
          1.36924013e-01, 8.74666423e-02, 4.54834886e-02, 5.67011572e-02,
          1.62260130e-01, 2.54108906e-01, 2.79971033e-01, 2.38055363e-01,
          1.30042762e-01, 1.07366806e-02, 3.63873038e-03, 7.67421443e-03,
          9.02540889e-03, 4.11280878e-02, 1.43432077e-02, 5.66538423e-03,
          3.36137041e-03, 1.27799409e-02, 1.93345532e-01, 2.67933786e-01,
          2.98773080e-01, 2.98773080e-01, 2.98773080e-01, 2.98773080e-01,
          2.98773080e-01, 2.98773080e-01, 2.44835302e-01, 1.67518407e-02,
          3.82124307e-03, 1.19597623e-02, 3.44408788e-02, 1.06148176e-01,
          3.90026830e-02, 1.40603390e-02, 1.22270202e-02, 2.50353906e-02,
          3.60035226e-02, 1.78904925e-02, 6.36238456e-02, 1.98490806e-02,
          4.11885887e-01, 0., 2.24122256e-02, 7.50469556e-03,
          3.60035226e-02, 1.23075852e-02, 4.90204990e-03, 1.96832642e-02,
          9.92453843e-03, 4.86673206e-01, 0., 4.89338301e-02,
          1.63207520e-02, 1.23075852e-02, 9.66395214e-02, 2.27902159e-02,
          7.09234625e-02, 1.32665411e-02, 4.91237611e-01, 9.25476942e-03,
          6.56148866e-02, 7.18414262e-02, 1.06970623e-01, 5.87081760e-02,
          1.96579471e-02, 7.26934522e-02, 2.73340754e-02, 5.29234648e-01,
          2.64421967e-03, 2.31570117e-02, 1.18316626e-02, 5.95537946e-02 ]
      - [ 5.91836832e-02, 9.18043777e-03, 1.88610386e-02, 1.36030661e-02,
          1.54035345e-01, 9.38520283e-02, 1.86596110e-01, 1.47703081e-01,
          8.12316760e-02, 4.22166884e-02, 1.95127504e-03, 1.32491125e-03,
          1.08824521e-02, 1.50537968e-01, 8.29971656e-02, 2.84330934e-01,
          1.43402770e-01, 6.38293400e-02, 1.74211398e-01, 4.13366184e-02,
          3.32739763e-02, 2.53502764e-02, 1.71928421e-01, 1.06826551e-01,
          2.71986306e-01, 2.96310693e-01, 4.43226010e-01, 1.83815956e-01,
          7.48527795e-02, 4.83354293e-02, 2.57623382e-02, 1.69625029e-01,
          1.69455126e-01, 2.93823481e-01, 2.95592636e-01, 2.24974439e-01,
          2.92738527e-02, 4.96857276e-04, 0., 0., 1.22653581e-01,
          3.18930820e-02, 3.65271151e-01, 1.64134264e-01, 4.74846102e-02,
          2.69703232e-02, 0., 0., 0., 1.87917098e-01, 6.50015026e-02,
          4.08102274e-01, 1.91295967e-01, 5.36973141e-02, 1.36506051e-01,
          5.12405150e-02, 3.03731989e-02, 8.12579971e-03, 2.15174600e-01,
          1.38737872e-01, 3.23009104e-01, 2.51648217e-01, 1.51153162e-01,
          3.67576629e-02, 5.04396344e-03, 3.51960654e-03, 4.70434956e-04,
          2.17782274e-01, 1.02129743e-01, 4.30735677e-01, 2.02094182e-01,
          6.03797548e-02, 2.64360961e-02, 1.87920965e-03, 5.62331220e-03,
          0., 1.96325690e-01, 6.15255721e-02, 3.59488130e-01,
          1.87050939e-01, 5.12851886e-02, 5.84736019e-02, 6.45675184e-03,
          1.93210654e-02, 0., 1.74749076e-01, 4.00760993e-02,
          3.05376709e-01, 1.81632757e-01, 7.63327628e-02, 2.20599584e-02,
          4.03485168e-03, 8.20086524e-03, 0., 1.92085519e-01,
          9.92190391e-02, 4.98015910e-01, 2.22145960e-01, 4.41194959e-02,
          8.27316418e-02, 1.57422069e-02, 1.60151105e-02, 0.,
          9.64593217e-02, 4.29752208e-02, 4.32009399e-01, 2.30279937e-01,
          9.98366550e-02, 4.11016420e-02, 1.13475043e-02, 1.33906463e-02,
          1.49916625e-02, 3.15516405e-02, 8.91608745e-02, 3.46939832e-01,
          2.97358513e-01, 1.80216491e-01, 3.25001664e-02, 2.40994692e-02,
          2.01201849e-02, 1.06917704e-02, 4.45852615e-02, 5.12207858e-02,
          1.18313335e-01, 8.05960819e-02, 3.66634019e-02, 4.46038507e-02,
          1.55497110e-02, 1.92691013e-02, 1.84441768e-02, 3.26240808e-02,
          1.54982343e-01, 3.89969915e-01, 3.89969915e-01, 2.23656476e-01,
          3.38513590e-02, 2.84293126e-02, 3.70324962e-02, 1.90665983e-02,
          5.49404286e-02, 1.36987537e-01, 3.89969915e-01, 3.89969915e-01,
          5.68829179e-02, 1.30632773e-01, 9.27517787e-02, 4.68733087e-02,
          3.33727896e-02, 1.92060396e-01, 1.24596737e-01, 1.32075429e-01,
          8.53693336e-02, 8.69569555e-02, 3.02943047e-02, 1.35447821e-02,
          4.04895889e-03, 6.33097021e-03, 7.19518065e-02, 4.27574627e-02,
          9.21826512e-02, 5.27280048e-02, 2.99411677e-02, 1.49949297e-01,
          1.11226976e-01, 1.19625367e-01, 8.17063078e-02, 2.60934293e-01,
          3.80465388e-01, 5.24418712e-01, 4.94703323e-01, 1.59022585e-01,
          7.58305639e-02, 4.14754003e-02, 4.39115278e-02, 4.21286486e-02,
          9.31148827e-02, 7.65403137e-02, 1.02915950e-01, 6.96939602e-02,
          7.66352713e-02, 6.91500977e-02, 1.01236645e-02, 1.71895754e-02,
          0., 2.05493093e-01, 1.02683969e-01, 3.45456272e-01,
          1.76280007e-01, 8.46472904e-02, 1.20519675e-01, 3.27400826e-02,
          3.84537131e-02, 0., 1.13655619e-01, 4.25724015e-02,
          3.07795703e-01, 1.99727356e-01, 1.37867227e-01, 2.03527018e-01,
          5.81577681e-02, 6.40667304e-02, 5.57998754e-02, 2.02585950e-01,
          1.22617431e-01, 2.90110856e-01, 2.24694252e-01, 2.09945619e-01,
          1.89960629e-01, 1.10142026e-02, 1.26765594e-02, 2.56145606e-03,
          1.29886568e-01, 2.27366965e-02, 3.22092980e-01, 3.03734064e-01,
          2.35092849e-01, 1.38417892e-02, 6.71120360e-03, 3.33783589e-03,
          4.21783980e-03, 1.90537479e-02, 6.74238279e-02, 3.84152025e-01,
          2.71154016e-01, 4.46735732e-02, 2.10481901e-02, 8.25435854e-03,
          1.18796900e-02, 1.60559788e-02, 5.84934689e-02, 3.22046041e-01,
          3.84152025e-01, 3.84152025e-01, 3.77509370e-02, 8.52879602e-03,
          3.96321388e-03, 9.68197943e-04, 3.63901723e-03, 3.19928192e-02,
          2.47762240e-02, 5.18368073e-02, 1.41824298e-02, 9.59295873e-03,
          3.04902755e-02, 9.92073212e-03, 6.72917068e-03, 2.32102424e-02,
          1.27782464e-01, 3.84152025e-01, 3.84152025e-01, 2.10047454e-01,
          3.67747918e-02, 2.12687142e-02, 9.73161962e-03, 1.87614094e-02,
          2.31991429e-02, 6.44254312e-02, 3.25863421e-01, 3.58454555e-01,
          2.21831515e-01, 2.98393480e-02, 2.39973571e-02, 2.03526821e-02,
          2.44803112e-02, 1.70801152e-02, 2.81406026e-02, 7.75514618e-02,
          7.55780637e-02, 2.87442170e-02, 1.86964609e-02, 3.78105752e-02,
          1.48247508e-02, 1.36129400e-02, 3.90260965e-02, 2.29886889e-01,
          3.58454555e-01, 3.58454555e-01, 3.57140690e-01, 5.52738160e-02,
          5.30690849e-02, 3.96212675e-02, 2.77250912e-02, 3.50244120e-02,
          1.79540753e-01, 3.37666065e-01, 2.51344711e-01, 1.67075589e-01,
          5.44652492e-02, 1.76624984e-01, 1.08238883e-01, 1.20008044e-01,
          7.11166337e-02, 1.29009426e-01, 7.42214248e-02, 1.12981647e-01,
          1.15807965e-01, 1.61829516e-01, 1.17703363e-01, 1.99153414e-03,
          4.34925174e-03, 2.28820438e-03, 6.92242160e-02, 5.82931051e-03,
          1.13984436e-01, 1.91078797e-01, 1.58448994e-01, 3.00228596e-01,
          2.63065755e-01, 1.74146473e-01, 1.46817505e-01, 5.02511561e-01,
          2.82595903e-01, 2.02128962e-01, 2.11733133e-01, 2.28691995e-01,
          7.12904632e-02, 1.00188423e-02, 1.69718117e-02, 2.21809302e-03,
          1.28567174e-01, 2.31402162e-02, 1.67306229e-01, 1.46083489e-01,
          1.06364772e-01 ]
      - [ 4.66013193e-01, 2.94071734e-02, 0., 0., 0., 0., 0.,
          2.44700797e-02, 4.64998811e-01, 5.17417729e-01, 2.66596470e-02,
          0., 0., 0., 0., 0., 3.12256124e-02, 5.18355846e-01, 0., 0., 0.,
          0., 0., 0., 0., 0., 0., 0., 0., 0., 0., 0., 0., 0., 0., 0.,
          4.63246137e-01, 2.92325616e-02, 0., 0., 0., 0., 0.,
          2.43247859e-02, 4.62237775e-01, 4.99182969e-01, 2.65013501e-02,
          1.19783049e-02, 1.47979436e-02, 1.43133193e-01, 4.15982679e-02,
          0., 3.38432044e-02, 5.00652850e-01, 0., 0., 0., 0., 0., 0., 0.,
          0., 0., 0., 0., 0., 0., 1.38317257e-01, 0., 0., 0., 0.,
          1.26671530e-02, 4.88991942e-03, 3.74327274e-03, 5.96535718e-03,
          2.14010440e-02, 8.52790847e-03, 1.00475540e-02, 7.50275422e-03,
          1.56858247e-02, 9.94168893e-02, 1.17071513e-02, 3.78160663e-02,
          2.39301786e-01, 6.68683350e-01, 8.21874887e-02, 3.55253071e-02,
          3.68847847e-02, 8.57584551e-02, 4.10813233e-03, 3.42456554e-03,
          1.79213344e-03, 6.52585132e-03, 2.51505580e-02, 3.55900032e-03,
          5.74423186e-03, 2.71167187e-03, 4.39462811e-03, 1.36192264e-02,
          6.46484410e-03, 1.02450689e-02, 7.13445470e-02, 6.68683350e-01,
          7.23117366e-02, 1.12758530e-02, 2.05665380e-02, 2.12814864e-02,
          0., 0., 0., 0., 0., 0., 0., 0., 0., 0., 0., 0., 0., 0., 0., 0.,
          0., 0., 0., 0., 0., 0., 0., 0., 0., 0., 0., 0., 0., 0., 0., 0.,
          0., 0., 0., 0., 0., 0., 0., 0., 0., 0., 0., 0., 0., 0., 0., 0.,
          0., 5.52966475e-01, 0., 0., 0., 0., 0., 0., 0., 0., 0., 0., 0.,
          0., 0., 0., 0., 0., 0., 7.76837111e-01, 0., 0., 0., 0.,
          5.26451087e-03, 5.14419097e-03, 1.82418141e-03, 4.80966130e-03,
          2.34756432e-02, 3.35599901e-03, 4.26515006e-03, 6.79791998e-03,
          6.72623096e-03, 1.02601983e-01, 6.65239617e-02, 4.95519042e-02,
          1.69088617e-01, 5.85758924e-01, 1.27576798e-01, 4.76756468e-02,
          1.24800347e-01, 1.07199460e-01, 9.65809915e-03, 9.99220088e-03,
          2.00395216e-03, 8.20851326e-03, 3.17867175e-02, 7.93535169e-03,
          8.12486466e-03, 9.08767339e-03, 7.37834442e-03, 1.62474856e-01,
          1.18035488e-01, 5.65712750e-02, 3.00905526e-01, 5.85758924e-01,
          2.19118744e-01, 8.14850107e-02, 1.15381308e-01, 1.09431699e-01,
          0., 0., 0., 0., 0., 0., 0., 0., 0., 0., 0., 0., 0., 0., 0., 0.,
          0., 0., 4.61544156e-01, 0., 0., 0., 0., 0., 0., 0.,
          4.61544156e-01, 5.13252318e-01, 0., 0., 0., 0., 0., 0., 0.,
          5.13252318e-01, 0., 0., 0., 0., 0., 0., 0., 0., 0., 0., 0., 0.,
          0., 2.56652087e-01, 0., 0., 0., 0., 4.38042909e-01, 0., 0., 0.,
