%YAML:1.0
---
opencv_ml_svm:
   format: 3
   svmType: C_SVC
   kernel:
      type: LINEAR
   C: 1.
   term_criteria: { epsilon:1.1920928955078125e-07, iterations:1000 }
   var_count: 324
   class_count: 2
   class_labels: !!opencv-matrix
      rows: 2
      cols: 1
      dt: i
      data: [ 0, 1 ]
   sv_total: 1
   support_vectors:
      - [ -1.78924799e-01, 1.78278953e-01, 8.24236348e-02,
          1.75548360e-01, -4.65858504e-02, 1.22229852e-01,
          1.03276983e-01, 7.50476569e-02, -2.24367648e-01,
          1.01653866e-01, 2.88494796e-01, 1.88641146e-01, 1.31099030e-01,
          -2.56314985e-02, 4.23172005e-02, 5.07814996e-02,
          1.33247916e-02, -1.19525149e-01, -1.04331471e-01,
          2.37847283e-01, 1.89651445e-01, 2.39711672e-01,
          -3.99415977e-02, -2.90732738e-02, -1.10367388e-02,
          -2.69793235e-02, -1.72003165e-01, 2.56097298e-02,
          1.86277911e-01, 1.07274853e-01, 1.42084032e-01, 7.48285651e-02,
          -6.25799671e-02, -2.18142918e-03, -2.97700800e-02,
          -1.27234504e-01, 1.97686493e-01, 1.77708328e-01,
          1.32252321e-01, 1.01290427e-01, -2.28040695e-01,
          -3.07452660e-02, -1.43556120e-02, -2.19789073e-02,
          5.39874583e-02, 8.34187567e-02, 1.44385189e-01, 8.11655074e-02,
          -1.98216215e-02, -1.59373999e-01, -2.95356307e-02,
          -9.36638638e-02, -8.20205584e-02, 7.31625110e-02,
          2.03280315e-01, 1.40588626e-01, -1.52271157e-02,
          1.71483550e-02, -2.81937450e-01, -4.89201583e-02,
          -2.70890258e-02, -1.68931466e-02, 6.11035265e-02,
          8.53368863e-02, -1.20769836e-01, -1.86723426e-01,
          -9.13058370e-02, -2.58645803e-01, -6.39601424e-02,
          -6.09574281e-02, -2.65321229e-02, 4.33613583e-02,
          2.50360012e-01, 2.25706305e-02, -7.64584690e-02,
          -3.15820314e-02, -2.10607126e-02, 9.68471635e-04,
          -2.08278447e-02, -9.82317980e-03, 1.14007391e-01,
          1.42687500e-01, 3.43041085e-02, -9.15329978e-02,
          2.89189760e-02, 2.77538877e-02, 7.66191483e-02, 1.60182878e-01,
          1.22829385e-01, 1.46188959e-01, -1.62643380e-02,
          -7.92941526e-02, -1.32733062e-01, 3.48726623e-02,
          1.84585899e-01, -2.56761219e-02, -4.17026691e-02,
          -1.71300098e-02, 9.83606951e-05, -1.91369653e-02,
          1.54965401e-01, 5.77183589e-02, 3.30866158e-01, 2.46481404e-01,
          3.44085768e-02, 1.76803675e-02, 1.23496903e-02,
          -5.00580445e-02, 8.97926278e-03, 2.35116482e-01,
          1.82910129e-01, 2.91709483e-01, 7.38827437e-02,
          -5.66421300e-02, -3.13737206e-02, -2.47801598e-02,
          -9.61429328e-02, -1.52663827e-01, 1.85597584e-01,
          1.19941160e-01, -5.14253043e-03, 2.41517827e-01,
          -7.62510896e-02, -2.33557336e-02, -1.56785250e-02,
          -1.68725237e-01, -5.67674823e-02, 1.80028439e-01,
          7.57325292e-02, 2.68015504e-01, 1.88880429e-01,
          -8.74448568e-02, -4.86656204e-02, -1.47606721e-02,
          -1.37322620e-01, -2.66203105e-01, -2.37665460e-01,
          -2.80213982e-01, -1.61352247e-01, 1.70135513e-01,
          -9.75153297e-02, -5.26292473e-02, -3.81659158e-02,
          -2.26059645e-01, 2.87992686e-01, 2.95458943e-01,
          1.10529073e-01, 1.23213537e-01, -4.59063947e-02,
          2.57029012e-02, 8.68163854e-02, 5.34500517e-02, 9.87666994e-02,
          -7.57794380e-02, -2.42803454e-01, -1.92457631e-01,
          -2.41760421e-03, -1.72211915e-01, 3.24506662e-03,
          2.30595581e-02, 4.52193581e-02, -2.03227606e-02,
          -1.91420019e-02, -1.80218756e-01, -3.37182313e-01,
          -1.12242997e-01, -1.19848274e-01, -1.23943444e-02,
          1.17636509e-02, -3.64320981e-03, -5.85127771e-02,
          2.54290432e-01, 3.08166355e-01, 2.02629194e-01, 1.48119286e-01,
          -8.73488858e-02, 2.52358429e-02, 8.14943761e-02,
          6.15143962e-02, 3.43383588e-02, -2.61154532e-01,
          -1.97092190e-01, -6.93506822e-02, 3.37566882e-02,
          2.18416750e-02, -8.49053562e-02, -6.99881613e-02,
          -3.12013309e-02, -1.76246107e-01, -1.37984321e-01,
          1.14391766e-01, 1.22486427e-01, 2.99605995e-01, 1.52243286e-01,
          -4.28992435e-02, -4.05907966e-02, -3.93665135e-02,
          -1.94202349e-01, -2.77654052e-01, 2.04686057e-02,
          9.34307650e-02, 3.49634364e-02, 8.99195950e-03,
          -1.11250430e-01, -4.99273911e-02, -5.73224872e-02,
          -2.41130933e-01, -2.02011570e-01, 4.49281521e-02,
          7.10504502e-03, 1.71947747e-01, -2.23436411e-02,
          -1.19777448e-01, -3.44292298e-02, -4.48906533e-02,
          -2.74594426e-01, -3.97123732e-02, 7.30103031e-02,
          2.34633777e-02, 2.49761418e-01, 1.82911336e-01, 6.03117906e-02,
          1.63221136e-02, -3.78598622e-03, -8.77921805e-02,
          -2.01830044e-02, -1.40049636e-01, -1.21232413e-01,
          -6.46636114e-02, 1.44735098e-01, -2.15211250e-02,
          -1.75449494e-02, -4.47161198e-02, -5.59050404e-02,
          1.06873564e-01, 1.31515622e-01, 1.03463560e-01, 2.64732450e-01,
          1.06945038e-01, 2.99161166e-01, 1.58178985e-01, 1.38264447e-01,
          1.51211098e-01, 2.74156690e-01, 1.07343443e-01, 1.34307202e-02,
          6.21228106e-02, 1.16487928e-01, 4.98059243e-02, 1.96649786e-02,
          -2.05004662e-02, 1.55437261e-01, 1.12993777e-01,
          -7.96096995e-02, -1.74749851e-01, -8.18101689e-03,
          -2.47259244e-01, -1.47612058e-02, -1.06228478e-02,
          -1.94861554e-02, 1.67051572e-02, 1.72284365e-01,
          1.07883804e-01, -1.05283126e-01, 3.83362398e-02,
          -1.24156222e-01, 1.42240375e-02, 1.20427776e-02,
          1.26741044e-02, -2.73875631e-02, 2.76403219e-01,
          1.02798700e-01, 4.45515960e-02, 1.45995587e-01,
          -1.85367048e-01, -6.83367113e-03, -1.48266219e-02,
          -4.63638315e-03, 1.90134615e-01, 2.21209794e-01,
          1.90762058e-01, 4.63113338e-02, 2.06786215e-01,
          -9.11539197e-02, 7.81021938e-02, 3.15565616e-02,
          4.47682254e-02, 1.36571713e-02, 5.72321825e-02, 2.92484403e-01,
          1.95072010e-01, 2.04252243e-01, 9.96070579e-02, 9.19099431e-03,
          5.12892706e-03, 1.54959047e-02, -9.83770117e-02,
          -1.49868697e-01, 1.87024057e-01, 2.21902966e-01,
          1.45117685e-01, 7.00552529e-03, -2.32559778e-02,
          1.29931513e-02, 2.15421747e-02, -1.50070980e-01,
          6.35191724e-02, 2.20928624e-01, 9.62016135e-02, 1.61985844e-01,
          -6.31729513e-02, 8.44012871e-02, 5.22468872e-02,
          5.85782342e-02, -5.50725944e-02, -1.92396432e-01,
          -6.09611766e-03, -7.41784349e-02, 3.92950401e-02,
          -3.27662192e-02, 1.59682825e-01, 2.42076546e-01,
          1.98617503e-01, -1.51274174e-01 ]
   uncompressed_sv_total: 23
   uncompressed_support_vectors:
      - [ 3.69712897e-02, 1.08297460e-01, 1.28672868e-01, 4.48413566e-02,
          3.04782260e-02, 4.26196679e-02, 4.72297184e-02, 4.71622832e-02,
          4.33695614e-02, 2.41021112e-01, 3.14329445e-01, 3.20642442e-01,
          2.54479259e-01, 5.93355782e-02, 2.67508179e-02, 4.08282988e-02,
          3.27852741e-02, 1.05685741e-01, 7.13702217e-02, 3.20642442e-01,
          3.20642442e-01, 1.92017868e-01, 3.16884108e-02, 3.28578688e-02,
          3.77428196e-02, 4.34419699e-02, 4.54928353e-02, 2.24353060e-01,
          3.20642442e-01, 3.20642442e-01, 3.05273771e-01, 4.14860994e-02,
          1.81814227e-02, 2.90160645e-02, 2.30292529e-02, 7.62427971e-02,
          2.75753975e-01, 2.75753975e-01, 2.75753975e-01, 2.75753975e-01,
          1.24778077e-01, 1.95877310e-02, 1.19340438e-02, 1.07335923e-02,
          1.93510234e-01, 2.75753975e-01, 2.75753975e-01, 2.62785226e-01,
          2.34292448e-01, 1.11957431e-01, 1.36886062e-02, 5.96484402e-03,
          5.53342560e-03, 2.75753975e-01, 2.57700294e-01, 2.34428748e-01,
          2.13493273e-01, 2.23157078e-01, 6.12518713e-02, 1.54618835e-02,
          8.72383732e-03, 6.82006683e-03, 9.46116745e-02, 1.49879277e-01,
          6.11490123e-02, 6.33768737e-02, 6.80235028e-02, 5.87988906e-02,
          6.42918237e-03, 7.07257492e-03, 4.12650453e-03, 7.96639472e-02,
          3.01971853e-01, 1.31886780e-01, 1.18549369e-01, 7.73169100e-02,
          3.39949846e-01, 4.26200442e-02, 4.04390097e-02, 7.22379982e-02,
          2.23856941e-01, 3.32253546e-01, 1.02526888e-01, 7.43663609e-02,
          1.03946477e-01, 3.84116292e-01, 1.23671040e-01, 1.21358536e-01,
          1.26406580e-01, 2.40328446e-01, 3.89345400e-02, 1.42154414e-02,
          9.14037134e-03, 1.75026786e-02, 3.84116292e-01, 2.13409979e-02,
          2.75851483e-03, 7.37849297e-03, 3.37066092e-02, 2.79366001e-02,
          9.57719516e-03, 2.59227911e-03, 4.28539068e-02, 3.84116292e-01,
          4.91864495e-02, 1.14693418e-02, 8.72110017e-03, 2.15303879e-02,
          8.32918212e-02, 3.30781817e-01, 3.30781817e-01, 3.30781817e-01,
          6.07136637e-02, 2.58529447e-02, 2.68834215e-02, 2.50414982e-02,
          2.73716412e-02, 7.94758126e-02, 3.30781817e-01, 3.30781817e-01,
          1.33944720e-01, 2.57134922e-02, 1.36120301e-02, 2.22330969e-02,
          1.23808300e-02, 2.58436687e-02, 1.29995868e-01, 3.30781817e-01,
          3.30781817e-01, 3.30781817e-01, 2.28025064e-01, 3.39243971e-02,
          1.64547022e-02, 7.66759878e-03, 2.06033867e-02, 2.09464189e-02,
          5.33788800e-02, 6.29729256e-02, 3.78927924e-02, 3.55837271e-02,
          1.52516644e-02, 1.20939584e-02, 6.96806563e-03, 1.92104839e-02,
          3.65596175e-01, 4.37775761e-01, 4.37775761e-01, 1.91071272e-01,
          9.42161679e-02, 6.34569377e-02, 5.65982051e-02, 3.42900306e-02,
          1.88510537e-01, 8.39517117e-02, 3.24304923e-02, 3.79257351e-02,
          3.64134461e-02, 4.29569989e-01, 1.57171544e-02, 3.05396039e-02,
          1.74126532e-02, 8.37335810e-02, 5.84485345e-02, 2.67274827e-02,
          2.60746852e-02, 3.69903282e-03, 7.21416399e-02, 1.25754774e-02,
          1.59285460e-02, 1.14953117e-02, 6.49284944e-02, 4.38237116e-02,
          4.79552010e-03, 1.68943759e-02, 5.50385565e-03, 4.08017069e-01,
          0., 9.71223984e-04, 7.70393643e-04, 4.39161062e-02,
          2.33527785e-03, 8.66483140e-04, 3.16104328e-04, 5.57434699e-03,
          4.98503447e-01, 8.72738753e-03, 1.11719745e-03, 1.11719407e-03,
          3.40672769e-03, 1.26409833e-03, 5.62146713e-04, 1.20782678e-03,
          2.00101286e-02, 4.98503447e-01, 2.09899265e-02, 9.98271513e-04,
          1.47320691e-03, 1.47919636e-03, 7.79894472e-04, 1.18185868e-04,
          5.27739467e-04, 6.28027366e-04, 4.98503447e-01, 0.,
          6.21373765e-05, 2.13470466e-05, 7.79894472e-04, 2.34663530e-04,
          1.93321990e-04, 5.85481641e-04, 2.76711164e-03, 4.98503447e-01,
          3.12811462e-03, 9.37069475e-04, 4.81007504e-04, 2.69777374e-04,
          1.45924896e-01, 2.12364808e-01, 1.56944275e-01, 3.23602706e-01,
          3.62498760e-01, 3.18797342e-02, 5.23759332e-03, 8.78191926e-03,
          5.68768717e-02, 6.66359067e-02, 1.43115418e-02, 1.37256030e-02,
          1.52296582e-02, 2.81583052e-02, 9.85764060e-03, 3.18338792e-03,
          2.57745013e-03, 6.97382540e-02, 3.79531264e-01, 3.56452726e-02,
          3.96542773e-02, 1.24449223e-01, 2.29161054e-01, 5.06584719e-02,
          7.17911124e-03, 6.41167164e-02, 3.79531264e-01, 3.79531264e-01,
          2.90215597e-03, 3.09285009e-03, 3.94333201e-03, 8.96385685e-03,
          1.96754746e-03, 2.08241516e-04, 5.31655445e-04, 3.79531264e-01,
          6.65554553e-02, 2.32713320e-03, 4.07996122e-03, 4.33089037e-04,
          7.70497043e-03, 1.03196350e-03, 1.32876681e-03, 7.41078518e-04,
          6.74570054e-02, 7.60833323e-02, 2.16707331e-03, 3.62373795e-03,
          2.91986950e-03, 4.75005433e-02, 1.21212308e-03, 8.87283531e-04,
          6.05419569e-04, 7.46808574e-02, 4.92366284e-01, 1.86561071e-03,
          1.71739364e-03, 3.72389070e-04, 3.06978379e-03, 1.83458193e-04,
          1.51096680e-03, 1.12060050e-03, 4.92366284e-01, 4.92366284e-01,
          2.26530060e-02, 3.88524798e-03, 3.72722931e-03, 3.91474254e-02,
          2.08399184e-02, 9.76772141e-03, 6.62481273e-03, 4.92366284e-01,
          1.90603435e-02, 4.84815286e-03, 3.54671548e-03, 1.01673566e-02,
          3.87726873e-01, 9.35205165e-03, 1.95380393e-03, 2.84039183e-03,
          1.67482514e-02, 1.09508755e-02, 5.24880830e-03, 1.27204442e-02,
          1.83972064e-02, 3.87726873e-01, 1.61829889e-02, 8.29141680e-03,
          5.98568795e-03, 9.84117948e-03, 2.79163569e-01, 1.04889743e-01,
          5.39439060e-02, 8.45714733e-02, 2.94406056e-01, 7.62834623e-02,
          5.75862639e-02, 5.34452125e-02, 3.20336312e-01, 2.06478089e-01,
          1.54816672e-01, 1.40240401e-01, 2.19316125e-01, 3.87726873e-01,
          1.59687862e-01, 1.50800139e-01, 1.08783610e-01, 2.20034167e-01 ]
      - [ 3.89540419e-02, 1.28997549e-01, 1.09439775e-01, 4.22371179e-02,
          2.57201232e-02, 5.92712592e-03, 5.22324722e-03, 9.87892505e-03,
          1.02406619e-02, 2.31500506e-01, 3.66512150e-01, 3.59872639e-01,
          9.42022353e-02, 6.30153343e-02, 1.79739296e-02, 4.13730219e-02,
          7.59042054e-02, 7.03245997e-02, 7.07728788e-02, 3.66512150e-01,
          3.66512150e-01, 9.44011956e-02, 2.59027686e-02, 3.32373194e-03,
          5.62412990e-03, 9.41395201e-03, 1.58188883e-02, 2.18442902e-01,
          3.66512150e-01, 3.66512150e-01, 1.37434497e-01, 2.61052307e-02,
          6.73139188e-03, 6.23209495e-03, 5.09527232e-03, 2.79218368e-02,
          3.17102581e-01, 3.17102581e-01, 3.17102581e-01, 5.40175848e-02,
          8.23934451e-02, 2.33553145e-02, 3.41499411e-02, 5.72352149e-02,
          1.33174285e-01, 3.17102581e-01, 3.17102581e-01, 2.57871419e-01,
          9.64844599e-02, 8.69734883e-02, 2.11162884e-02, 9.46668908e-03,
          5.73401945e-03, 2.46095225e-01, 2.53091842e-01, 3.17102581e-01,
          2.55317032e-01, 4.99647148e-02, 3.02416217e-02, 9.24859755e-03,
          5.25545748e-03, 3.22260079e-03, 4.72693257e-02, 1.99937120e-01,
          1.69150710e-01, 7.51727223e-02, 1.97997764e-02, 3.06056365e-02,
          9.53035895e-03, 2.57169781e-03, 4.34458908e-03, 7.66872168e-02,
          3.86739701e-01, 2.06429854e-01, 1.34826347e-01, 8.11992660e-02,
          1.84734643e-01, 1.12036224e-02, 5.16225351e-03, 4.03634235e-02,
          2.12758943e-01, 3.86739701e-01, 2.33513087e-01, 1.17313534e-01,
          9.22824889e-02, 3.86739701e-01, 7.08363429e-02, 5.09936027e-02,
          1.55581504e-01, 2.64696389e-01, 7.11550713e-02, 2.83432752e-02,
          1.97527409e-02, 9.61413793e-03, 2.44004712e-01, 5.51923923e-03,
          8.53922043e-04, 6.81783399e-03, 4.25930619e-02, 3.41932066e-02,
          1.60000212e-02, 7.23386556e-03, 1.14175277e-02, 3.86739701e-01,
          2.32663807e-02, 3.04934382e-03, 1.38318706e-02, 2.19736230e-02,
          5.09531908e-02, 3.81310195e-01, 3.81310195e-01, 1.86553404e-01,
          4.01609242e-02, 4.01378237e-03, 5.15940087e-03, 7.86501076e-03,
          2.29885317e-02, 7.95783922e-02, 3.81310195e-01, 3.81310195e-01,
          6.73969164e-02, 2.25465819e-02, 6.29718695e-03, 4.78350371e-03,
          1.53387210e-03, 1.89491473e-02, 4.34628278e-02, 3.08075756e-01,
          3.81310195e-01, 3.17756742e-01, 1.24044023e-01, 3.77484830e-03,
          8.30722786e-03, 6.66587846e-03, 2.58640666e-02, 1.80032961e-02,
          2.11817324e-02, 4.93911915e-02, 1.64452810e-02, 1.01134581e-02,
          2.82235607e-03, 2.52549956e-03, 1.36899611e-03, 1.40558332e-02,
          4.93523896e-01, 5.42601764e-01, 5.33197105e-01, 1.30259752e-01,
          1.80499807e-01, 3.63076627e-02, 3.98140699e-02, 1.21342400e-02,
          1.50715113e-01, 9.03986767e-02, 7.08345696e-02, 3.92546989e-02,
          3.29027064e-02, 2.09804967e-01, 3.00280713e-02, 2.22813617e-02,
          2.62592398e-02, 7.90058821e-02, 4.80541214e-02, 9.44762677e-03,
          1.01333903e-02, 8.38191155e-03, 3.10017150e-02, 4.34331503e-03,
          1.01659019e-02, 3.48681235e-03, 4.69770133e-02, 2.60581803e-02,
          3.47048603e-03, 9.42654349e-03, 2.21088529e-03, 1.42356843e-01,
          2.68439054e-02, 2.18046810e-02, 5.35963569e-03, 2.60154791e-02,
          1.48791284e-03, 7.53403059e-04, 2.39578797e-03, 3.16448975e-03,
          3.37426305e-01, 5.35146287e-03, 1.33898726e-03, 1.76341576e-03,
          2.93089240e-03, 1.71674252e-03, 2.94729543e-04, 8.91302305e-04,
          1.15572214e-02, 6.08925283e-01, 2.66710967e-02, 1.84803107e-03,
          4.31838969e-04, 1.73708121e-03, 1.38810533e-03, 5.07779419e-04,
          1.79183972e-03, 4.05716570e-03, 3.67374420e-01, 8.00909195e-03,
          2.79491558e-03, 9.07006557e-04, 1.44720811e-03, 2.50031357e-03,
          1.16373762e-03, 2.11622030e-03, 3.20962705e-02, 6.08925283e-01,
          3.81344743e-02, 1.98457553e-03, 7.56011519e-04, 2.40441342e-03,
          9.09400657e-02, 1.56040087e-01, 1.49013579e-01, 2.37383619e-01,
          1.72032058e-01, 1.28781479e-02, 1.55964177e-02, 1.02445669e-02,
          7.57519901e-02, 7.48643205e-02, 4.02982673e-03, 2.57507921e-03,
          2.16471311e-03, 4.58693039e-03, 2.92179902e-04, 3.30466055e-03,
          3.38735315e-03, 7.52485171e-02, 4.51662987e-01, 3.05992663e-02,
          3.10825910e-02, 6.39835671e-02, 9.86797437e-02, 5.87404743e-02,
          2.96995807e-02, 3.16963829e-02, 4.51662987e-01, 4.51662987e-01,
          2.78145750e-03, 1.50991976e-03, 0., 4.96576773e-03,
          3.14430916e-04, 3.86240147e-03, 3.11552710e-03, 4.51662987e-01,
          6.98550344e-02, 3.50728893e-04, 4.10334469e-04, 2.33033599e-04,
          1.24776212e-03, 0., 8.31733807e-04, 5.37917833e-04,
          7.06548318e-02, 7.76198804e-02, 1.89419603e-03, 1.84079481e-03,
          6.74621202e-04, 1.03481449e-02, 1.86352734e-03, 2.46861111e-03,
          7.60161493e-04, 7.55927116e-02, 4.93282050e-01, 8.68661518e-05,
          2.59936496e-04, 0., 1.51493482e-03, 0., 1.42956479e-03,
          7.50634877e-04, 4.93282050e-01, 4.93282050e-01, 2.86591123e-03,
          1.05833111e-03, 3.37310572e-04, 2.69874465e-03, 6.09007955e-04,
          1.91161863e-03, 5.99568186e-04, 4.93282050e-01, 2.84776557e-02,
          4.13343683e-03, 4.68429038e-03, 5.92745934e-03, 2.16918215e-01,
          5.34487795e-03, 3.66022368e-03, 1.39747956e-03, 2.78568342e-02,
          1.97881907e-02, 9.37633775e-03, 1.05301943e-02, 3.80442776e-02,
          3.73790145e-01, 3.17593329e-02, 9.19956993e-03, 6.18768390e-03,
          1.88019928e-02, 3.73790145e-01, 2.23021582e-02, 3.63292545e-02,
          1.73845645e-02, 1.45179033e-01, 2.61228941e-02, 2.08767783e-02,
          1.32498266e-02, 3.73790145e-01, 3.42854351e-01, 1.19992331e-01,
          1.38385832e-01, 1.13493152e-01, 3.73790145e-01, 1.72518373e-01,
          1.17823519e-01, 1.15216687e-01, 3.73790145e-01 ]
      - [ 2.94586897e-01, 1.56847849e-01, 1.71768054e-01, 1.10579543e-01,
          3.16077441e-01, 2.08276808e-01, 1.07020371e-01, 9.75166708e-02,
          2.20000014e-01, 3.16077441e-01, 1.08121373e-01, 1.35869682e-01,
          5.81225269e-02, 3.16077441e-01, 1.21619403e-01, 7.29145408e-02,
          7.49509111e-02, 3.16077441e-01, 6.31692857e-02, 5.20948954e-02,
          5.74646294e-02, 5.02365194e-02, 3.16077441e-01, 3.58524397e-02,
          3.95874791e-02, 2.36065127e-02, 5.11222333e-02, 1.56793639e-01,
          3.97232063e-02, 4.13445197e-02, 2.94085033e-02, 3.16077441e-01,
          1.63338538e-02, 3.13543156e-02, 2.17737257e-02, 1.52600214e-01,
          3.50432783e-01, 2.44665947e-02, 2.42591165e-02, 1.31749129e-02,
          5.19551188e-02, 2.04237737e-02, 1.16443709e-02, 1.33922622e-02,
          3.50432783e-01, 3.50432783e-01, 1.03395851e-02, 1.13686593e-02,
          4.57997527e-03, 1.33730900e-02, 7.59215443e-04, 2.22235569e-03,
          5.34365000e-03, 3.50432783e-01, 3.50432783e-01, 1.17927790e-02,
          1.24600027e-02, 6.81834063e-03, 8.75642449e-02, 6.23280648e-03,
          6.80450629e-03, 1.04038967e-02, 3.50432783e-01, 3.50432783e-01,
          4.30680020e-03, 1.20042674e-02, 6.70104474e-03, 1.64108202e-02,
          3.88656091e-03, 6.31698314e-03, 8.82875174e-03, 3.50432783e-01,
          2.97893465e-01, 1.12680746e-02, 1.64536852e-02, 4.07863930e-02,
          6.53970838e-02, 2.31849272e-02, 1.92757826e-02, 4.56799045e-02,
          2.97893465e-01, 2.90205419e-01, 1.52801136e-02, 5.12091778e-02,
          1.42157018e-01, 1.72329992e-01, 9.70372707e-02, 5.69364950e-02,
          8.67681503e-02, 2.97893465e-01, 2.97893465e-01, 5.33454195e-02,
          8.16957802e-02, 1.74883589e-01, 2.22664520e-01, 1.89262517e-02,
          1.77848302e-02, 4.50597294e-02, 2.97893465e-01, 1.66866779e-01,
          1.05204657e-01, 1.72574431e-01, 2.97893465e-01, 2.97893465e-01,
          6.25205338e-02, 4.12335694e-02, 7.82552436e-02, 1.91107392e-01,
          3.51240626e-03, 3.03244963e-03, 4.63875616e-03, 3.73717770e-02,
          4.97715205e-01, 1.66143235e-02, 3.03390319e-03, 4.45446651e-03,
          5.21321874e-03, 3.17694782e-03, 1.80155435e-03, 2.37915991e-03,
          1.49358539e-02, 4.97715205e-01, 8.81120656e-03, 2.63246521e-03,
          2.50885473e-03, 4.37862054e-03, 1.39130827e-03, 3.72500625e-03,
          4.49613528e-03, 2.87616123e-02, 4.97715205e-01, 2.42234189e-02,
          4.99877287e-03, 2.78531644e-03, 2.21122988e-03, 9.74886958e-03,
          7.60098500e-03, 7.95593020e-03, 8.23077001e-03, 4.97715205e-01,
          1.33582614e-02, 3.05212173e-03, 4.91952058e-03, 6.30825525e-03,
          1.38004478e-02, 7.39034498e-03, 1.09968232e-02, 9.20211710e-03,
          3.10626358e-01, 8.11080728e-03, 8.24790448e-03, 1.13569330e-02,
          1.54979471e-02, 3.12656648e-02, 6.43892139e-02, 1.53388381e-01,
          4.21854407e-02, 7.09866658e-02, 1.55470753e-02, 2.67216396e-02,
          2.57306881e-02, 3.41102853e-02, 2.06820041e-01, 1.71312004e-01,
          1.21039867e-01, 2.82134209e-02, 3.26197475e-01, 2.33825352e-02,
          1.73771344e-02, 3.63330543e-02, 4.28209752e-02, 3.33414435e-01,
          4.99398470e-01, 4.99398470e-01, 2.02985570e-01, 5.67639954e-02,
          4.35754955e-02, 2.90203914e-02, 3.42278741e-02, 5.51506318e-02,
          2.43376493e-02, 1.84905499e-01, 2.65103400e-01, 1.96068183e-01,
          1.70595735e-01, 1.86661035e-02, 1.12308608e-02, 1.92800146e-02,
          2.62727123e-02, 4.19584960e-02, 2.55904615e-01, 2.93696493e-01,
          3.15846235e-01, 3.15846235e-01, 2.29906626e-02, 8.82684626e-03,
          2.68513057e-02, 4.23531197e-02, 3.90537195e-02, 3.15846235e-01,
          3.15846235e-01, 1.75533459e-01, 4.85288538e-02, 2.37673894e-02,
          1.39134917e-02, 1.65696274e-02, 1.40803140e-02, 2.12725941e-02,
          2.93673992e-01, 3.15846235e-01, 1.94091737e-01, 7.25313798e-02,
          2.63009705e-02, 1.27905793e-02, 2.26759780e-02, 1.88836902e-02,
          2.66817398e-02, 6.61763223e-03, 2.27871370e-02, 5.80609702e-02,
          3.17710638e-01, 7.53407478e-02, 4.29738723e-02, 8.65704566e-03,
          2.99964733e-02, 1.25570834e-01, 4.92899157e-02, 4.47933115e-02,
          3.82402204e-02, 3.17710638e-01, 5.31798601e-02, 2.49868780e-02,
          1.63623728e-02, 6.80584684e-02, 1.51258156e-01, 1.83614865e-01,
          1.11890391e-01, 2.31814638e-01, 3.17710638e-01, 2.09155753e-01,
          1.13174357e-01, 9.77006257e-02, 2.98682511e-01, 2.97834396e-01,
          2.07306430e-01, 1.44593075e-01, 1.43553674e-01, 3.17710638e-01,
          1.55562624e-01, 7.74732009e-02, 6.65494278e-02, 2.52812117e-01,
          2.88167745e-01, 2.16118723e-01, 1.94266751e-01, 5.64208478e-02,
          9.75244865e-02, 1.72459334e-02, 8.47693160e-03, 1.65818892e-02,
          9.00339857e-02, 2.88167745e-01, 2.88167745e-01, 2.88167745e-01,
          1.21438310e-01, 3.26670781e-02, 2.52160076e-02, 7.57797575e-03,
          1.05370935e-02, 3.24984193e-02, 2.88167745e-01, 2.81451285e-01,
          2.49477923e-01, 8.89917463e-02, 1.26790300e-01, 4.61967215e-02,
          2.27624197e-02, 2.43702475e-02, 1.71343386e-01, 2.83115089e-01,
          2.85671115e-01, 2.88167745e-01, 9.01415199e-02, 5.62775545e-02,
          3.60514000e-02, 1.80187542e-02, 1.29592177e-02, 4.90814410e-02,
          1.67063192e-01, 4.63519573e-01, 4.63519573e-01, 2.54900366e-01,
          2.05889493e-02, 3.90354544e-02, 2.38320827e-02, 2.81734578e-02,
          2.30230037e-02, 3.61357965e-02, 2.44675666e-01, 4.63519573e-01,
          1.35057881e-01, 2.73138341e-02, 1.91582218e-02, 2.03900989e-02,
          2.79899891e-02, 2.39485949e-02, 1.12808675e-01, 2.56586522e-01,
          2.77413309e-01, 8.98827165e-02, 3.69816124e-02, 2.65444461e-02,
          1.59050357e-02, 1.89609770e-02, 2.07578596e-02, 2.15229094e-02,
          3.33208218e-02, 3.66519950e-02, 1.93927232e-02, 3.59377339e-02,
          2.04413873e-03, 7.47505762e-03, 1.25471167e-02, 1.67282932e-02 ]
      - [ 2.48725370e-01, 1.04639970e-01, 1.02814130e-01, 2.84295559e-01,
          3.32169026e-01, 2.18855709e-01, 7.54091293e-02, 8.05019885e-02,
          2.13599071e-01, 3.02892536e-01, 7.70062953e-02, 7.52598643e-02,
          1.36336550e-01, 3.32169026e-01, 1.68663919e-01, 7.02813044e-02,
          8.30121860e-02, 2.75899619e-01, 3.28944251e-02, 1.62531920e-02,
          3.68864201e-02, 1.07410133e-01, 3.32169026e-01, 8.03621933e-02,
          3.77203599e-02, 1.75271295e-02, 2.49786824e-02, 9.46271345e-02,
          2.21493617e-02, 3.66779231e-02, 4.85396050e-02, 3.32169026e-01,
          3.22969928e-02, 3.34291458e-02, 1.94712244e-02, 9.14993435e-02,
          3.58734965e-01, 1.77074615e-02, 1.77950598e-02, 1.42223639e-02,
          6.96946755e-02, 3.79014425e-02, 1.85921118e-02, 2.26869937e-02,
          3.58734965e-01, 3.58734965e-01, 3.28058552e-04, 1.04554184e-03,
          6.48237707e-04, 1.78449706e-03, 3.71359114e-04, 1.57598546e-03,
          2.10437714e-03, 3.58734965e-01, 3.19901019e-01, 1.23136928e-02,
          1.18305562e-02, 1.01570841e-02, 1.11139655e-01, 3.63048934e-03,
          9.34091583e-03, 1.08940359e-02, 3.17254543e-01, 3.58734965e-01,
          2.64675845e-03, 4.98199742e-03, 4.29733982e-03, 1.45528466e-02,
          2.53303628e-03, 3.40663525e-03, 6.28695171e-03, 3.58734965e-01,
          2.93984562e-01, 6.55797403e-03, 3.68379662e-03, 1.77953206e-02,
          5.48546053e-02, 1.16877845e-02, 3.87033522e-02, 1.91246923e-02,
          2.93984562e-01, 2.50240505e-01, 2.81529725e-02, 1.76910069e-02,
          7.45152384e-02, 2.60861665e-01, 6.79280236e-02, 1.28355920e-01,
          6.87541589e-02, 2.93984562e-01, 2.62410790e-01, 9.52071473e-02,
          8.62202495e-02, 1.43144980e-01, 1.72664553e-01, 1.72039587e-02,
          2.83407234e-02, 1.94771308e-02, 2.73110241e-01, 1.62825152e-01,
          2.58778065e-01, 2.15703785e-01, 2.93984562e-01, 2.93984562e-01,
          7.54434243e-02, 8.04322809e-02, 3.98525111e-02, 1.75831690e-01,
          2.37198221e-03, 1.79679412e-03, 1.65067671e-03, 5.33840656e-02,
          4.95764792e-01, 5.20150177e-02, 1.10521140e-02, 2.90792249e-03,
          2.38042255e-03, 3.69676435e-03, 1.30677805e-03, 1.35814003e-03,
          2.10691821e-02, 4.95764792e-01, 1.38426581e-02, 2.28237640e-03,
          1.31864811e-03, 1.73072529e-03, 6.37001765e-04, 1.93531951e-03,
          1.30418886e-03, 4.42808233e-02, 4.95764792e-01, 3.33731584e-02,
          1.07255839e-02, 2.00195378e-03, 1.46914052e-03, 9.07216780e-03,
          7.36173382e-03, 7.16884108e-03, 3.13300714e-02, 4.95764792e-01,
          3.33974622e-02, 4.55479324e-03, 9.20439023e-04, 6.60355622e-03,
          2.73723584e-02, 6.60582446e-03, 5.39176865e-03, 1.34602189e-02,
          2.95199424e-01, 5.16357180e-03, 8.21958669e-03, 8.49913340e-03,
          2.08886061e-02, 3.74631360e-02, 5.43816648e-02, 9.25068781e-02,
          4.00425307e-02, 7.65725076e-02, 1.00851720e-02, 1.32825151e-02,
          1.62622593e-02, 3.54763642e-02, 1.82894155e-01, 1.21205628e-01,
          1.54371589e-01, 7.46870935e-02, 3.25517088e-01, 4.01270986e-02,
          2.61346046e-02, 3.01424544e-02, 1.10408321e-01, 3.75051320e-01,
          4.35240179e-01, 4.35240179e-01, 3.62067163e-01, 1.03972137e-01,
          2.53721960e-02, 5.23226410e-02, 6.23146817e-02, 1.30826637e-01,
          4.21958640e-02, 1.95951864e-01, 2.54092067e-01, 1.81772232e-01,
          1.23546854e-01, 8.83688591e-03, 4.59020399e-03, 1.03963269e-02,
          1.18588069e-02, 7.55535662e-02, 3.04103136e-01, 3.04103136e-01,
          3.04103136e-01, 2.63061970e-01, 3.38434987e-02, 4.66820272e-03,
          1.66374817e-02, 1.70926135e-02, 8.88008699e-02, 3.04103136e-01,
          3.04103136e-01, 2.46532440e-01, 5.66034056e-02, 4.30176454e-03,
          9.48738772e-03, 9.32475366e-03, 1.29894279e-02, 5.65063581e-02,
          3.02203447e-01, 3.04103136e-01, 1.98076680e-01, 7.53388032e-02,
          7.35152233e-03, 5.51462267e-03, 1.10984724e-02, 1.34096071e-02,
          2.17409153e-02, 1.19853048e-02, 4.16861735e-02, 3.93974930e-02,
          3.12704325e-01, 7.19494373e-02, 4.06286977e-02, 5.24476543e-03,
          3.40968855e-02, 1.10191293e-01, 3.90807502e-02, 6.18622415e-02,
          5.04144132e-02, 3.12704325e-01, 4.47971188e-02, 4.48262133e-02,
          9.50412918e-03, 7.51644373e-02, 2.39589900e-01, 5.31253032e-02,
          2.04166368e-01, 1.67037919e-01, 3.12704325e-01, 2.79788643e-01,
          1.36060700e-01, 2.36904249e-02, 2.68049210e-01, 3.12704325e-01,
          9.63990688e-02, 1.78385317e-01, 1.87408522e-01, 3.12704325e-01,
          1.48028076e-01, 1.12752683e-01, 3.00634764e-02, 2.35488817e-01,
          2.79851675e-01, 1.65771782e-01, 2.00637758e-01, 1.41039014e-01,
          9.50275660e-02, 1.39647359e-02, 1.62290819e-02, 1.45028019e-02,
          1.50241584e-01, 2.79851675e-01, 2.79851675e-01, 2.79851675e-01,
          2.30830207e-01, 3.20137404e-02, 6.74858503e-03, 1.51526751e-02,
          2.50176322e-02, 1.01513453e-01, 2.79851675e-01, 2.00826973e-01,
          2.14805871e-01, 2.14642674e-01, 1.24316283e-01, 1.28873996e-02,
          2.05156188e-02, 2.35791337e-02, 2.05946445e-01, 2.60971218e-01,
          2.23153114e-01, 2.69515425e-01, 1.63769305e-01, 4.23107781e-02,
          5.23813674e-03, 1.32943355e-02, 1.92369986e-02, 9.44629535e-02,
          2.55761474e-01, 4.30689573e-01, 4.30689573e-01, 3.82069290e-01,
          6.10479899e-02, 1.71094108e-02, 3.24215107e-02, 3.12725231e-02,
          5.63439876e-02, 6.24544062e-02, 2.75628686e-01, 4.30689573e-01,
          1.38153940e-01, 5.68478890e-02, 1.44349625e-02, 1.81961525e-02,
          1.22425975e-02, 2.96768453e-02, 1.34811342e-01, 1.77223891e-01,
          2.25142136e-01, 8.15485343e-02, 4.72416282e-02, 1.44867012e-02,
          2.50221565e-02, 2.42195912e-02, 4.01625149e-02, 2.37137638e-02,
          1.66340247e-02, 1.61611177e-02, 6.07131654e-03, 2.80847196e-02,
          1.15728602e-02, 1.41079454e-02, 4.08370700e-03, 1.94588937e-02 ]
      - [ 3.44904602e-01, 5.21144755e-02, 6.15598373e-02, 5.99513240e-02,
          3.51946414e-01, 4.02818136e-02, 2.96212211e-02, 5.73320165e-02,
          3.51946414e-01, 3.51946414e-01, 3.30455638e-02, 3.53581198e-02,
          1.75523330e-02, 3.32918704e-01, 9.72870737e-03, 1.14993472e-02,
          2.09212787e-02, 3.51946414e-01, 2.33929940e-02, 8.22957419e-03,
          3.91046470e-03, 3.72347571e-02, 3.51946414e-01, 3.62982713e-02,
          1.71385880e-03, 8.07430188e-04, 1.93171017e-02, 1.35688456e-02,
          4.54060035e-03, 1.62802218e-03, 1.21333729e-02, 3.51946414e-01,
          1.08724674e-02, 5.46598923e-04, 1.15021561e-04, 1.03147328e-02,
          4.97021407e-01, 3.48988338e-03, 3.57528427e-03, 9.39409807e-03,
          3.22272293e-02, 1.06736447e-03, 7.07006222e-03, 3.65662575e-03,
          4.97021407e-01, 4.97021407e-01, 7.80124543e-03, 1.08399745e-02,
          1.18036596e-02, 6.12383857e-02, 2.31198897e-03, 9.14819911e-03,
          6.92399498e-03, 4.97021407e-01, 8.31340998e-03, 1.67766842e-03,
          1.03644875e-03, 2.72495300e-03, 7.59915169e-03, 5.37252985e-04,
          1.78183266e-03, 1.76881731e-03, 6.26002066e-03, 1.74289253e-02,
          2.95038661e-03, 2.28486699e-03, 4.74235788e-03, 2.63811778e-02,
          1.74170989e-03, 4.40188451e-03, 4.34852019e-03, 1.52446264e-02,
          3.49161297e-01, 1.60495739e-03, 3.46505432e-03, 1.96970766e-03,
          2.90283747e-02, 1.06450287e-03, 1.42673508e-03, 1.47400552e-03,
          3.49161297e-01, 3.49161297e-01, 3.24683115e-02, 1.07441127e-01,
          1.65437847e-01, 2.72982031e-01, 4.11618315e-02, 5.47356606e-02,
          5.98167405e-02, 3.49161297e-01, 1.45055549e-02, 7.91908428e-03,
          1.52141973e-02, 1.78355295e-02, 2.63969880e-02, 2.73060147e-03,
          7.39329553e-04, 1.15907274e-03, 1.28297489e-02, 2.44501494e-02,
          2.33714342e-01, 3.49161297e-01, 3.49161297e-01, 2.89657652e-01,
          2.01856885e-02, 4.25685343e-04, 2.07100599e-03, 1.34675531e-02,
          1.50017161e-02, 4.79418552e-03, 1.06323184e-03, 1.24958176e-02,
          4.98194188e-01, 2.66741402e-02, 1.66546821e-03, 7.91173021e-04,
          1.09186471e-02, 8.71795695e-03, 2.75973137e-03, 9.67882806e-04,
          4.65751486e-03, 4.98194188e-01, 6.32983400e-03, 7.30619708e-04,
          1.89454804e-04, 5.86341554e-03, 1.33981733e-02, 1.30352622e-03,
          1.43921853e-03, 1.02358880e-02, 4.98194188e-01, 1.59991961e-02,
          2.00142455e-03, 1.31727930e-03, 1.02150869e-02, 9.28738061e-03,
          1.23338588e-03, 2.67957291e-03, 2.21045269e-03, 4.98194188e-01,
          2.57045729e-03, 5.04865195e-04, 2.64241418e-04, 7.26691959e-03,
          3.30765955e-02, 2.65350309e-03, 4.75267600e-03, 8.79156217e-03,
          4.01668064e-02, 6.40511862e-04, 2.13039666e-03, 2.16169422e-03,
          3.10608465e-02, 8.33047554e-02, 2.30283588e-02, 2.00101100e-02,
          3.22547518e-02, 1.40438318e-01, 7.77717028e-03, 9.48098954e-03,
          9.55395028e-03, 7.77754635e-02, 1.14808120e-01, 4.02892940e-02,
          3.71058658e-02, 3.63070555e-02, 1.47202805e-01, 2.46373122e-03,
          1.46609440e-03, 3.53137543e-03, 8.31643716e-02, 4.14684355e-01,
          5.28000832e-01, 5.28000832e-01, 1.69619024e-01, 3.38158458e-01,
          2.19815001e-02, 1.44376932e-02, 1.94842108e-02, 1.90218791e-01,
          1.33194355e-02, 2.97423191e-02, 9.08529460e-02, 3.91948223e-02,
          2.00421251e-02, 2.04196502e-03, 1.71380350e-03, 1.79844128e-03,
          7.94076174e-03, 3.83822806e-02, 2.79108226e-01, 3.73386770e-01,
          3.73386770e-01, 1.15869813e-01, 1.46902893e-02, 2.00272375e-03,
          3.53833474e-03, 8.60560592e-03, 3.39936465e-02, 3.35638344e-01,
          3.73386770e-01, 6.32432029e-02, 2.15000752e-02, 3.28994659e-03,
          5.05940616e-03, 3.72940768e-03, 1.24382889e-02, 4.97258976e-02,
          3.73386770e-01, 3.73386770e-01, 2.68324554e-01, 3.73141430e-02,
          1.45067042e-02, 8.33560992e-03, 5.56536624e-03, 9.85717587e-03,
          4.01219651e-02, 1.08768679e-02, 4.40542353e-03, 1.50260692e-02,
          3.36330384e-01, 1.34532312e-02, 8.72354768e-03, 2.48513767e-03,
          3.44602279e-02, 6.83062524e-02, 1.28307687e-02, 1.03481831e-02,
          1.12786302e-02, 3.36330384e-01, 5.53496135e-03, 3.68042896e-03,
          1.33793312e-03, 3.85705680e-02, 3.36330384e-01, 1.38503477e-01,
          1.68479815e-01, 9.41291600e-02, 3.36330384e-01, 6.69433773e-02,
          7.04588816e-02, 3.20445374e-02, 3.36330384e-01, 3.36330384e-01,
          1.64573550e-01, 1.69937238e-01, 9.31001306e-02, 3.36330384e-01,
          5.42656146e-02, 3.60774212e-02, 1.85622238e-02, 2.42212951e-01,
          1.62749901e-01, 5.32377101e-02, 5.16975932e-02, 5.07165901e-02,
          2.28007361e-02, 1.75779883e-03, 3.97644035e-04, 7.70420022e-03,
          6.14659339e-02, 2.25570992e-01, 3.04880440e-01, 3.04880440e-01,
          9.84834060e-02, 3.17240544e-02, 1.35093951e-03, 1.12898345e-03,
          8.57251324e-03, 5.94602078e-02, 3.04880440e-01, 2.17122242e-01,
          2.58230001e-01, 2.02640906e-01, 9.43988413e-02, 2.71173175e-02,
          3.98633070e-03, 6.71510994e-02, 2.63793051e-01, 3.04880440e-01,
          3.04880440e-01, 3.04880440e-01, 2.18177944e-01, 7.65154511e-02,
          2.00639423e-02, 9.47622862e-03, 6.25383034e-02, 1.96489170e-01,
          1.15479566e-01, 3.84569138e-01, 3.84569138e-01, 7.81420693e-02,
          1.74720958e-02, 4.01115743e-03, 6.90435106e-03, 9.49157216e-03,
          1.97682120e-02, 3.87040116e-02, 3.84569138e-01, 3.84569138e-01,
          8.81036520e-02, 2.02612709e-02, 1.30325798e-02, 1.26864817e-02,
          1.49846878e-02, 1.31870480e-02, 1.70866936e-01, 3.84569138e-01,
          3.84569138e-01, 7.34341890e-02, 3.20063755e-02, 1.53491385e-02,
          1.34060308e-02, 2.10308861e-02, 4.25311662e-02, 2.66472157e-02,
          1.06663406e-01, 1.62730590e-01, 1.43733174e-02, 1.54967653e-02,
          9.33841243e-03, 1.10391006e-02, 2.09075864e-02, 1.28667634e-02 ]
      - [ 4.78028879e-02, 1.69947922e-01, 1.68155640e-01, 4.97942567e-02,
          4.04208750e-02, 1.83436312e-02, 8.20764154e-03, 1.81789324e-02,
          1.57919843e-02, 2.08969638e-01, 3.39634776e-01, 3.39634776e-01,
          1.27963990e-01, 2.66561862e-02, 1.53685501e-02, 6.16854290e-03,
          1.61022060e-02, 4.19233888e-02, 1.66896731e-01, 3.39634776e-01,
          3.39634776e-01, 2.80912578e-01, 8.27897787e-02, 3.23413238e-02,
          1.90352071e-02, 2.82222088e-02, 3.51852439e-02, 1.62635982e-01,
          3.39634776e-01, 3.39634776e-01, 1.72320396e-01, 3.92681882e-02,
          1.66781470e-02, 1.18651465e-02, 1.19629810e-02, 3.99781503e-02,
          3.12370151e-01, 3.12370151e-01, 3.12370151e-01, 1.66640595e-01,
          6.94670305e-02, 3.34399976e-02, 1.28330803e-02, 3.28396223e-02,
          1.27787143e-01, 3.12370151e-01, 3.12370151e-01, 3.12370151e-01,
          1.12732500e-01, 1.23053655e-01, 6.06959201e-02, 2.06461549e-02,
          5.06099798e-02, 3.12370151e-01, 1.84057459e-01, 3.00336540e-01,
          2.34222040e-01, 9.85333472e-02, 2.75255330e-02, 2.13031769e-02,
          1.68284178e-02, 1.70451961e-02, 7.56889880e-02, 1.23762354e-01,
          6.91867173e-02, 6.08779304e-02, 3.17297466e-02, 3.26434523e-02,
          1.55663677e-02, 1.18699884e-02, 1.86899938e-02, 7.25803748e-02,
          3.78334850e-01, 1.13359548e-01, 1.07401811e-01, 8.22887644e-02,
          2.47250795e-01, 4.58250903e-02, 5.31368032e-02, 4.31353189e-02,
          3.05882394e-01, 2.30976284e-01, 1.80153653e-01, 9.61714312e-02,
          1.01764269e-01, 3.78334850e-01, 7.24237263e-02, 1.18314549e-01,
          1.48256555e-01, 2.85273165e-01, 3.41061167e-02, 1.05169872e-02,
          8.39674100e-03, 4.16293368e-03, 3.78334850e-01, 5.85721154e-03,
          3.97730339e-03, 5.95199643e-03, 2.79484224e-02, 1.30629027e-02,
          8.97397101e-03, 7.06232479e-03, 4.61306190e-03, 3.78334850e-01,
          1.23489816e-02, 6.31405367e-03, 6.22456940e-03, 1.53880669e-02,
          2.97212005e-01, 3.21904629e-01, 3.21904629e-01, 3.21904629e-01,
          1.73114672e-01, 4.38843518e-02, 1.26207666e-02, 2.57844068e-02,
          4.71004359e-02, 8.26766789e-02, 2.65974641e-01, 3.21904629e-01,
          1.13951415e-01, 4.49764878e-02, 1.46565586e-02, 9.02193319e-03,
          9.27582569e-03, 2.09312513e-02, 2.01107055e-01, 3.21904629e-01,
          1.97336882e-01, 3.21904629e-01, 2.67611295e-01, 4.17491458e-02,
          6.42394647e-03, 1.81315541e-02, 4.04507704e-02, 2.25681663e-02,
          1.85294785e-02, 3.04485764e-02, 2.30617281e-02, 3.10780536e-02,
          1.06040230e-02, 2.02366989e-03, 7.63462391e-03, 1.29064117e-02,
          3.81727099e-01, 5.22414804e-01, 4.02067244e-01, 2.43293360e-01,
          2.42926508e-01, 9.52549726e-02, 1.04657173e-01, 7.57792667e-02,
          2.23492086e-01, 1.64287552e-01, 1.07507534e-01, 6.18283376e-02,
          9.96064097e-02, 2.63097942e-01, 9.17002261e-02, 7.60734901e-02,
          9.05138031e-02, 1.36931092e-01, 6.34282902e-02, 3.05847097e-02,
          4.70536873e-02, 3.37241851e-02, 1.07972167e-01, 7.61335017e-03,
          9.39157512e-03, 2.17018789e-03, 4.68417257e-02, 5.42100929e-02,
          2.43874229e-02, 4.87433262e-02, 1.64719783e-02, 1.63016483e-01,
          8.24731775e-03, 7.63009023e-03, 9.24020167e-03, 4.99157012e-02,
          2.39384826e-03, 3.51513666e-03, 1.03325432e-03, 3.13616707e-03,
          4.64692980e-01, 2.24593445e-03, 1.42035563e-03, 2.65240599e-03,
          1.52843026e-03, 5.64873044e-04, 6.13055308e-04, 1.48891500e-04,
          1.60334434e-03, 5.14432371e-01, 2.18870278e-04, 6.71114904e-05,
          5.94485726e-04, 4.37195762e-04, 2.61176005e-03, 1.40887231e-03,
          2.69761961e-03, 9.54427104e-03, 4.97591585e-01, 5.04053012e-03,
          5.11637714e-04, 7.31762731e-04, 2.47949036e-03, 3.99923604e-03,
          2.65824638e-04, 1.43082975e-03, 3.41017321e-02, 5.14432371e-01,
          2.56519839e-02, 6.54970063e-04, 2.16414701e-04, 3.97212896e-03,
          1.73769251e-01, 1.29998088e-01, 5.49085438e-02, 2.24749610e-01,
          2.78007209e-01, 3.61272730e-02, 8.50105006e-03, 1.22260461e-02,
          1.24636725e-01, 1.21591948e-01, 3.02310986e-03, 4.14068718e-03,
          2.73845461e-03, 1.61838010e-02, 5.45597496e-03, 1.29803200e-03,
          3.91868176e-03, 1.22957416e-01, 4.31325406e-01, 1.62859745e-02,
          1.46332765e-02, 6.96477592e-02, 1.30822644e-01, 4.18994911e-02,
          2.47308780e-02, 3.84040698e-02, 4.31325406e-01, 4.31325406e-01,
          8.02441093e-04, 1.96266011e-03, 1.07128813e-03, 3.77008249e-03,
          7.07227329e-04, 0., 5.44144830e-04, 4.31325406e-01,
          1.15974203e-01, 2.15697847e-03, 2.02783011e-03, 7.77150388e-04,
          3.21809272e-03, 3.90215049e-04, 4.68656683e-04, 9.45476131e-05,
          1.17685847e-01, 1.31186053e-01, 2.77657597e-03, 5.15462039e-03,
          1.29287026e-03, 6.07720623e-03, 3.50166927e-04, 6.68571040e-04,
          5.81519969e-04, 1.30930603e-01, 4.83053833e-01, 5.89895470e-04,
          4.99836227e-04, 6.98073636e-05, 4.20397584e-04, 0., 0.,
          6.98122822e-05, 4.83053833e-01, 4.83053833e-01, 2.99379975e-03,
          1.77966477e-03, 7.28730112e-04, 6.74149022e-03, 5.79988933e-04,
          1.08622736e-03, 2.11931556e-03, 4.83053833e-01, 5.85431494e-02,
          5.47982799e-03, 9.72675253e-03, 1.50445504e-02, 2.98400253e-01,
          1.49859237e-02, 2.85822689e-03, 1.67704467e-03, 5.20478673e-02,
          4.35223319e-02, 1.64872799e-02, 2.01539602e-02, 5.37282154e-02,
          3.45758289e-01, 6.33769780e-02, 1.38556929e-02, 8.47093575e-03,
          3.38300690e-02, 3.45758289e-01, 3.13779116e-02, 5.52823693e-02,
          3.56181636e-02, 1.64040878e-01, 3.85514535e-02, 6.12483248e-02,
          1.43650593e-02, 3.45758289e-01, 3.45758289e-01, 1.35495633e-01,
          1.67158067e-01, 1.31663904e-01, 3.45758289e-01, 1.27658635e-01,
          2.17546999e-01, 8.76421481e-02, 3.45758289e-01 ]
      - [ 2.96887130e-01, 1.05036758e-01, 1.45987093e-01, 8.80808383e-02,
          3.73068869e-01, 7.27055594e-02, 1.43362150e-01, 7.34521523e-02,
          3.08308989e-01, 3.73068869e-01, 3.21066827e-02, 4.65702526e-02,
          1.64970923e-02, 1.96295887e-01, 2.25811787e-02, 4.18164805e-02,
          1.20351240e-02, 3.73068869e-01, 1.53419031e-02, 8.85097589e-03,
          8.98844749e-03, 2.66789570e-02, 3.73068869e-01, 2.82215327e-02,
          6.02947176e-03, 4.28305333e-03, 1.32394740e-02, 2.88935434e-02,
          3.58952093e-03, 2.85133743e-03, 7.47073581e-03, 3.69763911e-01,
          6.60128798e-03, 1.13150291e-03, 3.90495377e-04, 2.82102078e-02,
          4.93853569e-01, 1.57562096e-03, 4.53931338e-04, 2.43663399e-05,
          2.22094636e-03, 3.94806993e-04, 1.88135786e-03, 4.23565833e-03,
          4.93853569e-01, 4.93853569e-01, 1.82228710e-03, 6.45398570e-04,
          2.43663322e-04, 4.72032884e-03, 1.97455706e-03, 2.56575854e-03,
          5.41443145e-03, 4.93853569e-01, 6.48170635e-02, 5.43770102e-06,
          1.65992569e-05, 0., 3.64534644e-04, 2.46394688e-04,
          1.20218145e-04, 1.49752377e-04, 6.41930848e-02, 7.44805709e-02,
          1.08780200e-03, 3.37872007e-05, 0., 4.26117424e-03,
          1.51852879e-03, 1.61823852e-03, 9.66604915e-04, 7.42444992e-02,
          4.08672243e-01, 4.16746968e-03, 2.70063942e-03, 2.39000865e-03,
          9.03538801e-03, 2.44534225e-03, 2.34669703e-03, 3.75096360e-03,
          4.08672243e-01, 4.08672243e-01, 3.80838774e-02, 2.88552642e-02,
          3.44274379e-02, 1.69970095e-01, 3.12686227e-02, 6.84617907e-02,
          3.49007882e-02, 4.08672243e-01, 6.11216612e-02, 2.98947212e-03,
          3.26374243e-03, 5.66033227e-03, 1.68595780e-02, 7.99855962e-03,
          3.96586303e-03, 3.76842613e-03, 6.34205118e-02, 1.49790019e-01,
          1.83496684e-01, 1.79784492e-01, 2.59754539e-01, 3.33380073e-01,
          4.12524529e-02, 1.94464102e-02, 2.13213097e-02, 1.03535213e-01,
          1.72660395e-04, 1.27075429e-04, 3.80258105e-04, 1.04849702e-02,
          5.20863891e-01, 1.42414905e-02, 6.17320999e-04, 2.33135361e-04,
          1.72660395e-04, 2.72382546e-04, 0., 0., 3.20232636e-03,
          4.47633147e-01, 3.49742617e-03, 4.41728662e-05, 1.47617966e-05,
          2.72382546e-04, 1.04366546e-03, 0., 0., 2.89789550e-02,
          5.20863891e-01, 7.69111421e-03, 9.34544601e-04, 1.79273298e-03,
          2.24683504e-03, 6.02765055e-03, 0., 1.33387812e-05,
          7.31909554e-03, 5.00425220e-01, 2.60846852e-03, 1.30384229e-03,
          8.14018422e-04, 7.40253832e-03, 8.50237720e-03, 1.21907942e-04,
          5.24163188e-04, 3.24347086e-04, 4.03541280e-03, 0., 0., 0.,
          7.37690832e-03, 5.17252199e-02, 4.32692235e-03, 8.64737388e-03,
          3.24346963e-03, 4.11460474e-02, 0., 1.08399233e-02,
          3.65741714e-03, 4.43557873e-02, 1.72578067e-01, 3.27411387e-03,
          1.14936074e-02, 4.41272976e-03, 3.01354527e-01, 7.05436170e-02,
          9.38566774e-02, 7.36586675e-02, 2.22732767e-01, 3.58461589e-01,
          3.23372424e-01, 2.73061216e-01, 1.43897280e-01, 4.41737473e-01,
          1.73460528e-01, 2.63867170e-01, 2.90413797e-01, 3.00887346e-01,
          8.09308235e-03, 5.83842164e-03, 1.55944973e-02, 6.22040359e-03,
          1.32055562e-02, 6.09824667e-03, 3.91824218e-03, 3.32835061e-03,
          1.11525608e-02, 7.88682178e-02, 3.09824347e-01, 2.89896756e-01,
          3.06686103e-01, 1.96415126e-01, 2.18300801e-02, 9.04044416e-03,
          1.69554316e-02, 2.87960488e-02, 3.64853777e-02, 3.05433720e-01,
          3.35739136e-01, 1.17580473e-01, 2.90513989e-02, 1.97719932e-02,
          9.85334720e-03, 2.39027739e-02, 2.93901805e-02, 9.07015204e-02,
          3.75215113e-01, 3.75215113e-01, 3.75215113e-01, 1.27687633e-01,
          4.41784002e-02, 2.33941786e-02, 2.42590494e-02, 3.21585201e-02,
          8.41002387e-04, 7.74777727e-05, 3.92675356e-05, 2.14117412e-02,
          3.51276010e-01, 6.04409724e-03, 6.75237039e-04, 1.12720754e-03,
          2.28046533e-03, 1.62151363e-02, 1.88079698e-03, 1.71793555e-03,
          6.00712607e-03, 2.98750639e-01, 2.86815036e-03, 1.36033865e-03,
          1.12348667e-03, 1.69729553e-02, 3.34356546e-01, 1.51961833e-01,
          1.63298640e-02, 4.51622307e-02, 3.51276010e-01, 5.10529950e-02,
          3.11529543e-02, 1.49335384e-01, 3.51276010e-01, 3.51276010e-01,
          1.58823103e-01, 1.04156703e-01, 5.89880347e-02, 2.86949754e-01,
          3.41247134e-02, 1.91588383e-02, 5.15843295e-02, 3.51276010e-01,
          7.43807480e-02, 2.99003571e-02, 2.59701889e-02, 1.59680229e-02,
          3.47266980e-02, 9.62189026e-03, 1.14218304e-02, 7.54427537e-03,
          4.99877594e-02, 1.70977414e-01, 2.15386078e-01, 1.49019465e-01,
          1.57732949e-01, 4.11454216e-02, 2.76257284e-02, 2.53026169e-02,
          2.34525483e-02, 7.52381086e-02, 3.11464012e-01, 3.07421714e-01,
          3.05404663e-01, 1.95331886e-01, 7.19845966e-02, 1.91344712e-02,
          1.88552551e-02, 9.91098210e-03, 2.93161392e-01, 3.11464012e-01,
          3.11464012e-01, 3.11464012e-01, 3.11464012e-01, 6.69790283e-02,
          4.37012650e-02, 2.54401490e-02, 1.34065701e-02, 2.08271787e-01,
          1.12233974e-01, 3.11221570e-01, 3.11221570e-01, 2.22531557e-01,
          2.47056391e-02, 2.33524889e-02, 9.38708056e-03, 2.54992396e-02,
          5.39812185e-02, 7.00407848e-02, 3.11221570e-01, 3.11221570e-01,
          2.62871921e-01, 3.84617932e-02, 2.92686857e-02, 2.03997195e-02,
          1.99246593e-02, 3.74985598e-02, 2.48641700e-01, 3.11221570e-01,
          3.11221570e-01, 2.64525414e-01, 2.73280218e-02, 2.99228486e-02,
          1.20985350e-02, 1.41074229e-02, 7.78288171e-02, 5.88452183e-02,
          2.45765507e-01, 2.36066878e-01, 8.47935155e-02, 2.36701667e-02,
          2.03586090e-02, 1.88427866e-02, 1.86480414e-02, 4.41565737e-02 ]
      - [ 3.51195276e-01, 1.51367143e-01, 3.95578295e-02, 8.25426877e-02,
          3.51195276e-01, 7.03465194e-02, 3.09676938e-02, 1.26255840e-01,
          3.51195276e-01, 3.51195276e-01, 5.27185984e-02, 1.30278347e-02,
          2.88217478e-02, 2.55505621e-01, 1.92737486e-02, 1.60622634e-02,
          3.88729461e-02, 3.51195276e-01, 2.28202362e-02, 1.50775677e-02,
          1.68263260e-03, 4.61861901e-02, 3.51195276e-01, 3.37302200e-02,
          1.53413194e-03, 7.79466797e-03, 3.12570967e-02, 4.03278656e-02,
          6.60328520e-03, 9.89577500e-04, 1.15902107e-02, 3.51195276e-01,
          1.03877615e-02, 4.08539287e-04, 3.67411133e-03, 4.23545986e-02,
          4.91427422e-01, 1.85266230e-03, 1.70531205e-03, 1.72390020e-03,
          1.06214583e-02, 3.67941428e-03, 3.24282376e-03, 2.24306737e-03,
          4.91427422e-01, 4.91427422e-01, 1.48748199e-03, 5.57794585e-04,
          0., 4.50848835e-03, 3.90797068e-04, 3.48090748e-06,
          1.53189932e-03, 4.91427422e-01, 7.96526521e-02, 9.33985575e-04,
          8.01062328e-04, 0., 8.49894248e-03, 2.00131885e-03,
          5.91264688e-05, 6.60001184e-04, 8.06952193e-02, 8.92383233e-02,
          7.69225473e-04, 7.91529077e-04, 7.56905705e-04, 2.82395259e-03,
          2.01494782e-03, 5.22398681e-04, 1.62807421e-03, 8.94258916e-02,
          4.31350052e-01, 2.66845990e-03, 1.57136330e-03, 7.02640158e-04,
          2.99623935e-03, 1.39606639e-03, 1.40127995e-05, 2.86280271e-03,
          4.31350052e-01, 4.31350052e-01, 2.98064910e-02, 2.93090306e-02,
          5.48103079e-02, 1.18148975e-01, 1.75900385e-02, 4.55512777e-02,
          3.28192972e-02, 4.31350052e-01, 7.27883428e-02, 9.69584007e-03,
          9.54739377e-03, 1.12724276e-02, 1.39064770e-02, 1.20793106e-02,
          4.24065348e-03, 1.16477981e-02, 7.88116753e-02, 1.62975043e-01,
          1.30890310e-01, 1.42487615e-01, 2.51946270e-01, 2.74963289e-01,
          2.36615743e-02, 8.62484332e-03, 1.99742876e-02, 1.13194719e-01,
          1.67385687e-03, 5.78002073e-04, 1.87845741e-04, 1.65607035e-02,
          4.98497784e-01, 1.62048079e-02, 3.89855850e-04, 1.07733323e-03,
          2.97889789e-03, 1.68009987e-03, 6.37024525e-04, 4.61089978e-04,
          3.58397188e-03, 4.98497784e-01, 5.91273559e-03, 6.35786215e-04,
          1.26136455e-03, 2.52782507e-03, 1.49726856e-03, 1.48332643e-03,
          5.11820370e-04, 9.54307336e-03, 4.98497784e-01, 1.56056909e-02,
          7.94834516e-04, 6.59487559e-04, 1.11857022e-03, 2.60722684e-03,
          1.71216976e-04, 3.50202870e-04, 2.32988573e-03, 4.98497784e-01,
          6.85171131e-03, 1.26525352e-03, 1.05863565e-03, 2.75229453e-03,
          4.50526588e-02, 5.94069250e-03, 4.93436726e-03, 3.48332105e-04,
          9.69109982e-02, 4.86453669e-03, 2.40955525e-03, 2.21159658e-03,
          4.15033177e-02, 1.00172870e-01, 4.17727046e-02, 2.69216727e-02,
          2.79289093e-02, 1.04644768e-01, 1.94497965e-02, 2.15284489e-02,
          2.28623468e-02, 7.35579059e-02, 1.57422319e-01, 2.75677536e-02,
          4.36630771e-02, 4.28903624e-02, 1.80804297e-01, 4.22163084e-02,
          1.04502169e-02, 5.49441110e-03, 1.27705336e-01, 4.59085554e-01,
          4.15096819e-01, 4.59085554e-01, 2.32503206e-01, 3.23618591e-01,
          1.00999393e-01, 9.46857929e-02, 6.42572790e-02, 3.08304101e-01,
          1.27259046e-02, 1.90365240e-02, 2.56985724e-02, 2.43122224e-02,
          1.73172317e-02, 1.30370408e-02, 1.15130786e-02, 1.64722968e-02,
          1.26898848e-02, 1.27911761e-01, 2.53926247e-01, 3.33884656e-01,
          3.49610865e-01, 1.80795208e-01, 1.91875342e-02, 1.38996029e-02,
          2.53513400e-02, 4.38712612e-02, 9.09261927e-02, 2.71119475e-01,
          3.49610865e-01, 1.37853682e-01, 2.57619713e-02, 1.02591235e-02,
          3.21120843e-02, 1.79032106e-02, 3.09151504e-02, 1.95703626e-01,
          3.49610865e-01, 3.49610865e-01, 3.49610865e-01, 9.20916125e-02,
          1.04552861e-02, 3.39894593e-02, 2.45036855e-02, 4.38616201e-02,
          8.81894864e-03, 4.52793809e-03, 2.75219441e-03, 3.25826928e-02,
          3.48470330e-01, 4.29345444e-02, 4.07955190e-03, 5.12450119e-04,
          7.52337696e-03, 3.64180133e-02, 7.32760783e-03, 7.60149956e-03,
          1.36857061e-02, 3.48470330e-01, 1.87645890e-02, 2.37392331e-03,
          1.26113463e-03, 2.70323213e-02, 2.37237334e-01, 2.00172931e-01,
          1.09900817e-01, 1.67693391e-01, 3.48470330e-01, 1.77225977e-01,
          1.33175686e-01, 1.05059281e-01, 1.96551159e-01, 3.48470330e-01,
          2.66443402e-01, 1.23172417e-01, 1.12038054e-01, 2.91316301e-01,
          6.40550330e-02, 4.78911325e-02, 4.25971672e-02, 2.78990000e-01,
          7.21635073e-02, 1.99817512e-02, 2.35585738e-02, 2.20252480e-02,
          1.64576359e-02, 6.61094021e-03, 5.38554136e-03, 5.28856134e-03,
          4.12667878e-02, 1.83076471e-01, 1.41625479e-01, 1.25508398e-01,
          1.06614776e-01, 3.78956571e-02, 5.49720600e-02, 3.57328020e-02,
          4.18378338e-02, 8.80471766e-02, 3.23875397e-01, 2.28098780e-01,
          3.06682706e-01, 1.79086655e-01, 1.14459716e-01, 3.16520818e-02,
          1.69237480e-02, 2.91122664e-02, 2.31199265e-01, 3.23875397e-01,
          3.23875397e-01, 3.23875397e-01, 3.23875397e-01, 1.61020666e-01,
          1.72296107e-01, 1.15430571e-01, 1.21250451e-01, 1.92742854e-01,
          1.51917905e-01, 2.12528482e-01, 2.48414204e-01, 1.17827140e-01,
          4.58646230e-02, 4.97174971e-02, 3.00396290e-02, 3.76953445e-02,
          7.50478581e-02, 1.13440737e-01, 2.48414204e-01, 2.48414204e-01,
          1.41597241e-01, 5.59746400e-02, 5.13163880e-02, 3.97350974e-02,
          5.16862795e-02, 9.88395885e-02, 2.48414204e-01, 2.48414204e-01,
          2.48414204e-01, 2.45006204e-01, 1.23724192e-01, 1.44261152e-01,
          8.20955858e-02, 1.09556936e-01, 1.94809124e-01, 1.91961169e-01,
          1.04703911e-01, 1.13170810e-01, 7.58776218e-02, 1.17634982e-01,
          2.48414204e-01, 2.48414204e-01, 2.48414204e-01, 2.48414204e-01 ]
      - [ 8.02300274e-02, 1.34830117e-01, 1.38758674e-01, 9.18923169e-02,
          3.23133394e-02, 3.29959989e-02, 2.31092498e-02, 1.38356937e-02,
          2.97934376e-02, 3.02503943e-01, 3.02503943e-01, 2.56009966e-01,
          3.02503943e-01, 4.75200862e-02, 3.50883044e-02, 2.26849858e-02,
          2.34494358e-02, 7.72918686e-02, 7.91550428e-02, 3.02503943e-01,
          3.02503943e-01, 2.18952283e-01, 5.21175377e-02, 5.02026603e-02,
          8.77419859e-02, 5.27541824e-02, 4.39842008e-02, 2.25324124e-01,
          3.02503943e-01, 3.02503943e-01, 3.02503943e-01, 3.60586941e-02,
          3.07971369e-02, 3.50731686e-02, 2.99457088e-02, 7.59868175e-02,
          2.90530235e-01, 2.90530235e-01, 2.90530235e-01, 2.90530235e-01,
          1.04075029e-01, 3.62151638e-02, 2.65997536e-02, 3.97471748e-02,
          1.76706061e-01, 2.90530235e-01, 2.90530235e-01, 2.90530235e-01,
          1.76934078e-01, 1.05989330e-01, 4.26922329e-02, 1.12317530e-02,
          2.43372694e-02, 2.90530235e-01, 2.59819090e-01, 2.19092771e-01,
          1.58586815e-01, 2.02809393e-01, 4.45155986e-02, 1.77009404e-02,
          1.82477068e-02, 1.30739883e-02, 8.60600546e-02, 1.56578913e-01,
          5.90850674e-02, 5.99790886e-02, 4.30923961e-02, 3.37713361e-02,
          1.07043404e-02, 6.59696106e-03, 6.08744007e-03, 6.56194463e-02,
          3.47056806e-01, 9.65985507e-02, 8.64205956e-02, 2.98495535e-02,
          2.52820432e-01, 4.90963720e-02, 4.01885100e-02, 1.74781904e-02,
          2.57494867e-01, 2.96604991e-01, 1.01152442e-01, 9.11368355e-02,
          6.40969276e-02, 4.20995563e-01, 1.03711665e-01, 1.08057886e-01,
          7.57699534e-02, 3.05009425e-01, 4.05471697e-02, 9.22938343e-03,
          8.06437526e-03, 4.48663486e-03, 3.63611847e-01, 7.23008346e-03,
          5.63621800e-03, 1.65067497e-03, 2.70208307e-02, 2.69516613e-02,
          7.05095660e-03, 5.63338958e-03, 9.30908974e-03, 4.20995563e-01,
          1.68799255e-02, 9.57266707e-03, 3.33171128e-03, 2.59932987e-02,
          1.12029232e-01, 3.25672477e-01, 3.25672477e-01, 3.25672477e-01,
          1.18490934e-01, 3.82757857e-02, 9.60882008e-02, 5.18527515e-02,
          4.33514901e-02, 5.60245812e-02, 3.03359240e-01, 3.25672477e-01,
          1.19304113e-01, 3.21592502e-02, 1.59491207e-02, 3.43758799e-02,
          2.37315912e-02, 3.71919610e-02, 1.36460379e-01, 3.25672477e-01,
          3.22091132e-01, 3.25672477e-01, 2.78768837e-01, 1.84307545e-02,
          1.82644371e-02, 1.86061617e-02, 1.85968820e-02, 1.35601200e-02,
          1.69266481e-02, 3.09465416e-02, 2.34988239e-02, 3.05418316e-02,
          7.38252979e-03, 9.39009991e-03, 7.59418309e-03, 1.19584426e-02,
          3.98729265e-01, 4.36742365e-01, 3.50442618e-01, 3.78285736e-01,
          2.50921100e-01, 7.23710582e-02, 1.46344066e-01, 9.39314216e-02,
          2.83108503e-01, 1.51851684e-01, 3.68521884e-02, 4.27739285e-02,
          9.98255312e-02, 2.70032138e-01, 6.52612448e-02, 6.32646158e-02,
          2.08908431e-02, 1.21996708e-01, 8.26804414e-02, 9.59928054e-03,
          2.51341257e-02, 4.08031903e-02, 1.07904971e-01, 1.23817548e-02,
          4.44558747e-02, 1.57153178e-02, 7.66725019e-02, 7.49940574e-02,
          1.03314361e-02, 4.30350490e-02, 4.02115881e-02, 1.48521855e-01,
          9.90887359e-03, 2.42330283e-02, 1.46522876e-02, 8.17493349e-02,
          5.48087154e-03, 8.92814016e-04, 2.25208816e-03, 2.10320181e-03,
          4.13813740e-01, 4.23534447e-03, 1.25743903e-03, 5.39480941e-04,
          3.45731829e-03, 6.66286470e-03, 7.37526279e-04, 1.56939018e-03,
          8.57139286e-03, 5.54082155e-01, 5.46092447e-03, 3.48577218e-04,
          2.50513986e-04, 1.98408356e-03, 4.13316116e-03, 5.58229862e-04,
          2.61731888e-03, 5.55651728e-03, 4.56689566e-01, 3.88420746e-03,
          2.53423187e-03, 2.25224183e-03, 5.33213140e-03, 4.85815294e-03,
          4.47188853e-04, 1.69793144e-03, 9.45648085e-03, 5.54082155e-01,
          1.27534065e-02, 2.30715657e-03, 2.64961040e-03, 4.18490265e-03,
          1.04448117e-01, 1.28918037e-01, 1.11062482e-01, 1.88574284e-01,
          2.79711366e-01, 1.71917342e-02, 8.47428292e-03, 2.05410477e-02,
          5.41950502e-02, 5.87190427e-02, 2.98453053e-03, 4.80679562e-03,
          4.60327882e-03, 2.10427400e-02, 5.44945477e-03, 3.47931823e-03,
          5.70399966e-03, 5.93926497e-02, 4.49089974e-01, 1.44945346e-02,
          3.69217061e-02, 5.99167608e-02, 1.26222983e-01, 2.16044746e-02,
          2.27535255e-02, 4.10250649e-02, 4.49089974e-01, 4.49089974e-01,
          5.34381019e-04, 1.73925434e-03, 1.68268089e-04, 9.11590829e-03,
          8.68197298e-04, 1.25879585e-03, 3.92406946e-04, 4.49089974e-01,
          5.89778461e-02, 4.58719209e-04, 1.11119158e-03, 4.59067902e-04,
          3.56331421e-03, 7.09124957e-04, 2.02175695e-03, 7.77894165e-04,
          5.87870032e-02, 6.57614470e-02, 9.75226110e-04, 3.72033590e-03,
          3.16645321e-03, 6.60979748e-03, 2.35850643e-03, 2.89651868e-03,
          1.58346933e-03, 6.53334111e-02, 4.94780540e-01, 1.27445353e-04,
          3.75811069e-04, 0., 7.83807039e-03, 1.32805391e-04,
          1.25041010e-03, 4.15726099e-04, 4.94780540e-01, 4.94780540e-01,
          1.24908914e-03, 1.20322255e-03, 1.11111882e-03, 9.16400459e-03,
          2.80775898e-03, 1.48408639e-03, 5.81428781e-03, 4.94780540e-01,
          2.12854464e-02, 5.99974825e-04, 4.60862648e-03, 1.03720743e-02,
          3.12816232e-01, 6.03029970e-03, 4.26679291e-03, 2.54183565e-03,
          2.12017242e-02, 1.92748234e-02, 2.93202652e-03, 5.47358114e-03,
          2.72929855e-02, 3.90869081e-01, 1.63409859e-02, 9.00277682e-03,
          3.49964295e-03, 1.67029761e-02, 3.77364635e-01, 1.83504466e-02,
          4.19098735e-02, 5.70525974e-02, 2.06774697e-01, 3.25641334e-02,
          1.21150427e-02, 1.93197057e-02, 3.77871394e-01, 3.10208112e-01,
          6.63982630e-02, 1.05821967e-01, 1.91644609e-01, 3.90869081e-01,
          1.19757488e-01, 5.66998906e-02, 7.19670579e-02, 2.89174527e-01 ]
      - [ 7.32786208e-02, 8.99011493e-02, 8.93096030e-02, 7.59034306e-02,
          3.04904059e-02, 2.83508580e-02, 1.62196793e-02, 1.04314862e-02,
          2.87763160e-02, 2.89042473e-01, 2.82271266e-01, 1.96211651e-01,
          2.98177451e-01, 4.88319509e-02, 3.38592418e-02, 2.21201684e-02,
          2.45780591e-02, 7.10943118e-02, 9.60382447e-02, 3.10936540e-01,
          3.10936540e-01, 2.13855594e-01, 5.56603521e-02, 5.72348535e-02,
          8.68951157e-02, 5.23533039e-02, 4.66392040e-02, 3.06989163e-01,
          3.10936540e-01, 3.10936540e-01, 3.10936540e-01, 4.40082811e-02,
          3.85733061e-02, 3.76130417e-02, 3.34818512e-02, 9.51374993e-02,
          2.73157269e-01, 2.73157269e-01, 2.56991357e-01, 2.73068964e-01,
          8.87396857e-02, 3.17513086e-02, 2.42784601e-02, 4.11407948e-02,
          1.53290868e-01, 2.73157269e-01, 2.65997916e-01, 2.62908697e-01,
          1.57604113e-01, 9.32617188e-02, 4.02766429e-02, 1.29622892e-02,
          2.76679397e-02, 2.73157269e-01, 2.73157269e-01, 2.62489676e-01,
          1.95582747e-01, 2.42242336e-01, 5.43390624e-02, 2.08961349e-02,
          1.87173728e-02, 1.57411247e-02, 1.03082083e-01, 2.39926532e-01,
          9.71372500e-02, 9.83075276e-02, 6.50838464e-02, 4.33608480e-02,
          1.47207957e-02, 6.45656465e-03, 8.15695804e-03, 9.69492868e-02,
          3.53432477e-01, 9.75721851e-02, 9.47040021e-02, 3.34583633e-02,
          2.02228546e-01, 5.06921932e-02, 4.21052873e-02, 2.34315116e-02,
          2.70246089e-01, 3.53393495e-01, 1.14945568e-01, 1.15931131e-01,
          8.11012015e-02, 3.78105968e-01, 1.14739232e-01, 1.25974819e-01,
          1.04469948e-01, 3.58415604e-01, 7.36030489e-02, 2.01298445e-02,
          1.63642671e-02, 6.84682792e-03, 3.24462146e-01, 1.21955238e-02,
          9.98544134e-03, 1.80605857e-03, 4.88972925e-02, 4.67636138e-02,
          1.51869096e-02, 1.19290445e-02, 9.43207927e-03, 3.78105968e-01,
          2.81459633e-02, 1.90768037e-02, 6.39686035e-03, 5.02168015e-02,
          9.50793698e-02, 3.26377213e-01, 3.26377213e-01, 3.06531698e-01,
          9.05788094e-02, 4.29491699e-02, 9.88535434e-02, 5.46973757e-02,
          4.34774496e-02, 9.05751735e-02, 3.26377213e-01, 3.26377213e-01,
          1.74924508e-01, 3.15457694e-02, 1.82703473e-02, 3.47152911e-02,
          2.76435371e-02, 4.80809100e-02, 1.33362189e-01, 3.26377213e-01,
          3.26377213e-01, 3.26377213e-01, 2.31261179e-01, 1.74605697e-02,
          2.54768115e-02, 1.85762923e-02, 1.97348353e-02, 1.42110353e-02,
          2.90504918e-02, 5.44168055e-02, 2.88136657e-02, 2.82669347e-02,
          7.16212532e-03, 1.16882892e-02, 6.82928273e-03, 1.18425768e-02,
          4.39144194e-01, 4.39144194e-01, 3.66656333e-01, 4.39144194e-01,
          2.00073570e-01, 5.88236265e-02, 1.06830083e-01, 8.13759863e-02,
          3.03554267e-01, 1.60510197e-01, 5.42586856e-02, 3.74579653e-02,
          7.97669888e-02, 2.00424328e-01, 5.73225915e-02, 5.03699780e-02,
          1.89459715e-02, 1.01302974e-01, 6.08888157e-02, 1.09151769e-02,
          2.04958916e-02, 3.99648584e-02, 8.27166066e-02, 1.14670424e-02,
          3.86373065e-02, 1.24460300e-02, 4.69510145e-02, 4.76116091e-02,
          7.73657300e-03, 2.58025005e-02, 2.85024848e-02, 1.13177530e-01,
          7.30406586e-03, 1.57910027e-02, 7.79402209e-03, 4.72180881e-02,
          5.87118929e-03, 1.09631161e-03, 2.52039172e-03, 2.10990733e-03,
          4.09649014e-01, 4.94968053e-03, 1.47041492e-03, 7.25169200e-04,
          3.65514797e-03, 6.88845757e-03, 8.82881344e-04, 1.68649713e-03,
          9.02974140e-03, 5.53986430e-01, 6.28008135e-03, 4.68848622e-04,
          2.40594862e-04, 2.10108887e-03, 3.97825940e-03, 5.41851681e-04,
          2.39728903e-03, 4.44518961e-03, 4.60764766e-01, 3.30505706e-03,
          2.04258855e-03, 1.67910417e-03, 4.69002267e-03, 4.44942527e-03,
          4.22822312e-04, 1.53807097e-03, 7.74415489e-03, 5.53986430e-01,
          1.00926077e-02, 1.69607741e-03, 2.02412950e-03, 3.64283496e-03,
          1.00331254e-01, 2.08301455e-01, 1.71858698e-01, 3.03488880e-01,
          3.53959173e-01, 2.13386565e-02, 9.59018245e-03, 2.28030924e-02,
          1.95629913e-02, 1.33380173e-02, 4.99194209e-03, 7.73948338e-03,
          1.02698486e-02, 3.11114658e-02, 7.41030555e-03, 5.58702275e-03,
          7.92011712e-03, 1.43674687e-02, 3.98866057e-01, 2.92263851e-02,
          6.24556467e-02, 9.21688974e-02, 1.97373077e-01, 2.65416317e-02,
          2.66119614e-02, 4.88322079e-02, 3.98866057e-01, 3.98866057e-01,
          8.23406444e-04, 2.71786936e-03, 3.95161333e-04, 9.61073022e-03,
          2.06658477e-03, 1.87336514e-03, 1.31882937e-03, 3.98866057e-01,
          1.42909251e-02, 8.23989161e-04, 1.95364258e-03, 1.44051947e-03,
          6.89594727e-03, 1.00965553e-03, 3.43022845e-03, 1.30305660e-03,
          1.43549768e-02, 1.48175601e-02, 1.44069851e-03, 5.63523127e-03,
          4.75158729e-03, 1.09209483e-02, 2.63493066e-03, 3.92443640e-03,
          2.16231821e-03, 1.60537809e-02, 4.98393983e-01, 2.15117034e-04,
          6.34560594e-04, 0., 3.98475351e-03, 3.52371397e-04,
          1.95847149e-03, 6.68899738e-04, 4.98393983e-01, 4.98393983e-01,
          1.52806775e-03, 2.35815276e-03, 2.21765460e-03, 1.31782647e-02,
          4.62114718e-03, 2.76198424e-03, 6.41368562e-03, 4.98393983e-01,
          4.63257357e-03, 6.72096445e-04, 2.79572932e-03, 8.64118151e-03,
          3.74509275e-01, 5.86224068e-03, 3.31588555e-03, 2.69893394e-03,
          6.24368526e-03, 6.09034859e-03, 5.59479988e-04, 1.75529451e-03,
          1.81419123e-02, 4.61812079e-01, 1.61755048e-02, 3.27945221e-03,
          3.49160051e-03, 6.56050537e-03, 3.00581574e-01, 1.16683608e-02,
          3.55104618e-02, 5.67396805e-02, 2.86093265e-01, 3.05372942e-02,
          1.43651161e-02, 6.12102170e-03, 3.07786852e-01, 2.25937739e-01,
          5.16641289e-02, 7.70248175e-02, 1.87369600e-01, 4.61812079e-01,
          1.09223120e-01, 6.26150593e-02, 2.00509001e-02, 2.09671527e-01 ]
      - [ 4.05645132e-01, 4.36799936e-02, 1.52238933e-02, 5.64984977e-02,
          4.05645132e-01, 5.24747185e-02, 5.84329059e-03, 3.08402674e-03,
          4.05645132e-01, 4.05645132e-01, 3.94383169e-05, 1.18014032e-04,
          0., 2.98997533e-04, 0., 0., 0., 4.05645132e-01, 1.72813132e-03,
          3.29074333e-04, 7.12087378e-04, 6.29538530e-03, 4.05645132e-01,
          2.20093019e-02, 3.96119372e-04, 2.48677854e-04, 1.68916688e-03,
          0., 0., 0., 0., 1.39756419e-04, 0., 0., 0., 0., 4.98753130e-01,
          0., 0., 0., 0., 0., 0., 0., 4.98753130e-01, 4.98753130e-01, 0.,
          0., 0., 0., 0., 0., 0., 4.98753130e-01, 0., 0., 0., 0., 0., 0.,
          0., 0., 0., 0., 0., 0., 0., 0., 0., 0., 0., 0., 4.98753130e-01,
          0., 0., 0., 0., 0., 0., 0., 4.98753130e-01, 4.98753130e-01, 0.,
          0., 0., 0., 0., 0., 0., 4.98753130e-01, 0., 0., 0., 0., 0., 0.,
          0., 0., 0., 0., 0., 0., 0., 0., 0., 0., 0., 0., 1.01252017e-03,
          1.78873233e-04, 7.84660631e-04, 2.21461058e-03, 7.04543531e-01,
          1.40093453e-02, 1.36011979e-04, 4.54528126e-05, 1.01252017e-03,
          0., 0., 0., 0., 7.76341403e-05, 0., 0., 0., 0., 0., 0., 0., 0.,
          7.04543531e-01, 0., 0., 0., 0., 0., 0., 0., 0., 0., 0., 0., 0.,
          0., 0., 0., 0., 0., 0., 0., 0., 0., 0., 0., 0., 0., 0., 0., 0.,
          0., 0., 0., 0., 0., 0., 0., 0., 0., 0., 0., 0., 0., 0., 0., 0.,
          0., 0., 0., 0., 0., 0., 0., 0., 0., 0., 0., 0., 0., 0., 0., 0.,
          0., 0., 0., 0., 0., 0., 0., 0., 0., 0., 0., 0., 0., 0., 0., 0.,
          0., 0., 0., 0., 0., 0., 0., 0., 0., 0., 0., 0., 0.,
          7.04250813e-01, 0., 0., 0., 0., 0., 0., 0., 0., 0., 0., 0., 0.,
          0., 1.23884827e-02, 4.74936422e-03, 1.04910589e-03,
          2.07739510e-02, 7.04250813e-01, 9.90485959e-03, 0.,
          1.06037129e-03, 8.94097798e-03, 1.10200597e-02, 3.67945868e-05,
          1.04910563e-04, 9.55895957e-05, 8.57912120e-04, 0., 0., 0.,
          1.10200597e-02, 0., 0., 0., 0., 0., 0., 0., 0., 0., 0., 0., 0.,
          0., 0., 0., 0., 0., 0., 4.63813961e-01, 0., 0., 0.,
          3.58709246e-02, 0., 0., 0., 4.63813961e-01, 5.19963264e-01, 0.,
          0., 0., 3.73021103e-02, 0., 0., 0., 5.19963264e-01, 0., 0., 0.,
          0., 0., 0., 0., 0., 0., 0., 0., 0., 0., 0., 0., 0., 0., 0.,
          4.63836044e-01, 0., 0., 0., 3.58726345e-02, 0., 0., 0.,
          4.63836044e-01, 5.19988000e-01, 0., 0., 0., 3.60231921e-02, 0.,
          0., 0., 5.19988000e-01 ]
      - [ 3.63276452e-01, 2.89252028e-03, 2.12744414e-03, 4.90239216e-03,
          6.36075204e-03, 2.88411882e-03, 4.27580811e-03, 2.50763763e-02,
          3.63276452e-01, 3.63276452e-01, 4.31456650e-03, 2.35561049e-03,
          2.37854104e-03, 3.25160287e-03, 1.56510435e-03, 6.17171347e-04,
          8.32012948e-03, 3.63276452e-01, 1.23346195e-01, 1.18255578e-02,
          1.32845137e-02, 3.37608270e-02, 1.03190459e-01, 1.53454527e-01,
          3.56630087e-01, 3.02722514e-01, 2.33043700e-01, 2.49039277e-01,
          1.95501279e-02, 1.73087381e-02, 2.31321286e-02, 4.40290309e-02,
          3.49263065e-02, 4.52466160e-02, 3.17263938e-02, 2.72385955e-01,
          3.95114005e-01, 5.99160185e-03, 2.06851144e-03, 7.32367451e-04,
          5.26963780e-03, 1.29175570e-03, 6.32102659e-04, 8.27149209e-03,
          3.95114005e-01, 3.95114005e-01, 9.00811329e-03, 4.60463902e-03,
          3.18533555e-03, 1.27594536e-02, 1.05416449e-03, 9.91688459e-04,
          1.13901580e-02, 3.95114005e-01, 3.31673145e-01, 8.82847514e-03,
          6.99081039e-03, 2.97132577e-03, 4.42969147e-03, 5.51236467e-03,
          3.95702245e-03, 5.49715525e-03, 3.57189536e-01, 2.55786926e-01,
          1.52430683e-02, 1.07862893e-02, 1.00644827e-02, 4.90376838e-02,
          2.11238805e-02, 1.15160532e-02, 1.39772594e-02, 2.53313422e-01,
          4.14306253e-01, 7.66062550e-03, 7.48307630e-03, 3.18806362e-03,
          1.86537486e-02, 6.30696118e-03, 3.77399521e-03, 1.98170636e-02,
          4.14306253e-01, 4.14306253e-01, 1.59044415e-02, 1.82328373e-02,
          1.94055233e-02, 3.04834306e-01, 8.61809924e-02, 3.05552911e-02,
          1.03943624e-01, 4.14306253e-01, 7.93703198e-02, 8.84616189e-03,
          1.23582883e-02, 6.85486803e-03, 4.61657606e-02, 1.60882547e-02,
          1.12231700e-02, 8.05074628e-03, 7.78869390e-02, 4.77509983e-02,
          6.55443501e-03, 1.57255493e-02, 1.69975143e-02, 4.14306253e-01,
          4.26162370e-02, 1.24653568e-02, 1.44248735e-02, 5.81248589e-02,
          7.27090463e-02, 1.06232809e-02, 1.13053648e-02, 7.09351003e-02,
          2.73585558e-01, 2.73585558e-01, 2.73585558e-01, 2.38760740e-01,
          1.46978140e-01, 2.73210794e-01, 1.69289596e-02, 1.32978437e-02,
          3.39949988e-02, 1.27725676e-01, 8.29039812e-02, 6.00669235e-02,
          3.61627378e-02, 2.73585558e-01, 7.75197893e-02, 9.70246196e-02,
          1.42637774e-01, 2.73585558e-01, 2.73585558e-01, 2.73585558e-01,
          1.11186519e-01, 4.66986336e-02, 8.71051401e-02, 2.73585558e-01,
          3.41520384e-02, 3.71531136e-02, 1.13202229e-01, 2.20815673e-01,
          7.64437690e-02, 3.73366140e-02, 2.88483985e-02, 2.73585558e-01,
          3.46598238e-01, 1.06843961e-02, 7.79744005e-03, 7.76300533e-03,
          1.23016527e-02, 9.15561803e-03, 4.91440948e-03, 1.11885630e-02,
          3.46598238e-01, 3.46598238e-01, 1.99585352e-02, 1.13302227e-02,
          2.21286193e-02, 1.08327888e-01, 2.61829142e-02, 1.19589772e-02,
          2.08522100e-02, 3.46598238e-01, 3.46598238e-01, 1.84221566e-02,
          4.66279080e-03, 1.13512157e-02, 1.28150862e-02, 8.72873701e-03,
          5.13140159e-03, 1.91283524e-02, 3.46598238e-01, 3.46598238e-01,
          2.30873078e-02, 1.08682131e-02, 4.79232073e-02, 1.20283864e-01,
          3.09295263e-02, 1.19646797e-02, 3.49499211e-02, 3.46598238e-01,
          1.72257587e-01, 2.13009659e-02, 2.26133689e-02, 2.95118205e-02,
          2.05700636e-01, 3.93436477e-02, 2.59803720e-02, 2.92281900e-02,
          1.54545978e-01, 1.46421297e-02, 7.06806267e-03, 2.58896351e-02,
          4.04854901e-02, 6.12156272e-01, 3.88488583e-02, 1.94371752e-02,
          1.53715871e-02, 1.84000954e-02, 1.95493639e-01, 2.18912251e-02,
          1.73330288e-02, 5.97490445e-02, 2.19812259e-01, 4.61886637e-02,
          1.96517892e-02, 4.26411815e-02, 1.93053350e-01, 2.41024494e-02,
          4.60094400e-03, 1.77801680e-02, 5.46122156e-02, 6.12156272e-01,
          3.85468490e-02, 1.61537360e-02, 9.38734598e-03, 1.92553475e-02,
          1.96584046e-01, 7.75959641e-02, 1.04755454e-01, 1.53071329e-01,
          9.79201421e-02, 1.73968170e-02, 1.05706286e-02, 1.19851083e-02,
          1.97680861e-01, 2.97661364e-01, 1.14391800e-02, 1.62029546e-02,
          3.40195484e-02, 4.05139849e-02, 8.09999648e-03, 4.82362276e-03,
          6.05667802e-03, 2.98631281e-01, 4.08751786e-01, 7.30666667e-02,
          8.31436962e-02, 4.41682190e-02, 1.96880139e-02, 3.30050103e-03,
          2.02693678e-02, 3.87296081e-02, 4.08751786e-01, 4.08751786e-01,
          2.04112530e-02, 1.80583093e-02, 6.93311729e-03, 2.22752579e-02,
          9.00508836e-03, 1.00538069e-02, 1.50981825e-02, 4.08751786e-01,
          2.82031924e-01, 2.57132133e-03, 3.69122543e-04, 1.32298947e-03,
          2.57210713e-03, 9.63916769e-04, 6.15821220e-04, 1.89699745e-03,
          2.82220513e-01, 2.81821132e-01, 4.48559178e-03, 1.54673704e-03,
          5.25419833e-03, 1.90549120e-02, 5.59665868e-03, 1.64176023e-03,
          3.92256072e-03, 2.78780818e-01, 4.11931962e-01, 4.35868092e-03,
          1.12806179e-03, 3.93711292e-04, 7.70070730e-03, 9.14660096e-03,
          1.27381994e-03, 1.98014220e-03, 4.11931962e-01, 4.11931962e-01,
          6.31422037e-04, 1.74838729e-04, 3.39080085e-04, 1.16577744e-02,
          2.92536430e-03, 1.91906729e-04, 2.08604638e-03, 4.11931962e-01,
          2.28468612e-01, 1.69090054e-03, 1.09756493e-03, 2.93266354e-03,
          1.32641913e-02, 3.48889013e-03, 1.08555821e-03, 1.70287595e-03,
          2.26703420e-01, 2.37263680e-01, 1.00926897e-02, 6.00085687e-03,
          1.06419874e-02, 1.01208992e-01, 2.81323749e-03, 1.47411204e-03,
          4.40192549e-03, 2.22092643e-01, 4.38672125e-01, 2.47442629e-04,
          2.41913644e-04, 3.26983456e-04, 9.15274210e-03, 1.03069376e-03,
          2.44291034e-04, 2.96691753e-04, 4.38672125e-01, 4.38672125e-01,
          3.93737182e-02, 1.17059704e-02, 1.13852425e-02, 5.09278029e-02,
          3.25722527e-03, 9.66127403e-03, 3.66792344e-02, 4.38672125e-01 ]
      - [ 8.57703611e-02, 1.94839556e-02, 3.57483700e-02, 9.86582637e-02,
          2.82518357e-01, 1.15967356e-01, 8.91701207e-02, 4.08883393e-02,
          1.16171174e-01, 2.69152761e-01, 9.00631621e-02, 1.65836513e-01,
          1.22613654e-01, 2.82518357e-01, 1.71243340e-01, 8.24735686e-02,
          8.77789184e-02, 2.82518357e-01, 1.47027358e-01, 6.42159656e-02,
          7.43825436e-02, 1.50995433e-01, 2.82518357e-01, 1.08477473e-01,
          3.46043557e-02, 3.32777165e-02, 1.29231408e-01, 2.61619925e-01,
          2.82518357e-01, 1.10285684e-01, 8.84226859e-02, 2.82518357e-01,
          2.38585666e-01, 1.15705907e-01, 1.46344364e-01, 1.76182136e-01,
          2.95810342e-01, 1.34934455e-01, 1.20116390e-01, 2.97896713e-02,
          1.12473711e-01, 8.15590248e-02, 6.34575933e-02, 6.83428422e-02,
          2.95810342e-01, 2.95810342e-01, 1.44971773e-01, 9.47362408e-02,
          5.10508195e-02, 2.85578929e-02, 4.10529934e-02, 3.89939509e-02,
          6.87655732e-02, 2.95810342e-01, 2.95810342e-01, 2.95810342e-01,
          2.03833833e-01, 2.24614386e-02, 1.78320825e-01, 8.41638222e-02,
          6.60204738e-02, 6.83585554e-02, 1.31239563e-01, 2.95810342e-01,
          2.95810342e-01, 1.80740386e-01, 4.75070365e-02, 1.03492938e-01,
          3.47044729e-02, 4.09671217e-02, 6.01020940e-02, 1.86611086e-01,
          3.34648967e-01, 1.50113583e-01, 1.50801674e-01, 2.23174244e-01,
          1.58261761e-01, 1.63831279e-01, 1.16932884e-01, 1.67321935e-01,
          3.34648967e-01, 2.05330849e-02, 1.16818668e-02, 9.66875535e-03,
          1.96193680e-02, 4.91004065e-02, 2.43589412e-02, 2.67252997e-02,
          2.16865037e-02, 2.44389381e-02, 3.34648967e-01, 2.13020518e-01,
          2.00647235e-01, 1.97248265e-01, 3.34648967e-01, 1.92676648e-01,
          1.61552191e-01, 1.82268336e-01, 3.34648967e-01, 3.66491675e-02,
          1.26610985e-02, 6.93899253e-03, 2.03747861e-02, 1.01427816e-01,
          5.37592471e-02, 3.15368436e-02, 2.62245145e-02, 6.65502101e-02,
          1.68575346e-01, 5.86575679e-02, 6.59365132e-02, 1.02658346e-01,
          2.89013714e-01, 9.96558592e-02, 5.15799783e-02, 5.76514527e-02,
          1.70003474e-01, 2.89013714e-01, 2.51232833e-01, 8.79725218e-02,
          4.96105552e-02, 2.86177754e-01, 1.27411112e-01, 6.52053282e-02,
          1.28938764e-01, 1.66752234e-01, 9.66228545e-02, 5.38409054e-02,
          5.97614497e-02, 1.31950974e-01, 2.89013714e-01, 1.00913286e-01,
          4.69743833e-02, 4.18098047e-02, 1.16875246e-01, 2.89013714e-01,
          1.53715342e-01, 1.79457948e-01, 2.43902013e-01, 2.89013714e-01,
          1.78802773e-01, 1.26742393e-01, 6.83663711e-02, 1.96794316e-01,
          2.26826817e-01, 2.26826817e-01, 9.07784551e-02, 2.55838353e-02,
          1.00153960e-01, 4.71056737e-02, 4.32685129e-02, 5.99371977e-02,
          1.24901474e-01, 2.26826817e-01, 1.42134070e-01, 8.88256207e-02,
          4.37722541e-02, 1.90680176e-01, 5.29953055e-02, 7.64478445e-02,
          8.45450833e-02, 2.05837190e-01, 2.26826817e-01, 9.83790010e-02,
          1.08221032e-01, 1.52616128e-01, 2.26826817e-01, 1.99274540e-01,
          2.13342771e-01, 1.58348858e-01, 2.05361947e-01, 2.20667824e-01,
          1.46117613e-01, 1.63603202e-01, 1.58012882e-01, 2.26826817e-01,
          2.21356958e-01, 2.26826817e-01, 2.26826817e-01, 2.26826817e-01,
          2.81938881e-01, 9.77275297e-02, 1.27577022e-01, 1.06136136e-01,
          2.81938881e-01, 1.17290579e-01, 1.68819919e-01, 1.48012131e-01,
          2.81938881e-01, 3.07181105e-02, 1.38403708e-02, 1.23039195e-02,
          2.40931492e-02, 8.13647583e-02, 2.32693478e-02, 1.70594342e-02,
          9.30387247e-03, 4.15813923e-02, 2.60798067e-01, 1.93439215e-01,
          2.81938881e-01, 2.51374602e-01, 2.81938881e-01, 2.81938881e-01,
          2.68032640e-01, 2.81938881e-01, 2.81938881e-01, 3.34797502e-02,
          2.09872164e-02, 2.28334945e-02, 3.20748053e-02, 6.40049055e-02,
          1.65168252e-02, 1.10184699e-02, 1.41991666e-02, 2.46098321e-02,
          8.12601969e-02, 6.57205954e-02, 5.92949651e-02, 1.08677447e-01,
          2.57697910e-01, 5.36688268e-02, 1.43447742e-02, 2.00850870e-02,
          9.86266509e-02, 2.57697910e-01, 2.05686271e-01, 2.54618376e-01,
          2.57697910e-01, 2.57697910e-01, 2.05058306e-01, 1.37964934e-01,
          6.84646219e-02, 1.69798404e-01, 4.93309870e-02, 3.94175500e-02,
          4.62793708e-02, 7.70499632e-02, 7.85598457e-02, 6.29081652e-02,
          4.64072563e-02, 2.53875293e-02, 5.20840250e-02, 1.89756334e-01,
          2.57697910e-01, 2.57697910e-01, 2.26927072e-01, 1.67736858e-01,
          2.15049773e-01, 2.57697910e-01, 2.39692450e-01, 2.10519075e-01,
          2.20219553e-01, 1.62222207e-01, 2.02233687e-01, 1.07508972e-01,
          1.61960244e-01, 1.45707250e-01, 1.76487520e-01, 1.43592924e-01,
          1.64441809e-01, 2.20322847e-01, 2.07957014e-01, 2.42177680e-01,
          1.10345311e-01, 1.77178234e-01, 1.28792495e-01, 1.60131589e-01,
          1.54652119e-01, 1.59819722e-01, 1.65450156e-01, 2.42177680e-01,
          2.42177680e-01, 4.50929739e-02, 8.25278759e-02, 5.79005666e-02,
          1.08341001e-01, 1.21127270e-01, 1.47213995e-01, 2.01832235e-01,
          2.42177680e-01, 2.42177680e-01, 6.07523918e-02, 2.42177680e-01,
          8.05507898e-02, 8.31379592e-02, 4.75726016e-02, 1.31727785e-01,
          2.64494777e-01, 2.59676993e-01, 3.14541429e-01, 2.64745623e-01,
          3.14541429e-01, 2.39683881e-01, 2.00504929e-01, 1.65636599e-01,
          1.85238659e-01, 2.35000439e-02, 2.00174972e-02, 2.14795787e-02,
          2.30639130e-02, 4.57860157e-02, 1.40367374e-02, 1.07667129e-02,
          1.39273619e-02, 1.73195377e-02, 2.66928047e-01, 1.85003251e-01,
          2.78448701e-01, 2.02129200e-01, 3.14541429e-01, 1.92210943e-01,
          1.64206162e-01, 5.36057204e-02, 1.83314055e-01, 1.56838186e-02,
          1.96337122e-02, 1.88865960e-02, 1.76851321e-02, 4.82363105e-02,
          1.17805582e-02, 1.10382373e-02, 4.97698085e-03, 1.23781851e-02 ]
      - [ 2.43506636e-02, 1.35982856e-02, 4.06912565e-02, 3.51665774e-03,
          4.97947693e-01, 2.35748244e-03, 0., 0., 2.43506636e-02,
          1.01491787e-01, 7.93643370e-02, 6.65354356e-02, 3.51665653e-02,
          2.60225147e-01, 2.70523597e-02, 1.69081695e-03, 0.,
          8.97432193e-02, 1.35343969e-01, 2.64678132e-02, 4.07406762e-02,
          1.50953848e-02, 4.88669366e-01, 3.18327881e-02, 1.15099913e-02,
          2.47377474e-02, 1.37297601e-01, 2.54360616e-01, 8.53031278e-02,
          8.15170929e-02, 6.68428838e-02, 4.36776310e-01, 1.50981382e-01,
          4.39328067e-02, 2.26125140e-02, 2.44498774e-01, 2.69614220e-01,
          9.79215875e-02, 8.26355889e-02, 1.87862720e-02, 1.69702470e-01,
          1.54783810e-02, 1.37043120e-02, 7.27503328e-03, 2.55726755e-01,
          3.31056237e-01, 3.81767862e-02, 5.00396863e-02, 0.,
          2.25865662e-01, 0., 6.40802383e-02, 5.32281324e-02,
          3.33227515e-01, 3.02833647e-01, 7.35072941e-02, 9.07249004e-02,
          3.52541581e-02, 1.63414136e-01, 8.48077014e-02, 4.71707918e-02,
          1.34920347e-02, 2.93850422e-01, 3.76310438e-01, 2.59585790e-02,
          4.55051288e-02, 0., 1.21607985e-02, 0., 6.59644753e-02,
          3.79814692e-02, 3.77396047e-01, 3.12146693e-01, 1.40633648e-02,
          4.21088412e-02, 0., 5.12067042e-02, 0., 2.63004880e-02,
          2.29124520e-02, 3.15107197e-01, 3.53302240e-01, 2.86246706e-02,
          8.56559128e-02, 0., 5.96091598e-02, 0., 2.19221972e-02,
          7.32602691e-03, 3.53302240e-01, 3.36749017e-01, 1.77719016e-02,
          5.31875826e-02, 0., 4.22187336e-02, 0., 2.94517204e-02,
          1.69125888e-02, 3.38229328e-01, 3.75343055e-01, 1.64528247e-02,
          4.92330268e-02, 0., 7.31884465e-02, 0., 4.09058630e-02,
          1.36700226e-02, 3.75343055e-01, 1.91056192e-01, 2.90948655e-02,
          5.10830805e-02, 2.00708173e-02, 3.40433270e-01, 3.38041261e-02,
          3.48017439e-02, 3.06704603e-02, 1.92805737e-01, 2.63020128e-01,
          4.29953039e-02, 3.69200483e-02, 3.45727988e-02, 2.47990564e-01,
          7.02290833e-02, 5.50444275e-02, 3.39858681e-02, 2.66369194e-01,
          1.12407967e-01, 1.06656738e-02, 2.20802519e-02, 8.86409823e-03,
          3.93041551e-01, 2.07441114e-02, 6.07228354e-02, 2.26626154e-02,
          1.16016984e-01, 2.25367337e-01, 1.16965406e-01, 4.23228256e-02,
          1.01885252e-01, 4.47326630e-01, 8.28100964e-02, 1.01220489e-01,
          1.02856137e-01, 2.97262192e-01, 2.23301928e-02, 3.40417144e-03,
          5.07929083e-03, 3.53219407e-03, 2.22782027e-02, 8.33067670e-03,
          9.47932526e-03, 3.96048790e-03, 2.26050131e-02, 2.68094502e-02,
          1.53646641e-03, 2.38703121e-03, 2.52998946e-03, 5.56211220e-03,
          2.74587818e-03, 1.39893191e-02, 7.75735825e-03, 2.59372294e-02,
          1.43723965e-01, 6.53057322e-02, 6.95631281e-02, 1.12751849e-01,
          1.31299645e-01, 5.44464067e-02, 3.61581221e-02, 5.33853024e-02,
          1.38414860e-01, 4.18762118e-01, 3.22815150e-01, 4.18762118e-01,
          3.31833959e-01, 1.28286362e-01, 2.01914549e-01, 1.29492193e-01,
          3.03296179e-01, 4.18762118e-01, 1.18492534e-02, 2.35279603e-03,
          2.80435802e-03, 1.78718101e-03, 8.69163685e-03, 9.06186178e-04,
          4.90343664e-03, 3.41312238e-03, 1.32629927e-02, 1.23981200e-02,
          2.79701571e-03, 3.37708066e-03, 1.29125419e-03, 1.04339309e-02,
          5.38315566e-04, 4.69361478e-03, 2.50728847e-03, 1.34035386e-02,
          3.38201076e-01, 3.14826727e-01, 3.38201076e-01, 1.32105485e-01,
          2.01972783e-01, 1.38655052e-01, 5.37916049e-02, 1.84579924e-01,
          3.38201076e-01, 3.38201076e-01, 2.10107893e-01, 2.90725946e-01,
          6.19213246e-02, 2.16096252e-01, 9.98806283e-02, 6.61820397e-02,
          1.29152343e-01, 3.38201076e-01, 3.83285172e-02, 1.60824824e-02,
          1.84261892e-02, 0., 2.98129439e-01, 4.62747179e-03,
          1.89338513e-02, 1.08383475e-02, 4.21673059e-02, 1.56581968e-01,
          1.15342498e-01, 5.89761324e-02, 1.65507495e-01, 4.75194663e-01,
          1.81943968e-01, 1.03757575e-01, 1.32000133e-01, 2.67173111e-01,
          9.06581953e-02, 3.72982733e-02, 4.27026078e-02, 0.,
          1.75650984e-01, 0., 1.75425839e-02, 1.07769100e-02,
          8.82103443e-02, 1.52107865e-01, 9.57627967e-02, 1.44819602e-01,
          2.00300559e-01, 3.88023704e-01, 2.13634729e-01, 1.78933933e-01,
          1.52481690e-01, 2.74925828e-01, 4.24984023e-02, 2.49774642e-02,
          2.50486881e-02, 5.36478981e-02, 9.77189466e-02, 2.97334902e-02,
          1.22439312e-02, 1.22930873e-02, 4.15375009e-02, 2.61201531e-01,
          1.49673238e-01, 2.28497624e-01, 1.89298570e-01, 2.38655806e-01,
          1.34038478e-01, 5.83850779e-02, 1.22072086e-01, 2.73098528e-01,
          6.52140528e-02, 3.36458087e-02, 3.69921848e-02, 7.51371011e-02,
          1.69298813e-01, 7.27565587e-02, 4.30314168e-02, 3.66306081e-02,
          8.91073346e-02, 2.77474105e-01, 2.08575562e-01, 2.52822936e-01,
          2.43969560e-01, 2.77474105e-01, 2.57832736e-01, 2.32900545e-01,
          2.37094998e-01, 2.77474105e-01, 1.51689783e-01, 1.35472298e-01,
          2.44867533e-01, 8.38776976e-02, 1.73446327e-01, 6.93482459e-02,
          4.46606278e-02, 7.54114091e-02, 1.76881149e-01, 1.78043738e-01,
          9.13674310e-02, 1.42177790e-01, 6.21148795e-02, 2.18192905e-01,
          6.20113015e-02, 5.03300875e-02, 5.72507530e-02, 1.89583123e-01,
          2.59629309e-01, 1.52082011e-01, 2.30671629e-01, 1.26831323e-01,
          2.59629309e-01, 1.23063274e-01, 2.05885798e-01, 1.24876350e-01,
          2.59629309e-01, 2.27470353e-01, 1.11727729e-01, 1.71740532e-01,
          1.55020252e-01, 2.59629309e-01, 1.17689244e-01, 1.75820738e-01,
          8.68619010e-02, 2.29385093e-01 ]
      - [ 4.52327222e-01, 5.17446771e-02, 3.16823609e-02, 0.,
          2.10003052e-02, 0., 2.97320471e-03, 9.94013920e-02,
          4.64385718e-01, 5.09166598e-01, 6.22208677e-02, 4.00874093e-02,
          0., 2.41838526e-02, 0., 1.33794267e-02, 9.23307687e-02,
          5.17733693e-01, 0., 0., 0., 0., 0., 0., 0., 0., 0., 0., 0., 0.,
          0., 0., 0., 0., 0., 0., 4.57248837e-01, 6.97882399e-02,
          1.98241305e-02, 0., 1.76493861e-02, 0., 4.46647778e-03,
          9.35107991e-02, 4.63389307e-01, 5.01940370e-01, 1.16674393e-01,
          7.93593004e-03, 9.00041591e-03, 7.21711889e-02, 1.53456526e-02,
          7.39393756e-03, 1.07780807e-01, 5.00621796e-01, 0., 0., 0., 0.,
          0., 0., 0., 0., 0., 0., 0., 0., 0., 6.84512034e-02, 0., 0., 0.,
          0., 2.07914896e-02, 1.03750890e-02, 5.20499330e-03,
          6.44583302e-03, 3.05349771e-02, 1.62880123e-02, 1.89943202e-02,
          1.36493407e-02, 2.59303041e-02, 1.28117368e-01, 7.33955875e-02,
          4.08782698e-02, 2.65624076e-01, 6.48330152e-01, 1.06414773e-01,
          4.33969423e-02, 7.47600496e-02, 1.12947479e-01, 5.32223471e-03,
          3.81008117e-03, 9.26615950e-03, 7.72127556e-03, 4.00991663e-02,
          7.15368800e-03, 5.97863551e-03, 1.08837057e-02, 9.77317616e-03,
          2.23977901e-02, 6.61499798e-03, 1.72394440e-02, 9.85574797e-02,
          6.48330152e-01, 8.09986666e-02, 1.54921142e-02, 4.17557657e-02,
          5.53001799e-02, 0., 0., 0., 0., 0., 0., 0., 0., 0., 0., 0., 0.,
          0., 0., 0., 0., 0., 0., 0., 0., 0., 0., 0., 0., 0., 0., 0., 0.,
          0., 0., 0., 0., 0., 0., 0., 0., 0., 0., 0., 0., 0., 0., 0., 0.,
          0., 0., 0., 0., 0., 5.51456034e-01, 0., 0., 0., 0., 0., 0., 0.,
          0., 0., 0., 0., 0., 0., 0., 0., 0., 0., 7.31447816e-01, 0., 0.,
          0., 0., 5.59444027e-03, 6.27296232e-03, 7.66718900e-03,
          8.10156763e-03, 3.10361013e-02, 9.83427931e-03, 5.47203934e-03,
          1.24941273e-02, 1.00120138e-02, 8.39073658e-02, 5.74363209e-02,
          2.04797648e-02, 1.76380485e-01, 5.72541654e-01, 1.47325888e-01,
          2.94192564e-02, 9.78643745e-02, 1.70991734e-01, 8.93126614e-03,
          1.16081769e-02, 1.29227769e-02, 1.26395440e-02, 3.19641866e-02,
          2.07230207e-02, 9.28586349e-03, 1.15245841e-02, 1.37913860e-02,
          1.29060343e-01, 1.14246272e-01, 4.71113212e-02, 2.42395714e-01,
          5.72541654e-01, 3.01334113e-01, 4.61147279e-02, 8.85240957e-02,
          2.00069591e-01, 0., 0., 0., 0., 0., 0., 0., 0., 0., 0., 0., 0.,
          0., 0., 0., 0., 0., 0., 4.60880429e-01, 1.18652508e-02,
          3.55053507e-02, 0., 0., 0., 4.17627171e-02, 1.39564034e-02,
          4.60880429e-01, 5.17572701e-01, 1.42382979e-02, 4.26064134e-02,
          0., 0., 0., 4.05684114e-02, 1.35572851e-02, 5.17572701e-01, 0.,
          0., 0., 0., 0., 0., 0., 0., 0., 0., 0., 0., 0., 9.33269411e-02,
          0., 0., 0., 0., 4.55951512e-01, 1.30414786e-02, 3.90250720e-02,
          0., 0., 0., 4.14769165e-02, 1.38608916e-02, 4.55951512e-01,
          5.15478313e-01, 1.41408574e-02, 4.23148349e-02, 7.20613543e-03,
          7.12207928e-02, 0., 3.45640928e-02, 1.15507422e-02,
          5.15478313e-01, 4.92933206e-03, 9.91510414e-03, 1.09305866e-02,
          1.35383531e-02, 2.70882715e-02, 1.95922274e-02, 6.96588540e-03,
          7.42422882e-03, 9.88082681e-03, 3.67818736e-02, 4.91967984e-02,
          4.39371392e-02, 1.47724569e-01, 6.06703281e-01, 2.19452724e-01,
          2.32743472e-02, 2.74635516e-02, 5.09402007e-02, 1.96660273e-02,
          8.79455265e-03, 6.78215828e-03, 8.71065911e-03, 2.58364677e-02,
          9.51635558e-03, 3.17851664e-03, 6.14622142e-03, 2.05264799e-02,
          9.63887796e-02, 3.81358676e-02, 2.96305679e-02, 1.88903883e-01,
          6.06703281e-01, 2.96369106e-01, 1.04943454e-01, 5.98243922e-02,
          1.57784119e-01 ]
      - [ 2.12815357e-04, 1.86618546e-03, 5.24984393e-03, 5.35358395e-03,
          4.87339884e-01, 1.29651115e-03, 8.73136814e-05, 8.02240975e-05,
          3.10962641e-04, 8.01723730e-03, 2.39635892e-02, 5.24411425e-02,
          4.52916324e-02, 4.87339884e-01, 8.99927784e-03, 1.10673928e-03,
          2.47479836e-03, 6.35048887e-03, 2.88219482e-04, 4.62483242e-03,
          1.71172097e-02, 1.63693689e-02, 4.87339884e-01, 1.37360487e-03,
          1.26814310e-04, 5.55744919e-05, 2.03538497e-04, 2.82907719e-03,
          2.78877839e-02, 1.65498391e-01, 1.03013001e-01, 4.87339884e-01,
          1.06216045e-02, 1.45564589e-03, 1.19915244e-03, 3.73765384e-03,
          9.83238220e-02, 2.67145932e-01, 2.67145932e-01, 2.67145932e-01,
          2.67145932e-01, 6.43848628e-02, 3.61475684e-02, 1.55677395e-02,
          2.30889842e-02, 8.91966298e-02, 2.08354369e-01, 1.17783204e-01,
          2.39080831e-01, 1.84529036e-01, 2.67145932e-01, 2.67145932e-01,
          7.88230076e-02, 1.84922777e-02, 1.44081013e-02, 1.24954663e-01,
          2.67145932e-01, 2.67145932e-01, 2.67145932e-01, 3.27779092e-02,
          1.14362231e-02, 6.46117376e-03, 1.66615490e-02, 1.24106780e-02,
          4.58638519e-02, 9.39168185e-02, 9.32402685e-02, 1.10002846e-01,
          2.17668295e-01, 2.67145932e-01, 8.88575986e-02, 1.63247623e-02,
          8.06745794e-03, 9.80508700e-03, 3.83456447e-03, 2.80045345e-02,
          3.64921689e-01, 1.50570661e-01, 1.85910255e-01, 3.44884582e-02,
          4.99245990e-03, 3.51331709e-03, 3.73264030e-03, 1.65629713e-03,
          3.43298055e-02, 4.92636740e-01, 5.27600907e-02, 1.85664892e-02,
          4.67241555e-03, 1.66781340e-03, 5.52589772e-03, 2.91767134e-03,
          5.68345794e-03, 2.48423181e-02, 4.20779854e-01, 2.15254635e-01,
          2.37310931e-01, 1.05583407e-01, 8.03803466e-03, 3.92745109e-03,
          1.87273475e-03, 3.43234953e-03, 4.16377746e-02, 4.92636740e-01,
          1.08992986e-01, 7.41691142e-02, 4.46416587e-02, 3.90276639e-03,
          7.77936960e-03, 1.24163032e-02, 2.53340304e-02, 3.86241637e-02,
          4.32275385e-01, 2.27469709e-02, 2.35070474e-03, 1.83173234e-03,
          2.25567538e-03, 1.18976161e-02, 4.37269136e-02, 2.10518569e-01,
          1.38357371e-01, 4.32275385e-01, 1.82808451e-02, 4.62950720e-03,
          2.24188552e-03, 3.15376674e-03, 2.58810669e-02, 3.53988260e-02,
          6.11928813e-02, 1.43885568e-01, 4.32275385e-01, 1.47926360e-01,
          7.18702674e-02, 1.32004935e-02, 2.59335004e-02, 7.31157884e-02,
          7.75545910e-02, 1.86222598e-01, 2.34792978e-01, 4.32275385e-01,
          1.12502202e-01, 8.46283510e-02, 1.46726454e-02, 6.32688850e-02,
          1.47970142e-02, 1.15450598e-01, 2.91356891e-01, 2.91356891e-01,
          2.91356891e-01, 3.15581150e-02, 1.33322924e-02, 7.47909769e-03,
          1.60812978e-02, 8.42491817e-03, 1.83986146e-02, 6.69725090e-02,
          4.54012156e-02, 1.31990001e-01, 1.99190378e-01, 1.98095292e-01,
          1.28391176e-01, 1.58471782e-02, 2.89946973e-01, 9.94297788e-02,
          2.83597678e-01, 2.84683049e-01, 2.91356891e-01, 5.11034578e-02,
          4.22490239e-02, 8.49431381e-03, 2.87784517e-01, 2.91356891e-01,
          1.12963645e-02, 6.60439720e-03, 1.33755300e-02, 6.23681843e-02,
          4.97077703e-02, 3.34065072e-02, 4.63162847e-02, 2.91356891e-01,
          4.06018551e-03, 4.14901227e-03, 4.82146302e-03, 2.61526089e-02,
          3.91289383e-01, 1.84921533e-01, 1.83861047e-01, 1.69791043e-01,
          1.16917901e-02, 3.67847178e-03, 4.85170027e-03, 6.95816241e-03,
          5.24374247e-02, 4.43164676e-01, 1.36420235e-01, 1.13308690e-01,
          1.21124029e-01, 1.14029422e-02, 7.00088367e-02, 7.68925482e-03,
          2.09897850e-02, 5.87293617e-02, 2.57991046e-01, 1.76624537e-01,
          1.10419616e-01, 1.17176957e-01, 7.36721903e-02, 4.06961776e-02,
          1.15248654e-02, 5.40522598e-02, 1.74265787e-01, 4.43164676e-01,
          3.09534758e-01, 1.35135591e-01, 1.14008419e-01, 5.26905693e-02,
          6.23277240e-02, 2.39136517e-02, 5.31830974e-02, 1.47239089e-01,
          3.20121914e-01, 1.14447847e-01, 9.42867100e-02, 2.01345906e-02,
          6.15338460e-02, 3.01026523e-01, 4.00427468e-02, 8.64894688e-02,
          1.83140978e-01, 3.20121914e-01, 8.21000189e-02, 1.03888661e-01,
          2.44052969e-02, 2.68214822e-01, 2.64000148e-01, 1.55800786e-02,
          1.87845007e-02, 7.59466812e-02, 3.20121914e-01, 1.02784678e-01,
          5.38582876e-02, 7.59282336e-02, 2.79352397e-01, 3.20121914e-01,
          2.12791394e-02, 1.36667565e-02, 5.80500849e-02, 1.51344597e-01,
          3.23534980e-02, 5.65991364e-02, 3.82688791e-02, 3.20121914e-01,
          3.44631672e-01, 9.10196360e-03, 1.74194053e-02, 3.20360623e-02,
          3.46357301e-02, 6.93164021e-03, 9.97341797e-03, 2.84477929e-03,
          3.37036431e-01, 3.56132448e-01, 3.19349905e-03, 1.25714066e-03,
          1.10011105e-03, 6.31101755e-03, 1.12429145e-03, 1.10459037e-03,
          2.68946425e-03, 3.56132448e-01, 3.56132448e-01, 2.72553368e-03,
          1.41175627e-03, 5.75876329e-03, 9.42180492e-03, 6.54270872e-04,
          4.97616269e-03, 4.26018750e-03, 3.56132448e-01, 3.56132448e-01,
          7.20559759e-03, 2.21423525e-03, 3.78104043e-04, 4.82112588e-03,
          7.88065736e-05, 1.75292749e-04, 3.17773363e-03, 3.56132448e-01,
          2.99651355e-01, 1.08154770e-02, 2.45605130e-02, 3.60258706e-02,
          9.62738991e-02, 9.94666666e-02, 3.23605314e-02, 2.24904381e-02,
          3.40096444e-01, 2.13397712e-01, 1.74192619e-02, 6.40364289e-02,
          1.20717682e-01, 3.40096444e-01, 2.40100354e-01, 6.52078241e-02,
          3.43710035e-02, 1.84396356e-01, 3.40096444e-01, 1.40606808e-02,
          1.70840677e-02, 1.09546306e-02, 3.12735699e-02, 1.65991411e-02,
          3.43370996e-03, 7.19433464e-03, 3.40096444e-01, 3.40096444e-01,
          1.63749084e-02, 4.03030887e-02, 3.18307728e-02, 1.40215084e-01,
          5.33998609e-02, 2.25509573e-02, 2.51476672e-02, 3.40096444e-01 ]
      - [ 1.12730255e-02, 7.77049456e-03, 1.97417960e-02, 1.13338515e-01,
          4.26578104e-01, 2.08829820e-01, 2.13531740e-02, 1.20606767e-02,
          6.77711749e-03, 1.76727045e-02, 1.17859421e-02, 1.60618871e-02,
          6.12248965e-02, 4.26578104e-01, 1.33076012e-01, 2.35863309e-02,
          1.37117514e-02, 1.38077158e-02, 1.95617508e-02, 1.79408230e-02,
          3.47906351e-02, 1.33326769e-01, 4.26578104e-01, 3.37535262e-01,
          2.22628992e-02, 7.12184608e-03, 3.86164081e-03, 2.54488233e-02,
          1.82898138e-02, 4.36736047e-02, 8.12307447e-02, 4.26578104e-01,
          2.02293575e-01, 4.67160158e-02, 1.19812014e-02, 1.27389040e-02,
          1.48959989e-02, 5.03854966e-03, 1.03651322e-02, 2.31459942e-02,
          2.51394868e-01, 1.13980234e-01, 6.60517663e-02, 3.26365121e-02,
          1.62679590e-02, 2.98700809e-01, 1.29484728e-01, 1.20802902e-01,
          2.73135513e-01, 3.93791258e-01, 1.79054096e-01, 2.72059411e-01,
          2.02727973e-01, 3.93791258e-01, 1.57956388e-02, 4.11344133e-03,
          1.91501137e-02, 2.81130075e-02, 2.29185015e-01, 1.32584333e-01,
          8.19519162e-02, 2.81545892e-02, 1.77841391e-02, 1.62006803e-02,
          3.26473229e-02, 3.52330767e-02, 6.96670786e-02, 3.41723204e-01,
          2.01482072e-01, 1.09496064e-01, 6.12389892e-02, 3.00559495e-02,
          3.90939027e-01, 1.40674204e-01, 6.30944297e-02, 1.73149601e-01,
          1.98329508e-01, 5.33686243e-02, 1.19005725e-01, 1.22379556e-01,
          3.90939027e-01, 3.90939027e-01, 2.31752530e-01, 8.45433101e-02,
          1.27659947e-01, 2.82121539e-01, 7.24510178e-02, 1.17709935e-01,
          2.11916938e-01, 3.90939027e-01, 1.75093301e-02, 2.84475274e-02,
          2.54133698e-02, 4.81461734e-02, 1.20414913e-01, 5.94821759e-02,
          3.20083797e-02, 1.92056745e-02, 2.23091003e-02, 3.43073793e-02,
          2.60761101e-02, 3.63729931e-02, 3.98179442e-02, 7.42304027e-02,
          2.73437276e-02, 3.61008830e-02, 2.78240480e-02, 4.26492169e-02,
          1.29165454e-02, 1.27687259e-02, 3.95521745e-02, 1.35151535e-01,
