%YAML:1.0
---
opencv_ml_svm:
   format: 3
   svmType: C_SVC
   kernel:
      type: LINEAR
   C: 1.
   term_criteria: { epsilon:1.1920928955078125e-07, iterations:1000 }
   var_count: 324
   class_count: 2
   class_labels: !!opencv-matrix
      rows: 2
      cols: 1
      dt: i
      data: [ 0, 1 ]
   sv_total: 1
   support_vectors:
      - [ 1.92434520e-01, 2.68121839e-01, 2.46412769e-01, 1.63812131e-01,
          3.39270771e-01, 3.06669921e-01, 5.20986691e-02, 5.84466644e-02,
          1.89074561e-01, 2.90150464e-01, -2.58639343e-02,
          9.31146368e-03, -3.32022458e-02, 4.26446237e-02,
          -8.52414221e-03, 5.01658954e-02, 7.98735544e-02,
          3.28567594e-01, -8.98361653e-02, 1.17273247e-02,
          -1.44005520e-03, 1.49605153e-02, 2.14520276e-01,
          2.94613719e-01, 2.51341276e-02, -8.31492394e-02,
          -1.38198301e-01, -1.24224043e-02, -6.31059185e-02,
          -4.72636111e-02, -5.60570993e-02, 1.51272878e-01,
          -3.21117565e-02, -1.01337411e-01, -1.65508270e-01,
          -3.06455456e-02, 2.65323192e-01, -7.03660101e-02,
          -4.21280004e-02, -3.70636843e-02, -1.37606740e-01,
          3.16874161e-02, -3.44322659e-02, 1.70331165e-01,
          3.72056901e-01, 9.47986096e-02, -4.28196415e-02,
          -3.08084935e-02, -4.27132845e-02, -7.78931156e-02,
          1.16718985e-01, 2.67681833e-02, 1.80575386e-01, 3.04631561e-01,
          -5.80819808e-02, -6.54939711e-02, -5.36178164e-02,
          -6.35750517e-02, -2.82701463e-01, -9.96084213e-02,
          -2.59585679e-01, -2.04583108e-01, 4.68408614e-02,
          -1.31886853e-02, -8.82205740e-03, -1.22620687e-02,
          -1.05844121e-02, -1.64525732e-01, 2.32609035e-03,
          -5.00292704e-02, 8.13007355e-02, 1.64803207e-01,
          -2.34335810e-01, 2.47462653e-02, -7.83727914e-02,
          -3.29886638e-02, 1.07744552e-01, 8.91124681e-02,
          1.31105065e-01, 3.66055429e-01, -9.69339758e-02,
          -1.00916035e-01, 1.72252581e-01, 8.83383397e-03,
          1.08347936e-02, -2.01188639e-01, 1.72057506e-02,
          2.49870531e-02, 2.27523804e-01, -1.74664333e-01,
          -3.78531404e-02, 4.95951157e-03, -1.39025776e-02,
          -5.15785767e-03, 1.71857953e-01, 4.50426303e-02,
          7.65976980e-02, 1.92484081e-01, 5.94852120e-02,
          -1.27560198e-01, 1.20302979e-02, -2.57028118e-02,
          1.79882143e-02, -1.13652050e-01, 1.61785945e-01,
          1.99268267e-01, 2.42677182e-01, -1.45244300e-01,
          -1.08793415e-01, -5.03520062e-03, -9.27364174e-03,
          -3.27526145e-02, -7.18555087e-03, 3.87833983e-01,
          2.07320958e-01, -4.47624438e-02, -1.09842762e-01,
          -1.40966222e-01, -1.18522868e-02, -3.67486142e-02,
          -9.28399339e-02, 2.02838168e-01, -4.69869189e-02,
          -1.67369053e-01, -1.81180298e-01, -1.74913391e-01,
          -3.45039256e-02, 4.03782865e-03, -1.93963591e-02,
          -1.29115999e-01, -2.37344518e-01, 7.66719505e-02,
          1.21170081e-01, 2.27475151e-01, -3.66795212e-02,
          -1.17993966e-01, -2.79535465e-02, -3.96577418e-02,
          -1.36679053e-01, 1.39915317e-01, -5.12215868e-03,
          1.27303034e-01, 1.78265825e-01, -1.37259081e-01,
          2.17173211e-02, -3.39565659e-03, -8.56407546e-03,
          -6.67165294e-02, -1.21249735e-01, -7.05076233e-02,
          -3.82445216e-01, -2.26123512e-01, 1.08333435e-02,
          1.76678747e-01, 4.04105484e-02, 6.86609074e-02, 4.24068347e-02,
          -8.71860683e-02, 3.86927687e-02, 1.76767662e-01,
          3.50002199e-01, 3.32034111e-01, 1.20827183e-01, 4.78609698e-03,
          -1.24355713e-02, -3.03118732e-02, 8.45436528e-02,
          1.82497919e-01, 2.69266725e-01, 3.14527959e-01, 2.97588915e-01,
          -6.64506108e-02, -8.30736663e-03, 1.61670577e-02,
          -7.13523524e-03, -2.18040869e-01, -1.39596805e-01,
          -3.85260344e-01, -3.36874485e-01, -7.39232004e-02,
          -8.50799680e-02, -4.29979805e-03, -3.06330295e-03,
          -1.84472241e-02, 2.02625424e-01, -7.34581277e-02,
          1.47999540e-01, 1.09975293e-01, -7.80138522e-02,
          -1.30672306e-01, -8.09412356e-03, -1.07189929e-02,
          1.98589684e-03, -6.75036758e-02, 2.75550455e-01,
          2.39038274e-01, 2.05020085e-01, -6.24220371e-02,
          -2.00875089e-01, -4.65697944e-02, -3.48900780e-02,
          -4.41017672e-02, 2.44750321e-01, -1.29422322e-01,
          -2.41848186e-01, -2.32956514e-01, -2.52641082e-01,
          -2.08208084e-01, -3.94530855e-02, -4.18380424e-02,
          -7.96183664e-03, 1.00483589e-01, 2.94288248e-01,
          1.77087843e-01, 6.90445378e-02, -1.04091175e-01,
          -9.61565077e-02, 1.86343472e-02, 1.31294448e-02,
          -4.91388738e-02, -2.54464507e-01, 1.62276980e-02,
          2.04091772e-01, 2.15996221e-01, -9.73520502e-02,
          -7.38878846e-02, -4.35149595e-02, -2.24311613e-02,
          -4.08156775e-02, 2.05469355e-01, 1.70662701e-01,
          1.51142061e-01, 1.86097354e-01, 2.01909654e-02,
          -1.60575554e-01, 1.43648431e-01, 2.09638029e-01,
          9.53363106e-02, -1.50428370e-01, -3.73982862e-02,
          1.98647201e-01, 1.32318377e-01, -1.49632901e-01,
          -1.27466219e-02, -5.95150096e-03, 8.11384693e-02,
          1.93400178e-02, 2.38889605e-01, 6.90932050e-02, 1.13787435e-01,
          1.43091723e-01, 1.31265908e-01, -4.71251905e-02,
          -3.55297178e-02, -2.38245428e-02, -2.91635841e-02,
          -1.41532689e-01, 4.16389965e-02, 8.60343724e-02,
          1.78089529e-01, 1.51183158e-01, -2.72270590e-02,
          -3.51781445e-03, -4.88261599e-03, -1.12395221e-02,
          -2.52541691e-01, 6.87378794e-02, -1.17140822e-01,
          -1.65326463e-03, 1.32689700e-01, 7.20007867e-02,
          -2.39291303e-02, -1.50336074e-02, -3.36806476e-02,
          -1.73324451e-01, -2.37216037e-02, -7.11683184e-02,
          1.23091467e-01, 3.85749310e-01, 3.20644379e-01, 1.95423681e-02,
          -7.50349276e-03, -2.66590938e-02, -2.62055159e-01,
          2.00532734e-01, 1.29985929e-01, 3.31083685e-01, 3.98475438e-01,
          -9.42975059e-02, -2.03393195e-02, -2.93710977e-02,
          -1.20435758e-02, 1.12209603e-01, -3.56635638e-02,
          -8.41835961e-02, -7.20693469e-02, -7.06527382e-02,
          -6.92452043e-02, 2.50588097e-02, 2.84186797e-03,
          8.16137493e-02, 1.76037967e-01, 2.75695741e-01, 1.20667659e-01,
          8.73580389e-03, 1.27275959e-02, 2.52582133e-01, 3.02811246e-02,
          -1.99844092e-02, -3.99079956e-02, 9.82035697e-03,
          -5.45561053e-02, 9.60235596e-02, 1.66028842e-01,
          4.17063534e-01, 3.72192144e-01, 3.57577056e-01, 2.29401335e-01,
          2.05293000e-01, 9.86714363e-02, 8.86061713e-02, 7.15416819e-02,
          1.44952998e-01, 3.70161504e-01 ]
   uncompressed_sv_total: 21
   uncompressed_support_vectors:
      - [ 2.99476177e-01, 1.02815762e-01, 1.39307365e-01, 4.27635014e-02,
          3.51243168e-01, 8.19495022e-02, 9.88367721e-02, 1.58443004e-01,
          2.44895294e-01, 3.26310694e-01, 5.54275401e-02, 7.41195008e-02,
          3.68488654e-02, 3.43748719e-01, 6.45689592e-02, 9.61094946e-02,
          1.39294654e-01, 3.51243168e-01, 3.28002758e-02, 1.83914173e-02,
          1.46757057e-02, 1.31571665e-02, 3.51243168e-01, 1.15263341e-02,
          1.11430017e-02, 7.56372558e-03, 2.10728534e-02, 4.94715050e-02,
          1.02393944e-02, 9.65960510e-03, 6.50837459e-03, 3.51243168e-01,
          7.12713599e-03, 1.72982290e-02, 2.44631898e-02, 7.98550099e-02,
          2.66850322e-01, 1.11303944e-02, 1.00606261e-02, 2.29100715e-02,
          1.16194114e-01, 1.64151520e-01, 2.05352068e-01, 2.35194430e-01,
          2.92173862e-01, 1.02376021e-01, 8.43079109e-03, 8.18615220e-03,
          6.68160710e-03, 1.15219302e-01, 2.12556213e-01, 2.92173862e-01,
          2.92173862e-01, 2.92173862e-01, 7.28659406e-02, 4.86647571e-03,
          6.81624701e-03, 6.54770713e-03, 8.35758373e-02, 6.40269369e-02,
          8.75378698e-02, 1.00110404e-01, 2.31559470e-01, 5.95083088e-02,
          7.64971366e-03, 9.20546334e-03, 1.00068357e-02, 8.24123174e-02,
          1.48736268e-01, 2.92173862e-01, 2.92173862e-01, 2.92173862e-01,
          3.77885476e-02, 1.44163473e-02, 1.35032414e-02, 1.35787511e-02,
          5.47114462e-02, 9.30216163e-02, 3.91128957e-01, 2.43803397e-01,
          1.96915135e-01, 2.37492248e-02, 1.70710515e-02, 1.65413134e-02,
          1.90762859e-02, 2.46868599e-02, 2.79731527e-02, 1.20650895e-01,
          6.40908480e-02, 2.77992096e-02, 4.45613079e-02, 1.65589713e-02,
          2.42392421e-02, 2.43584085e-02, 5.86862676e-02, 1.69601396e-01,
          3.91128957e-01, 3.91128957e-01, 1.98168173e-01, 3.39805409e-02,
          2.74931248e-02, 2.86090020e-02, 3.04360222e-02, 4.67474423e-02,
          1.38206139e-01, 3.91128957e-01, 3.83991212e-01, 5.16491681e-02,
          1.46934588e-04, 1.59933988e-04, 5.03980787e-04, 7.33397389e-03,
          4.98352438e-01, 6.03556912e-03, 1.33080233e-04, 3.90716559e-05,
          1.46934588e-04, 2.70096515e-03, 6.46680011e-04, 6.48482179e-04,
          1.00038759e-03, 4.98352438e-01, 1.55694433e-03, 2.67969794e-03,
          1.95889990e-03, 3.06495582e-03, 6.55647786e-03, 1.78491592e-03,
          1.37238100e-03, 2.18082424e-02, 4.98352438e-01, 2.72556283e-02,
          1.89084024e-03, 1.85003120e-03, 3.35778971e-03, 8.49805586e-03,
          2.51094787e-03, 1.53873675e-03, 3.70489387e-03, 4.98352438e-01,
          7.54244206e-03, 3.06155393e-03, 2.36287271e-03, 5.31603862e-03,
          7.89792836e-02, 2.47000456e-02, 3.61525044e-02, 1.87303666e-02,
          4.19743389e-01, 4.29058485e-02, 5.40899895e-02, 6.14870563e-02,
          1.25729188e-01, 1.37813911e-01, 3.81177589e-02, 5.75291812e-02,
          4.83588427e-02, 1.29690409e-01, 2.01062635e-01, 4.19743389e-01,
          4.19743389e-01, 3.67630184e-01, 6.49925619e-02, 1.28574874e-02,
          1.98958311e-02, 5.80873340e-03, 4.19743389e-01, 1.21465148e-02,
          1.92672033e-02, 1.20054157e-02, 6.09090403e-02, 1.17978983e-01,
          1.58150438e-02, 2.88777519e-02, 1.82174463e-02, 4.60454561e-02,
          1.90491211e-02, 4.47020903e-02, 2.18075179e-02, 1.01158172e-01,
          2.04763804e-02, 1.08009325e-02, 1.48091912e-02, 1.68038588e-02,
          2.27105021e-02, 1.27004161e-01, 3.48963350e-01, 3.48963350e-01,
          4.54564095e-02, 1.69190019e-02, 2.07167603e-02, 1.63572840e-02,
          2.11948641e-02, 5.88055328e-02, 2.98656315e-01, 3.48963350e-01,
          3.48963350e-01, 3.43923233e-02, 1.99771505e-02, 7.74301868e-03,
          7.85136968e-03, 9.41320881e-03, 3.21512297e-02, 1.15582980e-01,
          1.44601211e-01, 6.31780103e-02, 1.65201202e-02, 1.53539311e-02,
          1.16116181e-02, 5.89177199e-03, 2.25482713e-02, 2.17234492e-01,
          3.48963350e-01, 3.48963350e-01, 2.48469710e-01, 2.87092999e-02,
          2.18718648e-02, 2.14878866e-03, 7.00608222e-03, 5.31630889e-02,
          3.38787317e-01, 6.17992356e-02, 2.04410851e-02, 5.47001977e-03,
          2.90297586e-02, 4.92863655e-02, 3.07068368e-03, 4.51638550e-03,
          1.79531295e-02, 3.38787317e-01, 2.50496417e-02, 1.27159366e-02,
          4.24682628e-03, 5.55261113e-02, 2.11238459e-01, 1.02574989e-01,
          1.07521072e-01, 1.67511433e-01, 3.38787317e-01, 1.96601138e-01,
          1.46725655e-01, 8.82404298e-02, 3.09971541e-01, 3.38787317e-01,
          4.65346202e-02, 7.27719069e-02, 7.13748038e-02, 3.38787317e-01,
          1.03505276e-01, 9.61427167e-02, 3.85808311e-02, 3.38787317e-01,
          1.42189652e-01, 3.58312740e-03, 3.05913971e-03, 3.32177384e-03,
          8.55954364e-02, 8.44385102e-03, 6.13769237e-03, 3.56386020e-03,
          1.44670501e-01, 1.67421341e-01, 3.45615554e-03, 3.53715126e-03,
          2.76037282e-03, 1.13597559e-02, 1.36833650e-03, 3.03918845e-03,
          2.14694673e-03, 1.64652243e-01, 4.70781326e-01, 1.35383187e-02,
          1.41034843e-02, 9.84526891e-03, 5.93412109e-02, 1.53820654e-02,
          1.84701048e-02, 5.17606456e-03, 4.70781326e-01, 4.70781326e-01,
          7.98372645e-03, 4.71350504e-03, 2.00541061e-03, 1.06187481e-02,
          2.12110142e-04, 9.36769473e-04, 1.64685643e-03, 4.70781326e-01,
          1.12405509e-01, 3.40545294e-03, 4.39496152e-03, 2.81340117e-03,
          3.67460325e-02, 5.45644574e-02, 2.09602993e-02, 1.46384016e-02,
          1.07887045e-01, 8.68823454e-02, 1.10665718e-02, 1.92922149e-02,
          5.36994897e-02, 3.46179217e-01, 3.46179217e-01, 1.79632023e-01,
          7.86926597e-02, 8.29089731e-02, 3.46179217e-01, 6.46414654e-03,
          6.70214090e-03, 2.21703923e-03, 1.88186187e-02, 4.18466004e-03,
          1.86108018e-03, 1.72494922e-03, 3.46179217e-01, 3.46179217e-01,
          9.67867374e-02, 1.56980157e-01, 1.00766689e-01, 3.35672826e-01,
          1.84287593e-01, 2.51985416e-02, 6.17059739e-03, 3.46179217e-01 ]
      - [ 3.57709944e-01, 1.05231881e-01, 8.20895135e-02, 7.85662755e-02,
          2.98116833e-01, 2.69348323e-01, 4.00896482e-02, 1.71099808e-02,
          3.57709944e-01, 3.57709944e-01, 4.25937539e-03, 1.64115906e-03,
          1.30455662e-03, 1.74962524e-02, 6.39572414e-03, 3.27226962e-03,
          4.18335386e-03, 3.57709944e-01, 7.91894365e-03, 4.30329423e-03,
          5.82272792e-03, 1.53524773e-02, 2.53517002e-01, 3.57709944e-01,
          3.07875872e-01, 4.89046797e-02, 4.99656098e-03, 5.66589786e-03,
          1.36057544e-03, 2.84739514e-03, 2.56126770e-03, 4.04660851e-02,
          6.64048195e-02, 3.11252382e-02, 5.61822532e-03, 4.16348828e-03,
          4.88271713e-01, 1.80749033e-04, 5.40870009e-04, 0.,
          1.28034875e-03, 0., 6.03538472e-04, 2.01692368e-04,
          4.88271713e-01, 4.88271713e-01, 2.24138144e-03, 1.54167385e-04,
          5.34460880e-04, 1.04795627e-01, 3.13581782e-03, 1.64802037e-02,
          1.40620591e-02, 4.88271713e-01, 2.72400281e-03, 1.04636376e-04,
          5.75553975e-04, 1.27912092e-04, 3.29687260e-03, 6.65543368e-04,
          2.44397507e-03, 3.15341342e-04, 2.16817809e-03, 1.43658591e-03,
          2.47456446e-05, 9.70244364e-05, 2.73343932e-04, 1.73154101e-01,
          9.64230741e-04, 0., 0., 1.43658591e-03, 3.21091950e-01,
          1.49025656e-02, 3.38054970e-02, 1.74040291e-02, 3.87585044e-01,
          7.74572277e-03, 4.37867828e-02, 3.76583822e-02, 3.13054949e-01,
          2.81041056e-01, 4.41009663e-02, 7.21465796e-02, 5.65509759e-02,
          3.87585044e-01, 4.26342860e-02, 5.53933643e-02, 9.21587124e-02,
          2.92443126e-01, 4.76738252e-03, 3.33076983e-04, 2.04947399e-04,
          3.88843124e-03, 3.87585044e-01, 2.97060120e-03, 1.79398612e-05,
          2.11638398e-04, 1.64705911e-03, 5.58885513e-03, 9.33650765e-04,
          2.99903419e-04, 1.53119117e-02, 3.87585044e-01, 2.27265880e-02,
          3.20905237e-04, 9.46579559e-04, 2.06700014e-03, 1.01195341e-02,
          2.91821128e-03, 3.71678686e-03, 9.86801554e-03, 9.73554179e-02,
          3.75719398e-01, 3.75719398e-01, 1.20554686e-01, 5.99011173e-03,
          9.59748589e-03, 1.81646319e-03, 3.99251282e-03, 6.39384892e-03,
          2.95173880e-02, 9.07387510e-02, 1.54377520e-01, 3.94381769e-02,
          5.40202623e-03, 9.61449090e-03, 7.58483540e-03, 1.25252763e-02,
          1.18103158e-02, 3.65765542e-02, 2.88933694e-01, 3.75719398e-01,
          3.58956724e-01, 1.20312739e-02, 1.06212236e-02, 4.26679291e-03,
          7.22643500e-03, 8.38277582e-03, 1.92350801e-02, 1.27618462e-01,
          3.75719398e-01, 3.75719398e-01, 1.74914673e-02, 2.59006377e-02,
          7.80658145e-03, 9.40156356e-03, 4.52852948e-03, 4.07296605e-02,
          2.14052554e-02, 5.05965985e-02, 8.34432524e-03, 1.44910039e-02,
          7.32470257e-03, 3.82628583e-04, 1.61365129e-03, 2.63079861e-03,
          4.86801773e-01, 0., 0., 0., 7.32470257e-03, 6.82337210e-02,
          2.96449251e-02, 2.66923252e-02, 1.45906378e-02, 8.95596519e-02,
          8.83118883e-02, 4.86801773e-01, 4.86801773e-01, 1.14196151e-01,
          4.49831411e-02, 2.96318699e-02, 1.84270069e-02, 1.92526858e-02,
          4.86801773e-01, 2.11052261e-02, 1.13484468e-02, 1.60056502e-02,
          3.94567139e-02, 4.87483013e-03, 3.05056252e-04, 5.44651179e-04,
          2.64858757e-03, 4.98505175e-01, 1.62346623e-04, 0., 0.,
          8.15232052e-04, 5.48167666e-03, 2.73474230e-04, 2.75352417e-04,
          9.05542821e-03, 4.98505175e-01, 1.07789487e-02, 0., 0.,
          6.10159244e-04, 4.32520080e-03, 1.32063974e-03, 1.63628848e-03,
          6.59901509e-03, 4.98505175e-01, 4.12053708e-03, 1.84235512e-04,
          1.47554412e-04, 3.93796293e-03, 3.50132957e-03, 3.63090076e-04,
          6.58148376e-04, 1.84382256e-02, 4.98505175e-01, 1.63002685e-02,
          1.06858055e-03, 1.02360640e-03, 3.33071034e-03, 6.94076018e-03,
          6.91299047e-03, 1.38517097e-02, 5.72329294e-03, 1.52834943e-02,
          1.18619598e-01, 3.96872669e-01, 3.26947719e-01, 1.42630553e-02,
          1.52252568e-02, 3.79207847e-03, 6.40596915e-03, 3.30805453e-03,
          1.33192334e-02, 1.25081375e-01, 3.96872669e-01, 3.96872669e-01,
          8.34041983e-02, 7.54556432e-03, 5.95692219e-03, 6.70757517e-03,
          5.60269319e-03, 1.61799695e-02, 1.87777933e-02, 1.36228919e-01,
          9.76438522e-02, 1.28855798e-02, 3.01349424e-02, 8.30334704e-03,
          9.12581570e-03, 6.93094637e-03, 1.89473853e-02, 9.96010527e-02,
          3.96872669e-01, 3.96872669e-01, 1.52531371e-01, 2.61244010e-02,
          3.44444136e-03, 3.46501986e-03, 1.42510724e-03, 1.56764034e-02,
          6.92835823e-02, 3.19701940e-01, 3.19701940e-01, 1.56795338e-01,
          4.65824418e-02, 8.35528970e-03, 5.56450197e-03, 5.52196009e-03,
          7.94226378e-02, 2.99301259e-02, 7.87128583e-02, 9.52943414e-02,
          1.58731326e-01, 7.89492503e-02, 4.43238486e-03, 5.93650667e-03,
          3.68230464e-03, 3.05593368e-02, 1.61342293e-01, 3.19701940e-01,
          3.19701940e-01, 3.19701940e-01, 2.14833617e-01, 1.52973784e-02,
          7.42456038e-03, 5.44091314e-03, 6.67934343e-02, 1.20889343e-01,
          3.19701940e-01, 3.19701940e-01, 3.19701940e-01, 3.10172588e-02,
          9.01360624e-03, 2.80107232e-03, 1.50538869e-02, 3.41295391e-01,
          1.54127320e-02, 5.11369621e-03, 1.64347794e-02, 6.16927780e-02,
          2.90385447e-02, 1.31742945e-02, 5.74372616e-03, 3.42248864e-02,
          3.41295391e-01, 3.42789441e-02, 3.37334280e-03, 1.27554275e-02,
          3.56136672e-02, 2.05009699e-01, 5.61876632e-02, 1.35956733e-02,
          2.64207795e-02, 3.41295391e-01, 4.53698263e-02, 1.13470875e-01,
          2.24969596e-01, 3.41295391e-01, 3.13570529e-01, 1.03220932e-01,
          4.08665128e-02, 6.53494224e-02, 3.41295391e-01, 6.27123937e-02,
          9.62439850e-02, 2.17960432e-01, 3.41295391e-01 ]
      - [ 3.58729184e-01, 9.14185047e-02, 9.43247005e-02, 6.09348305e-02,
          3.24021757e-01, 2.74136007e-01, 3.08274645e-02, 3.30458651e-03,
          3.58729184e-01, 3.58729184e-01, 2.36072601e-03, 1.43867987e-03,
          7.35934358e-04, 1.70598403e-02, 6.33772090e-03, 1.57619396e-03,
          3.40348063e-03, 3.58729184e-01, 2.52855755e-02, 4.18142742e-03,
          9.19252262e-03, 1.67839583e-02, 2.56162554e-01, 3.58729184e-01,
          2.67221481e-01, 4.92772646e-02, 2.60555074e-02, 2.58586742e-02,
          2.95080012e-03, 5.80430310e-03, 4.15741233e-03, 3.91218327e-02,
          7.60446340e-02, 2.56425329e-02, 1.26645183e-02, 2.33176537e-02,
          4.84589159e-01, 2.31772341e-04, 3.78546712e-04, 0.,
          8.41004401e-03, 1.37684488e-04, 1.20457669e-04, 8.51252640e-04,
          4.84589159e-01, 4.84589159e-01, 1.02143213e-02, 2.28168280e-03,
          1.55035546e-02, 1.29222631e-01, 1.68169457e-02, 3.56356916e-03,
          3.90752889e-02, 4.84589159e-01, 1.14649590e-02, 8.41335452e-04,
          1.21276476e-03, 4.19675227e-04, 4.95205913e-03, 1.15652732e-03,
          3.47668916e-04, 1.20110705e-03, 1.13915727e-02, 8.72884598e-03,
          7.34493893e-04, 6.84496481e-04, 4.88652941e-03, 1.90603882e-01,
          9.30368807e-03, 2.87314225e-03, 3.43426876e-03, 9.07514337e-03,
          2.90346265e-01, 3.09298392e-02, 2.07713060e-02, 3.14065441e-02,
          3.89553815e-01, 2.32606269e-02, 2.65985308e-03, 9.53153223e-02,
          3.13634396e-01, 2.77398139e-01, 5.12362532e-02, 5.37540950e-02,
          5.98438159e-02, 3.89553815e-01, 4.77464199e-02, 9.25053377e-03,
          1.50037706e-01, 2.84756362e-01, 9.51626804e-03, 1.15186255e-03,
          9.10761824e-04, 1.05802901e-02, 3.89553815e-01, 1.32617950e-02,
          2.34726234e-03, 2.09234958e-03, 1.42435376e-02, 1.01795224e-02,
          8.55452323e-04, 1.42228522e-03, 2.80826371e-02, 3.89553815e-01,
          2.57826764e-02, 1.33371889e-03, 1.79568771e-03, 1.60579067e-02,
          1.95477810e-02, 1.72520452e-03, 4.08016238e-03, 6.43756846e-03,
          6.72879964e-02, 3.57629955e-01, 3.57629955e-01, 1.30372390e-01,
          2.23786738e-02, 1.44821508e-02, 1.75588089e-03, 2.62781861e-03,
          3.14989244e-03, 2.25320607e-02, 8.46159160e-02, 1.06720366e-01,
          4.40797321e-02, 1.42409075e-02, 1.36140093e-01, 3.91876101e-02,
          2.89792176e-02, 3.87281179e-02, 4.74838950e-02, 3.07498574e-01,
          3.57629955e-01, 3.57629955e-01, 2.13047475e-01, 2.87297815e-02,
          1.06004700e-02, 3.68251908e-03, 5.43116499e-03, 2.77151503e-02,
          1.19220182e-01, 3.57629955e-01, 3.57629955e-01, 6.75264969e-02,
          4.53326665e-02, 3.85707035e-03, 4.12376365e-03, 2.41941703e-03,
          6.25173897e-02, 1.06601380e-02, 1.78221799e-02, 1.58789754e-02,
          5.07314503e-02, 8.40578414e-03, 7.43102340e-04, 2.81108252e-04,
          1.21205649e-03, 4.72981125e-01, 4.59511718e-03, 6.47345558e-03,
          8.21412448e-03, 9.50126350e-03, 7.32078999e-02, 5.59183583e-03,
          8.21788795e-03, 1.88162997e-02, 1.57518893e-01, 8.17911774e-02,
          4.72981125e-01, 4.72981125e-01, 2.24057600e-01, 2.42457185e-02,
          2.49326741e-03, 4.65394836e-03, 1.60671603e-02, 4.72981125e-01,
          1.31157078e-02, 1.33494632e-02, 2.99842674e-02, 3.52161862e-02,
          7.03969970e-04, 3.24008317e-04, 9.43464402e-05, 1.36070745e-03,
          4.98714596e-01, 1.57532806e-03, 6.17827871e-04, 3.98614648e-04,
          7.38256611e-04, 8.51934019e-04, 1.94692489e-04, 9.20372549e-05,
          4.39863186e-03, 4.98714596e-01, 3.19573726e-03, 3.39729188e-04,
          3.90180270e-04, 8.96078476e-04, 2.65061483e-03, 4.73596272e-04,
          2.44912721e-04, 4.97620506e-03, 4.98714596e-01, 1.27874967e-03,
          9.06188099e-04, 3.84267099e-04, 1.70364266e-03, 3.02606029e-03,
          2.19002817e-04, 6.21071158e-05, 6.05316879e-03, 4.98714596e-01,
          5.23352809e-03, 8.18454660e-04, 2.46770127e-04, 2.25079106e-03,
          1.23540230e-01, 4.85601611e-02, 2.80776564e-02, 3.25760916e-02,
          5.00474796e-02, 1.09242931e-01, 3.29848796e-01, 3.29848796e-01,
          2.21707955e-01, 3.17543000e-02, 1.19712073e-02, 3.42516066e-03,
          8.68383702e-03, 6.12404421e-02, 1.15224160e-01, 3.29848796e-01,
          3.29848796e-01, 9.73161981e-02, 5.40777147e-02, 2.47080512e-02,
          3.59198973e-02, 4.84045707e-02, 1.24792986e-01, 7.68939927e-02,
          2.03064129e-01, 2.27379411e-01, 1.08555637e-01, 3.62857096e-02,
          1.79878362e-02, 5.62264994e-02, 8.43698680e-02, 2.32428119e-01,
          1.53963625e-01, 3.29848796e-01, 3.29848796e-01, 1.00405313e-01,
          2.88443286e-02, 5.76339837e-04, 1.37326343e-03, 4.50454559e-03,
          2.61183064e-02, 6.16030581e-02, 3.19330186e-01, 3.19330186e-01,
          1.42291203e-01, 4.54090498e-02, 3.22882459e-03, 2.68093334e-03,
          5.17278258e-03, 7.42913708e-02, 1.98571552e-02, 7.93400332e-02,
          1.03986561e-01, 1.37131125e-01, 1.01602644e-01, 5.48592350e-03,
          1.89021733e-02, 2.91766282e-02, 8.76819938e-02, 1.38367623e-01,
          3.19330186e-01, 3.19330186e-01, 3.19330186e-01, 2.49106601e-01,
          1.11627514e-02, 9.65468306e-03, 6.47993991e-03, 4.78306636e-02,
          9.23389792e-02, 3.19330186e-01, 3.19330186e-01, 3.19330186e-01,
          2.90997084e-02, 7.86376931e-03, 5.71447471e-03, 1.12856403e-02,
          3.42598706e-01, 1.06050568e-02, 1.00603374e-02, 1.39255878e-02,
          5.20790629e-02, 2.74498519e-02, 1.53765101e-02, 4.40059835e-03,
          1.98176727e-02, 3.42598706e-01, 2.12197639e-02, 9.41947941e-03,
          5.84941497e-03, 3.06198299e-02, 2.40647629e-01, 4.49247919e-02,
          3.64653878e-02, 1.13152526e-02, 3.33324611e-01, 3.25955003e-02,
          1.54031426e-01, 1.99824080e-01, 3.42598706e-01, 3.19928735e-01,
          1.23837285e-01, 3.24711651e-02, 3.42216194e-02, 3.42598706e-01,
          3.50050256e-02, 1.64646670e-01, 1.30944520e-01, 3.42598706e-01 ]
      - [ 2.66084582e-01, 8.13142583e-02, 3.93838100e-02, 2.10664887e-02,
          3.64954084e-01, 1.69450436e-02, 1.20495535e-01, 8.99362713e-02,
          3.64954084e-01, 1.95095509e-01, 3.97365093e-02, 2.91881654e-02,
          7.13596586e-03, 3.64954084e-01, 3.02768368e-02, 1.29385084e-01,
          1.76852748e-01, 3.64954084e-01, 1.65257584e-02, 9.22118407e-03,
          4.28501889e-03, 2.88381730e-03, 3.64954084e-01, 6.15559518e-03,
          4.83315066e-03, 5.35680493e-03, 2.17354763e-02, 2.40700208e-02,
          4.71249176e-03, 3.14527936e-03, 1.34391896e-03, 3.64954084e-01,
          2.20829831e-03, 7.98774417e-03, 1.46419127e-02, 5.98373003e-02,
          1.63358465e-01, 7.49813206e-03, 7.45145371e-03, 3.95881245e-03,
          4.54661064e-02, 8.18260014e-02, 3.11378509e-01, 3.32450986e-01,
          3.32450986e-01, 6.64617568e-02, 7.60032563e-03, 5.19765075e-03,
          4.26544994e-03, 3.78575809e-02, 8.86391401e-02, 3.32450986e-01,
          3.32450986e-01, 3.32450986e-01, 3.72526124e-02, 1.44739577e-03,
          1.16708549e-03, 7.56579218e-04, 7.52080008e-02, 1.55565226e-02,
          7.57076219e-02, 1.10227510e-01, 1.45098776e-01, 2.21917406e-02,
          3.99335288e-03, 2.56955414e-03, 7.56454887e-04, 2.67195906e-02,
          4.22525331e-02, 3.32450986e-01, 3.32450986e-01, 1.65618211e-01,
          1.43150017e-02, 6.87981397e-03, 3.10713146e-03, 3.61030409e-03,
          2.72757225e-02, 3.44947688e-02, 3.97048861e-01, 3.97048861e-01,
          8.82612020e-02, 9.11531318e-03, 5.62723121e-03, 3.25001660e-03,
          4.24782513e-03, 2.23185178e-02, 1.93739440e-02, 1.25917763e-01,
          8.41713920e-02, 1.90235786e-02, 1.00378394e-02, 4.03413083e-03,
          2.12806999e-03, 4.59320052e-03, 2.61208657e-02, 8.85894299e-02,
          3.97048861e-01, 3.97048861e-01, 7.41609856e-02, 1.01279737e-02,
          1.02343913e-02, 6.57113642e-03, 1.21116992e-02, 4.68227826e-02,
          1.37774453e-01, 3.97048861e-01, 3.67575675e-01, 5.11937514e-02,
          6.27550762e-05, 0., 0., 3.37199919e-04, 4.98742908e-01,
          4.39282553e-03, 0., 0., 6.27550762e-05, 8.07646487e-04,
          1.03446046e-05, 0., 0., 4.98742908e-01, 0., 1.98112593e-06,
          4.40903132e-05, 7.93375948e-04, 6.14725723e-05, 0., 0.,
          6.02076107e-05, 4.98742908e-01, 4.48268512e-03, 9.83876525e-05,
          0., 6.14725723e-05, 2.00744053e-05, 0., 0., 0., 4.98742908e-01,
          0., 0., 0., 2.00744053e-05, 5.00814170e-02, 4.59898263e-03,
          6.32303115e-03, 1.11504644e-03, 4.86136913e-01, 2.46386882e-03,
          4.83448664e-03, 1.98262986e-02, 5.09249568e-02, 8.01648721e-02,
          2.33047623e-02, 2.19531413e-02, 3.23834363e-03, 1.01403758e-01,
          7.15885311e-02, 4.86136913e-01, 4.86136913e-01, 1.44350469e-01,
          3.13118566e-03, 1.22092388e-04, 0., 0., 4.86136913e-01, 0.,
          3.38922953e-04, 1.13262373e-04, 2.52954103e-03, 1.08141443e-02,
          1.57221302e-03, 9.60008532e-04, 1.60876574e-04, 9.39207897e-03,
          2.39508133e-03, 1.31461089e-02, 3.89030040e-03, 1.07916649e-02,
          6.09787647e-03, 1.69959199e-03, 1.18223159e-03, 3.31103802e-03,
          2.79500969e-02, 1.16088979e-01, 3.77208710e-01, 3.29556823e-01,
          2.58139428e-02, 6.31877966e-03, 6.63133338e-03, 3.87649634e-03,
          1.13912998e-02, 5.98437488e-02, 3.24512750e-01, 3.77208710e-01,
          3.35888296e-01, 3.57937068e-02, 3.83921736e-03, 2.07489682e-03,
          4.18751355e-04, 4.46435716e-03, 3.14474925e-02, 1.12077065e-01,
          1.60048336e-01, 3.90216149e-02, 3.92226176e-03, 8.09118338e-03,
          4.99090040e-03, 2.02058489e-03, 8.66400823e-03, 1.28757015e-01,
          3.77208710e-01, 3.77208710e-01, 1.50721714e-01, 8.54992401e-03,
          2.82484689e-04, 8.74019406e-06, 2.61539917e-05, 3.12805671e-04,
          3.61712307e-01, 3.25009925e-03, 1.03008766e-04, 0.,
          2.82484689e-04, 3.20464256e-04, 3.27757243e-06, 9.80774621e-06,
          1.56675174e-04, 3.61712307e-01, 1.27035833e-04, 0., 0.,
          3.20464256e-04, 3.06080043e-01, 3.72640975e-02, 7.89426491e-02,
          3.43161188e-02, 3.61712307e-01, 1.01890331e-02, 6.37482703e-02,
          9.12265554e-02, 3.01162511e-01, 3.61712307e-01, 2.05175821e-02,
          3.30859944e-02, 8.99830088e-03, 3.61712307e-01, 1.46909896e-03,
          5.05058095e-02, 3.92265841e-02, 3.61712307e-01, 4.15825722e-04,
          1.21438152e-05, 3.63387880e-05, 0., 9.14404318e-02,
          3.01595537e-05, 1.67724647e-05, 5.60507760e-06, 4.15825722e-04,
          1.72322581e-03, 2.02113981e-04, 6.04800705e-04, 2.31655431e-05,
          1.70170178e-03, 0., 2.37048938e-04, 7.92177234e-05,
          1.72322581e-03, 4.95197505e-01, 5.23231633e-04, 4.54234905e-05,
          0., 7.32966959e-02, 2.41276313e-04, 1.18110264e-02,
          9.06240474e-03, 4.95197505e-01, 4.95197505e-01, 3.47189466e-03,
          1.62381423e-03, 1.85324257e-04, 1.09840864e-02, 0.,
          6.73691567e-04, 8.40820558e-03, 4.95197505e-01, 6.16447628e-03,
          1.82310899e-03, 1.16634893e-03, 5.21601317e-03, 2.64642555e-02,
          5.55933863e-02, 2.31722612e-02, 3.86168575e-03, 4.72097658e-03,
          1.08643454e-02, 3.45696183e-03, 4.54483228e-03, 1.98032930e-02,
          2.29086995e-01, 3.50137293e-01, 2.43549198e-01, 4.98481691e-02,
          8.21154751e-03, 3.50137293e-01, 1.99826155e-02, 3.58095416e-03,
          4.15436830e-03, 2.05796603e-02, 7.43104843e-03, 2.87707266e-03,
          1.34115983e-02, 3.50137293e-01, 3.50137293e-01, 1.27470940e-01,
          1.24477044e-01, 1.00837626e-01, 3.50137293e-01, 3.10598522e-01,
          2.81520188e-02, 3.64164934e-02, 3.50137293e-01 ]
      - [ 3.25275987e-01, 4.64495420e-02, 8.85837451e-02, 1.36145756e-01,
          3.88588935e-01, 1.28769711e-01, 9.55294818e-02, 4.58989255e-02,
          3.80618960e-01, 3.75755996e-01, 2.73590237e-02, 1.56508256e-02,
          2.03394331e-02, 1.12244122e-01, 2.36041397e-02, 6.01538941e-02,
          1.85052827e-01, 3.88588935e-01, 1.27945282e-02, 3.15671996e-03,
          3.90621391e-03, 1.13328174e-02, 3.88588935e-01, 8.22307914e-03,
          1.99836143e-03, 2.77514523e-03, 1.62458885e-02, 2.67911199e-02,
          3.42203677e-03, 2.57953838e-03, 4.86169290e-03, 1.93496153e-01,
          3.83851305e-03, 1.08558023e-02, 2.97041573e-02, 5.08866087e-02,
          2.91950494e-01, 1.98512729e-02, 8.51661712e-03, 1.55130913e-02,
          9.15789325e-03, 1.76398996e-02, 1.78357452e-01, 3.30487102e-01,
          3.30487102e-01, 1.53840691e-01, 4.79453476e-03, 1.22800330e-02,
          2.78420504e-02, 2.11208630e-02, 1.15800060e-01, 3.30487102e-01,
          3.30487102e-01, 3.30487102e-01, 5.33667244e-02, 8.95383861e-03,
          6.68136310e-03, 9.86677222e-03, 8.40855576e-03, 9.68611427e-03,
          5.39866947e-02, 9.03866664e-02, 1.32942274e-01, 5.91206998e-02,
          1.06468089e-02, 1.19177895e-02, 2.02723760e-02, 2.93659680e-02,
          1.08122312e-01, 2.20246136e-01, 3.30487102e-01, 2.95857787e-01,
          2.94271167e-02, 6.73866598e-04, 1.43845961e-03, 9.42192972e-03,
          1.65096056e-02, 1.82728216e-01, 2.93784440e-01, 3.38462859e-01,
          3.24524254e-01, 9.88684036e-03, 2.10995466e-04, 5.90680647e-05,
          4.57818015e-03, 5.54112857e-03, 7.03786537e-02, 1.81295127e-01,
          1.84374824e-01, 8.65743086e-02, 2.27731802e-02, 9.15093254e-03,
          5.22724772e-03, 1.57044996e-02, 2.33145058e-02, 1.89068422e-01,
          3.38462859e-01, 3.38462859e-01, 2.36033797e-01, 1.37034068e-02,
          5.00372471e-03, 2.42439983e-03, 1.06529165e-02, 1.53525537e-02,
          1.24584191e-01, 3.38462859e-01, 3.38462859e-01, 9.57104489e-02,
          1.80576637e-03, 3.17994156e-04, 6.70104113e-04, 1.28682284e-03,
          6.41211689e-01, 5.79158135e-04, 4.36637900e-04, 4.47150174e-04,
          1.47735782e-03, 9.20811482e-03, 2.46836967e-03, 2.26557255e-03,
          2.78845406e-03, 2.81851321e-01, 1.19254983e-03, 4.79996204e-03,
          8.70086532e-03, 8.45838245e-03, 2.56858626e-03, 1.55173487e-03,
          1.06738461e-02, 2.28801537e-02, 6.41211689e-01, 1.70405507e-02,
          4.47261240e-03, 3.04412330e-03, 3.54463165e-03, 8.11659824e-03,
          1.14719744e-03, 3.18559026e-03, 3.41663859e-03, 3.00623357e-01,
          5.37291775e-03, 2.77713710e-03, 1.54110941e-03, 9.40726232e-03,
          1.91343233e-01, 8.03949237e-02, 5.93072511e-02, 4.35588695e-02,
          7.31231347e-02, 5.23094386e-02, 7.15048090e-02, 1.46913916e-01,
          1.86468065e-01, 2.12140068e-01, 9.13065821e-02, 1.00337058e-01,
          9.75446254e-02, 2.03406960e-01, 2.37837747e-01, 2.66008973e-01,
          5.59272885e-01, 4.61470664e-01, 1.11724116e-01, 2.62676086e-02,
          5.35587408e-02, 2.57328898e-03, 4.36088964e-02, 6.93486445e-03,
          2.36426815e-02, 1.01370653e-02, 1.02769114e-01, 1.89416975e-01,
          2.60599572e-02, 5.13429195e-02, 1.91854201e-02, 6.45136237e-02,
          1.60269514e-02, 7.43779466e-02, 2.61371043e-02, 1.72022834e-01,
          1.43122198e-02, 1.19693605e-02, 1.12057244e-02, 1.38501525e-02,
          1.61475539e-02, 5.92533238e-02, 3.46782058e-01, 3.12877506e-01,
          6.45173267e-02, 1.29192285e-02, 1.25323199e-02, 1.19011588e-02,
          2.06260849e-02, 5.26072346e-02, 2.52980441e-01, 4.18907851e-01,
          4.18907851e-01, 4.92614135e-02, 1.60097536e-02, 4.49026050e-03,
          1.16802081e-02, 1.10341329e-02, 8.53561703e-03, 1.78483501e-02,
          3.55048813e-02, 1.25020146e-02, 1.96546726e-02, 3.19981277e-02,
          1.67783368e-02, 2.55918112e-02, 3.44330780e-02, 1.09602056e-01,
          3.56871992e-01, 4.18907851e-01, 1.60742611e-01, 3.80299054e-02,
          6.63389172e-03, 4.05875314e-03, 9.83663648e-03, 3.55016813e-02,
          3.96261722e-01, 3.85862328e-02, 1.19947111e-02, 9.37354099e-03,
          7.64921913e-03, 1.78779457e-02, 1.35687774e-03, 2.70210556e-03,
          4.48563974e-03, 1.75003827e-01, 1.05617205e-02, 4.89601539e-03,
          3.90321086e-03, 1.99272912e-02, 3.38113427e-01, 5.56629151e-02,
          5.34152091e-02, 1.95138171e-01, 3.96261722e-01, 2.09934056e-01,
          9.05525759e-02, 6.52352050e-02, 3.19729775e-01, 3.96261722e-01,
          1.08631216e-02, 1.00051016e-02, 1.36946058e-02, 1.16462067e-01,
          3.64960730e-02, 2.00929884e-02, 2.04312876e-02, 3.96261722e-01,
          3.97317670e-02, 4.03327867e-03, 3.46276187e-03, 8.51490477e-04,
          5.99726010e-03, 1.52153359e-03, 3.35861580e-03, 1.56360457e-03,
          3.67326178e-02, 4.83254045e-02, 4.76452056e-03, 3.40491813e-03,
          1.75651268e-03, 6.96461741e-03, 1.18749286e-03, 4.78252629e-03,
          2.11288594e-03, 4.34469990e-02, 4.96887982e-01, 3.41880461e-03,
          1.00229122e-03, 9.55365307e-04, 4.84740455e-03, 1.91227603e-03,
          2.20681634e-03, 2.42661242e-03, 4.96887982e-01, 4.96887982e-01,
          3.60153266e-03, 8.89899791e-04, 6.47639739e-04, 5.22006024e-03,
          1.75026082e-03, 1.80425751e-03, 9.32757044e-04, 4.96887982e-01,
          4.07504812e-02, 4.96302964e-03, 6.41380996e-03, 5.99526148e-03,
          6.03449857e-03, 7.11568678e-03, 7.31839100e-03, 8.73759016e-03,
          4.10527550e-02, 7.25847557e-02, 1.41062746e-02, 1.81463510e-02,
          1.91366002e-02, 1.71726331e-01, 2.40059718e-01, 1.71012193e-01,
          4.14860882e-02, 7.10834190e-02, 4.55178112e-01, 1.14346377e-03,
          1.62424403e-04, 2.61157635e-04, 2.27429392e-03, 2.41665301e-04,
          1.09579798e-03, 2.26498558e-03, 4.55178112e-01, 4.55178112e-01,
          1.42847225e-02, 2.73785461e-02, 3.27183418e-02, 1.70002073e-01,
          5.03256135e-02, 1.56109016e-02, 5.03908424e-03, 4.55178112e-01 ]
      - [ 3.75805914e-01, 8.84727389e-02, 3.31558473e-02, 5.28219081e-02,
          2.82401592e-01, 7.37803802e-02, 1.46432733e-02, 2.10103393e-02,
          3.75805914e-01, 3.75805914e-01, 9.38608428e-04, 1.79033587e-03,
          2.65414803e-03, 4.20991471e-03, 1.46322430e-03, 1.79839483e-03,
          6.67481159e-04, 3.75805914e-01, 1.19538873e-01, 2.79804170e-02,
          8.48818105e-03, 1.98939797e-02, 3.75805914e-01, 2.40599424e-01,
          1.28581017e-01, 1.57118484e-01, 1.98987499e-01, 1.36211827e-01,
          1.13544590e-03, 1.73588796e-03, 2.84602400e-03, 2.25567184e-02,
          1.46766454e-02, 9.89358779e-03, 9.70655866e-03, 1.36994570e-01,
          4.72026795e-01, 6.89381632e-05, 1.25658186e-03, 1.15543336e-03,
          0., 5.06091339e-04, 8.85439687e-04, 1.39974654e-04,
          4.72026795e-01, 4.72026795e-01, 2.10089434e-04, 9.60690086e-04,
          1.26708264e-03, 4.37226053e-03, 1.80858339e-03, 1.40469603e-03,
          1.68040162e-04, 4.72026795e-01, 1.52076632e-01, 3.85503918e-05,
          1.30772693e-04, 1.44429170e-04, 2.34027058e-04, 6.32614101e-05,
          1.38354910e-04, 1.22108526e-04, 1.52090207e-01, 1.69637099e-01,
          0., 3.76417192e-05, 1.27333318e-04, 3.25958710e-03,
          2.19408859e-04, 1.41721597e-04, 0., 1.70208469e-01,
          3.54412735e-01, 7.45660588e-02, 2.19835900e-03, 2.88328063e-02,
          2.05425635e-01, 1.43796261e-02, 2.32791202e-03, 6.90520331e-02,
          3.54412735e-01, 3.54412735e-01, 1.90927446e-01, 6.62063733e-02,
          6.64111301e-02, 3.54412735e-01, 4.65903319e-02, 1.21184073e-01,
          1.71464741e-01, 3.54412735e-01, 6.10359050e-02, 6.31793495e-03,
          1.32289220e-04, 5.50002209e-04, 2.89997965e-01, 2.62218586e-04,
          1.16077754e-04, 1.19382115e-02, 6.18752912e-02, 4.53497395e-02,
          1.89377945e-02, 5.42569347e-03, 1.23170260e-02, 3.54412735e-01,
          1.53852785e-02, 1.83084961e-02, 2.52437089e-02, 4.56929281e-02,
          1.01252049e-02, 2.33350997e-03, 3.67227872e-03, 9.52064432e-03,
          2.34626308e-01, 3.18018168e-01, 2.72403836e-01, 3.18018168e-01,
          1.32804394e-01, 3.85703938e-03, 2.18783482e-03, 2.65810871e-03,
          2.71371612e-03, 3.26031446e-02, 7.14766532e-02, 7.41654932e-02,
          8.92288610e-02, 2.09940057e-02, 2.15866789e-02, 3.72263626e-03,
          5.89868799e-03, 6.79019094e-03, 7.04580322e-02, 3.18018168e-01,
          3.18018168e-01, 3.18018168e-01, 1.26694426e-01, 4.97606620e-02,
          6.57138182e-03, 9.45325475e-03, 7.32662529e-03, 6.44474104e-02,
          2.65434355e-01, 3.18018168e-01, 3.18018168e-01, 1.51044071e-01,
          5.63373882e-03, 1.80366612e-03, 1.52534246e-03, 0.,
          2.05250811e-02, 5.20068873e-03, 6.31475821e-03, 1.03363693e-02,
          6.93137804e-03, 1.64816272e-04, 0., 0., 0., 1.60814058e-02, 0.,
          0., 0., 1.64816272e-04, 2.38089547e-01, 2.04824451e-02,
          1.81426480e-02, 1.64361820e-02, 2.57987618e-01, 4.49231535e-01,
          4.49231535e-01, 4.49231535e-01, 4.49231535e-01, 1.05598323e-01,
          3.90958413e-03, 4.29977104e-03, 6.27948297e-03, 4.86276262e-02,
          5.13112135e-02, 3.99500802e-02, 4.60034944e-02, 2.07703575e-01,
          1.76605929e-04, 4.03599261e-05, 1.96639536e-04, 9.06847708e-05,
          4.30821687e-01, 1.23665581e-04, 7.43972560e-05, 1.37454714e-04,
          2.04730444e-04, 6.58647297e-03, 2.19959603e-03, 9.12812259e-03,
          1.90329049e-02, 5.36897242e-01, 2.70904358e-02, 3.83292348e-03,
          4.13131854e-03, 5.67045342e-03, 1.34210172e-03, 4.58295050e-04,
          4.34563961e-04, 3.48115922e-04, 4.79454577e-01, 5.18920657e-04,
          2.03346281e-04, 8.18258093e-04, 1.79863791e-03, 6.67917728e-03,
          7.09005818e-03, 9.42400377e-03, 2.25987211e-02, 5.36897242e-01,
          2.30791830e-02, 5.23933070e-03, 6.64512254e-03, 6.31882716e-03,
          3.56462859e-02, 2.72334949e-03, 5.40102506e-03, 7.60336034e-03,
          2.85850409e-02, 2.10498348e-01, 3.42304558e-01, 3.42304558e-01,
          9.86385047e-02, 1.17209837e-01, 5.81397256e-03, 1.06420843e-02,
          1.22419549e-02, 1.38913840e-01, 3.42304558e-01, 3.42304558e-01,
          3.42304558e-01, 3.42304558e-01, 1.21869110e-02, 6.59237499e-04,
          4.05547704e-04, 1.53664895e-03, 7.69078545e-03, 1.79688334e-02,
          3.55802365e-02, 4.51710150e-02, 2.62045953e-02, 7.34830052e-02,
          4.53839032e-03, 3.98733886e-03, 3.42303794e-03, 8.45126137e-02,
          1.83523551e-01, 1.85869709e-01, 2.26787239e-01, 2.59257287e-01,
          1.29401177e-01, 2.85817240e-03, 3.53013747e-03, 4.66083363e-03,
          1.27392471e-01, 2.66679972e-01, 2.15226769e-01, 2.59926528e-01,
          2.75181144e-01, 1.63846433e-01, 1.55541673e-03, 1.75681361e-03,
          2.40696385e-03, 8.12526643e-02, 1.50373653e-01, 6.52867854e-02,
          1.23571046e-01, 2.75181144e-01, 1.68223947e-01, 5.21022407e-03,
          5.33165969e-03, 4.33332473e-03, 1.31809577e-01, 2.55098492e-01,
          1.32761493e-01, 2.20686570e-01, 2.75181144e-01, 2.75181144e-01,
          7.58465752e-03, 6.13249093e-03, 4.06857766e-03, 1.44434065e-01,
          2.56810844e-01, 1.15019694e-01, 2.18403101e-01, 2.75181144e-01,
          6.46246970e-02, 1.28872870e-02, 9.45218280e-03, 6.45188801e-03,
          2.54654974e-01, 2.47337315e-02, 1.95668135e-02, 2.24751383e-02,
          8.67180824e-02, 4.91701104e-02, 1.97680127e-02, 2.81863697e-02,
          4.19854634e-02, 3.51804942e-01, 3.13624330e-02, 2.64263526e-02,
          1.06575778e-02, 5.20763323e-02, 2.68887222e-01, 3.42564620e-02,
          2.97260862e-02, 4.02952991e-02, 2.80575216e-01, 1.13631546e-01,
          5.98526858e-02, 9.29173008e-02, 2.98350543e-01, 3.51804942e-01,
          1.21936083e-01, 1.88599065e-01, 1.68828875e-01, 3.51804942e-01,
          1.86051369e-01, 1.25502422e-01, 1.22681737e-01, 3.51804942e-01 ]
      - [ 2.30465248e-01, 1.29601642e-01, 1.93185002e-01, 7.02845231e-02,
          3.75148863e-01, 7.58137330e-02, 2.06846192e-01, 1.45580217e-01,
          2.43456140e-01, 3.17520261e-01, 5.56408800e-02, 5.53833917e-02,
          4.93066274e-02, 1.85887992e-01, 6.87872171e-02, 1.61509827e-01,
          1.72861844e-01, 3.75148863e-01, 1.89349260e-02, 7.92069919e-03,
          9.82089527e-03, 4.81030792e-02, 3.75148863e-01, 4.07451615e-02,
          1.23550575e-02, 7.37291481e-03, 1.91870183e-02, 4.04505432e-02,
          6.21011853e-03, 4.69182432e-03, 2.06762776e-02, 3.39838624e-01,
          3.11772302e-02, 1.96025558e-02, 2.45827064e-02, 5.97084537e-02,
          2.29552478e-01, 3.29230763e-02, 7.95797259e-03, 4.58097048e-02,
          4.33247276e-02, 6.78902790e-02, 2.70197302e-01, 3.33539426e-01,
          3.33539426e-01, 1.03125319e-01, 2.05758400e-02, 1.13867819e-02,
          3.30526046e-02, 2.74891369e-02, 9.52126235e-02, 3.33539426e-01,
          3.33539426e-01, 3.33539426e-01, 5.30164503e-02, 7.36237038e-03,
          2.62896111e-03, 7.65670463e-03, 1.91316679e-02, 1.81515459e-02,
          5.48127592e-02, 7.99970552e-02, 1.15071520e-01, 6.01732731e-02,
          7.49684498e-03, 7.23333051e-03, 1.29771605e-02, 2.11890060e-02,
          6.47052750e-02, 2.96017349e-01, 3.33539426e-01, 2.21834749e-01,
          3.02695390e-02, 4.23912890e-03, 5.61243435e-03, 1.34352250e-02,
          9.20934509e-03, 8.68812650e-02, 3.41267228e-01, 3.41267228e-01,
          1.46209314e-01, 1.86542589e-02, 7.41189299e-03, 7.63355289e-03,
          1.51892072e-02, 2.35198364e-02, 5.59763759e-02, 1.79154888e-01,
          1.72481358e-01, 4.14657481e-02, 2.38974616e-02, 3.31381359e-03,
          6.84684375e-03, 1.12016043e-02, 1.38628893e-02, 1.79503858e-01,
          3.41267228e-01, 3.41267228e-01, 1.46229953e-01, 3.06894816e-02,
          1.81949101e-02, 1.08806863e-02, 2.03944389e-02, 4.27716412e-02,
          3.41267228e-01, 3.41267228e-01, 3.41267228e-01, 1.58297867e-01,
          2.38480652e-03, 2.96666170e-04, 2.91748787e-04, 2.35021207e-02,
          5.40652037e-01, 1.59698799e-02, 2.95306020e-03, 2.00436777e-03,
          4.18821955e-03, 5.08307852e-03, 1.23742840e-03, 1.20766775e-03,
          9.35285259e-03, 4.30154413e-01, 1.18309436e-02, 5.29798772e-03,
          6.80881273e-03, 7.28727644e-03, 4.59065806e-04, 0., 0.,
          1.46599133e-02, 5.40652037e-01, 1.93008110e-02, 1.96521613e-03,
          6.24111039e-04, 4.59065806e-04, 6.71897316e-04, 1.02273763e-04,
          3.06041125e-04, 6.27586665e-03, 4.72224802e-01, 7.52015132e-03,
          6.44799042e-03, 2.10517901e-03, 6.71897316e-04, 8.45907629e-02,
          2.42283177e-02, 2.13324763e-02, 1.24394093e-02, 1.93642467e-01,
          4.17320617e-02, 3.98264118e-02, 6.45937920e-02, 1.07611589e-01,
          2.10214406e-01, 2.91673224e-02, 5.66218384e-02, 5.43036610e-02,
          2.65127391e-01, 1.54274583e-01, 4.66296166e-01, 5.28058827e-01,
          4.12847787e-01, 2.12645493e-02, 5.24033653e-03, 1.56810433e-02,
          0., 1.99944779e-01, 5.21244889e-04, 6.68502599e-02,
          2.22533010e-02, 2.12645493e-02, 2.45435145e-02, 1.05565926e-02,
          2.64154989e-02, 2.39656828e-02, 2.55075991e-01, 2.25295406e-02,
          4.87484559e-02, 2.32478883e-02, 2.60271560e-02, 9.99494549e-03,
          1.35554990e-03, 5.08516468e-03, 8.55634827e-03, 1.80071350e-02,
          1.18419439e-01, 3.15504581e-01, 2.20331013e-01, 6.26118705e-02,
          3.43896002e-02, 1.56484488e-02, 1.03342533e-02, 3.52882929e-02,
          1.03700787e-01, 3.15504581e-01, 3.15504581e-01, 3.15504581e-01,
          3.15504581e-01, 1.51234970e-03, 1.10690284e-03, 2.85294396e-03,
          6.29536342e-03, 1.48018347e-02, 2.94720475e-02, 1.97845846e-02,
          1.87163316e-02, 1.13727124e-02, 4.94106598e-02, 3.17089143e-03,
          5.42001519e-03, 4.50924151e-02, 3.15504581e-01, 3.15504581e-01,
          2.05410540e-01, 2.66902685e-01, 3.15504581e-01, 1.96303818e-02,
          6.09997334e-03, 2.50738561e-02, 2.18571853e-02, 3.46812755e-01,
          2.70441882e-02, 2.71154623e-02, 1.79019980e-02, 4.48158011e-02,
          5.91706112e-02, 2.06594635e-03, 4.36790055e-03, 6.37422642e-03,
          2.56580532e-01, 9.76078585e-03, 1.50182350e-02, 9.92098637e-03,
          7.08851367e-02, 3.46812755e-01, 1.69031516e-01, 2.10925564e-01,
          4.66986671e-02, 3.46812755e-01, 5.52220084e-02, 2.20392898e-01,
          1.82355985e-01, 3.46812755e-01, 3.46812755e-01, 4.42094244e-02,
          5.42281531e-02, 1.17011024e-02, 1.49765238e-01, 1.52678406e-02,
          5.53732142e-02, 6.17559962e-02, 3.46812755e-01, 1.12964109e-01,
          7.29880237e-04, 9.79227829e-04, 0., 1.21101299e-02,
          1.40602380e-04, 6.62373146e-03, 2.20711366e-03, 1.16229177e-01,
          1.27336323e-01, 6.42306753e-04, 1.91745569e-03, 5.50640048e-04,
          1.59917343e-02, 3.90889472e-04, 2.38212314e-03, 8.83186876e-04,
          1.27942517e-01, 4.83672947e-01, 2.24993029e-03, 1.14021532e-03,
          4.55007503e-05, 6.83409069e-03, 3.58514604e-04, 3.20514664e-03,
          1.80424238e-03, 4.83672947e-01, 4.83672947e-01, 3.35111399e-04,
          1.00277760e-03, 0., 4.96676099e-03, 0., 9.02359548e-04,
          3.01552733e-04, 4.83672947e-01, 8.81941542e-02, 1.48987945e-03,
          3.72248422e-03, 3.52717657e-03, 1.36384824e-02, 6.60229288e-03,
          5.38880844e-03, 2.93325121e-03, 8.87622982e-02, 1.57551363e-01,
          6.57208497e-03, 1.82268601e-02, 5.46399839e-02, 3.80102664e-01,
          1.58461034e-01, 1.17433436e-01, 1.06769033e-01, 3.20647031e-01,
          3.80102664e-01, 1.85283355e-03, 1.38861407e-03, 3.68961453e-04,
          4.51781182e-03, 1.95351499e-03, 2.21728487e-03, 1.63067156e-03,
          3.80102664e-01, 3.80102664e-01, 4.28175814e-02, 6.11017495e-02,
          5.41095585e-02, 2.52867997e-01, 5.38319759e-02, 1.63673535e-02,
          3.03604454e-02, 3.80102664e-01 ]
      - [ 3.31856072e-01, 1.27104908e-01, 7.56038949e-02, 1.68201998e-01,
          3.31856072e-01, 8.95252228e-02, 9.02423710e-02, 1.32791668e-01,
          2.83701718e-01, 3.31856072e-01, 5.23508228e-02, 1.86158586e-02,
          5.63385896e-02, 2.83038318e-01, 1.45987287e-01, 1.48996592e-01,
          1.78289175e-01, 3.31856072e-01, 1.18894335e-02, 1.73603883e-03,
          3.13720014e-03, 5.49725145e-02, 3.31856072e-01, 4.51761484e-02,
          4.27690707e-03, 6.20412594e-03, 1.00139556e-02, 3.58848274e-02,
          3.52747994e-03, 2.21024198e-03, 2.15677731e-02, 3.31856072e-01,
          2.56951023e-02, 8.44078604e-03, 1.06226215e-02, 4.25604805e-02,
          2.76831210e-01, 2.38987114e-02, 1.61806289e-02, 9.93828662e-03,
          2.76831210e-01, 2.56410122e-01, 1.12017862e-01, 2.18429640e-01,
          2.76831210e-01, 2.76831210e-01, 5.42535745e-02, 3.17050964e-02,
          1.46242622e-02, 2.76831210e-01, 2.76831210e-01, 2.76831210e-01,
          2.76831210e-01, 2.76831210e-01, 5.98345213e-02, 5.60676074e-03,
          7.17345811e-03, 7.88404979e-03, 5.74238859e-02, 3.86913717e-02,
          1.77082680e-02, 3.28947194e-02, 8.61752629e-02, 9.40929651e-02,
          1.21669341e-02, 9.49504692e-03, 5.85981272e-03, 8.29674080e-02,
          1.35803118e-01, 2.03291193e-01, 2.42304310e-01, 1.56785727e-01,
          1.05737716e-01, 3.65854166e-02, 3.05478908e-02, 1.74180418e-02,
          7.40536377e-02, 1.91405684e-01, 3.49218786e-01, 3.49218786e-01,
          1.58669278e-01, 5.72590977e-02, 4.59445491e-02, 3.10230497e-02,
          3.72029543e-02, 4.14606892e-02, 6.23082407e-02, 2.46276379e-01,
          1.91203132e-01, 4.44920063e-02, 6.41083866e-02, 1.29796136e-02,
          1.67586450e-02, 7.34130852e-03, 3.54563072e-02, 1.40241131e-01,
          3.49218786e-01, 3.49218786e-01, 1.16954781e-01, 5.48775233e-02,
          2.91686226e-02, 1.87113136e-02, 3.17850336e-02, 6.57003000e-02,
          1.18700810e-01, 3.49218786e-01, 3.49218786e-01, 9.14536342e-02,
          2.14083469e-03, 9.23221742e-05, 2.47471937e-04, 2.22389884e-02,
          5.05834699e-01, 1.52923400e-02, 8.66713817e-04, 1.46558660e-03,
          2.24051857e-03, 7.25170225e-03, 1.29993714e-03, 6.04882196e-04,
          7.25973584e-03, 4.75343466e-01, 6.69061532e-03, 2.53737462e-03,
          2.17406754e-03, 7.93819316e-03, 8.62863730e-04, 1.28442276e-04,
          3.92007583e-04, 1.81290396e-02, 5.05834699e-01, 5.82383154e-03,
          4.95605113e-04, 8.41663932e-05, 8.62863730e-04, 2.96037993e-03,
          1.62281416e-04, 4.85607889e-04, 5.59835648e-03, 5.05834699e-01,
          2.64044595e-03, 1.53582299e-03, 5.13245934e-04, 2.96037993e-03,
          1.59641862e-01, 1.44432168e-02, 3.25991027e-02, 3.83812413e-02,
          1.45643100e-01, 2.81843171e-02, 4.71851453e-02, 3.21928896e-02,
          1.28489316e-01, 4.04532999e-01, 2.28317231e-02, 5.91497645e-02,
          3.80200930e-02, 1.10624798e-01, 1.28122166e-01, 5.24039865e-01,
          4.13021445e-01, 4.01494116e-01, 8.34642574e-02, 7.81153748e-03,
          1.05554014e-02, 5.22973901e-03, 9.02582034e-02, 4.89490991e-03,
          1.79131646e-02, 5.62194409e-03, 8.24714154e-02, 2.09043339e-01,
          2.01301593e-02, 1.74258333e-02, 1.88814066e-02, 4.74233441e-02,
          5.35957096e-03, 2.11757757e-02, 6.37004850e-03, 2.24874586e-01,
          3.16040516e-02, 4.59970953e-03, 1.00591816e-02, 2.90036108e-03,
          2.76984144e-02, 5.05511872e-02, 3.37296039e-01, 2.11962551e-01,
          5.71375191e-02, 5.70686124e-02, 1.60531793e-02, 1.47380810e-02,
          2.77656764e-02, 1.59688577e-01, 2.31676310e-01, 3.37296039e-01,
          3.37296039e-01, 2.15491608e-01, 1.97134148e-02, 4.97380318e-03,
          4.17983811e-03, 5.05530788e-03, 2.17364840e-02, 1.81157030e-02,
          2.08665971e-02, 1.24647450e-02, 2.93025672e-02, 6.02278113e-02,
          1.18582454e-02, 1.52580347e-02, 4.04197238e-02, 3.37296039e-01,
          2.77396232e-01, 3.37296039e-01, 2.88833112e-01, 2.76249737e-01,
          2.45360546e-02, 9.07139760e-03, 2.38617696e-02, 2.09734011e-02,
          3.48064244e-01, 4.47814055e-02, 2.05373261e-02, 1.79939177e-02,
          3.68502922e-02, 5.94885163e-02, 2.16329796e-03, 5.43719018e-03,
          5.33235166e-03, 3.03147346e-01, 1.82708446e-02, 6.93118200e-03,
          9.04310215e-03, 7.06481114e-02, 3.48064244e-01, 1.23963393e-01,
          1.93733349e-01, 8.39431807e-02, 3.48064244e-01, 1.43181786e-01,
          1.59841642e-01, 1.23522297e-01, 3.48064244e-01, 3.48064244e-01,
          2.81681400e-02, 5.87931536e-02, 3.10353097e-02, 1.71745822e-01,
          4.84910086e-02, 4.48111147e-02, 5.04925773e-02, 3.48064244e-01,
          1.14718288e-01, 3.35181551e-03, 1.52922550e-03, 3.56714416e-04,
          7.87606742e-03, 1.06093683e-03, 1.83647755e-03, 2.80028465e-03,
          1.17032751e-01, 1.35321319e-01, 5.16030099e-03, 1.94637326e-03,
          1.49485550e-03, 3.67919588e-03, 8.19171895e-04, 1.92711456e-03,
          2.95906886e-03, 1.37582049e-01, 4.80334908e-01, 2.73792539e-02,
          3.39430431e-03, 1.11130753e-03, 1.56235825e-02, 4.39848239e-03,
          1.04960194e-02, 5.25537878e-02, 4.80334908e-01, 4.80334908e-01,
          5.36960885e-02, 4.30826889e-03, 1.38867981e-04, 1.07167689e-02,
          6.79562101e-03, 6.46634400e-03, 3.26837301e-02, 4.80334908e-01,
          9.91073549e-02, 9.31864418e-03, 4.44498332e-03, 5.99560887e-03,
          8.68735276e-03, 5.21414587e-03, 1.68660854e-03, 4.34636232e-03,
          9.69017372e-02, 1.40283644e-01, 2.17662714e-02, 2.19366271e-02,
          5.07126264e-02, 3.90649378e-01, 1.96511850e-01, 1.04402192e-01,
          1.18201375e-01, 2.42892936e-01, 3.90649378e-01, 2.08390765e-02,
          4.01694840e-03, 2.13947357e-03, 3.80526390e-03, 1.86086539e-03,
          3.21976049e-03, 1.37042915e-02, 3.90649378e-01, 3.90649378e-01,
          6.94122091e-02, 3.14415023e-02, 6.61157146e-02, 2.27752000e-01,
          6.82721362e-02, 7.79102650e-03, 2.12194491e-02, 3.90649378e-01 ]
      - [ 4.46775645e-01, 1.78871639e-02, 4.13855575e-02, 6.48462866e-03,
          1.15615398e-01, 2.80104522e-02, 1.36674596e-02, 1.24572935e-02,
          4.46775645e-01, 4.46775645e-01, 0., 0., 2.48751137e-04,
          2.25826097e-03, 7.49339597e-05, 0., 1.62759039e-04,
          4.46775645e-01, 1.16962299e-01, 5.97328786e-03, 5.53062186e-03,
          7.41967745e-03, 2.47346207e-01, 1.93513334e-01, 9.46411788e-02,
          1.27637014e-01, 1.52583033e-01, 9.84167084e-02, 3.53704701e-04,
          4.28670057e-04, 1.10603450e-03, 1.92840695e-02, 2.27732211e-03,
          1.77276065e-03, 2.77555431e-03, 9.74469110e-02, 4.89635378e-01,
          0., 0., 0., 8.34403472e-05, 0., 0., 0., 4.89635378e-01,
          4.89635378e-01, 0., 0., 0., 0., 0., 0., 0., 4.89635378e-01,
          8.96083117e-02, 0., 0., 0., 5.34212100e-04, 0., 0., 0.,
          8.96083117e-02, 1.00197054e-01, 0., 0., 0., 0., 0., 0., 0.,
          1.00197054e-01, 3.63605708e-01, 3.23672518e-02, 1.10051490e-03,
          1.41947456e-02, 1.84884384e-01, 1.86906103e-02, 2.24345340e-03,
          4.33764644e-02, 3.63605708e-01, 3.63605708e-01, 1.54075950e-01,
          1.63476430e-02, 8.54903981e-02, 3.63605708e-01, 9.47913453e-02,
          1.77272223e-02, 1.67629302e-01, 3.63605708e-01, 3.86366136e-02,
          8.82120919e-04, 1.37564333e-04, 1.07196542e-02, 2.86294878e-01,
          1.34217003e-02, 2.80431646e-04, 4.57153935e-03, 4.03399915e-02,
          3.40610184e-02, 7.97625445e-03, 5.35695814e-03, 5.72710745e-02,
          3.63605708e-01, 7.48834908e-02, 4.37247613e-03, 1.36657283e-02,
          3.13367881e-02, 3.25926654e-02, 6.91719912e-03, 7.44178193e-03,
          1.57485735e-02, 1.66298509e-01, 2.92852312e-01, 2.54421353e-01,
          2.73671389e-01, 1.05145887e-01, 2.09188871e-02, 2.29263073e-03,
          3.09048034e-03, 5.59095014e-03, 2.38440968e-02, 1.55227538e-02,
          1.33877322e-02, 1.12937037e-02, 1.62647162e-02, 5.07264510e-02,
          1.62891801e-02, 1.46008106e-02, 3.87078971e-02, 1.12773374e-01,
          3.76804739e-01, 3.76804739e-01, 3.76804739e-01, 1.58118859e-01,
          7.76723176e-02, 2.87629124e-02, 1.60699561e-02, 4.57974561e-02,
          7.10029230e-02, 1.28982946e-01, 3.76804739e-01, 2.88977236e-01,
          6.52645156e-02, 8.46605748e-02, 4.91655292e-03, 2.68044160e-03,
          2.72616632e-02, 6.01420999e-02, 6.00285493e-02, 4.20419639e-03,
          9.20910388e-03, 8.49504694e-02, 1.83718316e-02, 0., 0., 0.,
          7.29192141e-03, 6.59569772e-03, 4.24049911e-04, 9.20910272e-04,
          2.13710424e-02, 4.73678112e-01, 1.72974974e-01, 5.12321405e-02,
          3.14897746e-01, 5.24192035e-01, 2.79397339e-01, 2.06325099e-01,
          2.39191175e-01, 3.93121451e-01, 2.96773631e-02, 7.86800031e-03,
          6.65039697e-04, 5.09021198e-03, 7.40791112e-02, 2.30849441e-02,
          2.65875203e-03, 7.36727705e-03, 3.22161615e-02, 8.64037953e-04,
          0., 0., 4.34315158e-03, 4.11254585e-01, 1.05110193e-02, 0., 0.,
          8.64037953e-04, 1.48957770e-03, 1.95365792e-04, 1.26824831e-03,
          3.65000218e-02, 5.49112976e-01, 6.75363466e-02, 1.19309127e-03,
          0., 1.46720908e-03, 3.29562579e-04, 0., 0., 4.86417487e-03,
          4.59894776e-01, 8.17697681e-03, 0., 0., 3.29562579e-04,
          2.14641239e-03, 8.86506576e-04, 0., 4.34699319e-02,
          5.49112976e-01, 5.29688001e-02, 2.58184108e-03, 0.,
          1.73961592e-03, 3.24121974e-02, 1.27821332e-02, 7.76960980e-03,
          1.90061964e-02, 2.85680741e-02, 2.13617414e-01, 3.06981266e-01,
          3.06981266e-01, 7.53998980e-02, 6.78932890e-02, 2.61541791e-02,
          1.49068404e-02, 2.40759067e-02, 5.22910208e-02, 2.36559272e-01,
          3.06981266e-01, 3.06981266e-01, 1.41026154e-01, 2.46086195e-02,
          8.75949394e-03, 6.26599416e-03, 5.36475750e-03, 1.16431620e-02,
          7.05739334e-02, 2.22307205e-01, 1.87460408e-01, 5.28020933e-02,
          9.50653553e-02, 2.21182164e-02, 1.62070617e-02, 1.81874484e-02,
          7.11128786e-02, 3.00713629e-01, 3.06981266e-01, 3.06981266e-01,
          3.06981266e-01, 6.86867908e-02, 1.31280432e-02, 8.63239542e-03,
          2.08470002e-02, 6.56008944e-02, 1.24994375e-01, 1.26418918e-01,
          1.55743524e-01, 1.65895075e-01, 3.08528896e-02, 1.01163890e-03,
          6.06590789e-03, 3.21023748e-03, 2.03914382e-02, 1.01692611e-02,
          2.00955607e-02, 2.26256847e-02, 7.32557476e-02, 2.06138983e-01,
          1.25501696e-02, 1.17442757e-02, 2.25428455e-02, 1.54226571e-01,
          3.11593652e-01, 3.11593652e-01, 3.11593652e-01, 3.11593652e-01,
          3.11593652e-01, 6.95171021e-03, 1.17005119e-02, 9.40876454e-03,
          9.65453610e-02, 2.85848469e-01, 2.61892885e-01, 2.94077337e-01,
          3.11593652e-01, 8.47965665e-03, 8.03556002e-04, 2.60548433e-03,
          1.67141110e-02, 2.69425541e-01, 7.76870130e-03, 1.06440415e-03,
          1.54947443e-03, 9.77656804e-03, 3.24035389e-03, 9.29250207e-04,
          2.72473064e-03, 6.19071312e-02, 3.62824440e-01, 4.41814587e-02,
          3.24818539e-03, 5.77659288e-04, 2.18347227e-03, 3.23354661e-01,
          6.17389418e-02, 1.33913513e-02, 4.98683825e-02, 2.07026303e-01,
          9.81018469e-02, 5.95442839e-02, 9.51836258e-02, 3.62824440e-01,
          3.28591436e-01, 2.08850250e-01, 3.57824117e-02, 1.65254161e-01,
          3.62824440e-01, 9.27731618e-02, 2.01878063e-02, 1.59880415e-01,
          3.62824440e-01 ]
      - [ 3.35336030e-01, 3.78847830e-02, 3.09650283e-02, 5.01961522e-02,
          3.35336030e-01, 3.35336030e-01, 1.00754239e-01, 2.63841134e-02,
          3.35336030e-01, 3.35336030e-01, 1.94684335e-03, 1.69219042e-03,
          1.53639610e-03, 9.27901082e-03, 1.55051064e-03, 1.45760260e-03,
          6.26134279e-04, 3.35336030e-01, 2.87008821e-03, 2.19312171e-03,
          6.64359564e-03, 2.23082695e-02, 2.79312938e-01, 3.35336030e-01,
          3.35336030e-01, 4.53394651e-02, 1.15552051e-02, 3.35724559e-04,
          5.39272733e-04, 1.69038516e-03, 3.07520549e-03, 1.46817612e-02,
          1.26493433e-02, 6.05136435e-03, 9.60971112e-04, 7.92136823e-04,
          4.98752266e-01, 0., 0., 0., 2.99652223e-04, 0., 0., 0.,
          4.98752266e-01, 4.98752266e-01, 0., 0., 0., 1.84777309e-03, 0.,
          0., 0., 4.98752266e-01, 0., 0., 0., 0., 0., 0., 0., 0., 0., 0.,
          0., 0., 0., 0., 0., 0., 0., 0., 1.48456663e-01, 5.85152768e-03,
          1.18992163e-03, 5.83638856e-03, 3.94302666e-01, 1.60753541e-02,
          4.15632594e-03, 1.50205493e-02, 1.57485142e-01, 1.16231009e-01,
          3.16573158e-02, 1.22104511e-02, 3.41648795e-02, 5.07648408e-01,
          4.72568423e-02, 1.20075969e-02, 4.31700610e-02, 1.23644873e-01,
          0., 0., 0., 0., 4.91180986e-01, 0., 0., 0., 0., 2.59254186e-04,
          0., 2.92159209e-04, 1.85146474e-03, 5.07648408e-01,
          2.85115768e-03, 1.85012570e-04, 1.29716098e-03, 3.87338281e-04,
          3.01008788e-03, 1.47472019e-03, 4.81349416e-03, 1.52013917e-02,
          9.12672505e-02, 4.30688530e-01, 4.30688530e-01, 2.14727744e-02,
          1.07384184e-02, 5.28869277e-04, 1.07259693e-04, 6.44741580e-04,
          2.95428070e-03, 1.25973253e-02, 3.74979936e-02, 4.83012609e-02,
          7.21044198e-04, 6.05198496e-04, 1.08887199e-02, 5.00795431e-03,
          5.22092497e-03, 1.20434808e-02, 5.31570874e-02, 4.30688530e-01,
          4.30688530e-01, 1.58589333e-01, 2.46371161e-02, 1.17337713e-02,
          5.46615198e-03, 2.61129974e-03, 4.06677090e-03, 1.78481620e-02,
          1.05371438e-01, 4.30688530e-01, 1.18915327e-01, 2.24130731e-02,
          9.51113738e-03, 0., 0., 0., 0., 0., 0., 0., 9.51113738e-03,
          6.94439048e-03, 0., 0., 0., 0., 0., 0., 0., 6.94439048e-03,
          2.59741724e-01, 1.26340866e-01, 1.00001432e-01, 4.06431742e-02,
          1.53981775e-01, 1.03887342e-01, 7.62127578e-01, 3.08282077e-01,
          2.63909191e-01, 1.69440329e-01, 6.59649447e-02, 5.25671393e-02,
          2.57358626e-02, 1.91747323e-01, 4.75483760e-02, 5.38012572e-02,
          6.98134527e-02, 1.80931777e-01, 3.76955613e-05, 0., 0., 0.,
          4.41408694e-01, 0., 0., 0., 3.76955613e-05, 1.58863957e-04, 0.,
          7.53205386e-05, 9.05754627e-04, 5.27826548e-01, 1.54376659e-03,
          2.83685367e-05, 8.55756924e-04, 2.63590744e-04, 7.20919168e-04,
          3.00420535e-04, 1.19242904e-04, 1.84704157e-04, 4.92622942e-01,
          1.60513810e-04, 3.15865705e-04, 3.53237003e-04, 8.75551952e-04,
          2.52381345e-04, 0., 0., 4.80540766e-04, 5.27826548e-01,
          1.37550582e-03, 0., 0., 2.52381345e-04, 7.31193228e-03,
          3.79850413e-03, 3.06504476e-03, 3.46029270e-03, 1.56079242e-02,
          1.64353460e-01, 3.84729743e-01, 2.13959709e-01, 2.69986652e-02,
          8.87217373e-03, 4.73668147e-03, 4.33060806e-03, 2.69840588e-03,
          7.12777814e-03, 5.96833862e-02, 3.84729743e-01, 3.47326130e-01,
          3.46475877e-02, 1.14815542e-02, 8.53440631e-03, 1.15285199e-02,
          1.01473527e-02, 1.95283126e-02, 3.61446254e-02, 3.84729743e-01,
          1.88217267e-01, 3.21227200e-02, 1.85515136e-02, 1.45935938e-02,
          2.35291515e-02, 6.98920107e-03, 1.03353066e-02, 5.55541329e-02,
          3.84729743e-01, 3.84729743e-01, 1.17065415e-01, 1.38933081e-02,
          6.44970825e-03, 7.01592118e-03, 2.41899909e-03, 1.22861294e-02,
          1.48441903e-02, 1.92071140e-01, 2.13469595e-01, 4.46368866e-02,
          9.72745754e-03, 3.73577978e-03, 4.38455213e-03, 1.06895971e-03,
          1.96755193e-02, 4.57732938e-03, 8.03199317e-03, 1.92982405e-02,
          2.22559702e-02, 3.70586738e-02, 2.05179956e-02, 1.72996204e-02,
          1.22117735e-02, 1.77390464e-02, 7.36538842e-02, 4.19389486e-01,
          4.19389486e-01, 4.19389486e-01, 8.16723034e-02, 4.86184051e-03,
          4.22999309e-03, 1.16987471e-02, 7.48993158e-02, 1.28510026e-02,
          9.58287716e-02, 4.19389486e-01, 4.19389486e-01, 9.97421565e-04,
          5.43083239e-04, 6.63433224e-04, 1.44754085e-04, 4.18840349e-01,
          4.91634884e-04, 1.09255116e-03, 8.39674845e-04, 1.54861528e-03,
          2.22769595e-04, 0., 0., 1.13837399e-04, 4.68852818e-01,
          7.22575991e-04, 0., 0., 2.22769595e-04, 9.42453817e-02,
          1.44097349e-02, 1.06266262e-02, 2.37529837e-02, 4.26921785e-01,
          1.20177288e-02, 5.28193498e-03, 7.29877055e-02, 3.40964019e-01,
          1.22826867e-01, 4.70130183e-02, 2.17938870e-02, 6.32304251e-02,
          4.68852818e-01, 5.88076897e-02, 1.65506564e-02, 4.61099893e-02,
          1.97037593e-01 ]
      - [ 1.33733958e-01, 0., 0., 0., 3.77403051e-02, 9.41797718e-02,
          2.89822787e-01, 2.42415681e-01, 1.87296331e-01, 1.32051140e-01,
          1.18424720e-03, 3.54371942e-03, 0., 4.62986864e-02,
          1.22644782e-01, 3.31458002e-01, 2.56887227e-01, 1.93344086e-01,
          1.13296881e-01, 0., 0., 0., 4.24474329e-02, 1.05987571e-01,
          3.26892585e-01, 2.33275816e-01, 1.81301758e-01, 7.70952478e-02,
          1.21905340e-03, 3.64787248e-03, 0., 9.19409320e-02,
          1.83774471e-01, 3.29551280e-01, 3.13295275e-01, 2.54414588e-01,
          7.32754767e-02, 3.68924998e-03, 1.10396435e-02, 0.,
          2.96273641e-02, 5.17387874e-02, 2.77288139e-01, 3.30813468e-01,
          1.46546572e-01, 4.62905578e-02, 1.78583502e-03, 5.34389913e-03,
          0., 3.48816589e-02, 7.79801160e-02, 4.03148919e-01,
          4.15976524e-01, 1.38146743e-01, 4.72496264e-02, 5.73668722e-03,
          1.71663556e-02, 0., 1.12208016e-01, 8.91695991e-02,
          2.45096445e-01, 2.20337763e-01, 1.31745130e-01, 3.67155038e-02,
          3.87752894e-03, 1.16030462e-02, 0., 2.01010346e-01,
          1.24267809e-01, 3.67299706e-01, 2.57703841e-01, 7.33155087e-02,
          3.67623754e-02, 0., 0., 0., 1.23765364e-01, 7.73758218e-02,
          3.50607812e-01, 2.45258197e-01, 8.02574381e-02, 5.61467521e-02,
          0., 0., 0., 2.03171372e-01, 5.20421900e-02, 3.26796591e-01,
          2.00084046e-01, 7.84837604e-02, 2.19450127e-02, 0., 0., 0.,
          1.89280912e-01, 1.70543283e-01, 3.88813704e-01, 2.79985070e-01,
          6.78526685e-02, 5.86990491e-02, 0., 0., 0., 1.82429433e-01,
          1.03280663e-01, 3.58717203e-01, 3.04694235e-01, 1.14607796e-01,
          6.41892403e-02, 0., 0., 0., 3.75711322e-02, 5.39177135e-02,
          3.08939159e-01, 2.08931968e-01, 1.24898724e-01, 5.59403747e-02,
          5.38976165e-04, 1.61282218e-03, 0., 9.43837762e-02,
          1.39730468e-01, 2.92700320e-01, 2.56169558e-01, 1.74789980e-01,
          6.49623573e-02, 0., 0., 0., 3.82140540e-02, 6.39187545e-02,
          3.66721123e-01, 3.81964296e-01, 1.71716213e-01, 7.71366656e-02,
          0., 0., 0., 9.01352689e-02, 1.92776725e-01, 3.73664230e-01,
          2.99339354e-01, 1.31026238e-01, 6.29805177e-02, 3.01870634e-03,
          9.03312117e-03, 0., 1.44177884e-01, 1.41905099e-01,
          2.80262142e-01, 1.73582420e-01, 1.17351525e-01, 4.74793427e-02,
          2.02575582e-03, 6.06183382e-03, 0., 2.44803116e-01,
          1.09783918e-01, 3.50055486e-01, 1.59387127e-01, 5.89449853e-02,
          5.76848164e-02, 0., 0., 0., 1.45760238e-01, 1.95763409e-01,
          3.81683737e-01, 2.04227477e-01, 7.16330558e-02, 3.36989239e-02,
          0., 0., 0., 2.03109831e-01, 1.18121758e-01, 4.85259712e-01,
          2.24768117e-01, 5.26518673e-02, 1.78072825e-02, 0., 0., 0.,
          1.76211759e-01, 1.11157566e-01, 3.48759443e-01, 1.92456305e-01,
          4.16587330e-02, 3.39119546e-02, 0., 0., 0., 1.75257906e-01,
          9.86368209e-02, 3.68367612e-01, 2.39517868e-01, 6.95290267e-02,
          1.35024106e-02, 0., 0., 0., 1.68841407e-01, 9.91908312e-02,
          4.31009591e-01, 1.73992455e-01, 2.62931194e-02, 3.81754898e-02,
          0., 0., 0., 1.97611257e-01, 1.43223852e-01, 4.51788813e-01,
          1.66810438e-01, 4.63114977e-02, 5.41671067e-02, 0., 0., 0.,
          1.45078838e-01, 7.08689913e-02, 3.28854501e-01, 2.77187198e-01,
          1.10011064e-01, 4.95176241e-02, 0., 0., 0., 1.74980000e-01,
          2.05862626e-01, 3.62514913e-01, 2.53941566e-01, 9.63005498e-02,
          4.64059636e-02, 1.53731869e-03, 4.65845875e-03, 0.,
          3.00997585e-01, 8.31232965e-02, 2.96936750e-01, 1.17372811e-01,
          5.30022830e-02, 3.43769118e-02, 2.15913416e-04, 9.28522088e-04,
          5.96367463e-04, 2.75007129e-01, 1.23979725e-01, 3.82960498e-01,
          1.98407054e-01, 6.35225624e-02, 3.19272503e-02, 0., 0., 0.,
          1.52723357e-01, 1.48247659e-01, 3.38140041e-01, 1.98516086e-01,
          6.35211095e-02, 1.69290155e-02, 0., 0., 0., 1.76569372e-01,
          8.37684050e-02, 4.12773877e-01, 2.67170280e-01, 7.59826377e-02,
          4.52568382e-02, 4.65907296e-03, 1.91078577e-02, 1.06259128e-02,
          1.98949546e-01, 9.02516320e-02, 3.19820940e-01, 2.20747963e-01,
          8.56064036e-02, 2.49381587e-02, 1.02918707e-02, 3.94517705e-02,
          1.78829767e-02, 2.53730178e-01, 8.26805681e-02, 3.86296779e-01,
          2.55231172e-01, 8.27931389e-02, 7.85570033e-03, 0., 0., 0.,
          1.51913896e-01, 1.03350922e-01, 3.99881870e-01, 1.93573400e-01,
          3.76320556e-02, 3.54713574e-02, 0., 0., 0., 1.79034352e-01,
          1.47551015e-01, 4.09409016e-01, 1.56220332e-01, 4.44738604e-02,
          4.60517267e-03, 7.42530404e-03, 3.14498879e-02, 1.89607833e-02,
          2.52321005e-01, 1.51489884e-01, 3.71209949e-01, 1.64524332e-01,
          3.01184487e-02, 3.21057923e-02, 6.15928136e-03, 3.15824375e-02,
          2.98052765e-02, 2.61890531e-01, 1.23129226e-01, 3.87734264e-01,
          1.40694529e-01, 3.85753773e-02 ]
      - [ 4.05645132e-01, 4.36799936e-02, 1.52238933e-02, 5.64984977e-02,
          4.05645132e-01, 5.24747185e-02, 5.84329059e-03, 3.08402674e-03,
          4.05645132e-01, 4.05645132e-01, 3.94383169e-05, 1.18014032e-04,
          0., 2.98997533e-04, 0., 0., 0., 4.05645132e-01, 1.72813132e-03,
          3.29074333e-04, 7.12087378e-04, 6.29538530e-03, 4.05645132e-01,
          2.20093019e-02, 3.96119372e-04, 2.48677854e-04, 1.68916688e-03,
          0., 0., 0., 0., 1.39756419e-04, 0., 0., 0., 0., 4.98753130e-01,
          0., 0., 0., 0., 0., 0., 0., 4.98753130e-01, 4.98753130e-01, 0.,
          0., 0., 0., 0., 0., 0., 4.98753130e-01, 0., 0., 0., 0., 0., 0.,
          0., 0., 0., 0., 0., 0., 0., 0., 0., 0., 0., 0., 4.98753130e-01,
          0., 0., 0., 0., 0., 0., 0., 4.98753130e-01, 4.98753130e-01, 0.,
          0., 0., 0., 0., 0., 0., 4.98753130e-01, 0., 0., 0., 0., 0., 0.,
          0., 0., 0., 0., 0., 0., 0., 0., 0., 0., 0., 0., 1.01252017e-03,
          1.78873233e-04, 7.84660631e-04, 2.21461058e-03, 7.04543531e-01,
          1.40093453e-02, 1.36011979e-04, 4.54528126e-05, 1.01252017e-03,
          0., 0., 0., 0., 7.76341403e-05, 0., 0., 0., 0., 0., 0., 0., 0.,
          7.04543531e-01, 0., 0., 0., 0., 0., 0., 0., 0., 0., 0., 0., 0.,
          0., 0., 0., 0., 0., 0., 0., 0., 0., 0., 0., 0., 0., 0., 0., 0.,
          0., 0., 0., 0., 0., 0., 0., 0., 0., 0., 0., 0., 0., 0., 0., 0.,
          0., 0., 0., 0., 0., 0., 0., 0., 0., 0., 0., 0., 0., 0., 0., 0.,
          0., 0., 0., 0., 0., 0., 0., 0., 0., 0., 0., 0., 0., 0., 0., 0.,
          0., 0., 0., 0., 0., 0., 0., 0., 0., 0., 0., 0., 0.,
          7.04250813e-01, 0., 0., 0., 0., 0., 0., 0., 0., 0., 0., 0., 0.,
          0., 1.23884827e-02, 4.74936422e-03, 1.04910589e-03,
          2.07739510e-02, 7.04250813e-01, 9.90485959e-03, 0.,
          1.06037129e-03, 8.94097798e-03, 1.10200597e-02, 3.67945868e-05,
          1.04910563e-04, 9.55895957e-05, 8.57912120e-04, 0., 0., 0.,
          1.10200597e-02, 0., 0., 0., 0., 0., 0., 0., 0., 0., 0., 0., 0.,
          0., 0., 0., 0., 0., 0., 4.63813961e-01, 0., 0., 0.,
          3.58709246e-02, 0., 0., 0., 4.63813961e-01, 5.19963264e-01, 0.,
          0., 0., 3.73021103e-02, 0., 0., 0., 5.19963264e-01, 0., 0., 0.,
          0., 0., 0., 0., 0., 0., 0., 0., 0., 0., 0., 0., 0., 0., 0.,
          4.63836044e-01, 0., 0., 0., 3.58726345e-02, 0., 0., 0.,
          4.63836044e-01, 5.19988000e-01, 0., 0., 0., 3.60231921e-02, 0.,
          0., 0., 5.19988000e-01 ]
      - [ 3.63276452e-01, 2.89252028e-03, 2.12744414e-03, 4.90239216e-03,
          6.36075204e-03, 2.88411882e-03, 4.27580811e-03, 2.50763763e-02,
          3.63276452e-01, 3.63276452e-01, 4.31456650e-03, 2.35561049e-03,
          2.37854104e-03, 3.25160287e-03, 1.56510435e-03, 6.17171347e-04,
          8.32012948e-03, 3.63276452e-01, 1.23346195e-01, 1.18255578e-02,
          1.32845137e-02, 3.37608270e-02, 1.03190459e-01, 1.53454527e-01,
          3.56630087e-01, 3.02722514e-01, 2.33043700e-01, 2.49039277e-01,
          1.95501279e-02, 1.73087381e-02, 2.31321286e-02, 4.40290309e-02,
          3.49263065e-02, 4.52466160e-02, 3.17263938e-02, 2.72385955e-01,
          3.95114005e-01, 5.99160185e-03, 2.06851144e-03, 7.32367451e-04,
          5.26963780e-03, 1.29175570e-03, 6.32102659e-04, 8.27149209e-03,
          3.95114005e-01, 3.95114005e-01, 9.00811329e-03, 4.60463902e-03,
          3.18533555e-03, 1.27594536e-02, 1.05416449e-03, 9.91688459e-04,
          1.13901580e-02, 3.95114005e-01, 3.31673145e-01, 8.82847514e-03,
          6.99081039e-03, 2.97132577e-03, 4.42969147e-03, 5.51236467e-03,
          3.95702245e-03, 5.49715525e-03, 3.57189536e-01, 2.55786926e-01,
          1.52430683e-02, 1.07862893e-02, 1.00644827e-02, 4.90376838e-02,
          2.11238805e-02, 1.15160532e-02, 1.39772594e-02, 2.53313422e-01,
          4.14306253e-01, 7.66062550e-03, 7.48307630e-03, 3.18806362e-03,
          1.86537486e-02, 6.30696118e-03, 3.77399521e-03, 1.98170636e-02,
          4.14306253e-01, 4.14306253e-01, 1.59044415e-02, 1.82328373e-02,
          1.94055233e-02, 3.04834306e-01, 8.61809924e-02, 3.05552911e-02,
          1.03943624e-01, 4.14306253e-01, 7.93703198e-02, 8.84616189e-03,
          1.23582883e-02, 6.85486803e-03, 4.61657606e-02, 1.60882547e-02,
          1.12231700e-02, 8.05074628e-03, 7.78869390e-02, 4.77509983e-02,
          6.55443501e-03, 1.57255493e-02, 1.69975143e-02, 4.14306253e-01,
          4.26162370e-02, 1.24653568e-02, 1.44248735e-02, 5.81248589e-02,
          7.27090463e-02, 1.06232809e-02, 1.13053648e-02, 7.09351003e-02,
          2.73585558e-01, 2.73585558e-01, 2.73585558e-01, 2.38760740e-01,
          1.46978140e-01, 2.73210794e-01, 1.69289596e-02, 1.32978437e-02,
          3.39949988e-02, 1.27725676e-01, 8.29039812e-02, 6.00669235e-02,
          3.61627378e-02, 2.73585558e-01, 7.75197893e-02, 9.70246196e-02,
          1.42637774e-01, 2.73585558e-01, 2.73585558e-01, 2.73585558e-01,
          1.11186519e-01, 4.66986336e-02, 8.71051401e-02, 2.73585558e-01,
          3.41520384e-02, 3.71531136e-02, 1.13202229e-01, 2.20815673e-01,
          7.64437690e-02, 3.73366140e-02, 2.88483985e-02, 2.73585558e-01,
          3.46598238e-01, 1.06843961e-02, 7.79744005e-03, 7.76300533e-03,
          1.23016527e-02, 9.15561803e-03, 4.91440948e-03, 1.11885630e-02,
          3.46598238e-01, 3.46598238e-01, 1.99585352e-02, 1.13302227e-02,
          2.21286193e-02, 1.08327888e-01, 2.61829142e-02, 1.19589772e-02,
          2.08522100e-02, 3.46598238e-01, 3.46598238e-01, 1.84221566e-02,
          4.66279080e-03, 1.13512157e-02, 1.28150862e-02, 8.72873701e-03,
          5.13140159e-03, 1.91283524e-02, 3.46598238e-01, 3.46598238e-01,
          2.30873078e-02, 1.08682131e-02, 4.79232073e-02, 1.20283864e-01,
          3.09295263e-02, 1.19646797e-02, 3.49499211e-02, 3.46598238e-01,
          1.72257587e-01, 2.13009659e-02, 2.26133689e-02, 2.95118205e-02,
          2.05700636e-01, 3.93436477e-02, 2.59803720e-02, 2.92281900e-02,
          1.54545978e-01, 1.46421297e-02, 7.06806267e-03, 2.58896351e-02,
          4.04854901e-02, 6.12156272e-01, 3.88488583e-02, 1.94371752e-02,
          1.53715871e-02, 1.84000954e-02, 1.95493639e-01, 2.18912251e-02,
          1.73330288e-02, 5.97490445e-02, 2.19812259e-01, 4.61886637e-02,
          1.96517892e-02, 4.26411815e-02, 1.93053350e-01, 2.41024494e-02,
          4.60094400e-03, 1.77801680e-02, 5.46122156e-02, 6.12156272e-01,
          3.85468490e-02, 1.61537360e-02, 9.38734598e-03, 1.92553475e-02,
          1.96584046e-01, 7.75959641e-02, 1.04755454e-01, 1.53071329e-01,
          9.79201421e-02, 1.73968170e-02, 1.05706286e-02, 1.19851083e-02,
          1.97680861e-01, 2.97661364e-01, 1.14391800e-02, 1.62029546e-02,
          3.40195484e-02, 4.05139849e-02, 8.09999648e-03, 4.82362276e-03,
          6.05667802e-03, 2.98631281e-01, 4.08751786e-01, 7.30666667e-02,
          8.31436962e-02, 4.41682190e-02, 1.96880139e-02, 3.30050103e-03,
          2.02693678e-02, 3.87296081e-02, 4.08751786e-01, 4.08751786e-01,
          2.04112530e-02, 1.80583093e-02, 6.93311729e-03, 2.22752579e-02,
          9.00508836e-03, 1.00538069e-02, 1.50981825e-02, 4.08751786e-01,
          2.82031924e-01, 2.57132133e-03, 3.69122543e-04, 1.32298947e-03,
          2.57210713e-03, 9.63916769e-04, 6.15821220e-04, 1.89699745e-03,
          2.82220513e-01, 2.81821132e-01, 4.48559178e-03, 1.54673704e-03,
          5.25419833e-03, 1.90549120e-02, 5.59665868e-03, 1.64176023e-03,
          3.92256072e-03, 2.78780818e-01, 4.11931962e-01, 4.35868092e-03,
          1.12806179e-03, 3.93711292e-04, 7.70070730e-03, 9.14660096e-03,
          1.27381994e-03, 1.98014220e-03, 4.11931962e-01, 4.11931962e-01,
          6.31422037e-04, 1.74838729e-04, 3.39080085e-04, 1.16577744e-02,
          2.92536430e-03, 1.91906729e-04, 2.08604638e-03, 4.11931962e-01,
          2.28468612e-01, 1.69090054e-03, 1.09756493e-03, 2.93266354e-03,
          1.32641913e-02, 3.48889013e-03, 1.08555821e-03, 1.70287595e-03,
          2.26703420e-01, 2.37263680e-01, 1.00926897e-02, 6.00085687e-03,
          1.06419874e-02, 1.01208992e-01, 2.81323749e-03, 1.47411204e-03,
          4.40192549e-03, 2.22092643e-01, 4.38672125e-01, 2.47442629e-04,
          2.41913644e-04, 3.26983456e-04, 9.15274210e-03, 1.03069376e-03,
          2.44291034e-04, 2.96691753e-04, 4.38672125e-01, 4.38672125e-01,
          3.93737182e-02, 1.17059704e-02, 1.13852425e-02, 5.09278029e-02,
          3.25722527e-03, 9.66127403e-03, 3.66792344e-02, 4.38672125e-01 ]
      - [ 4.85305628e-03, 8.25729338e-04, 2.47088773e-03, 1.54199346e-03,
          7.00330019e-01, 3.84866856e-02, 1.89042445e-02, 8.77062976e-03,
          5.48417307e-03, 3.29281995e-03, 2.75664115e-05, 8.24889066e-05,
          0., 3.35876904e-02, 2.96295136e-02, 3.24484855e-02,
          1.67406630e-02, 4.95781889e-03, 8.35453905e-03, 3.44580258e-05,
          1.03111161e-04, 7.09799025e-03, 7.00330019e-01, 3.59482169e-02,
          2.71559972e-02, 2.16255318e-02, 1.20639196e-02, 7.84647278e-03,
          3.44580144e-06, 1.03111133e-05, 0., 1.74212717e-02,
          1.68426502e-02, 4.14179713e-02, 3.74455713e-02, 1.42293321e-02,
          2.57748961e-02, 0., 0., 0., 1.27724975e-01, 1.36561245e-01,
          3.16507012e-01, 1.78543746e-01, 4.42868769e-02, 2.41618659e-02,
          0., 0., 0., 1.01713762e-01, 1.07137144e-01, 3.52820843e-01,
          2.34504744e-01, 5.19282445e-02, 4.18481752e-02, 0., 0., 0.,
          6.72444999e-02, 1.02343306e-01, 3.60894412e-01, 3.31495792e-01,
          8.96625668e-02, 4.11183126e-02, 0., 0., 0., 5.02523296e-02,
          1.09067991e-01, 3.83948237e-01, 4.26445603e-01, 9.97785702e-02,
          3.61746512e-02, 2.45309062e-03, 7.34058302e-03, 0.,
          1.12103790e-01, 8.29218403e-02, 3.37062180e-01, 2.21124932e-01,
          8.76239985e-02, 4.96986993e-02, 4.29290859e-03, 1.28460201e-02,
          0., 1.50601283e-01, 4.50704321e-02, 2.65184462e-01,
          2.43852779e-01, 1.84513062e-01, 5.28264008e-02, 2.45854794e-03,
          7.35691283e-03, 0., 6.87647089e-02, 1.87822863e-01,
          3.64659250e-01, 3.86519879e-01, 1.22334234e-01, 1.09749436e-01,
          4.63423692e-03, 1.49681615e-02, 2.26516998e-03, 8.60312805e-02,
          1.12830080e-01, 2.74700701e-01, 3.25874507e-01, 2.39581779e-01,
          1.20487595e-02, 0., 2.29143174e-04, 1.87188536e-02,
          5.92674255e-01, 7.61181489e-02, 2.72803735e-02, 1.89389028e-02,
          1.56623814e-02, 6.20022696e-03, 0., 0., 0., 1.76596660e-02,
          1.38826054e-02, 3.36060189e-02, 2.64726523e-02, 1.09980684e-02,
          9.83709563e-03, 0., 1.47704808e-02, 1.32714719e-01,
          5.92674255e-01, 4.83956099e-01, 1.59788594e-01, 1.45680252e-02,
          1.13967229e-02, 5.89383300e-03, 0., 0., 0., 3.41714211e-02,
          1.23533877e-02, 3.81193720e-02, 2.28970200e-02, 8.71504005e-03,
          3.54458801e-02, 1.00389960e-04, 3.00405023e-04, 0.,
          1.50151402e-01, 9.17239562e-02, 3.40366721e-01, 2.62354642e-01,
          7.14627430e-02, 4.68956232e-02, 4.51754953e-04, 1.35182298e-03,
          0., 1.33156061e-01, 1.26505896e-01, 3.48038793e-01,
          3.06834787e-01, 8.41863230e-02, 6.33518472e-02, 8.03119212e-04,
          2.40323902e-03, 0., 1.94853246e-01, 9.90296975e-02,
          3.52619231e-01, 2.27968723e-01, 1.02232069e-01, 9.00188535e-02,
          3.61403776e-03, 1.08145792e-02, 0., 2.14965791e-01,
          1.52589560e-01, 3.36179793e-01, 2.37881616e-01, 1.66415691e-01,
          7.30733275e-02, 3.56620154e-03, 3.16402316e-03, 1.96319143e-03,
          8.07005838e-02, 1.70447305e-01, 2.90299207e-01, 3.18891674e-01,
          1.34466738e-01, 1.60451636e-01, 1.00351777e-02, 1.23308804e-02,
          1.00242980e-02, 7.46409222e-02, 1.10877752e-01, 2.29918331e-01,
          3.44669640e-01, 3.02492231e-01, 1.10518187e-01, 1.75266564e-02,
          1.65667310e-02, 1.14128795e-02, 1.31654903e-01, 1.20017096e-01,
          2.88880914e-01, 2.19218910e-01, 1.84405178e-01, 1.77334294e-01,
          4.55654785e-02, 4.05536331e-02, 3.02870199e-02, 1.40682310e-01,
          9.75774080e-02, 2.48071894e-01, 2.15865433e-01, 2.40776733e-01,
          1.69587671e-03, 1.30777975e-04, 5.55570237e-03, 9.14946049e-02,
          3.87983650e-01, 2.02713907e-01, 6.57755286e-02, 6.98740873e-03,
          2.34883931e-03, 3.49925761e-03, 4.08637337e-04, 7.39380892e-04,
          5.94400772e-05, 1.55953346e-02, 5.32011734e-03, 1.70872789e-02,
          9.42413881e-03, 4.58246656e-03, 3.87983650e-01, 5.02179097e-03,
          4.85661766e-03, 7.57694542e-02, 3.87983650e-01, 1.35230303e-01,
          7.11124539e-02, 9.19737071e-02, 3.87983650e-01, 3.87983650e-01,
          1.68153644e-03, 3.30210524e-03, 1.18880140e-04, 2.25979425e-02,
          5.72807854e-03, 1.20498193e-02, 8.67902115e-03, 3.87983650e-01,
          5.81229152e-03, 1.96163164e-04, 3.48406058e-04, 1.54723864e-04,
          8.86289775e-03, 4.82869474e-03, 2.02296674e-02, 1.22242551e-02,
          8.55820067e-03, 7.42242159e-03, 3.95652023e-04, 8.97439895e-04,
          1.85668614e-04, 1.21626351e-02, 7.91920628e-03, 1.73532888e-02,
          1.35953054e-02, 1.28859980e-02, 4.98104155e-01, 6.88076892e-04,
          1.22577755e-03, 1.23779045e-03, 1.77057795e-02, 5.34061017e-03,
          1.24460412e-02, 7.84189533e-03, 4.98104155e-01, 4.98104155e-01,
          9.78200347e-04, 6.35134929e-04, 1.48534810e-03, 1.18709160e-02,
          8.85265041e-03, 9.70760733e-03, 5.35784429e-03, 4.98104155e-01,
          6.93564396e-03, 8.45181465e-04, 1.11772993e-03, 3.80390498e-04,
          6.30603079e-03, 8.65876861e-03, 1.74090825e-02, 1.29870586e-02,
          1.18192323e-02, 1.11256335e-02, 1.42802089e-03, 1.36593694e-03,
          8.61059350e-04, 4.86149266e-03, 6.32020598e-03, 1.65409353e-02,
          1.35949804e-02, 1.41437883e-02, 4.98181164e-01, 1.18108303e-03,
          6.94113376e-04, 1.31344845e-04, 9.70777310e-03, 6.81842957e-03,
          1.11580752e-02, 7.72333471e-03, 4.98181164e-01, 4.98181164e-01,
          1.50562206e-04, 1.66525861e-04, 0., 5.42491814e-03,
          5.57901617e-03, 1.17723830e-02, 1.15538426e-02, 4.98181164e-01 ]
      - [ 6.54758215e-02, 1.52020138e-02, 1.36283049e-02, 1.02630416e-02,
          7.11840838e-02, 6.25544339e-02, 1.27926424e-01, 1.48615643e-01,
          1.01570614e-01, 5.46211004e-02, 6.42597675e-03, 2.31837272e-03,
          8.55253451e-03, 7.20629916e-02, 6.23406209e-02, 1.64638251e-01,
          1.46611914e-01, 9.78541300e-02, 3.00728977e-01, 2.78851930e-02,
          2.72993911e-02, 4.70826700e-02, 1.28467649e-01, 1.16496615e-01,
          1.70764461e-01, 3.24211389e-01, 5.14151514e-01, 2.66495228e-01,
          6.38040081e-02, 4.76771146e-02, 5.56707792e-02, 1.58879071e-01,
          1.32190466e-01, 1.84789598e-01, 2.83172995e-01, 3.18678737e-01,
          6.09828718e-02, 0., 0., 0., 6.60968497e-02, 2.36134566e-02,
          3.08007449e-01, 2.17852086e-01, 1.06000423e-01, 6.34595826e-02,
          0., 0., 0., 5.69745600e-02, 3.92420739e-02, 4.19405192e-01,
          2.40478739e-01, 8.81340504e-02, 2.37211943e-01, 7.25035965e-02,
          3.91509123e-02, 4.32731397e-02, 1.73022687e-01, 1.42953187e-01,
          2.60156482e-01, 2.50577033e-01, 2.47166380e-01, 9.69353989e-02,
          1.81199368e-02, 2.30503618e-03, 3.33832810e-03, 9.76991802e-02,
          7.79896080e-02, 4.32167858e-01, 2.18077525e-01, 1.19506985e-01,
          6.51300177e-02, 2.49466510e-03, 7.46499049e-03, 0.,
          9.24354494e-02, 3.37038189e-02, 3.66984814e-01, 1.87318712e-01,
          8.02530870e-02, 1.04794279e-01, 3.68021196e-03, 1.10125989e-02,
          0., 1.60652667e-01, 3.39922458e-02, 2.63678044e-01,
          1.72122583e-01, 1.30866632e-01, 8.37666765e-02, 4.97726782e-04,
          1.48938247e-03, 0., 8.64177495e-02, 5.49297072e-02,
          5.22777319e-01, 2.49389574e-01, 1.02886103e-01, 1.81012034e-01,
          1.40388235e-02, 9.18411557e-03, 0., 5.39029837e-02,
          3.52589525e-02, 3.91279191e-01, 2.22843707e-01, 2.10740581e-01,
          7.84776807e-02, 3.25735495e-03, 5.07001486e-03, 1.69973038e-02,
          3.12693752e-02, 8.02839473e-02, 2.20229119e-01, 2.53206640e-01,
          2.22204283e-01, 4.76464890e-02, 1.38750989e-02, 1.16359107e-02,
          1.99239980e-02, 4.56028730e-02, 5.85378446e-02, 9.20351893e-02,
          7.18107298e-02, 7.20868185e-02, 9.94280949e-02, 7.70089915e-03,
          4.69926046e-03, 2.12855358e-02, 3.43654417e-02, 1.28967017e-01,
          3.78249913e-01, 3.78249913e-01, 3.78249913e-01, 5.73054180e-02,
          1.87851060e-02, 1.10853529e-02, 3.15031894e-02, 6.10395819e-02,
          1.00467212e-01, 3.78249913e-01, 3.78249913e-01, 1.75581738e-01,
          1.61279857e-01, 9.09866467e-02, 3.71666029e-02, 5.27633801e-02,
          1.48237988e-01, 1.29620686e-01, 1.06002472e-01, 6.75353855e-02,
          8.56152177e-02, 5.23416474e-02, 2.42061149e-02, 2.09394051e-03,
          5.60990721e-03, 4.99687940e-02, 3.53846587e-02, 1.04763821e-01,
          5.39045297e-02, 4.18385193e-02, 2.15023011e-01, 1.47716433e-01,
          5.96568882e-02, 1.17829472e-01, 2.55600393e-01, 2.41407230e-01,
          5.28727829e-01, 5.28727829e-01, 1.84335694e-01, 1.17201939e-01,
          9.25938711e-02, 2.96118166e-02, 5.08950613e-02, 9.84965041e-02,
          5.75036108e-02, 1.24590226e-01, 8.58338550e-02, 8.80401805e-02,
          9.38167423e-02, 2.50896090e-03, 3.05993413e-03, 0.,
          8.42293724e-02, 3.65471616e-02, 3.58043522e-01, 1.78500444e-01,
          1.10754259e-01, 1.77401230e-01, 2.21778732e-02, 1.88687500e-02,
          0., 4.29723710e-02, 2.95560043e-02, 2.65368849e-01,
          1.61500454e-01, 1.98138684e-01, 2.08965138e-01, 8.72416049e-02,
          3.20242867e-02, 2.88449749e-02, 8.55555609e-02, 5.55346310e-02,
          3.04074734e-01, 2.55065113e-01, 2.53914624e-01, 2.87430316e-01,
          1.13197779e-02, 1.08147338e-02, 0., 4.58003804e-02,
          1.41728139e-02, 2.53434300e-01, 2.71043718e-01, 3.53052765e-01,
          3.32115702e-02, 7.63091259e-03, 1.80376216e-03, 8.30980297e-03,
          1.59301367e-02, 4.20774966e-02, 4.04887408e-01, 4.04887408e-01,
          1.71495929e-01, 2.40305923e-02, 1.18154986e-02, 6.30306220e-03,
          1.63645428e-02, 3.19321826e-02, 8.29491764e-02, 4.04887408e-01,
          4.04887408e-01, 9.38354284e-02, 6.41106116e-03, 4.75288834e-03,
          1.94828573e-03, 6.71423785e-03, 2.60434393e-02, 9.64484829e-03,
          4.86419834e-02, 4.15239036e-02, 9.03182104e-03, 1.18609481e-02,
          1.47651341e-02, 1.22250002e-02, 1.43036488e-02, 4.35677506e-02,
          1.53619975e-01, 4.04887408e-01, 3.05911869e-01, 3.22455429e-02,
          2.00328808e-02, 1.60247646e-02, 1.36500234e-02, 1.62629522e-02,
          3.16726528e-02, 1.02302134e-01, 3.65195125e-01, 3.27930033e-01,
          3.13396789e-02, 2.63235550e-02, 2.22871881e-02, 1.50091685e-02,
          1.46727283e-02, 1.76423546e-02, 3.93666402e-02, 9.37504098e-02,
          4.73854877e-02, 2.21615527e-02, 2.47567240e-02, 1.76089536e-02,
          1.67232845e-02, 1.38312839e-02, 8.67791399e-02, 3.65195125e-01,
          3.65195125e-01, 3.65195125e-01, 5.87899983e-02, 4.34123911e-02,
          3.26590799e-02, 2.62362119e-02, 2.61971708e-02, 1.12178862e-01,
          3.18521976e-01, 3.49450052e-01, 2.66071349e-01, 5.57701252e-02,
          1.91008419e-01, 9.83703583e-02, 6.02922775e-02, 5.93523569e-02,
          8.50537270e-02, 5.83373420e-02, 1.46945953e-01, 1.90108255e-01,
          2.20546037e-01, 1.95015550e-01, 3.54718091e-03, 1.54387194e-03,
          8.51197343e-04, 4.10447232e-02, 4.54125414e-03, 1.24473311e-01,
          2.25911930e-01, 2.68638462e-01, 2.14979798e-01, 1.81448564e-01,
          1.52010083e-01, 1.57731354e-01, 3.59837234e-01, 3.07794511e-01,
          1.35373577e-01, 3.00739139e-01, 2.40211457e-01, 1.06963888e-01,
          4.35391115e-03, 8.15821346e-03, 4.76320693e-03, 9.89933461e-02,
          1.80552173e-02, 1.62016287e-01, 2.28501245e-01, 1.66762218e-01 ]
      - [ 4.52327222e-01, 5.17446771e-02, 3.16823609e-02, 0.,
          2.10003052e-02, 0., 2.97320471e-03, 9.94013920e-02,
          4.64385718e-01, 5.09166598e-01, 6.22208677e-02, 4.00874093e-02,
          0., 2.41838526e-02, 0., 1.33794267e-02, 9.23307687e-02,
          5.17733693e-01, 0., 0., 0., 0., 0., 0., 0., 0., 0., 0., 0., 0.,
          0., 0., 0., 0., 0., 0., 4.57248837e-01, 6.97882399e-02,
          1.98241305e-02, 0., 1.76493861e-02, 0., 4.46647778e-03,
          9.35107991e-02, 4.63389307e-01, 5.01940370e-01, 1.16674393e-01,
          7.93593004e-03, 9.00041591e-03, 7.21711889e-02, 1.53456526e-02,
          7.39393756e-03, 1.07780807e-01, 5.00621796e-01, 0., 0., 0., 0.,
          0., 0., 0., 0., 0., 0., 0., 0., 0., 6.84512034e-02, 0., 0., 0.,
          0., 2.07914896e-02, 1.03750890e-02, 5.20499330e-03,
          6.44583302e-03, 3.05349771e-02, 1.62880123e-02, 1.89943202e-02,
          1.36493407e-02, 2.59303041e-02, 1.28117368e-01, 7.33955875e-02,
          4.08782698e-02, 2.65624076e-01, 6.48330152e-01, 1.06414773e-01,
          4.33969423e-02, 7.47600496e-02, 1.12947479e-01, 5.32223471e-03,
          3.81008117e-03, 9.26615950e-03, 7.72127556e-03, 4.00991663e-02,
          7.15368800e-03, 5.97863551e-03, 1.08837057e-02, 9.77317616e-03,
          2.23977901e-02, 6.61499798e-03, 1.72394440e-02, 9.85574797e-02,
          6.48330152e-01, 8.09986666e-02, 1.54921142e-02, 4.17557657e-02,
          5.53001799e-02, 0., 0., 0., 0., 0., 0., 0., 0., 0., 0., 0., 0.,
          0., 0., 0., 0., 0., 0., 0., 0., 0., 0., 0., 0., 0., 0., 0., 0.,
          0., 0., 0., 0., 0., 0., 0., 0., 0., 0., 0., 0., 0., 0., 0., 0.,
          0., 0., 0., 0., 0., 5.51456034e-01, 0., 0., 0., 0., 0., 0., 0.,
          0., 0., 0., 0., 0., 0., 0., 0., 0., 0., 7.31447816e-01, 0., 0.,
          0., 0., 5.59444027e-03, 6.27296232e-03, 7.66718900e-03,
          8.10156763e-03, 3.10361013e-02, 9.83427931e-03, 5.47203934e-03,
          1.24941273e-02, 1.00120138e-02, 8.39073658e-02, 5.74363209e-02,
          2.04797648e-02, 1.76380485e-01, 5.72541654e-01, 1.47325888e-01,
          2.94192564e-02, 9.78643745e-02, 1.70991734e-01, 8.93126614e-03,
          1.16081769e-02, 1.29227769e-02, 1.26395440e-02, 3.19641866e-02,
          2.07230207e-02, 9.28586349e-03, 1.15245841e-02, 1.37913860e-02,
          1.29060343e-01, 1.14246272e-01, 4.71113212e-02, 2.42395714e-01,
          5.72541654e-01, 3.01334113e-01, 4.61147279e-02, 8.85240957e-02,
          2.00069591e-01, 0., 0., 0., 0., 0., 0., 0., 0., 0., 0., 0., 0.,
          0., 0., 0., 0., 0., 0., 4.60880429e-01, 1.18652508e-02,
          3.55053507e-02, 0., 0., 0., 4.17627171e-02, 1.39564034e-02,
          4.60880429e-01, 5.17572701e-01, 1.42382979e-02, 4.26064134e-02,
          0., 0., 0., 4.05684114e-02, 1.35572851e-02, 5.17572701e-01, 0.,
          0., 0., 0., 0., 0., 0., 0., 0., 0., 0., 0., 0., 9.33269411e-02,
          0., 0., 0., 0., 4.55951512e-01, 1.30414786e-02, 3.90250720e-02,
          0., 0., 0., 4.14769165e-02, 1.38608916e-02, 4.55951512e-01,
          5.15478313e-01, 1.41408574e-02, 4.23148349e-02, 7.20613543e-03,
          7.12207928e-02, 0., 3.45640928e-02, 1.15507422e-02,
          5.15478313e-01, 4.92933206e-03, 9.91510414e-03, 1.09305866e-02,
          1.35383531e-02, 2.70882715e-02, 1.95922274e-02, 6.96588540e-03,
          7.42422882e-03, 9.88082681e-03, 3.67818736e-02, 4.91967984e-02,
          4.39371392e-02, 1.47724569e-01, 6.06703281e-01, 2.19452724e-01,
          2.32743472e-02, 2.74635516e-02, 5.09402007e-02, 1.96660273e-02,
          8.79455265e-03, 6.78215828e-03, 8.71065911e-03, 2.58364677e-02,
          9.51635558e-03, 3.17851664e-03, 6.14622142e-03, 2.05264799e-02,
          9.63887796e-02, 3.81358676e-02, 2.96305679e-02, 1.88903883e-01,
          6.06703281e-01, 2.96369106e-01, 1.04943454e-01, 5.98243922e-02,
          1.57784119e-01 ]
      - [ 4.97917384e-01, 5.10797196e-04, 1.52849953e-03, 0.,
          6.45994209e-04, 0., 6.00830372e-03, 7.62893679e-03,
          4.97917384e-01, 4.97917384e-01, 2.13888692e-04, 6.40036422e-04,
          0., 1.47978906e-04, 0., 1.00135189e-02, 4.43930412e-03,
          4.97917384e-01, 2.05777269e-02, 2.99190462e-04, 8.95289995e-04,
          0., 2.32517323e-03, 0., 1.29202809e-02, 1.45515250e-02,
          2.54816115e-02, 2.20402125e-02, 9.51662441e-05, 2.84773269e-04,
          0., 6.93343463e-04, 0., 1.91376191e-02, 1.41358878e-02,
          2.47444827e-02, 4.98018563e-01, 0., 0., 0., 8.24723029e-05,
          2.20829301e-04, 7.79596390e-03, 4.50061401e-03, 4.98018563e-01,
          4.98018563e-01, 0., 0., 0., 3.32421012e-04, 1.33017229e-03,
          1.00562600e-02, 8.64343345e-03, 4.98018563e-01, 1.85479634e-02,
          0., 0., 0., 6.98124291e-04, 2.84727488e-04, 1.69854593e-02,
          9.40278824e-03, 2.16466561e-02, 1.98286939e-02, 0., 0., 0.,
          2.82290275e-03, 1.64488214e-03, 1.87378880e-02, 1.01433918e-02,
          2.50875950e-02, 4.10056651e-01, 0., 1.55358102e-05,
          3.15618781e-05, 5.80237829e-04, 1.36747910e-03, 5.78044215e-03,
          7.06716813e-03, 4.10056651e-01, 4.10056651e-01, 0.,
          4.14288370e-05, 3.37903164e-02, 3.77720088e-01, 6.45431057e-02,
          4.66564894e-02, 5.04662916e-02, 4.10056651e-01, 1.55658424e-02,
          2.25650710e-05, 1.90513558e-04, 2.52494850e-04, 4.63446369e-03,
          1.90111576e-03, 1.14831934e-02, 7.10366108e-03, 1.88252181e-02,
          1.17958803e-02, 5.69472977e-05, 5.00283088e-04, 7.46884383e-03,
          4.10056651e-01, 2.86941789e-02, 1.48531785e-02, 9.14165471e-03,
          1.59720331e-02, 1.40051827e-01, 1.37757743e-03, 4.12222138e-03,
          0., 3.41763757e-02, 7.19155045e-03, 2.29501963e-01,
          2.95502007e-01, 2.02996671e-01, 1.52122766e-01, 3.06128350e-04,
          9.16049292e-04, 0., 2.17185970e-02, 1.33621125e-02,
          3.51807922e-01, 3.01270545e-01, 1.95504323e-01, 1.32364079e-01,
          0., 0., 0., 3.93780507e-02, 3.13071050e-02, 3.04620922e-01,
          2.59530634e-01, 1.89300135e-01, 1.31314874e-01, 0., 0., 0.,
          3.73426452e-02, 5.22000082e-02, 4.25346017e-01, 2.62291044e-01,
          1.66557953e-01, 1.06633060e-01, 0., 0., 0., 2.81082802e-02,
          2.08961610e-02, 3.44678909e-01, 2.30870187e-01, 1.40725851e-01,
          1.00848056e-01, 0., 0., 0., 6.33643866e-02, 2.94046663e-02,
          3.40043783e-01, 2.29258776e-01, 1.34797871e-01, 9.71419141e-02,
          0., 0., 0., 3.69674638e-02, 5.14279380e-02, 3.76231819e-01,
          2.90101200e-01, 1.59189701e-01, 1.13268621e-01, 0., 0., 0.,
          5.72668724e-02, 2.42053065e-02, 3.47321987e-01, 3.83147866e-01,
          1.96969524e-01, 1.04606003e-02, 1.03530730e-03, 9.73263755e-04,
          4.68139973e-04, 1.30822910e-02, 6.24764850e-03, 3.45000550e-02,
          2.17562243e-02, 1.31257111e-02, 7.82637764e-03, 1.57739338e-03,
          2.50840862e-03, 1.24837342e-03, 6.98982894e-01, 5.56429662e-02,
          3.25875208e-02, 2.03662422e-02, 1.02111148e-02, 1.07829534e-02,
          1.76689564e-03, 5.94263664e-04, 0., 6.77148439e-03,
          8.13177135e-03, 3.90170701e-02, 4.04465757e-02, 1.82924531e-02,
          7.23141758e-03, 2.38829455e-03, 1.51513400e-03, 0.,
          6.98982894e-01, 4.58234698e-02, 4.01381664e-02, 3.58009152e-02,
          1.35857873e-02, 1.01340055e-01, 0., 0., 0., 2.95375437e-02,
          3.71367782e-02, 2.70390421e-01, 2.63606310e-01, 1.74862161e-01,
          1.00456573e-01, 0., 0., 0., 3.19526382e-02, 3.73309255e-02,
          3.55680287e-01, 2.76037335e-01, 1.59449160e-01, 1.20587386e-01,
          0., 0., 0., 4.72782440e-02, 1.17542833e-01, 2.90469259e-01,
          3.28564465e-01, 2.12551966e-01, 1.07694313e-01, 0., 0., 0.,
          6.35883734e-02, 5.48934415e-02, 3.44523370e-01, 3.47723335e-01,
          2.01876625e-01, 9.83193368e-02, 0., 0., 0., 3.40485387e-02,
          3.27871069e-02, 3.36883366e-01, 2.29120702e-01, 1.46166965e-01,
          9.80700254e-02, 0., 0., 0., 7.70630464e-02, 2.24599596e-02,
          3.29053193e-01, 2.84083217e-01, 1.50210172e-01, 1.10486425e-01,
          0., 0., 0., 7.85819143e-02, 1.21784173e-02, 3.60468656e-01,
          2.74767548e-01, 1.62254587e-01, 8.96714330e-02, 0., 0., 0.,
          1.26133040e-01, 4.30691317e-02, 3.99434507e-01, 3.32516253e-01,
          1.42900527e-01, 1.02612535e-02, 8.85884219e-04, 3.74295487e-04,
          1.46062041e-04, 8.02377332e-03, 5.89633966e-03, 4.11224775e-02,
          3.57690305e-02, 1.46218156e-02, 1.04006613e-02, 1.84397167e-03,
          1.48412120e-03, 6.32987451e-03, 6.61644638e-01, 5.62324636e-02,
          4.43839803e-02, 3.76069620e-02, 1.42263798e-02, 1.38941891e-02,
          3.19927442e-03, 2.93892925e-03, 2.95481971e-03, 1.64401997e-02,
          1.00565925e-02, 4.75688390e-02, 3.76972221e-02, 1.31421760e-02,
          7.47116581e-02, 1.47061758e-02, 1.14383018e-02, 6.48400337e-02,
          6.61644638e-01, 2.35584781e-01, 1.27176449e-01, 1.00256220e-01,
          1.06056392e-01 ]
      - [ 2.12815357e-04, 1.86618546e-03, 5.24984393e-03, 5.35358395e-03,
          4.87339884e-01, 1.29651115e-03, 8.73136814e-05, 8.02240975e-05,
